{"learning_rate":0.001,"layers":[{"function":"SELU","size":100,"inputSize":100,"neurons":[{"bias_weight":2.396124928056724,"weights":[0.2749000035144221,0.4440351917828389,-0.13534075723505778,-0.3246267988211595,0.003886436002107605,0.21556637550186644,0.30905409374876486,0.22211536583222657,0.5709964189984832,0.5097581037708656,0.0972981418897324,0.46774126846084446,0.5029795699571179,0.7375776551523988,0.3679512365839449,0.510607234954683,0.6545328700154576,0.5323949917015213,0.5327680501342866,0.6099254146149049,0.6234933398372967,0.4313264006273371,-0.0967537468327048,-0.3472573556020436,-0.36613817008194666,-0.2490359053976605,-0.16794268608297522,0.04845090255751845,0.09142416532907062,0.4075649984650059,0.06902221341371821,-0.8059806197260629,-1.3035505493693202,-1.8225876315029628,-1.9756993930573996,-1.8278919296152643,-1.5997069579858523,-1.45311746656169,-1.2908634359446982,-0.4645760426888981,-0.35904976961072826,-0.3725783478709541,0.021857343191754804,-0.06770168722416735,0.3941434022678568,-0.5536690394941722,-0.0024862146263203433,0.05879499430983856,0.08417495823043236,0.06150620508728022,0.04115485033374397,-0.0994363134876032,0.04214077501814337,0.028792191304388093,-0.008793435100512698,0.05478342578273099,0.014750933319318288,0.0753514830181555,0.06163509802824202,-0.09644522088468951,0.06424919831339582,0.06416815683502217,0.08801480575958068,-0.01746669701770523,-0.01536697671325396,0.016191335532781265,-0.06838848308905887,0.05234624273789232,-0.05396878709321404,0.06194690974697045,0.09770432016070549,-0.03351034353234422,-0.04003365883537174,-0.09729217466695585,-0.056552432108239105,0.08147294355323462,0.06969355839288771,0.09100351469829138,0.05577954201102464,0.09749192537149828,-0.0864809237722466,0.05871951630482583,0.01890071223421322,0.04655974505235086,0.03904657675499068,0.035963958142597174,-0.021535906160380675,0.012311488471633242,-0.058386388589607284,0.005474291721723118,-0.019158296376659806,-0.029447518379709214,0.583167250843457,-1.5979510018452772,4.804188246903876,5.932179220710161,-0.021018357874414723,-0.022540818971144475,0.045390944323125376,-0.022286038504116118]},{"bias_weight":-2.6237625997574714,"weights":[-1.483959317035119,-1.2841034518679122,-0.5718448367641783,-0.4235119929547034,-0.7815327108752387,-0.7777381857031928,-0.9917770057133471,-0.5338102029569733,-0.7055242248298121,-0.6163113186794964,-0.58274802207065,-0.7273013173360042,-0.7226005345197954,-0.801598605542671,-0.6428146588695076,-0.895253853510032,-0.9758275484903361,-0.6898525122540196,-1.0557085676082911,-1.2740526625877941,-1.223621472392769,-0.8498693469268414,-0.45170715141284357,-0.4145124232601279,-0.3418322019449718,0.1995003971580646,0.38300255817533907,-0.04279771583234045,-0.2878083232577792,-0.5783806765021156,-0.1902836145889939,0.3124574443996446,0.8936804734636001,0.7506685288835635,1.2805169059705281,1.602922618431411,1.0616692276064643,1.2147762233046642,0.9579673466145732,0.3400615219190619,0.16040610516253567,-0.152400402822136,-0.5249026334801496,-0.48317748714393016,-0.21609315318940422,0.7079965697224667,-0.0024862146263203433,0.05879499430983856,0.08417495823043236,0.06150620508728022,0.04115485033374397,-0.0994363134876032,0.04214077501814337,0.028792191304388093,-0.008793435100512698,0.05478342578273099,0.014750933319318288,0.0753514830181555,0.06163509802824202,-0.09644522088468951,0.06424919831339582,0.06416815683502217,0.08801480575958068,-0.01746669701770523,-0.01536697671325396,0.016191335532781265,-0.06838848308905887,0.05234624273789232,-0.05396878709321404,0.06194690974697045,0.09770432016070549,-0.03351034353234422,-0.04003365883537174,-0.09729217466695585,-0.056552432108239105,0.08147294355323462,0.06969355839288771,0.09100351469829138,0.05577954201102464,0.09749192537149828,-0.0864809237722466,0.05871951630482583,0.01890071223421322,0.04655974505235086,0.03904657675499068,0.035963958142597174,-0.021535906160380675,0.012311488471633242,-0.058386388589607284,0.005474291721723118,-0.019158296376659806,-0.029447518379709214,0.26679751208017355,-0.4163078901014897,-4.544678592867233,-6.703473386380805,-0.021018357874414723,-0.022540818971144475,0.045390944323125376,-0.022286038504116118]},{"bias_weight":-2.3447186647458533,"weights":[-1.4029193910030544,-1.274394248891055,-0.5522588511015412,-0.24644571955562827,-0.5685361916295193,-0.6060217557991203,-0.7806677326980114,-0.2347838639772142,-0.6226224491067635,-0.5513973008583437,-0.38451659099603475,-0.5365170933374125,-0.5875877222440753,-0.5384754949895452,-0.2782123023090259,-0.6011960232404505,-0.6753588039292785,-0.3286428063540201,-0.6111506585718854,-0.8634584946172819,-0.7031881354325934,-0.429057527733058,0.0342142603050961,-0.444391757987296,-0.47865753338184597,0.058191261440837645,0.4504821165676638,0.07615859454673386,-0.20487231429345204,-0.46187887853728865,0.019401671667413002,0.3459750906746335,0.8478323561235185,0.8500803141100554,1.430819971920516,1.6169220563765283,1.2381062771182296,1.4084713189100913,1.1508920786553667,0.5994530239596328,0.5336331244022187,0.42911093784057036,0.04156099218387748,0.09901332000183527,0.1761706675416984,1.109782894001546,-0.0024862146263203433,0.05879499430983856,0.08417495823043236,0.06150620508728022,0.04115485033374397,-0.0994363134876032,0.04214077501814337,0.028792191304388093,-0.008793435100512698,0.05478342578273099,0.014750933319318288,0.0753514830181555,0.06163509802824202,-0.09644522088468951,0.06424919831339582,0.06416815683502217,0.08801480575958068,-0.01746669701770523,-0.01536697671325396,0.016191335532781265,-0.06838848308905887,0.05234624273789232,-0.05396878709321404,0.06194690974697045,0.09770432016070549,-0.03351034353234422,-0.04003365883537174,-0.09729217466695585,-0.056552432108239105,0.08147294355323462,0.06969355839288771,0.09100351469829138,0.05577954201102464,0.09749192537149828,-0.0864809237722466,0.05871951630482583,0.01890071223421322,0.04655974505235086,0.03904657675499068,0.035963958142597174,-0.021535906160380675,0.012311488471633242,-0.058386388589607284,0.005474291721723118,-0.019158296376659806,-0.029447518379709214,0.3428231440439037,0.18599703517926425,-4.475672175410178,-6.163852221378017,-0.021018357874414723,-0.022540818971144475,0.045390944323125376,-0.022286038504116118]},{"bias_weight":2.3211351658974793,"weights":[0.19612382803202869,0.3833741208592004,-0.20465653346916884,-0.39690406260143773,-0.04647820440516103,0.17927376364412176,0.27223659106148007,0.163665240566825,0.5193152823740417,0.4138546518348266,-0.0032958973110285045,0.3625720948934561,0.3949241442938219,0.6152023842339719,0.2452579136563214,0.3971984442729002,0.5468254907938587,0.42180402589143395,0.4275985577597885,0.5068334313290045,0.5344511506091164,0.3482340830271266,-0.18835418908983445,-0.4486705175952355,-0.4401768772034496,-0.32004046927973223,-0.24261857561239708,-0.0037351464149462063,0.0556700864205765,0.36873528237545533,0.004168995307674861,-0.8709188842579013,-1.4216006352881503,-1.9439045087772355,-2.1100104239800253,-1.971011809069411,-1.765120978304844,-1.6068873001258928,-1.432746084956706,-0.5895680603890884,-0.483958478075576,-0.5031988869905965,-0.10492764534962296,-0.18053569929551866,0.2973442427876481,-0.6620206615934294,-0.0024862146263203433,0.05879499430983856,0.08417495823043236,0.06150620508728022,0.04115485033374397,-0.0994363134876032,0.04214077501814337,0.028792191304388093,-0.008793435100512698,0.05478342578273099,0.014750933319318288,0.0753514830181555,0.06163509802824202,-0.09644522088468951,0.06424919831339582,0.06416815683502217,0.08801480575958068,-0.01746669701770523,-0.01536697671325396,0.016191335532781265,-0.06838848308905887,0.05234624273789232,-0.05396878709321404,0.06194690974697045,0.09770432016070549,-0.03351034353234422,-0.04003365883537174,-0.09729217466695585,-0.056552432108239105,0.08147294355323462,0.06969355839288771,0.09100351469829138,0.05577954201102464,0.09749192537149828,-0.0864809237722466,0.05871951630482583,0.01890071223421322,0.04655974505235086,0.03904657675499068,0.035963958142597174,-0.021535906160380675,0.012311488471633242,-0.058386388589607284,0.005474291721723118,-0.019158296376659806,-0.029447518379709214,0.5782233248469488,-1.6388795531936384,4.776628204015335,5.9140811644448785,-0.021018357874414723,-0.022540818971144475,0.045390944323125376,-0.022286038504116118]},{"bias_weight":2.2278905987002644,"weights":[0.1704155785495276,0.3106165989867106,-0.277185127511375,-0.4422949094837528,-0.09903030290850089,0.1170830102840812,0.22770229499697858,0.04804323041180042,0.4832820884519567,0.3640465076233535,-0.08040276269031996,0.30073009431585856,0.35575528046834787,0.5530108426254737,0.06667223120557993,0.240646848643413,0.39765867016607365,0.25274663028286726,0.2726883114473198,0.43374217524141484,0.4661045540911795,0.2531287871022617,-0.3096022887636119,-0.3980232830608119,-0.4456598857112908,-0.3336965894391413,-0.25837284520282594,-0.03178112890664918,0.00470034914890847,0.34284410538083226,-0.11417262567184806,-0.9544624990150821,-1.5614361906838754,-2.153784737158039,-2.2712451953768653,-2.0689098445148044,-1.874300178161972,-1.8692526941845038,-1.5770766242427368,-0.6993667994863919,-0.6232652020555545,-0.6682122743668174,-0.20073401101277244,-0.26898614069676935,0.19291245057655498,-0.7983448809681198,-0.0024862146263203433,0.05879499430983856,0.08417495823043236,0.06150620508728022,0.04115485033374397,-0.0994363134876032,0.04214077501814337,0.028792191304388093,-0.008793435100512698,0.05478342578273099,0.014750933319318288,0.0753514830181555,0.06163509802824202,-0.09644522088468951,0.06424919831339582,0.06416815683502217,0.08801480575958068,-0.01746669701770523,-0.01536697671325396,0.016191335532781265,-0.06838848308905887,0.05234624273789232,-0.05396878709321404,0.06194690974697045,0.09770432016070549,-0.03351034353234422,-0.04003365883537174,-0.09729217466695585,-0.056552432108239105,0.08147294355323462,0.06969355839288771,0.09100351469829138,0.05577954201102464,0.09749192537149828,-0.0864809237722466,0.05871951630482583,0.01890071223421322,0.04655974505235086,0.03904657675499068,0.035963958142597174,-0.021535906160380675,0.012311488471633242,-0.058386388589607284,0.005474291721723118,-0.019158296376659806,-0.029447518379709214,0.6057870239112455,-1.6801433642700772,4.7311764263628175,5.837619533115215,-0.021018357874414723,-0.022540818971144475,0.045390944323125376,-0.022286038504116118]},{"bias_weight":2.8363310030843705,"weights":[1.854889331333237,1.610782586702385,1.4187981920902448,0.6713473770749804,0.3948933197503736,0.4150312789059956,0.41487978809858955,0.7415313177154346,0.3038317985772598,-0.2246025651068474,-0.5058544684894609,-0.1610889397591899,-0.8463129649893949,-0.3121815504982765,-0.37526414885714604,0.6719731933987941,0.7582088937093512,0.9812280178716031,1.7687853162506162,1.7303941606906332,1.7901631608851185,0.8369981131999639,0.4315830864895501,1.069582605518135,0.5101549538287723,0.28994432751017124,-0.5641492322484566,-0.8401407767232898,-0.752000347332034,-0.3983142117680374,0.11663357950510105,-0.7572266623200876,-1.2021216853342838,-1.5384405325497836,-1.5257194813270463,-2.3351089106961234,-2.0236542626104623,-1.7520483261899265,-1.1776001164128767,-0.8846662062143896,-0.7224550732641452,0.12448594028275489,0.17528121178970488,0.04774102072274811,-0.4543614010761963,-1.2384599672200483,-0.0024862146263203433,0.05879499430983856,0.08417495823043236,0.06150620508728022,0.04115485033374397,-0.0994363134876032,0.04214077501814337,0.028792191304388093,-0.008793435100512698,0.05478342578273099,0.014750933319318288,0.0753514830181555,0.06163509802824202,-0.09644522088468951,0.06424919831339582,0.06416815683502217,0.08801480575958068,-0.01746669701770523,-0.01536697671325396,0.016191335532781265,-0.06838848308905887,0.05234624273789232,-0.05396878709321404,0.06194690974697045,0.09770432016070549,-0.03351034353234422,-0.04003365883537174,-0.09729217466695585,-0.056552432108239105,0.08147294355323462,0.06969355839288771,0.09100351469829138,0.05577954201102464,0.09749192537149828,-0.0864809237722466,0.05871951630482583,0.01890071223421322,0.04655974505235086,0.03904657675499068,0.035963958142597174,-0.021535906160380675,0.012311488471633242,-0.058386388589607284,0.005474291721723118,-0.019158296376659806,-0.029447518379709214,-1.7096898910007834,3.1903179979504013,4.365724271187482,6.86238441485709,-0.021018357874414723,-0.022540818971144475,0.045390944323125376,-0.022286038504116118]},{"bias_weight":2.3446577225858456,"weights":[0.22369631898607242,0.4060737315034704,-0.17763149540359904,-0.36996780618821273,-0.023695181624503396,0.1914659058009722,0.2795583738029135,0.18593906304122754,0.54828532249572,0.4435739227928724,0.028958437138026503,0.39650073255904383,0.43106950724421994,0.6517080294695802,0.28597855220922247,0.4338488974924993,0.5811466512902526,0.4582865705316176,0.4641921218701377,0.542148875701958,0.5679967198947834,0.3798118171490338,-0.15391055314992938,-0.41182247430747393,-0.41139671603127304,-0.29168229152412944,-0.2146163640036964,0.020301283761220854,0.06780387749779282,0.376273023362102,0.02881905619031055,-0.835815389831073,-1.3853435515743189,-1.9054156034701457,-2.0665286341496656,-1.922262831759482,-1.7152271395614445,-1.552730944757302,-1.3841757770402896,-0.5480529420934365,-0.44207072500848027,-0.45952187898335506,-0.0627552542045595,-0.13918245529596587,0.3324357078718631,-0.6226019239872477,-0.0024862146263203433,0.05879499430983856,0.08417495823043236,0.06150620508728022,0.04115485033374397,-0.0994363134876032,0.04214077501814337,0.028792191304388093,-0.008793435100512698,0.05478342578273099,0.014750933319318288,0.0753514830181555,0.06163509802824202,-0.09644522088468951,0.06424919831339582,0.06416815683502217,0.08801480575958068,-0.01746669701770523,-0.01536697671325396,0.016191335532781265,-0.06838848308905887,0.05234624273789232,-0.05396878709321404,0.06194690974697045,0.09770432016070549,-0.03351034353234422,-0.04003365883537174,-0.09729217466695585,-0.056552432108239105,0.08147294355323462,0.06969355839288771,0.09100351469829138,0.05577954201102464,0.09749192537149828,-0.0864809237722466,0.05871951630482583,0.01890071223421322,0.04655974505235086,0.03904657675499068,0.035963958142597174,-0.021535906160380675,0.012311488471633242,-0.058386388589607284,0.005474291721723118,-0.019158296376659806,-0.029447518379709214,0.5807909393078541,-1.6368608225423869,4.783231641806838,5.925449196839504,-0.021018357874414723,-0.022540818971144475,0.045390944323125376,-0.022286038504116118]},{"bias_weight":-2.4160286707681626,"weights":[-1.4429581139126,-1.2963376315577535,-0.5841362203466386,-0.27579096488466875,-0.5906811373285512,-0.6303365361597875,-0.8276499004602937,-0.31932533465511537,-0.678003695935716,-0.611155820001,-0.4312828791228128,-0.5467547343869559,-0.5785995614961371,-0.5196817843865014,-0.29219319023183626,-0.6538275590684202,-0.7163076011095645,-0.3775560557702415,-0.6493861311344504,-0.902233841317994,-0.7393924206970017,-0.4932604800153753,0.005656669528757218,-0.4794109280840751,-0.4914368239379322,0.03911808241486471,0.433230290238302,0.06592969886754982,-0.21430539215285932,-0.4980941240172814,-0.04456328987985864,0.2966384932980211,0.7966018881429092,0.8110659845493867,1.416198844329463,1.61078759850088,1.2404221734485048,1.4058894918079132,1.116236796510788,0.5778846935751015,0.5013730380046233,0.4016353375703998,0.017926555159866447,0.09734761928020154,0.17361852086118099,1.1137812039786994,-0.0024862146263203433,0.05879499430983856,0.08417495823043236,0.06150620508728022,0.04115485033374397,-0.0994363134876032,0.04214077501814337,0.028792191304388093,-0.008793435100512698,0.05478342578273099,0.014750933319318288,0.0753514830181555,0.06163509802824202,-0.09644522088468951,0.06424919831339582,0.06416815683502217,0.08801480575958068,-0.01746669701770523,-0.01536697671325396,0.016191335532781265,-0.06838848308905887,0.05234624273789232,-0.05396878709321404,0.06194690974697045,0.09770432016070549,-0.03351034353234422,-0.04003365883537174,-0.09729217466695585,-0.056552432108239105,0.08147294355323462,0.06969355839288771,0.09100351469829138,0.05577954201102464,0.09749192537149828,-0.0864809237722466,0.05871951630482583,0.01890071223421322,0.04655974505235086,0.03904657675499068,0.035963958142597174,-0.021535906160380675,0.012311488471633242,-0.058386388589607284,0.005474291721723118,-0.019158296376659806,-0.029447518379709214,0.3580109854343787,0.06887583006652373,-4.604629262200412,-6.3633319006027484,-0.021018357874414723,-0.022540818971144475,0.045390944323125376,-0.022286038504116118]},{"bias_weight":-2.4187016497231677,"weights":[-1.4433004167128172,-1.2947024949768913,-0.5845059931488297,-0.27850293942580684,-0.592022067678977,-0.6307356882927344,-0.8306743345850971,-0.32255602496594166,-0.6812371497910291,-0.6140680783657383,-0.43184232659647165,-0.5464343507715909,-0.5798016279174735,-0.5211641950363683,-0.29183632716230806,-0.6565487993463953,-0.7187021431477523,-0.38097620831423445,-0.6523605595712165,-0.9059571320583598,-0.7439410894302818,-0.4969209365886402,0.004316301657899958,-0.4814573782859362,-0.48907992384560445,0.04050602897793142,0.4314795737975566,0.06529584928587676,-0.2132239501632326,-0.5001585152669733,-0.04710989936135895,0.29488390757890737,0.7949038805712032,0.8118475727505627,1.418221829249247,1.610941883111954,1.2401107757683598,1.4068918223562599,1.1149539274762321,0.5773719703259299,0.5001076977377859,0.3997138363971559,0.014745897212662404,0.09433192518681979,0.17122050693697988,1.112910529147326,-0.0024862146263203433,0.05879499430983856,0.08417495823043236,0.06150620508728022,0.04115485033374397,-0.0994363134876032,0.04214077501814337,0.028792191304388093,-0.008793435100512698,0.05478342578273099,0.014750933319318288,0.0753514830181555,0.06163509802824202,-0.09644522088468951,0.06424919831339582,0.06416815683502217,0.08801480575958068,-0.01746669701770523,-0.01536697671325396,0.016191335532781265,-0.06838848308905887,0.05234624273789232,-0.05396878709321404,0.06194690974697045,0.09770432016070549,-0.03351034353234422,-0.04003365883537174,-0.09729217466695585,-0.056552432108239105,0.08147294355323462,0.06969355839288771,0.09100351469829138,0.05577954201102464,0.09749192537149828,-0.0864809237722466,0.05871951630482583,0.01890071223421322,0.04655974505235086,0.03904657675499068,0.035963958142597174,-0.021535906160380675,0.012311488471633242,-0.058386388589607284,0.005474291721723118,-0.019158296376659806,-0.029447518379709214,0.35880196762155386,0.058219297111983474,-4.608000822865663,-6.369085114008315,-0.021018357874414723,-0.022540818971144475,0.045390944323125376,-0.022286038504116118]},{"bias_weight":-2.341861631379846,"weights":[-1.3959347932224724,-1.2770069720999488,-0.555178368270462,-0.2485752669936447,-0.5681120786227031,-0.6059803629638258,-0.7794051920486422,-0.22423395023369805,-0.6171859024446331,-0.5490842751369339,-0.38690058221774287,-0.5465729624358611,-0.6063861614193327,-0.5557151414815401,-0.2948488402486761,-0.6126081685125897,-0.6846399525693112,-0.33548479020948674,-0.612161792735641,-0.8677738478979317,-0.710623865886406,-0.43215268689476977,0.030409919642091183,-0.4412900655822469,-0.48362705093843145,0.053141194147013474,0.4467546514995151,0.07498973452645143,-0.2064859954825291,-0.46173308288150466,0.028324717269983667,0.35225902258953296,0.850093404917104,0.8486151626558959,1.4235285581207058,1.604342441559134,1.2278442972351078,1.3959141791457348,1.1421774622916787,0.5868889932500919,0.5272323589142008,0.4249653227047942,0.035674423271671564,0.08998780164339863,0.15966083425374775,1.1027856822764883,-0.0024862146263203433,0.05879499430983856,0.08417495823043236,0.06150620508728022,0.04115485033374397,-0.0994363134876032,0.04214077501814337,0.028792191304388093,-0.008793435100512698,0.05478342578273099,0.014750933319318288,0.0753514830181555,0.06163509802824202,-0.09644522088468951,0.06424919831339582,0.06416815683502217,0.08801480575958068,-0.01746669701770523,-0.01536697671325396,0.016191335532781265,-0.06838848308905887,0.05234624273789232,-0.05396878709321404,0.06194690974697045,0.09770432016070549,-0.03351034353234422,-0.04003365883537174,-0.09729217466695585,-0.056552432108239105,0.08147294355323462,0.06969355839288771,0.09100351469829138,0.05577954201102464,0.09749192537149828,-0.0864809237722466,0.05871951630482583,0.01890071223421322,0.04655974505235086,0.03904657675499068,0.035963958142597174,-0.021535906160380675,0.012311488471633242,-0.058386388589607284,0.005474291721723118,-0.019158296376659806,-0.029447518379709214,0.34190557694810525,0.1939006012413104,-4.461429978578511,-6.1254302296296546,-0.021018357874414723,-0.022540818971144475,0.045390944323125376,-0.022286038504116118]},{"bias_weight":2.379309646446808,"weights":[1.240136668500243,0.9214962013210007,0.6051855903736741,-0.24862177041269126,-0.686648079327136,-0.7415586089141212,-0.843978547609647,-0.8282969834034988,-1.1415417656272404,-1.3329529325782365,-1.2420552262975877,-0.7672150943220448,-1.0679827980017207,-0.5081564194183565,-0.5617285587318586,0.6025485890382076,0.7211618352333714,0.9393689873622564,1.6707347374270067,1.6121106131898206,1.5537030583174416,0.3643010922750352,-0.185411623693779,0.3225096551201887,-0.304207666954754,-0.7162934906756128,-1.6395551208429382,-2.076847613309071,-2.0856099476235577,-1.8140285954823347,-1.6705267010413685,-2.5341419225803845,-2.6405948993451096,-2.512588035328557,-2.4179853159717286,-2.7556237876837146,-2.3973833719683237,-2.0866086477083603,-1.3717233555724335,-0.9593014342979967,-0.8003088771466695,-0.003497712053305537,0.025161985084364805,-0.20532869087836403,-1.0436301755864583,-1.9296989694811755,-0.0024862146263203433,0.05879499430983856,0.08417495823043236,0.06150620508728022,0.04115485033374397,-0.0994363134876032,0.04214077501814337,0.028792191304388093,-0.008793435100512698,0.05478342578273099,0.014750933319318288,0.0753514830181555,0.06163509802824202,-0.09644522088468951,0.06424919831339582,0.06416815683502217,0.08801480575958068,-0.01746669701770523,-0.01536697671325396,0.016191335532781265,-0.06838848308905887,0.05234624273789232,-0.05396878709321404,0.06194690974697045,0.09770432016070549,-0.03351034353234422,-0.04003365883537174,-0.09729217466695585,-0.056552432108239105,0.08147294355323462,0.06969355839288771,0.09100351469829138,0.05577954201102464,0.09749192537149828,-0.0864809237722466,0.05871951630482583,0.01890071223421322,0.04655974505235086,0.03904657675499068,0.035963958142597174,-0.021535906160380675,0.012311488471633242,-0.058386388589607284,0.005474291721723118,-0.019158296376659806,-0.029447518379709214,-1.3782501134794185,3.692667387536276,3.6502760603942304,7.301263738608635,-0.021018357874414723,-0.022540818971144475,0.045390944323125376,-0.022286038504116118]},{"bias_weight":-2.5579008771385845,"weights":[-1.5300656807659763,-1.3376965268964958,-0.6407818693157081,-0.3857308818258153,-0.6941009127820873,-0.7078578227564757,-0.9694895075419764,-0.48515866866154905,-0.8064539291258663,-0.7683528485365579,-0.6158925580523208,-0.7245666912461429,-0.6715861867234482,-0.6023966376153365,-0.3756585928367474,-0.8169634884629811,-0.9094460738259086,-0.5838517136161808,-0.9059680540021494,-1.132031316985641,-0.9956351411898179,-0.6770826606336378,-0.24124074173952176,-0.5617308386205858,-0.5049281008431747,0.029313248854700283,0.36137442345125825,-0.0017285773264512298,-0.24582011007988372,-0.6096598653820414,-0.21579071066348576,0.2227002755869778,0.7428006862453336,0.7302691993857366,1.3263604697390508,1.6499155357412443,1.2552206252416998,1.4429303798761948,1.0064564332819943,0.432250319172916,0.32424808312929104,0.08582668668215811,-0.28122326100229605,-0.18928854211338822,-0.018195953982688116,0.910055287229673,-0.0024862146263203433,0.05879499430983856,0.08417495823043236,0.06150620508728022,0.04115485033374397,-0.0994363134876032,0.04214077501814337,0.028792191304388093,-0.008793435100512698,0.05478342578273099,0.014750933319318288,0.0753514830181555,0.06163509802824202,-0.09644522088468951,0.06424919831339582,0.06416815683502217,0.08801480575958068,-0.01746669701770523,-0.01536697671325396,0.016191335532781265,-0.06838848308905887,0.05234624273789232,-0.05396878709321404,0.06194690974697045,0.09770432016070549,-0.03351034353234422,-0.04003365883537174,-0.09729217466695585,-0.056552432108239105,0.08147294355323462,0.06969355839288771,0.09100351469829138,0.05577954201102464,0.09749192537149828,-0.0864809237722466,0.05871951630482583,0.01890071223421322,0.04655974505235086,0.03904657675499068,0.035963958142597174,-0.021535906160380675,0.012311488471633242,-0.058386388589607284,0.005474291721723118,-0.019158296376659806,-0.029447518379709214,0.40737584121090076,-0.1920561391391428,-4.635420252584911,-6.565608078614023,-0.021018357874414723,-0.022540818971144475,0.045390944323125376,-0.022286038504116118]},{"bias_weight":2.4129219787754868,"weights":[0.30711141529573793,0.4740926635987778,-0.09951624425077897,-0.2901201167591407,0.009707617713983253,0.22094749200815034,0.3136094818849512,0.2330119512176968,0.5760302248931713,0.5361235922458086,0.13117524493026847,0.49970604964378007,0.5256377506877363,0.7740209473510097,0.40072605296498154,0.5385444760363556,0.6787829466373962,0.5587361528843845,0.5552142471662819,0.6303139358842678,0.6354690253652475,0.4447718582960125,-0.08025109790910605,-0.306761118941688,-0.3285089658375192,-0.21030031051404624,-0.13205681926208387,0.0545511609639283,0.0966137309674623,0.41289792579639706,0.08162871694878991,-0.7945108819829271,-1.2675698439143297,-1.7791821160223362,-1.9324359100811457,-1.7934276144094543,-1.545109173916211,-1.404658584833424,-1.2482664619808337,-0.42858434958017705,-0.32431582833681016,-0.3392895519992067,0.05058714076191579,-0.049513511471313415,0.41269646466341847,-0.5315127985044255,-0.0024862146263203433,0.05879499430983856,0.08417495823043236,0.06150620508728022,0.04115485033374397,-0.0994363134876032,0.04214077501814337,0.028792191304388093,-0.008793435100512698,0.05478342578273099,0.014750933319318288,0.0753514830181555,0.06163509802824202,-0.09644522088468951,0.06424919831339582,0.06416815683502217,0.08801480575958068,-0.01746669701770523,-0.01536697671325396,0.016191335532781265,-0.06838848308905887,0.05234624273789232,-0.05396878709321404,0.06194690974697045,0.09770432016070549,-0.03351034353234422,-0.04003365883537174,-0.09729217466695585,-0.056552432108239105,0.08147294355323462,0.06969355839288771,0.09100351469829138,0.05577954201102464,0.09749192537149828,-0.0864809237722466,0.05871951630482583,0.01890071223421322,0.04655974505235086,0.03904657675499068,0.035963958142597174,-0.021535906160380675,0.012311488471633242,-0.058386388589607284,0.005474291721723118,-0.019158296376659806,-0.029447518379709214,0.5916602301233315,-1.5699760273243661,4.804025639388075,5.920647726472672,-0.021018357874414723,-0.022540818971144475,0.045390944323125376,-0.022286038504116118]},{"bias_weight":-2.5892382307799213,"weights":[-1.463508040916831,-1.2723380725170994,-0.561039813354881,-0.4167379768837126,-0.7967166412400835,-0.7803142994435801,-0.9713440158873856,-0.5085147010612352,-0.6888986652345601,-0.6208197313411062,-0.6043784723839166,-0.7377536879492265,-0.7284838481280325,-0.8127853644931707,-0.6572803546415861,-0.8666726925036613,-0.948211374407414,-0.65464562101208,-1.0414429308137807,-1.239812020369396,-1.1946140336874387,-0.8463812011000438,-0.459836317271803,-0.39438041365294507,-0.33072628079437716,0.21040015906411613,0.3851083779313432,-0.06125484337147821,-0.29362102618211056,-0.557271969990327,-0.16379081710204557,0.32188035041705265,0.8823895653702234,0.7166287946422142,1.2468913780062603,1.5666336732823654,1.024643102388091,1.1845469758091671,0.9698018179840258,0.3523496482712228,0.18124471249129923,-0.14577960981484192,-0.49837626190564754,-0.46351304339904814,-0.2166440155554916,0.7027837383954032,-0.0024862146263203433,0.05879499430983856,0.08417495823043236,0.06150620508728022,0.04115485033374397,-0.0994363134876032,0.04214077501814337,0.028792191304388093,-0.008793435100512698,0.05478342578273099,0.014750933319318288,0.0753514830181555,0.06163509802824202,-0.09644522088468951,0.06424919831339582,0.06416815683502217,0.08801480575958068,-0.01746669701770523,-0.01536697671325396,0.016191335532781265,-0.06838848308905887,0.05234624273789232,-0.05396878709321404,0.06194690974697045,0.09770432016070549,-0.03351034353234422,-0.04003365883537174,-0.09729217466695585,-0.056552432108239105,0.08147294355323462,0.06969355839288771,0.09100351469829138,0.05577954201102464,0.09749192537149828,-0.0864809237722466,0.05871951630482583,0.01890071223421322,0.04655974505235086,0.03904657675499068,0.035963958142597174,-0.021535906160380675,0.012311488471633242,-0.058386388589607284,0.005474291721723118,-0.019158296376659806,-0.029447518379709214,0.2602411676499604,-0.3968692622457023,-4.489020049117199,-6.645494798483496,-0.021018357874414723,-0.022540818971144475,0.045390944323125376,-0.022286038504116118]},{"bias_weight":2.2257283430740142,"weights":[0.17192536075335269,0.31657342998924903,-0.27422528323369266,-0.43791029245023166,-0.09339116490697386,0.12623006420395216,0.22896266513308278,0.05225544819292371,0.48252413196078997,0.3591755371196198,-0.08223897320662388,0.29731341931294986,0.35490404645387374,0.5542639320392627,0.06892927072520845,0.24153522089868776,0.3957015072366783,0.2510459754463201,0.26761604134737155,0.427199610719162,0.46103599586494076,0.2515167882921954,-0.31170223960970894,-0.4166041457605253,-0.46038777961852784,-0.34406024178996747,-0.25928986433533635,-0.02924698714035531,0.01413047625391557,0.3416756949805895,-0.110569864188897,-0.953360526278913,-1.5630830337621282,-2.1526387353480168,-2.272734355845596,-2.066706465801859,-1.8709277992555238,-1.8647191735699509,-1.5756885013364819,-0.7017949498598478,-0.6255403766433004,-0.672067501583928,-0.2065579027826996,-0.27355067059879423,0.19154707276087124,-0.799809428544108,-0.0024862146263203433,0.05879499430983856,0.08417495823043236,0.06150620508728022,0.04115485033374397,-0.0994363134876032,0.04214077501814337,0.028792191304388093,-0.008793435100512698,0.05478342578273099,0.014750933319318288,0.0753514830181555,0.06163509802824202,-0.09644522088468951,0.06424919831339582,0.06416815683502217,0.08801480575958068,-0.01746669701770523,-0.01536697671325396,0.016191335532781265,-0.06838848308905887,0.05234624273789232,-0.05396878709321404,0.06194690974697045,0.09770432016070549,-0.03351034353234422,-0.04003365883537174,-0.09729217466695585,-0.056552432108239105,0.08147294355323462,0.06969355839288771,0.09100351469829138,0.05577954201102464,0.09749192537149828,-0.0864809237722466,0.05871951630482583,0.01890071223421322,0.04655974505235086,0.03904657675499068,0.035963958142597174,-0.021535906160380675,0.012311488471633242,-0.058386388589607284,0.005474291721723118,-0.019158296376659806,-0.029447518379709214,0.6035439958601406,-1.6843388237513315,4.731343621148823,5.836764811144459,-0.021018357874414723,-0.022540818971144475,0.045390944323125376,-0.022286038504116118]},{"bias_weight":2.5238921450402296,"weights":[0.44536873651125497,0.6307178501076119,0.07761294769462664,-0.12698121028867349,0.18645210796534145,0.3914135917111368,0.49107399113354205,0.3971307626950298,0.710048229280029,0.6751803853708511,0.29588423588663243,0.6616186644738402,0.66211615085566,0.9080696946865322,0.5265644323216542,0.6489498797315376,0.7785424160802241,0.6494111810809209,0.638849950708229,0.6964824712228265,0.6932742333013538,0.49065428653644433,-0.021898575378327376,-0.1425379353928811,-0.1458213472436965,-0.04542948412691969,-0.005243540185807418,0.19697004632730858,0.23532628560107033,0.5641286379964018,0.23704433087271637,-0.6542524302302758,-1.1105811092866082,-1.5868154064226734,-1.7286439590488016,-1.624012070805155,-1.3766740740118093,-1.261742041680423,-1.1171462393869482,-0.31687463463201837,-0.21940320038619354,-0.22963518092556984,0.1443346579028013,0.032954592542300994,0.4737554054277794,-0.45690609124214193,-0.0024862146263203433,0.05879499430983856,0.08417495823043236,0.06150620508728022,0.04115485033374397,-0.0994363134876032,0.04214077501814337,0.028792191304388093,-0.008793435100512698,0.05478342578273099,0.014750933319318288,0.0753514830181555,0.06163509802824202,-0.09644522088468951,0.06424919831339582,0.06416815683502217,0.08801480575958068,-0.01746669701770523,-0.01536697671325396,0.016191335532781265,-0.06838848308905887,0.05234624273789232,-0.05396878709321404,0.06194690974697045,0.09770432016070549,-0.03351034353234422,-0.04003365883537174,-0.09729217466695585,-0.056552432108239105,0.08147294355323462,0.06969355839288771,0.09100351469829138,0.05577954201102464,0.09749192537149828,-0.0864809237722466,0.05871951630482583,0.01890071223421322,0.04655974505235086,0.03904657675499068,0.035963958142597174,-0.021535906160380675,0.012311488471633242,-0.058386388589607284,0.005474291721723118,-0.019158296376659806,-0.029447518379709214,0.5444579328745083,-1.5240609744842752,4.882779414269652,5.981658313506432,-0.021018357874414723,-0.022540818971144475,0.045390944323125376,-0.022286038504116118]},{"bias_weight":2.409299094532982,"weights":[0.29773111241866007,0.4646322875526519,-0.1104963906950379,-0.2997921364857859,0.01171114380554315,0.22220502856138657,0.3153694304557175,0.23240585924995366,0.5754389615027092,0.5278106282700207,0.12041435492063184,0.489690121066531,0.5202408834370671,0.7648384651793433,0.3925865020288544,0.5317852382019113,0.6736132830416155,0.5524630545684321,0.5499060203016941,0.6255239483540788,0.6335315318733064,0.44123248254147707,-0.08478779013283327,-0.31838230375056814,-0.3402699962732149,-0.22234837730170795,-0.14217652521895302,0.05648056982541816,0.09784663627452,0.41449293667764214,0.0807529820213905,-0.7975663769038306,-1.2788868529080262,-1.7928022807388961,-1.9459492569155863,-1.802344078886127,-1.5599041203107116,-1.4189746464783923,-1.2611529962279644,-0.43921281028597114,-0.3343459377644094,-0.34816254102808314,0.04422579652423524,-0.052162752722952316,0.40822209683716765,-0.5372550146102362,-0.0024862146263203433,0.05879499430983856,0.08417495823043236,0.06150620508728022,0.04115485033374397,-0.0994363134876032,0.04214077501814337,0.028792191304388093,-0.008793435100512698,0.05478342578273099,0.014750933319318288,0.0753514830181555,0.06163509802824202,-0.09644522088468951,0.06424919831339582,0.06416815683502217,0.08801480575958068,-0.01746669701770523,-0.01536697671325396,0.016191335532781265,-0.06838848308905887,0.05234624273789232,-0.05396878709321404,0.06194690974697045,0.09770432016070549,-0.03351034353234422,-0.04003365883537174,-0.09729217466695585,-0.056552432108239105,0.08147294355323462,0.06969355839288771,0.09100351469829138,0.05577954201102464,0.09749192537149828,-0.0864809237722466,0.05871951630482583,0.01890071223421322,0.04655974505235086,0.03904657675499068,0.035963958142597174,-0.021535906160380675,0.012311488471633242,-0.058386388589607284,0.005474291721723118,-0.019158296376659806,-0.029447518379709214,0.5871457360585532,-1.5828657042190681,4.805469055209455,5.928014512807769,-0.021018357874414723,-0.022540818971144475,0.045390944323125376,-0.022286038504116118]},{"bias_weight":2.5283114381231337,"weights":[1.4162387623731545,1.064902583898793,0.8250151285737692,0.02212489891770912,-0.39316970486672864,-0.3850550827289981,-0.4985506877065557,-0.5107651179906442,-0.9030572589572976,-1.2050100685794496,-1.2455084465482433,-0.7783757368879745,-1.0973938796718214,-0.5479487411356508,-0.5891616371112691,0.5964747805753496,0.7501596303452153,0.9835036571847073,1.758809358314949,1.6739967846418924,1.6810830212207089,0.44979962159084813,-0.037858747750411995,0.5116181397418313,-0.15926728031086376,-0.4881392145994215,-1.3331621353814567,-1.722898999288228,-1.6634723888944365,-1.4078117615861234,-1.3028904012197549,-2.231718098111838,-2.4280096252096013,-2.4599273829453243,-2.369757741534392,-2.740588948686329,-2.3985424631681873,-2.081473452829576,-1.371815466408911,-0.9445038388712945,-0.7719091143993833,0.07781467449090848,0.09403336405993488,-0.10133965675239942,-0.9333396266561448,-1.7493720989823793,-0.0024862146263203433,0.05879499430983856,0.08417495823043236,0.06150620508728022,0.04115485033374397,-0.0994363134876032,0.04214077501814337,0.028792191304388093,-0.008793435100512698,0.05478342578273099,0.014750933319318288,0.0753514830181555,0.06163509802824202,-0.09644522088468951,0.06424919831339582,0.06416815683502217,0.08801480575958068,-0.01746669701770523,-0.01536697671325396,0.016191335532781265,-0.06838848308905887,0.05234624273789232,-0.05396878709321404,0.06194690974697045,0.09770432016070549,-0.03351034353234422,-0.04003365883537174,-0.09729217466695585,-0.056552432108239105,0.08147294355323462,0.06969355839288771,0.09100351469829138,0.05577954201102464,0.09749192537149828,-0.0864809237722466,0.05871951630482583,0.01890071223421322,0.04655974505235086,0.03904657675499068,0.035963958142597174,-0.021535906160380675,0.012311488471633242,-0.058386388589607284,0.005474291721723118,-0.019158296376659806,-0.029447518379709214,-1.5043021011081872,3.5679648080736137,3.911269784289997,7.236018944376133,-0.021018357874414723,-0.022540818971144475,0.045390944323125376,-0.022286038504116118]},{"bias_weight":-2.6577186226128666,"weights":[-1.5033562909816338,-1.2956467836849959,-0.5932234225892987,-0.4343326047762081,-0.7706614196397478,-0.7651165550260955,-0.9932428192439843,-0.5279568434653333,-0.7011419946405459,-0.6161526844081464,-0.5692069472312552,-0.7247349041194782,-0.7103266909839011,-0.7802096687277291,-0.6138262843858775,-0.8996356952276827,-0.9748747255594835,-0.6965630080302854,-1.0675168753087263,-1.2913225529395402,-1.2352091811657147,-0.8563678301866305,-0.4484629400454364,-0.43966704822827846,-0.3605471887262111,0.17278844708326893,0.37735063470306157,-0.025338842384980742,-0.2656486873304663,-0.5766298934824751,-0.18491824750394847,0.3386508076658417,0.9333722725251583,0.8088282709239455,1.3331651191324976,1.6537448831979804,1.1105220663681719,1.2644981397855661,0.9697739233694965,0.35052736047318284,0.1601144530043022,-0.16065241009782386,-0.5339056869627866,-0.486161301617413,-0.21916887716109362,0.7237835912255692,-0.0024862146263203433,0.05879499430983856,0.08417495823043236,0.06150620508728022,0.04115485033374397,-0.0994363134876032,0.04214077501814337,0.028792191304388093,-0.008793435100512698,0.05478342578273099,0.014750933319318288,0.0753514830181555,0.06163509802824202,-0.09644522088468951,0.06424919831339582,0.06416815683502217,0.08801480575958068,-0.01746669701770523,-0.01536697671325396,0.016191335532781265,-0.06838848308905887,0.05234624273789232,-0.05396878709321404,0.06194690974697045,0.09770432016070549,-0.03351034353234422,-0.04003365883537174,-0.09729217466695585,-0.056552432108239105,0.08147294355323462,0.06969355839288771,0.09100351469829138,0.05577954201102464,0.09749192537149828,-0.0864809237722466,0.05871951630482583,0.01890071223421322,0.04655974505235086,0.03904657675499068,0.035963958142597174,-0.021535906160380675,0.012311488471633242,-0.058386388589607284,0.005474291721723118,-0.019158296376659806,-0.029447518379709214,0.2678578883480133,-0.44209069537602397,-4.619778966923112,-6.825958774585895,-0.021018357874414723,-0.022540818971144475,0.045390944323125376,-0.022286038504116118]},{"bias_weight":2.5715926895843033,"weights":[1.6310411256817676,1.4814533600706432,1.3494633962774083,0.7120794516354596,0.5214702407998157,0.5903764123273383,0.27599797056346304,0.6997948321864985,0.2952405116448599,-0.31200090224160115,-0.6396959367199276,-0.23091694787320718,-0.39459311523376095,0.21662780885676608,0.223043047546437,0.9293078775485222,0.9684574739456143,1.1349358229368842,1.4218570276137188,1.3378351646952886,1.3922564056359241,0.35838694138416194,0.21566159363051882,0.6429201584603198,0.15915210542666805,0.14023424933409373,-0.27677219214366866,-0.5159699176783662,-0.35544107515327833,-0.4280818898515811,0.16452320711466645,-0.6399087919135645,-1.1262541231320142,-1.5332705625728136,-1.460181439305697,-1.4481238806971346,-1.0854986359120442,-0.7361903811104465,-0.4414572198416191,-0.2956843479651508,-0.2741259538727312,-0.03788957416782415,-0.11043252223468909,-0.31454302786406796,-0.6187913207833611,-1.1583592649579009,-0.0024862146263203433,0.05879499430983856,0.08417495823043236,0.06150620508728022,0.04115485033374397,-0.0994363134876032,0.04214077501814337,0.028792191304388093,-0.008793435100512698,0.05478342578273099,0.014750933319318288,0.0753514830181555,0.06163509802824202,-0.09644522088468951,0.06424919831339582,0.06416815683502217,0.08801480575958068,-0.01746669701770523,-0.01536697671325396,0.016191335532781265,-0.06838848308905887,0.05234624273789232,-0.05396878709321404,0.06194690974697045,0.09770432016070549,-0.03351034353234422,-0.04003365883537174,-0.09729217466695585,-0.056552432108239105,0.08147294355323462,0.06969355839288771,0.09100351469829138,0.05577954201102464,0.09749192537149828,-0.0864809237722466,0.05871951630482583,0.01890071223421322,0.04655974505235086,0.03904657675499068,0.035963958142597174,-0.021535906160380675,0.012311488471633242,-0.058386388589607284,0.005474291721723118,-0.019158296376659806,-0.029447518379709214,-1.1116954753916812,2.8802807579366108,4.193321366126949,6.779810548704484,-0.021018357874414723,-0.022540818971144475,0.045390944323125376,-0.022286038504116118]},{"bias_weight":-2.5889237258316444,"weights":[-1.4633386152465764,-1.272218542944032,-0.5609277962998269,-0.41666145868908155,-0.7967924632297593,-0.7803369203586945,-0.9712378287965334,-0.5083990204791453,-0.6888210420718743,-0.6208608860434186,-0.604533502373706,-0.7378462534457788,-0.7285458278854514,-0.8128850255829307,-0.6573801597405798,-0.8664542147747472,-0.9480071073036884,-0.6544025956252151,-1.0412930391647408,-1.2395392670590117,-1.194369183396944,-0.8462708634365438,-0.45984116146208875,-0.39420498119470904,-0.3306045350064186,0.21052050041893006,0.3851390803023354,-0.061384911660343655,-0.2937005462544662,-0.5571855532660136,-0.16369968572241003,0.32184557333107733,0.8822099255977566,0.7162936716337827,1.2465713991084133,1.5663410880880289,1.0243511951557163,1.1843297077324701,0.9698121714090245,0.3523506419656226,0.18132392634206662,-0.14572315826837742,-0.4982038298704376,-0.4633720977238093,-0.2166013074984008,0.7027459663396373,-0.0024862146263203433,0.05879499430983856,0.08417495823043236,0.06150620508728022,0.04115485033374397,-0.0994363134876032,0.04214077501814337,0.028792191304388093,-0.008793435100512698,0.05478342578273099,0.014750933319318288,0.0753514830181555,0.06163509802824202,-0.09644522088468951,0.06424919831339582,0.06416815683502217,0.08801480575958068,-0.01746669701770523,-0.01536697671325396,0.016191335532781265,-0.06838848308905887,0.05234624273789232,-0.05396878709321404,0.06194690974697045,0.09770432016070549,-0.03351034353234422,-0.04003365883537174,-0.09729217466695585,-0.056552432108239105,0.08147294355323462,0.06969355839288771,0.09100351469829138,0.05577954201102464,0.09749192537149828,-0.0864809237722466,0.05871951630482583,0.01890071223421322,0.04655974505235086,0.03904657675499068,0.035963958142597174,-0.021535906160380675,0.012311488471633242,-0.058386388589607284,0.005474291721723118,-0.019158296376659806,-0.029447518379709214,0.26022313494988386,-0.39661496155286635,-4.488502206641063,-6.644956642113067,-0.021018357874414723,-0.022540818971144475,0.045390944323125376,-0.022286038504116118]},{"bias_weight":1.9031273917812543,"weights":[-0.24537710852139097,-0.06375724244870506,-0.7146098949506229,-0.9147576869230282,-0.6408819639105804,-0.46960732214927703,-0.013307070161760005,-0.4872208162688465,0.05833586154511284,-0.05437283606581976,-0.45822504496604227,0.012159627564176847,0.10818631224632373,0.19856064246107824,-0.23489125531640723,-0.025259483313795197,0.19323760015253116,-0.047577255450028784,0.018006154530883285,0.339966704795456,0.3193604295039234,-0.04302310655068695,-0.6577507522938243,-0.7413170228332794,-0.7416319244152835,-0.8137554277291542,-0.8771711922697092,-0.6774037492015637,-0.6525153790068655,0.07317986022944713,-0.715152066159343,-1.6127903905414496,-2.249334570509359,-2.7826319255444796,-2.867159447301431,-2.610144623155291,-2.5503654549633494,-2.4428884308661134,-2.021777626784999,-0.9125766885084093,-0.9563351850243862,-0.9382778832117148,-0.30200947489292707,-0.39758401276174943,-0.09730003805480474,-1.1226491087010326,-0.0024862146263203433,0.05879499430983856,0.08417495823043236,0.06150620508728022,0.04115485033374397,-0.0994363134876032,0.04214077501814337,0.028792191304388093,-0.008793435100512698,0.05478342578273099,0.014750933319318288,0.0753514830181555,0.06163509802824202,-0.09644522088468951,0.06424919831339582,0.06416815683502217,0.08801480575958068,-0.01746669701770523,-0.01536697671325396,0.016191335532781265,-0.06838848308905887,0.05234624273789232,-0.05396878709321404,0.06194690974697045,0.09770432016070549,-0.03351034353234422,-0.04003365883537174,-0.09729217466695585,-0.056552432108239105,0.08147294355323462,0.06969355839288771,0.09100351469829138,0.05577954201102464,0.09749192537149828,-0.0864809237722466,0.05871951630482583,0.01890071223421322,0.04655974505235086,0.03904657675499068,0.035963958142597174,-0.021535906160380675,0.012311488471633242,-0.058386388589607284,0.005474291721723118,-0.019158296376659806,-0.029447518379709214,0.5946750449927813,-1.5592828424818221,4.447059685704581,5.5260545461584325,-0.021018357874414723,-0.022540818971144475,0.045390944323125376,-0.022286038504116118]},{"bias_weight":2.3331636316611357,"weights":[0.21947139431557736,0.40270536013397606,-0.18179798497056598,-0.37246143725696323,-0.0234318823427735,0.192393224379923,0.28147578695188114,0.17749136707905944,0.5294469913234299,0.42255683287500223,0.005418504201185786,0.37249741320731633,0.4090763789957698,0.6310974576402049,0.26533945632883243,0.4144053018011305,0.5630672656500871,0.4390933024181235,0.44441046929249434,0.5214851756811072,0.5466139045007231,0.3604490920687251,-0.17410662367256963,-0.41896754606623277,-0.41675012847218995,-0.296856911246165,-0.2175276063090024,0.020252854833821464,0.068581707220486,0.3779317020391048,0.018906998424055292,-0.8583658270279292,-1.4099013337573443,-1.9323232054766528,-2.09697632226584,-1.9514228628693038,-1.7434712556756677,-1.580534672547238,-1.4111463956992027,-0.5710498278926648,-0.46490273640049357,-0.48320917542567865,-0.08717388301457045,-0.16584842038747358,0.31039806498995187,-0.6458698636426182,-0.0024862146263203433,0.05879499430983856,0.08417495823043236,0.06150620508728022,0.04115485033374397,-0.0994363134876032,0.04214077501814337,0.028792191304388093,-0.008793435100512698,0.05478342578273099,0.014750933319318288,0.0753514830181555,0.06163509802824202,-0.09644522088468951,0.06424919831339582,0.06416815683502217,0.08801480575958068,-0.01746669701770523,-0.01536697671325396,0.016191335532781265,-0.06838848308905887,0.05234624273789232,-0.05396878709321404,0.06194690974697045,0.09770432016070549,-0.03351034353234422,-0.04003365883537174,-0.09729217466695585,-0.056552432108239105,0.08147294355323462,0.06969355839288771,0.09100351469829138,0.05577954201102464,0.09749192537149828,-0.0864809237722466,0.05871951630482583,0.01890071223421322,0.04655974505235086,0.03904657675499068,0.035963958142597174,-0.021535906160380675,0.012311488471633242,-0.058386388589607284,0.005474291721723118,-0.019158296376659806,-0.029447518379709214,0.5805653278358804,-1.6325198258537206,4.778125273488513,5.9165213462694926,-0.021018357874414723,-0.022540818971144475,0.045390944323125376,-0.022286038504116118]},{"bias_weight":2.4638325388103803,"weights":[1.332352409848696,0.9886199327405955,0.7217536235699726,-0.11900117586158619,-0.5495273549149872,-0.5718952704025304,-0.6831431494895367,-0.6955508774518012,-1.0532211468874626,-1.3015886127999552,-1.2545029551816427,-0.7798648180466334,-1.0859777541562234,-0.5308364970873207,-0.578233657296374,0.5928218287196467,0.738263008814731,0.9696140286210696,1.7210167037023287,1.6458287409143602,1.6181174772922986,0.3943490734555492,-0.11931008287488529,0.4199217577072585,-0.23672009493571017,-0.5952050498429609,-1.4922987784028345,-1.9142935309224391,-1.892982653309869,-1.6322731293273334,-1.5215496567327886,-2.4319322083637407,-2.578414886143221,-2.5015371846516885,-2.408382999114953,-2.753468527691533,-2.3995839293174797,-2.0833177225424766,-1.3748589115327972,-0.9477320590645949,-0.7824534789857086,0.041477445040881036,0.0652644884956069,-0.15339384554405955,-0.995097867568554,-1.841018630434869,-0.0024862146263203433,0.05879499430983856,0.08417495823043236,0.06150620508728022,0.04115485033374397,-0.0994363134876032,0.04214077501814337,0.028792191304388093,-0.008793435100512698,0.05478342578273099,0.014750933319318288,0.0753514830181555,0.06163509802824202,-0.09644522088468951,0.06424919831339582,0.06416815683502217,0.08801480575958068,-0.01746669701770523,-0.01536697671325396,0.016191335532781265,-0.06838848308905887,0.05234624273789232,-0.05396878709321404,0.06194690974697045,0.09770432016070549,-0.03351034353234422,-0.04003365883537174,-0.09729217466695585,-0.056552432108239105,0.08147294355323462,0.06969355839288771,0.09100351469829138,0.05577954201102464,0.09749192537149828,-0.0864809237722466,0.05871951630482583,0.01890071223421322,0.04655974505235086,0.03904657675499068,0.035963958142597174,-0.021535906160380675,0.012311488471633242,-0.058386388589607284,0.005474291721723118,-0.019158296376659806,-0.029447518379709214,-1.4548294282597771,3.618782337607601,3.7970853447388206,7.273051979613847,-0.021018357874414723,-0.022540818971144475,0.045390944323125376,-0.022286038504116118]},{"bias_weight":1.8796730175391063,"weights":[-0.30524910976651976,-0.1169508962551967,-0.775691283251435,-0.9722056244358095,-0.7362891218495555,-0.566365242696309,-0.06541077245223476,-0.5555012971943389,0.035470915388007215,-0.07044619663334564,-0.47018661264631867,0.0032672872321813902,0.09634852776872005,0.18469275991951123,-0.2521538396204687,-0.037736805552795974,0.17937791152076873,-0.06328085798016769,0.008996673276763437,0.33225776051635514,0.2948755981096255,-0.0719190690628429,-0.6907480588579038,-0.7944817648074256,-0.7790432187230731,-0.8724173077717725,-0.9472244366856063,-0.7978404460204506,-0.775488093443537,0.009077765212583782,-0.7896832083670475,-1.6417257070392448,-2.284387775835242,-2.8131931964920525,-2.901127265076263,-2.653015055737572,-2.5888120803527244,-2.481886373539846,-2.0489909736502803,-0.9350575128191819,-0.9820358220182296,-0.9502100743112899,-0.3122417340080971,-0.41854809581274,-0.1227679379099977,-1.1522407249139828,-0.0024862146263203433,0.05879499430983856,0.08417495823043236,0.06150620508728022,0.04115485033374397,-0.0994363134876032,0.04214077501814337,0.028792191304388093,-0.008793435100512698,0.05478342578273099,0.014750933319318288,0.0753514830181555,0.06163509802824202,-0.09644522088468951,0.06424919831339582,0.06416815683502217,0.08801480575958068,-0.01746669701770523,-0.01536697671325396,0.016191335532781265,-0.06838848308905887,0.05234624273789232,-0.05396878709321404,0.06194690974697045,0.09770432016070549,-0.03351034353234422,-0.04003365883537174,-0.09729217466695585,-0.056552432108239105,0.08147294355323462,0.06969355839288771,0.09100351469829138,0.05577954201102464,0.09749192537149828,-0.0864809237722466,0.05871951630482583,0.01890071223421322,0.04655974505235086,0.03904657675499068,0.035963958142597174,-0.021535906160380675,0.012311488471633242,-0.058386388589607284,0.005474291721723118,-0.019158296376659806,-0.029447518379709214,0.6090817930843941,-1.5293606062158334,4.427882608376771,5.507029791429221,-0.021018357874414723,-0.022540818971144475,0.045390944323125376,-0.022286038504116118]},{"bias_weight":2.3197743259362382,"weights":[1.1743037815002593,0.8858767115391636,0.5274958595589797,-0.30934229581853034,-0.7395716835651394,-0.8170817587958243,-0.9143783315898618,-0.8640387276421528,-1.1439065178679502,-1.2978656647286004,-1.192957505786877,-0.7260704645295672,-1.034729968306106,-0.4634398111964512,-0.5203421148911488,0.6507898285582819,0.7463206415018154,0.9333353226953349,1.6494805248665527,1.5987070909111778,1.536641449269827,0.3943533105479233,-0.1743345312333045,0.25553554395082845,-0.3367912849823561,-0.7931644151925771,-1.702579450418941,-2.1412786258464367,-2.1756107108172524,-1.9043783994187584,-1.716902573997497,-2.5340146785167605,-2.618809715164567,-2.4778033797418013,-2.383665748574284,-2.734117867597446,-2.370221212584867,-2.068684957437533,-1.3372983204576616,-0.9358053521777334,-0.7914187289475153,-0.020274026277577982,0.0041660846938209985,-0.21715223956806626,-1.040612035943572,-1.9491473993807789,-0.0024862146263203433,0.05879499430983856,0.08417495823043236,0.06150620508728022,0.04115485033374397,-0.0994363134876032,0.04214077501814337,0.028792191304388093,-0.008793435100512698,0.05478342578273099,0.014750933319318288,0.0753514830181555,0.06163509802824202,-0.09644522088468951,0.06424919831339582,0.06416815683502217,0.08801480575958068,-0.01746669701770523,-0.01536697671325396,0.016191335532781265,-0.06838848308905887,0.05234624273789232,-0.05396878709321404,0.06194690974697045,0.09770432016070549,-0.03351034353234422,-0.04003365883537174,-0.09729217466695585,-0.056552432108239105,0.08147294355323462,0.06969355839288771,0.09100351469829138,0.05577954201102464,0.09749192537149828,-0.0864809237722466,0.05871951630482583,0.01890071223421322,0.04655974505235086,0.03904657675499068,0.035963958142597174,-0.021535906160380675,0.012311488471633242,-0.058386388589607284,0.005474291721723118,-0.019158296376659806,-0.029447518379709214,-1.3112827427451963,3.7152276484333986,3.534416089840191,7.289189935724728,-0.021018357874414723,-0.022540818971144475,0.045390944323125376,-0.022286038504116118]},{"bias_weight":1.8223286396802973,"weights":[-0.39148334314633215,-0.19231124792184617,-0.8506102194515361,-1.0668127297353458,-0.8517940908519994,-0.6583309638173067,-0.13004391067826376,-0.6315338845257842,-0.004201893073030407,-0.11476314068724049,-0.5117394912906295,-0.03962284237506314,0.04803996858677216,0.13918728127590788,-0.3016535221746342,-0.0783817984840988,0.1373326314413881,-0.10314060111554632,-0.026966884943079215,0.29386079056178127,0.2522613243797499,-0.11647569397851508,-0.7453190906452473,-0.8548799616890376,-0.8206113234131348,-0.951999770635704,-1.0530022597825495,-0.9325515268112365,-0.8805930060610885,-0.05913436541911865,-0.8575282032658401,-1.668183965657073,-2.3242441585820757,-2.857228530042649,-2.963935216174093,-2.7219442464108847,-2.6473524988124844,-2.5485136998973412,-2.09787631807599,-0.9810023250782484,-1.026225472276126,-0.9780557848712441,-0.341059625579025,-0.4478973973708287,-0.15836455633746913,-1.1930232038233746,-0.0024862146263203433,0.05879499430983856,0.08417495823043236,0.06150620508728022,0.04115485033374397,-0.0994363134876032,0.04214077501814337,0.028792191304388093,-0.008793435100512698,0.05478342578273099,0.014750933319318288,0.0753514830181555,0.06163509802824202,-0.09644522088468951,0.06424919831339582,0.06416815683502217,0.08801480575958068,-0.01746669701770523,-0.01536697671325396,0.016191335532781265,-0.06838848308905887,0.05234624273789232,-0.05396878709321404,0.06194690974697045,0.09770432016070549,-0.03351034353234422,-0.04003365883537174,-0.09729217466695585,-0.056552432108239105,0.08147294355323462,0.06969355839288771,0.09100351469829138,0.05577954201102464,0.09749192537149828,-0.0864809237722466,0.05871951630482583,0.01890071223421322,0.04655974505235086,0.03904657675499068,0.035963958142597174,-0.021535906160380675,0.012311488471633242,-0.058386388589607284,0.005474291721723118,-0.019158296376659806,-0.029447518379709214,0.6365204770588812,-1.5218616068410704,4.371087610071704,5.467322166298528,-0.021018357874414723,-0.022540818971144475,0.045390944323125376,-0.022286038504116118]},{"bias_weight":1.8507158277972062,"weights":[-0.3650715263601989,-0.1701503981825491,-0.8326600336441067,-1.027113562947115,-0.8121225454936182,-0.6302652822836002,-0.11410982893830211,-0.6058977736570049,0.009914390832823883,-0.09619856533564715,-0.4960498922650687,-0.021345643026944076,0.06913953234779208,0.16044001730020513,-0.2772199768195485,-0.06250540108280611,0.15528920980051042,-0.09055892778234208,-0.02144388237691995,0.3060073435307374,0.25953068461140694,-0.10419106597008101,-0.7310475644621582,-0.841594688981617,-0.815379026975688,-0.9361117399472795,-1.0049120203948527,-0.885520370057249,-0.8466481630582572,-0.04328648695990568,-0.836348900502308,-1.6584066137291598,-2.304141362125905,-2.8324402386980116,-2.9397020136697667,-2.6920298616271645,-2.624044586825541,-2.518418575376784,-2.086259574873522,-0.9672738839809725,-1.0161256036885407,-0.9781164767349655,-0.33371541337207233,-0.44679084174621275,-0.15228619174526795,-1.1827742465937667,-0.0024862146263203433,0.05879499430983856,0.08417495823043236,0.06150620508728022,0.04115485033374397,-0.0994363134876032,0.04214077501814337,0.028792191304388093,-0.008793435100512698,0.05478342578273099,0.014750933319318288,0.0753514830181555,0.06163509802824202,-0.09644522088468951,0.06424919831339582,0.06416815683502217,0.08801480575958068,-0.01746669701770523,-0.01536697671325396,0.016191335532781265,-0.06838848308905887,0.05234624273789232,-0.05396878709321404,0.06194690974697045,0.09770432016070549,-0.03351034353234422,-0.04003365883537174,-0.09729217466695585,-0.056552432108239105,0.08147294355323462,0.06969355839288771,0.09100351469829138,0.05577954201102464,0.09749192537149828,-0.0864809237722466,0.05871951630482583,0.01890071223421322,0.04655974505235086,0.03904657675499068,0.035963958142597174,-0.021535906160380675,0.012311488471633242,-0.058386388589607284,0.005474291721723118,-0.019158296376659806,-0.029447518379709214,0.606070339315516,-1.5136122911011447,4.407104500590522,5.494818151149336,-0.021018357874414723,-0.022540818971144475,0.045390944323125376,-0.022286038504116118]},{"bias_weight":2.3765520679579266,"weights":[0.24872619647967414,0.4266515097419238,-0.1585129166542456,-0.3515524071705156,-0.008162462575401,0.20638716252950282,0.29632276019850545,0.20563430548796016,0.5612206498580102,0.4871453054131523,0.07307698168263961,0.4428928752919251,0.4774018298096815,0.7006809601423596,0.3339130488740969,0.47944612246543705,0.6254328247779068,0.5029178072760668,0.5064135528596073,0.5852002792098715,0.6083180335252603,0.4173486446983527,-0.11443394707914241,-0.38196899139326596,-0.388051639155457,-0.27283553470733873,-0.19573430732572683,0.036122760823792066,0.08275992180409622,0.39405188841895034,0.05002909146608113,-0.8202481045062983,-1.3342819291963417,-1.8536229969349423,-2.0089516089487978,-1.863936800168623,-1.65308151403929,-1.4953740131737596,-1.3293022591426888,-0.49829450849663826,-0.39224387377838005,-0.40910282372332807,-0.011497441549990372,-0.0896134223551271,0.3752298108328305,-0.5766702126297606,-0.0024862146263203433,0.05879499430983856,0.08417495823043236,0.06150620508728022,0.04115485033374397,-0.0994363134876032,0.04214077501814337,0.028792191304388093,-0.008793435100512698,0.05478342578273099,0.014750933319318288,0.0753514830181555,0.06163509802824202,-0.09644522088468951,0.06424919831339582,0.06416815683502217,0.08801480575958068,-0.01746669701770523,-0.01536697671325396,0.016191335532781265,-0.06838848308905887,0.05234624273789232,-0.05396878709321404,0.06194690974697045,0.09770432016070549,-0.03351034353234422,-0.04003365883537174,-0.09729217466695585,-0.056552432108239105,0.08147294355323462,0.06969355839288771,0.09100351469829138,0.05577954201102464,0.09749192537149828,-0.0864809237722466,0.05871951630482583,0.01890071223421322,0.04655974505235086,0.03904657675499068,0.035963958142597174,-0.021535906160380675,0.012311488471633242,-0.058386388589607284,0.005474291721723118,-0.019158296376659806,-0.029447518379709214,0.5820002636760169,-1.6131894255747077,4.800251389886606,5.933019250880331,-0.021018357874414723,-0.022540818971144475,0.045390944323125376,-0.022286038504116118]},{"bias_weight":2.228236889953996,"weights":[0.1714935671736589,0.31116950522314585,-0.27766152189964266,-0.4432012222043516,-0.1002976451639969,0.11664846350806599,0.22846714220554293,0.04727011685110503,0.4835338863767458,0.3644319353466868,-0.07967595806794216,0.3019586818277243,0.3565223301065443,0.5532791558544994,0.06659716387197812,0.24107247791839723,0.39807168169813495,0.2530697172729655,0.273876496527569,0.43461672388371303,0.46712104281320577,0.25373490454122244,-0.3087631574600432,-0.39628992226435006,-0.4447850119831394,-0.333208051678774,-0.2590411465669332,-0.0326083639070843,0.0046659790598343335,0.34407862731706373,-0.11466517790092684,-0.9546784427467173,-1.5622131767821084,-2.153993065960346,-2.270305961667294,-2.070354980522584,-1.8755134708435595,-1.8707552051874143,-1.5770217299548785,-0.6989303137265233,-0.6229679102789621,-0.6665860828143143,-0.19938094907439163,-0.2675282391300909,0.1939217201620194,-0.7973064612289609,-0.0024862146263203433,0.05879499430983856,0.08417495823043236,0.06150620508728022,0.04115485033374397,-0.0994363134876032,0.04214077501814337,0.028792191304388093,-0.008793435100512698,0.05478342578273099,0.014750933319318288,0.0753514830181555,0.06163509802824202,-0.09644522088468951,0.06424919831339582,0.06416815683502217,0.08801480575958068,-0.01746669701770523,-0.01536697671325396,0.016191335532781265,-0.06838848308905887,0.05234624273789232,-0.05396878709321404,0.06194690974697045,0.09770432016070549,-0.03351034353234422,-0.04003365883537174,-0.09729217466695585,-0.056552432108239105,0.08147294355323462,0.06969355839288771,0.09100351469829138,0.05577954201102464,0.09749192537149828,-0.0864809237722466,0.05871951630482583,0.01890071223421322,0.04655974505235086,0.03904657675499068,0.035963958142597174,-0.021535906160380675,0.012311488471633242,-0.058386388589607284,0.005474291721723118,-0.019158296376659806,-0.029447518379709214,0.6055330526759594,-1.6776470480743828,4.731071739479361,5.836979492880326,-0.021018357874414723,-0.022540818971144475,0.045390944323125376,-0.022286038504116118]},{"bias_weight":-2.587695239909469,"weights":[-1.4626872075430863,-1.2717703200072137,-0.5605131580126111,-0.4163210021417734,-0.7970556249666626,-0.7803756151505665,-0.9707583356769067,-0.5078388125806041,-0.6884858750113321,-0.6210528578155168,-0.6051585471447907,-0.7383235418374595,-0.7288323906376595,-0.81326817547904,-0.6576841042626005,-0.8656847468919505,-0.9471104754006165,-0.6534011626442785,-1.0406386488362325,-1.2383867306958416,-1.1935430907362283,-0.845963893765223,-0.4599838211900965,-0.3936164916692185,-0.33024469854952254,0.21088867478270004,0.38524441556937217,-0.06191816635224711,-0.294012853028401,-0.556819491893386,-0.16329976478941105,0.32167808991204033,0.881481029452708,0.7149661477849103,1.2452542037104504,1.5651641896079316,1.0232127250386844,1.183551259178369,0.9694067172779471,0.3522244186012241,0.18141661134627468,-0.14552270138155812,-0.497508937139635,-0.46306655066308194,-0.21663100698644516,0.7023550912283151,-0.0024862146263203433,0.05879499430983856,0.08417495823043236,0.06150620508728022,0.04115485033374397,-0.0994363134876032,0.04214077501814337,0.028792191304388093,-0.008793435100512698,0.05478342578273099,0.014750933319318288,0.0753514830181555,0.06163509802824202,-0.09644522088468951,0.06424919831339582,0.06416815683502217,0.08801480575958068,-0.01746669701770523,-0.01536697671325396,0.016191335532781265,-0.06838848308905887,0.05234624273789232,-0.05396878709321404,0.06194690974697045,0.09770432016070549,-0.03351034353234422,-0.04003365883537174,-0.09729217466695585,-0.056552432108239105,0.08147294355323462,0.06969355839288771,0.09100351469829138,0.05577954201102464,0.09749192537149828,-0.0864809237722466,0.05871951630482583,0.01890071223421322,0.04655974505235086,0.03904657675499068,0.035963958142597174,-0.021535906160380675,0.012311488471633242,-0.058386388589607284,0.005474291721723118,-0.019158296376659806,-0.029447518379709214,0.26004530422808103,-0.3956998992473254,-4.486437752390432,-6.642883943422593,-0.021018357874414723,-0.022540818971144475,0.045390944323125376,-0.022286038504116118]},{"bias_weight":2.187510108716582,"weights":[0.10840427323406686,0.22935116167250078,-0.29515668354250435,-0.49074600085858955,-0.17715235219155118,0.01670711983846721,0.16409460734254533,-0.01845423142537998,0.46137685688907276,0.32458273952470706,-0.12137057981279098,0.27339984930651434,0.32305027994339636,0.49469913164306684,-0.01704871109353804,0.17449478697343357,0.36597515829280175,0.2133462484624102,0.24121733163187423,0.44613389778120677,0.47256915789717174,0.2529373491522015,-0.3190581342481387,-0.3606629336712954,-0.421526881556516,-0.3022865074751775,-0.28297978217951797,-0.07238227141577021,-0.07510261448829615,0.30798434066462665,-0.16757234884437738,-0.9994200644202831,-1.6462607409720351,-2.248903127340056,-2.354272698797514,-2.1691658435318835,-1.9963901900870729,-2.0235488671380857,-1.6807897952241966,-0.7335852016037491,-0.666970385031482,-0.7033667989544387,-0.18805340561279227,-0.2563673353419737,0.19427937811971158,-0.810695430781494,-0.0024862146263203433,0.05879499430983856,0.08417495823043236,0.06150620508728022,0.04115485033374397,-0.0994363134876032,0.04214077501814337,0.028792191304388093,-0.008793435100512698,0.05478342578273099,0.014750933319318288,0.0753514830181555,0.06163509802824202,-0.09644522088468951,0.06424919831339582,0.06416815683502217,0.08801480575958068,-0.01746669701770523,-0.01536697671325396,0.016191335532781265,-0.06838848308905887,0.05234624273789232,-0.05396878709321404,0.06194690974697045,0.09770432016070549,-0.03351034353234422,-0.04003365883537174,-0.09729217466695585,-0.056552432108239105,0.08147294355323462,0.06969355839288771,0.09100351469829138,0.05577954201102464,0.09749192537149828,-0.0864809237722466,0.05871951630482583,0.01890071223421322,0.04655974505235086,0.03904657675499068,0.035963958142597174,-0.021535906160380675,0.012311488471633242,-0.058386388589607284,0.005474291721723118,-0.019158296376659806,-0.029447518379709214,0.6091642925391078,-1.676588712474195,4.676486998569531,5.762893668922182,-0.021018357874414723,-0.022540818971144475,0.045390944323125376,-0.022286038504116118]},{"bias_weight":-2.653622103679463,"weights":[-1.500153239761034,-1.294544033525723,-0.5909433122280728,-0.4326606077256602,-0.771448199604033,-0.7660318050982654,-0.9920254384594357,-0.5295704980774986,-0.7025784764537875,-0.6153647973004579,-0.5697383047385725,-0.7236900736568178,-0.7102184659466072,-0.7802904611961815,-0.6141180241699934,-0.8999493745348889,-0.976162470335761,-0.695763132710612,-1.0652254680740965,-1.2889786932381293,-1.2319633270201846,-0.8546451105291519,-0.4467350850708013,-0.43566048924400913,-0.35849068230582076,0.175338018941152,0.3772230383117967,-0.028075755672777297,-0.26870182736299114,-0.576699127390829,-0.18686775075667164,0.3338330053282631,0.9277820858514702,0.8014399182600446,1.3262280987800665,1.6478269923823206,1.1062781093364242,1.2623441315010795,0.9710137691288728,0.35298350238145904,0.16441040734557008,-0.1558846477325843,-0.52970213725475,-0.4819323926304871,-0.21632116732413353,0.7238825349059602,-0.0024862146263203433,0.05879499430983856,0.08417495823043236,0.06150620508728022,0.04115485033374397,-0.0994363134876032,0.04214077501814337,0.028792191304388093,-0.008793435100512698,0.05478342578273099,0.014750933319318288,0.0753514830181555,0.06163509802824202,-0.09644522088468951,0.06424919831339582,0.06416815683502217,0.08801480575958068,-0.01746669701770523,-0.01536697671325396,0.016191335532781265,-0.06838848308905887,0.05234624273789232,-0.05396878709321404,0.06194690974697045,0.09770432016070549,-0.03351034353234422,-0.04003365883537174,-0.09729217466695585,-0.056552432108239105,0.08147294355323462,0.06969355839288771,0.09100351469829138,0.05577954201102464,0.09749192537149828,-0.0864809237722466,0.05871951630482583,0.01890071223421322,0.04655974505235086,0.03904657675499068,0.035963958142597174,-0.021535906160380675,0.012311488471633242,-0.058386388589607284,0.005474291721723118,-0.019158296376659806,-0.029447518379709214,0.27048670472665975,-0.4455540201945732,-4.612509884570778,-6.816778961542753,-0.021018357874414723,-0.022540818971144475,0.045390944323125376,-0.022286038504116118]},{"bias_weight":2.38726663159513,"weights":[0.2691472552001109,0.43903241922506064,-0.14242775799906468,-0.3320136330454843,-0.0002702012636157468,0.2116811487549169,0.3043111977396057,0.21789392283111458,0.5674933217861652,0.5034113477615164,0.09017354138522864,0.4604612285847973,0.4936176702339098,0.7223349367990026,0.35418634436542823,0.49717374016590243,0.6416250618994118,0.5204221721419646,0.5217950846940417,0.5989909841127764,0.616915711344042,0.4261743448340947,-0.10299138335663514,-0.3555381022454926,-0.37310426423912657,-0.2569539215408229,-0.17575141961504875,0.04395483700338437,0.08740628361205498,0.4022629216615872,0.06382821855377291,-0.8108855867878554,-1.3122241159318027,-1.8316217787024325,-1.985529125225755,-1.840442977944081,-1.6213034719366428,-1.4672416086979159,-1.303787193452575,-0.4762257477280198,-0.37051772659331855,-0.38665379990383486,0.007740545831578196,-0.07669699501466135,0.38728367097784844,-0.5617218751072405,-0.0024862146263203433,0.05879499430983856,0.08417495823043236,0.06150620508728022,0.04115485033374397,-0.0994363134876032,0.04214077501814337,0.028792191304388093,-0.008793435100512698,0.05478342578273099,0.014750933319318288,0.0753514830181555,0.06163509802824202,-0.09644522088468951,0.06424919831339582,0.06416815683502217,0.08801480575958068,-0.01746669701770523,-0.01536697671325396,0.016191335532781265,-0.06838848308905887,0.05234624273789232,-0.05396878709321404,0.06194690974697045,0.09770432016070549,-0.03351034353234422,-0.04003365883537174,-0.09729217466695585,-0.056552432108239105,0.08147294355323462,0.06969355839288771,0.09100351469829138,0.05577954201102464,0.09749192537149828,-0.0864809237722466,0.05871951630482583,0.01890071223421322,0.04655974505235086,0.03904657675499068,0.035963958142597174,-0.021535906160380675,0.012311488471633242,-0.058386388589607284,0.005474291721723118,-0.019158296376659806,-0.029447518379709214,0.5858435519727268,-1.601563663307365,4.79987017804726,5.928130859611505,-0.021018357874414723,-0.022540818971144475,0.045390944323125376,-0.022286038504116118]},{"bias_weight":-2.4168504058352704,"weights":[-1.4433346934200189,-1.2966185687855405,-0.5845923724347877,-0.27638813403251306,-0.5909267460988556,-0.6305391666533108,-0.828163277691781,-0.31990228178858177,-0.6785901524833253,-0.6117062907451838,-0.431454531418659,-0.5469345147616957,-0.5789693981197791,-0.5199161204027823,-0.2922006022435838,-0.6545178057200252,-0.7169639670184254,-0.37853848707183546,-0.6501594291575956,-0.9030248194923819,-0.7402578064706482,-0.49397685051213364,0.0054422648550367485,-0.479888035103432,-0.49160011483172844,0.038893962873145636,0.43282890379442823,0.06585961440280252,-0.21424939453165334,-0.4984169945539418,-0.04498935888446945,0.29635780131033745,0.7962696846622717,0.8111329057413256,1.416404287502438,1.6108085140759287,1.2404490682082105,1.4061126806370028,1.1162537187641723,0.577958533167499,0.5010408337235024,0.40137540756889745,0.017626123459500535,0.09705737030245033,0.1733257734824376,1.1137229808486204,-0.0024862146263203433,0.05879499430983856,0.08417495823043236,0.06150620508728022,0.04115485033374397,-0.0994363134876032,0.04214077501814337,0.028792191304388093,-0.008793435100512698,0.05478342578273099,0.014750933319318288,0.0753514830181555,0.06163509802824202,-0.09644522088468951,0.06424919831339582,0.06416815683502217,0.08801480575958068,-0.01746669701770523,-0.01536697671325396,0.016191335532781265,-0.06838848308905887,0.05234624273789232,-0.05396878709321404,0.06194690974697045,0.09770432016070549,-0.03351034353234422,-0.04003365883537174,-0.09729217466695585,-0.056552432108239105,0.08147294355323462,0.06969355839288771,0.09100351469829138,0.05577954201102464,0.09749192537149828,-0.0864809237722466,0.05871951630482583,0.01890071223421322,0.04655974505235086,0.03904657675499068,0.035963958142597174,-0.021535906160380675,0.012311488471633242,-0.058386388589607284,0.005474291721723118,-0.019158296376659806,-0.029447518379709214,0.35821782003458186,0.06741487522511458,-4.605708161012532,-6.364800065071931,-0.021018357874414723,-0.022540818971144475,0.045390944323125376,-0.022286038504116118]},{"bias_weight":-2.606468880623556,"weights":[-1.4778813949710137,-1.281973891489953,-0.5685879056938361,-0.4259071576869384,-0.7941663507190219,-0.7873297179611468,-0.9906655802734666,-0.5325286023764852,-0.7056838380860345,-0.6173502603704462,-0.5886741812721725,-0.7310215780264963,-0.728100560476315,-0.8101948192188296,-0.6538765064246411,-0.8880909928083569,-0.9703700471835979,-0.6806765538041674,-1.0500161691972834,-1.2623051202898314,-1.2136375084589843,-0.845525909398692,-0.4547168050991415,-0.40691121669788205,-0.3379056258734779,0.2042124228729488,0.37745881597512876,-0.057645382768366615,-0.29962240601256285,-0.5765079153368541,-0.18722188692836567,0.30575726116316965,0.8791337778757827,0.7288299224859869,1.257521284663673,1.5798365728366859,1.0393432984218818,1.1937382015461473,0.9571803141306774,0.3404292353159638,0.1646812407385681,-0.14941708370112697,-0.5169420114509056,-0.47666818540703926,-0.21554264257063988,0.7030593568542619,-0.0024862146263203433,0.05879499430983856,0.08417495823043236,0.06150620508728022,0.04115485033374397,-0.0994363134876032,0.04214077501814337,0.028792191304388093,-0.008793435100512698,0.05478342578273099,0.014750933319318288,0.0753514830181555,0.06163509802824202,-0.09644522088468951,0.06424919831339582,0.06416815683502217,0.08801480575958068,-0.01746669701770523,-0.01536697671325396,0.016191335532781265,-0.06838848308905887,0.05234624273789232,-0.05396878709321404,0.06194690974697045,0.09770432016070549,-0.03351034353234422,-0.04003365883537174,-0.09729217466695585,-0.056552432108239105,0.08147294355323462,0.06969355839288771,0.09100351469829138,0.05577954201102464,0.09749192537149828,-0.0864809237722466,0.05871951630482583,0.01890071223421322,0.04655974505235086,0.03904657675499068,0.035963958142597174,-0.021535906160380675,0.012311488471633242,-0.058386388589607284,0.005474291721723118,-0.019158296376659806,-0.029447518379709214,0.2653713276751822,-0.4052976968867235,-4.507780720283603,-6.655992622899847,-0.021018357874414723,-0.022540818971144475,0.045390944323125376,-0.022286038504116118]},{"bias_weight":2.3977110869225147,"weights":[0.27914447302992096,0.4480040298163054,-0.1299535406802769,-0.3192223291500865,0.005021712475832334,0.21661386503612548,0.30984154606851005,0.22252877064564375,0.5708104737096984,0.5138048156412703,0.10265540469118521,0.47311455248453377,0.5058195725149429,0.7420609917946743,0.37180690946938766,0.5139636334406356,0.6573150769199232,0.5353375314914404,0.5355073560223149,0.6126145205979726,0.6252065603045174,0.4333419899244618,-0.09394839685581108,-0.3417051657151837,-0.36082659109663,-0.24296944591665523,-0.16221969216501975,0.0498038105890374,0.09263858226065053,0.4087239823828497,0.0697111343425471,-0.8052925884323713,-1.2980607032152913,-1.815857031233897,-1.9684092454667184,-1.8233811916238518,-1.5926779129273907,-1.4461941278383423,-1.2841247881057931,-0.4589627732862675,-0.35429574871069974,-0.3679928513269431,0.02600621180887873,-0.06483611879130892,0.3969883584387637,-0.5499059173472695,-0.0024862146263203433,0.05879499430983856,0.08417495823043236,0.06150620508728022,0.04115485033374397,-0.0994363134876032,0.04214077501814337,0.028792191304388093,-0.008793435100512698,0.05478342578273099,0.014750933319318288,0.0753514830181555,0.06163509802824202,-0.09644522088468951,0.06424919831339582,0.06416815683502217,0.08801480575958068,-0.01746669701770523,-0.01536697671325396,0.016191335532781265,-0.06838848308905887,0.05234624273789232,-0.05396878709321404,0.06194690974697045,0.09770432016070549,-0.03351034353234422,-0.04003365883537174,-0.09729217466695585,-0.056552432108239105,0.08147294355323462,0.06969355839288771,0.09100351469829138,0.05577954201102464,0.09749192537149828,-0.0864809237722466,0.05871951630482583,0.01890071223421322,0.04655974505235086,0.03904657675499068,0.035963958142597174,-0.021535906160380675,0.012311488471633242,-0.058386388589607284,0.005474291721723118,-0.019158296376659806,-0.029447518379709214,0.5849722288444027,-1.5937172613435044,4.802641499281182,5.928568250910746,-0.021018357874414723,-0.022540818971144475,0.045390944323125376,-0.022286038504116118]},{"bias_weight":-2.4728652110543674,"weights":[-1.3508324261200035,-1.1724971039896852,-0.4782406608036567,-0.34573251106122393,-0.7624801100407375,-0.7345820248694143,-0.9073910204917344,-0.4556142212892564,-0.6453928629485653,-0.6432709066537774,-0.665510903297958,-0.7932437926400321,-0.7595138115181189,-0.846917478465772,-0.6870530316881194,-0.8308696492389106,-0.9073419254856389,-0.5902433751568887,-0.995782317059459,-1.1507579192152642,-1.1123904830554365,-0.8208399683978432,-0.44679672818931343,-0.2809081273718714,-0.2289268082840645,0.29547141567555074,0.4319980126954665,-0.05259756735757397,-0.26822514741172954,-0.5056842262549754,-0.12574729389655107,0.34210443455019013,0.8513940564666007,0.6384421141620966,1.189756849531987,1.4930772053903922,0.9577220924014997,1.1323848501969176,0.9807591677366951,0.3674217959200944,0.2352780018691041,-0.11211416570446094,-0.4258302455503858,-0.40131879891446426,-0.18773221692425776,0.7103574259713268,-0.0024862146263203433,0.05879499430983856,0.08417495823043236,0.06150620508728022,0.04115485033374397,-0.0994363134876032,0.04214077501814337,0.028792191304388093,-0.008793435100512698,0.05478342578273099,0.014750933319318288,0.0753514830181555,0.06163509802824202,-0.09644522088468951,0.06424919831339582,0.06416815683502217,0.08801480575958068,-0.01746669701770523,-0.01536697671325396,0.016191335532781265,-0.06838848308905887,0.05234624273789232,-0.05396878709321404,0.06194690974697045,0.09770432016070549,-0.03351034353234422,-0.04003365883537174,-0.09729217466695585,-0.056552432108239105,0.08147294355323462,0.06969355839288771,0.09100351469829138,0.05577954201102464,0.09749192537149828,-0.0864809237722466,0.05871951630482583,0.01890071223421322,0.04655974505235086,0.03904657675499068,0.035963958142597174,-0.021535906160380675,0.012311488471633242,-0.058386388589607284,0.005474291721723118,-0.019158296376659806,-0.029447518379709214,0.21953760377574022,-0.3741377797463649,-4.344591824280582,-6.526148428726492,-0.021018357874414723,-0.022540818971144475,0.045390944323125376,-0.022286038504116118]},{"bias_weight":1.7567932752694142,"weights":[-0.4593126411098945,-0.24395796396153538,-0.8626412576348829,-1.0977018761617587,-0.8983567307992294,-0.6882041880524984,-0.1315288604754194,-0.6102592623138933,-0.003927118931514354,-0.12217869623804727,-0.49785874982553624,-0.03902379269876999,0.007103961538996192,0.08936177509882724,-0.3593648880653652,-0.1241265808731373,0.08781398744439001,-0.14362982225643903,-0.04873245177450434,0.26214382045448414,0.23110451261217205,-0.14020468652639023,-0.7675328366671945,-0.8822350105543284,-0.8230415074287747,-0.9350631162449563,-1.0873418159436803,-0.9826428848688417,-0.914013674689448,-0.055472908374266335,-0.8265179647808031,-1.6525649232675832,-2.3065701726196166,-2.8287261975483418,-2.9376826097353574,-2.746879417876996,-2.67989914742632,-2.6036004916480087,-2.1208769260244797,-1.0154525313697464,-1.0572555722693162,-0.9795568547062615,-0.355003347721667,-0.44637813383712854,-0.1648033154120562,-1.197111703414574,-0.0024862146263203433,0.05879499430983856,0.08417495823043236,0.06150620508728022,0.04115485033374397,-0.0994363134876032,0.04214077501814337,0.028792191304388093,-0.008793435100512698,0.05478342578273099,0.014750933319318288,0.0753514830181555,0.06163509802824202,-0.09644522088468951,0.06424919831339582,0.06416815683502217,0.08801480575958068,-0.01746669701770523,-0.01536697671325396,0.016191335532781265,-0.06838848308905887,0.05234624273789232,-0.05396878709321404,0.06194690974697045,0.09770432016070549,-0.03351034353234422,-0.04003365883537174,-0.09729217466695585,-0.056552432108239105,0.08147294355323462,0.06969355839288771,0.09100351469829138,0.05577954201102464,0.09749192537149828,-0.0864809237722466,0.05871951630482583,0.01890071223421322,0.04655974505235086,0.03904657675499068,0.035963958142597174,-0.021535906160380675,0.012311488471633242,-0.058386388589607284,0.005474291721723118,-0.019158296376659806,-0.029447518379709214,0.6819132077940753,-1.5300574415401438,4.276104699605379,5.4118773136218215,-0.021018357874414723,-0.022540818971144475,0.045390944323125376,-0.022286038504116118]},{"bias_weight":2.4866871485150033,"weights":[1.3527506653674668,1.0084324037034247,0.7513604897481958,-0.07209709801412076,-0.5067513755226551,-0.5199794324437192,-0.6336408335122855,-0.6446504188997488,-1.0270898606534993,-1.2963047176171778,-1.2636578251343875,-0.7900663989421535,-1.0947039952360271,-0.5396483543483144,-0.5832535350748134,0.5968745402759028,0.7474271505475808,0.9807527856552828,1.7402653835316022,1.658649063067136,1.6380258292532193,0.4095308998554162,-0.09569041798820727,0.43904672086630925,-0.21813898283660577,-0.5656508383919139,-1.4384489173371522,-1.8645461090667075,-1.8352432166983077,-1.5776530754597589,-1.4647031129081183,-2.4023842294622053,-2.5638920035622967,-2.5025902142782264,-2.409976868500826,-2.7551700526056773,-2.4028801180143926,-2.08373726658172,-1.3727235466622763,-0.9431048829352195,-0.774582213212807,0.058751473949195276,0.07592671000021353,-0.13895823507561586,-0.975335931071461,-1.811470977661749,-0.0024862146263203433,0.05879499430983856,0.08417495823043236,0.06150620508728022,0.04115485033374397,-0.0994363134876032,0.04214077501814337,0.028792191304388093,-0.008793435100512698,0.05478342578273099,0.014750933319318288,0.0753514830181555,0.06163509802824202,-0.09644522088468951,0.06424919831339582,0.06416815683502217,0.08801480575958068,-0.01746669701770523,-0.01536697671325396,0.016191335532781265,-0.06838848308905887,0.05234624273789232,-0.05396878709321404,0.06194690974697045,0.09770432016070549,-0.03351034353234422,-0.04003365883537174,-0.09729217466695585,-0.056552432108239105,0.08147294355323462,0.06969355839288771,0.09100351469829138,0.05577954201102464,0.09749192537149828,-0.0864809237722466,0.05871951630482583,0.01890071223421322,0.04655974505235086,0.03904657675499068,0.035963958142597174,-0.021535906160380675,0.012311488471633242,-0.058386388589607284,0.005474291721723118,-0.019158296376659806,-0.029447518379709214,-1.4761135731919168,3.584563033525208,3.84233533468406,7.258957809014667,-0.021018357874414723,-0.022540818971144475,0.045390944323125376,-0.022286038504116118]},{"bias_weight":2.3977963386750574,"weights":[0.27991306824801404,0.4484410012453563,-0.1291170851867404,-0.31839808743018266,0.004506948129080597,0.2160863329476971,0.3094363193682534,0.22148929581837495,0.5700410569702884,0.5137070125516736,0.10239139997402959,0.4730745885816852,0.5055034859418713,0.7424046160674724,0.37202380999289814,0.5142747333087945,0.657580022971675,0.5357550258399276,0.5359928669770403,0.6130558803098989,0.6252008110154889,0.43352287500923115,-0.09380931729555377,-0.3411625586236605,-0.3605575205260556,-0.24216847178538883,-0.161400193292769,0.04918043873991044,0.09202616191843685,0.40817344389545607,0.06831537740258345,-0.8064062555453407,-1.2982703589716391,-1.816254621809989,-1.9682561357775736,-1.8235244392044196,-1.591823069317572,-1.4456849936396405,-1.283528364351293,-0.45839067998438926,-0.3536359068090152,-0.3670267638342149,0.026647584933595394,-0.06477508131365614,0.397331682978092,-0.5496496311337059,-0.0024862146263203433,0.05879499430983856,0.08417495823043236,0.06150620508728022,0.04115485033374397,-0.0994363134876032,0.04214077501814337,0.028792191304388093,-0.008793435100512698,0.05478342578273099,0.014750933319318288,0.0753514830181555,0.06163509802824202,-0.09644522088468951,0.06424919831339582,0.06416815683502217,0.08801480575958068,-0.01746669701770523,-0.01536697671325396,0.016191335532781265,-0.06838848308905887,0.05234624273789232,-0.05396878709321404,0.06194690974697045,0.09770432016070549,-0.03351034353234422,-0.04003365883537174,-0.09729217466695585,-0.056552432108239105,0.08147294355323462,0.06969355839288771,0.09100351469829138,0.05577954201102464,0.09749192537149828,-0.0864809237722466,0.05871951630482583,0.01890071223421322,0.04655974505235086,0.03904657675499068,0.035963958142597174,-0.021535906160380675,0.012311488471633242,-0.058386388589607284,0.005474291721723118,-0.019158296376659806,-0.029447518379709214,0.5850582310812487,-1.5927665659272483,4.802513422059748,5.928032530734909,-0.021018357874414723,-0.022540818971144475,0.045390944323125376,-0.022286038504116118]},{"bias_weight":2.3384297880249836,"weights":[0.21979775126292903,0.4033869108828483,-0.1805839851935891,-0.3724059346316418,-0.024129061305053975,0.19168031011839293,0.28032013860252564,0.1804921727555982,0.5357044022450553,0.4282704809734407,0.011148394035668481,0.3782929314591679,0.41582068210682044,0.6384779821240654,0.27387406219507926,0.4223448011118939,0.570463409278246,0.44654199195441086,0.45097439567800024,0.528005177562715,0.5526441634087751,0.36562263793904115,-0.16868200368344116,-0.41733971142234433,-0.41568151230391504,-0.295516748038374,-0.21749116917530606,0.019464835996834094,0.06771070240166924,0.3766574224364881,0.02231599817614108,-0.8510139516040062,-1.4032172897033377,-1.9256145106323548,-2.0895462391462916,-1.9423337423218159,-1.7330435830547901,-1.570015944754542,-1.402149155839478,-0.5633084038888301,-0.4570354314434987,-0.4756766070468601,-0.0798391920480931,-0.15872365084644005,0.31616659324847873,-0.6398197382873497,-0.0024862146263203433,0.05879499430983856,0.08417495823043236,0.06150620508728022,0.04115485033374397,-0.0994363134876032,0.04214077501814337,0.028792191304388093,-0.008793435100512698,0.05478342578273099,0.014750933319318288,0.0753514830181555,0.06163509802824202,-0.09644522088468951,0.06424919831339582,0.06416815683502217,0.08801480575958068,-0.01746669701770523,-0.01536697671325396,0.016191335532781265,-0.06838848308905887,0.05234624273789232,-0.05396878709321404,0.06194690974697045,0.09770432016070549,-0.03351034353234422,-0.04003365883537174,-0.09729217466695585,-0.056552432108239105,0.08147294355323462,0.06969355839288771,0.09100351469829138,0.05577954201102464,0.09749192537149828,-0.0864809237722466,0.05871951630482583,0.01890071223421322,0.04655974505235086,0.03904657675499068,0.035963958142597174,-0.021535906160380675,0.012311488471633242,-0.058386388589607284,0.005474291721723118,-0.019158296376659806,-0.029447518379709214,0.5788439699778815,-1.6361408134298303,4.782163989623412,5.922275430289442,-0.021018357874414723,-0.022540818971144475,0.045390944323125376,-0.022286038504116118]},{"bias_weight":2.4468025947737306,"weights":[0.34113313308646753,0.5126498660121279,-0.04893768298856912,-0.2498734305287346,0.054800884939533015,0.26547767719337906,0.3574865974975815,0.27744876588671574,0.6110507022648031,0.5732641629972791,0.17932950752778135,0.5479783840273542,0.5715502444143418,0.8242644091458358,0.4469771219776956,0.5797446161423424,0.7173884497367785,0.5946696295849996,0.5872951370764333,0.6589841456237114,0.658147466917635,0.4623399126280496,-0.05964984245129178,-0.2626373979012886,-0.27878725709444124,-0.15515638884738098,-0.09774359924001945,0.0909273806793571,0.13201033937526283,0.4501735506562544,0.1243027936120429,-0.7573228064204366,-1.222459854050693,-1.722202640376985,-1.8696825373401385,-1.7338423409750452,-1.4784537977262628,-1.3530227980064962,-1.2014248469149658,-0.388350403754171,-0.2851901749141334,-0.29523454551790185,0.09301479576017403,-0.014089299766424554,0.4389846072976644,-0.5023641415271853,-0.0024862146263203433,0.05879499430983856,0.08417495823043236,0.06150620508728022,0.04115485033374397,-0.0994363134876032,0.04214077501814337,0.028792191304388093,-0.008793435100512698,0.05478342578273099,0.014750933319318288,0.0753514830181555,0.06163509802824202,-0.09644522088468951,0.06424919831339582,0.06416815683502217,0.08801480575958068,-0.01746669701770523,-0.01536697671325396,0.016191335532781265,-0.06838848308905887,0.05234624273789232,-0.05396878709321404,0.06194690974697045,0.09770432016070549,-0.03351034353234422,-0.04003365883537174,-0.09729217466695585,-0.056552432108239105,0.08147294355323462,0.06969355839288771,0.09100351469829138,0.05577954201102464,0.09749192537149828,-0.0864809237722466,0.05871951630482583,0.01890071223421322,0.04655974505235086,0.03904657675499068,0.035963958142597174,-0.021535906160380675,0.012311488471633242,-0.058386388589607284,0.005474291721723118,-0.019158296376659806,-0.029447518379709214,0.5808780085367737,-1.5585735194781183,4.8226868493360975,5.9403825165148225,-0.021018357874414723,-0.022540818971144475,0.045390944323125376,-0.022286038504116118]},{"bias_weight":2.4483820572302206,"weights":[0.3456865398949075,0.5170275780296462,-0.04228365175233364,-0.24433734407311306,0.05961413557321505,0.26995378225673283,0.36179921344553023,0.28282778322542335,0.6140652721374432,0.5784186067353306,0.18639349686165121,0.5548506382877259,0.5767171912008406,0.8288378520923124,0.45119367498061264,0.5828074504639129,0.7199652918417155,0.5971602453542729,0.5892252254708188,0.6600543962511424,0.6590684058929123,0.4632810210142518,-0.05795416485211274,-0.2569916128110517,-0.27329573941783547,-0.14829054104307268,-0.09226060175471035,0.09592880916158321,0.13650361129550992,0.4546474203155378,0.13029094390085957,-0.7528470373247352,-1.215049867908137,-1.7131019930177716,-1.8603820824649984,-1.7263234347254541,-1.4719056456877788,-1.3467374040259759,-1.1955434874129331,-0.38342870793730827,-0.2807811738389828,-0.29124312060719865,0.09608263386595713,-0.011398199066374399,0.44107099150491563,-0.49928930288895496,-0.0024862146263203433,0.05879499430983856,0.08417495823043236,0.06150620508728022,0.04115485033374397,-0.0994363134876032,0.04214077501814337,0.028792191304388093,-0.008793435100512698,0.05478342578273099,0.014750933319318288,0.0753514830181555,0.06163509802824202,-0.09644522088468951,0.06424919831339582,0.06416815683502217,0.08801480575958068,-0.01746669701770523,-0.01536697671325396,0.016191335532781265,-0.06838848308905887,0.05234624273789232,-0.05396878709321404,0.06194690974697045,0.09770432016070549,-0.03351034353234422,-0.04003365883537174,-0.09729217466695585,-0.056552432108239105,0.08147294355323462,0.06969355839288771,0.09100351469829138,0.05577954201102464,0.09749192537149828,-0.0864809237722466,0.05871951630482583,0.01890071223421322,0.04655974505235086,0.03904657675499068,0.035963958142597174,-0.021535906160380675,0.012311488471633242,-0.058386388589607284,0.005474291721723118,-0.019158296376659806,-0.029447518379709214,0.5817835321196607,-1.5557241936306228,4.821947679900552,5.939073327457947,-0.021018357874414723,-0.022540818971144475,0.045390944323125376,-0.022286038504116118]},{"bias_weight":1.8789115184733685,"weights":[-0.30906969910036364,-0.12203840364152876,-0.7823928409290566,-0.9792296606856707,-0.7461262179368752,-0.5790393229616371,-0.07230134098966746,-0.5647215120763734,0.03126919914334276,-0.07405109901625997,-0.47360879877689627,-0.00023540023187703458,0.09567376248513419,0.18408907017214846,-0.2527900246052558,-0.03645458264002047,0.18050018170888,-0.06239640096868203,0.011174133788963406,0.3341481469031158,0.2964866302103231,-0.07266540518869209,-0.692538749488827,-0.7965330890200609,-0.7822113963606118,-0.8790363788779042,-0.9559480433088127,-0.8097452855632378,-0.7914443443860213,-0.00029887979285485197,-0.8000987494750323,-1.6468086201309435,-2.2921245826262036,-2.8201357915289678,-2.9087237349963693,-2.658151501015199,-2.5922887216793145,-2.48501654423158,-2.0488678425138946,-0.9346973528169037,-0.9820884473325853,-0.9482036317384747,-0.3110253618158731,-0.41779614713695307,-0.12382369600109651,-1.1543369355446427,-0.0024862146263203433,0.05879499430983856,0.08417495823043236,0.06150620508728022,0.04115485033374397,-0.0994363134876032,0.04214077501814337,0.028792191304388093,-0.008793435100512698,0.05478342578273099,0.014750933319318288,0.0753514830181555,0.06163509802824202,-0.09644522088468951,0.06424919831339582,0.06416815683502217,0.08801480575958068,-0.01746669701770523,-0.01536697671325396,0.016191335532781265,-0.06838848308905887,0.05234624273789232,-0.05396878709321404,0.06194690974697045,0.09770432016070549,-0.03351034353234422,-0.04003365883537174,-0.09729217466695585,-0.056552432108239105,0.08147294355323462,0.06969355839288771,0.09100351469829138,0.05577954201102464,0.09749192537149828,-0.0864809237722466,0.05871951630482583,0.01890071223421322,0.04655974505235086,0.03904657675499068,0.035963958142597174,-0.021535906160380675,0.012311488471633242,-0.058386388589607284,0.005474291721723118,-0.019158296376659806,-0.029447518379709214,0.6131465936855457,-1.5222072498004124,4.4264380992561065,5.507168481956974,-0.021018357874414723,-0.022540818971144475,0.045390944323125376,-0.022286038504116118]},{"bias_weight":1.8432019040962024,"weights":[-0.3666794594865496,-0.1726588098724804,-0.8444603435142191,-1.0392037418300697,-0.8341950885000866,-0.6488731906562085,-0.12369732140700011,-0.6256228364768881,0.00020325834763526725,-0.10587154566838186,-0.49859861419064966,-0.02731743318952856,0.06534380467630543,0.15581886291607036,-0.28302321531730534,-0.06366419644611009,0.15282121176379235,-0.08910611193041973,-0.015884154839630977,0.30818190278883284,0.2652285402806785,-0.10274099539068524,-0.7289979287975205,-0.8421163862569834,-0.8165102670959565,-0.9453610182707182,-1.0195408583940768,-0.9104434976860111,-0.8691396936506177,-0.05321168759214891,-0.854160888242252,-1.6661902989256565,-2.3188138528490403,-2.830144470559421,-2.9403765828909316,-2.699577835218022,-2.627990246075531,-2.5249623704900195,-2.0831903152481948,-0.9661431357788874,-1.011340713998575,-0.966755596068762,-0.3296565002914201,-0.44073907391187317,-0.14910958224562848,-1.180926806856368,-0.0024862146263203433,0.05879499430983856,0.08417495823043236,0.06150620508728022,0.04115485033374397,-0.0994363134876032,0.04214077501814337,0.028792191304388093,-0.008793435100512698,0.05478342578273099,0.014750933319318288,0.0753514830181555,0.06163509802824202,-0.09644522088468951,0.06424919831339582,0.06416815683502217,0.08801480575958068,-0.01746669701770523,-0.01536697671325396,0.016191335532781265,-0.06838848308905887,0.05234624273789232,-0.05396878709321404,0.06194690974697045,0.09770432016070549,-0.03351034353234422,-0.04003365883537174,-0.09729217466695585,-0.056552432108239105,0.08147294355323462,0.06969355839288771,0.09100351469829138,0.05577954201102464,0.09749192537149828,-0.0864809237722466,0.05871951630482583,0.01890071223421322,0.04655974505235086,0.03904657675499068,0.035963958142597174,-0.021535906160380675,0.012311488471633242,-0.058386388589607284,0.005474291721723118,-0.019158296376659806,-0.029447518379709214,0.6251045126526771,-1.5102223777196613,4.3952301274757755,5.4847443411693435,-0.021018357874414723,-0.022540818971144475,0.045390944323125376,-0.022286038504116118]},{"bias_weight":1.7786742383810221,"weights":[-0.4412276992071261,-0.23149536623775108,-0.8627171629945527,-1.0885929951061752,-0.8898580162097102,-0.6816119767242201,-0.13314421373440413,-0.623873620032586,-0.00513378245133293,-0.12048389544838817,-0.5050408843781903,-0.04050642452737188,0.01817834407859715,0.10243257944788532,-0.34319308108483376,-0.11132865124594432,0.10288663533871105,-0.13110135070441892,-0.041097993556906874,0.2756383433589562,0.24032157629607348,-0.1290274218630506,-0.7567630935141219,-0.8717873926919497,-0.8199889339608782,-0.9394135350472784,-1.0751088783286142,-0.9723196548928282,-0.9048489811807868,-0.057576592921673726,-0.8427409843396101,-1.6582492298873943,-2.3129024847811173,-2.8435187303384106,-2.949318756489037,-2.7414985978550757,-2.6742611759186103,-2.5905974356019654,-2.1182971150253165,-1.007445429715184,-1.0497061357224573,-0.9804607400538352,-0.3493212321308406,-0.4461651184326881,-0.16071729616331712,-1.1937289245424811,-0.0024862146263203433,0.05879499430983856,0.08417495823043236,0.06150620508728022,0.04115485033374397,-0.0994363134876032,0.04214077501814337,0.028792191304388093,-0.008793435100512698,0.05478342578273099,0.014750933319318288,0.0753514830181555,0.06163509802824202,-0.09644522088468951,0.06424919831339582,0.06416815683502217,0.08801480575958068,-0.01746669701770523,-0.01536697671325396,0.016191335532781265,-0.06838848308905887,0.05234624273789232,-0.05396878709321404,0.06194690974697045,0.09770432016070549,-0.03351034353234422,-0.04003365883537174,-0.09729217466695585,-0.056552432108239105,0.08147294355323462,0.06969355839288771,0.09100351469829138,0.05577954201102464,0.09749192537149828,-0.0864809237722466,0.05871951630482583,0.01890071223421322,0.04655974505235086,0.03904657675499068,0.035963958142597174,-0.021535906160380675,0.012311488471633242,-0.058386388589607284,0.005474291721723118,-0.019158296376659806,-0.029447518379709214,0.6696897973594902,-1.5307127039615642,4.308381397629939,5.4261683417111755,-0.021018357874414723,-0.022540818971144475,0.045390944323125376,-0.022286038504116118]},{"bias_weight":-2.5785756070233785,"weights":[-1.45905712087862,-1.2692671832467304,-0.5581656928463314,-0.41540235889270793,-0.7967963299440378,-0.781144069681844,-0.971764340048641,-0.5146028489485275,-0.6934873271520406,-0.6219816836158892,-0.6079592395119252,-0.739006793523482,-0.73041094098525,-0.8142777288286136,-0.6580691913699329,-0.8654579121892425,-0.9476519173560624,-0.6512588705155533,-1.0367213156027033,-1.2342129112654376,-1.1870058761597118,-0.8428844275307055,-0.4588031059912647,-0.38880118285200194,-0.3262044704446452,0.21353656336577334,0.383607419639465,-0.06432359536245956,-0.297172269094855,-0.5599253406346589,-0.17092300967839616,0.3131443901215205,0.8699672520540808,0.7010813323973627,1.2323223828343843,1.5573002518729455,1.017831073876728,1.1817426654142316,0.9710974254961209,0.35618477309462676,0.18920554870313788,-0.14155720389409035,-0.4942659346200415,-0.45822718517213745,-0.21482840392950303,0.7009309783405432,-0.0024862146263203433,0.05879499430983856,0.08417495823043236,0.06150620508728022,0.04115485033374397,-0.0994363134876032,0.04214077501814337,0.028792191304388093,-0.008793435100512698,0.05478342578273099,0.014750933319318288,0.0753514830181555,0.06163509802824202,-0.09644522088468951,0.06424919831339582,0.06416815683502217,0.08801480575958068,-0.01746669701770523,-0.01536697671325396,0.016191335532781265,-0.06838848308905887,0.05234624273789232,-0.05396878709321404,0.06194690974697045,0.09770432016070549,-0.03351034353234422,-0.04003365883537174,-0.09729217466695585,-0.056552432108239105,0.08147294355323462,0.06969355839288771,0.09100351469829138,0.05577954201102464,0.09749192537149828,-0.0864809237722466,0.05871951630482583,0.01890071223421322,0.04655974505235086,0.03904657675499068,0.035963958142597174,-0.021535906160380675,0.012311488471633242,-0.058386388589607284,0.005474291721723118,-0.019158296376659806,-0.029447518379709214,0.2618959741629796,-0.39855066338479406,-4.465426043560314,-6.616154124803715,-0.021018357874414723,-0.022540818971144475,0.045390944323125376,-0.022286038504116118]},{"bias_weight":-2.6375457267898446,"weights":[-1.528793382104619,-1.3175692846908007,-0.6171413712239524,-0.4388835067910772,-0.7496092582589471,-0.7380993374584808,-0.985314053981543,-0.524130080672128,-0.7095663925503105,-0.6199259536015733,-0.5441052618818979,-0.6857506236341191,-0.6693293837759429,-0.7137568327492914,-0.5277374975571981,-0.8673350028496306,-0.9421165310024919,-0.6651347616442707,-1.0348712616566826,-1.2650060791427018,-1.1957725807609358,-0.8336151191517415,-0.4157423054851331,