{"learning_rate":0.001,"layers":[{"function":"SELU","size":100,"inputSize":100,"neurons":[{"bias_weight":5.844127967853459,"weights":[1.561938505095086,2.2481050778450733,1.4677652286754859,1.7538965727479203,0.9659295058755489,0.43362890354418515,0.273976966317561,0.35178178898537626,0.5945257865220509,0.4661762864143154,-0.37188971874338733,0.30192583393110173,-0.037121984972254336,0.6091590643490012,0.943373612109189,0.8054157040934491,1.9699475354235572,2.3241253392003434,2.4279204965537424,1.4765317501008008,1.1991736513672935,0.8755355107391697,0.8470383217794767,1.4085513033132324,1.6302295006443253,1.3964735279048857,1.4773747384774714,1.8593576284102713,1.8771969317461448,1.8733196371859804,2.3783820707148284,2.259083212452071,2.045804203042536,1.2401242781397126,2.0147680422517382,1.7591197817321902,1.6091708590636293,1.3871161070916167,2.601915673772037,2.6591848642350735,2.9377152352155527,2.7206191562512383,1.7886547678898186,1.4570528538163363,1.6080127726414972,0.8015314904590023,1.7102964652700805,1.0705435277913624,3.041732292219766,2.1245912719100897,3.8785382157303654,2.5086201762780598,2.942379590552313,2.3885756812914916,4.974602621004024,4.578218040606089,4.444906845208338,4.295402832372679,4.729692547150108,4.45797432453218,3.712382193960561,2.210097805500349,-0.14841597575789542,-1.489407322860849,-1.8514565962583838,-1.6451586621960157,-1.083339333026749,0.010569395172218717,0.06085666811301171,0.8779784631954732,0.07772716322124548,0.23175052226766588,0.2122439906408741,-0.20324592640650022,-0.5238444513118474,0.5234194331694538,0.20767064480897734,2.792227487855702,1.2059253085105945,3.865686154839673,2.4532791713151325,1.1023682331179994,0.15382401204008447,-0.20536571990160654,0.24503691938407768,0.756743805081554,0.06892189594063006,-0.025136829919429848,-0.432085706424566,0.00045397281873095415,0.3323033277707009,0.639864107832979,-2.1338976527598406,0.11233758814173633,12.785479365289229,4.708065720341305,-0.021018357874414723,-0.022540818971144475,0.045390944323125376,-0.022286038504116118]},{"bias_weight":-1.9190921166668689,"weights":[0.21629416439730162,0.5185089201748759,0.519901617540927,-0.0361411758729457,0.8167524092574707,1.6530769137425687,1.0662539574273286,1.4798112209289536,0.5170420046039222,-0.3937512607473681,0.1866098482008233,0.7931739659964673,1.2636896686585781,1.010290785298684,0.1573984692604825,-0.14953321748847484,-0.14520483960856126,0.5498254531481933,0.8898580461865887,1.4686568651142196,1.6831332195315087,1.5004546139959627,1.9896264036237117,0.9621168425629706,1.1438298708125532,1.0338095192498753,0.9969830228374809,0.9049576562153149,1.1007383559505952,0.2676105451696752,0.3617871841665941,-0.26347693031310726,-0.6666760312141061,-0.4200511984799801,-0.1015755117905176,0.45308686404344073,0.2738860983910386,0.048678304803094055,-0.8637080327033891,-0.10995813296757398,0.1958842729943679,0.8696664381449716,1.4486673082720949,1.4919537138623231,1.3896701805562892,2.5621181840066933,-1.2357691233588683,-1.4116730039702592,-1.6715798976797138,0.7956658083240301,-0.7277061385282626,-1.0370254504053575,-1.1911265267432127,-1.8548193978707017,-4.349520159495261,-2.8782168833304675,-2.8797308003141717,-2.051696839919252,-3.3868451511662205,-2.5755704726103454,-1.9277728859831167,-0.775328066827611,0.05682317590565599,-0.1613167296410297,0.9981541336059433,2.220620839471693,3.599189706751639,2.271093150976526,0.8744417303626502,-0.9761470753781187,-1.3062205638505529,-1.1752556310750284,-0.37206503187832207,0.5139808364798795,0.6727551465696326,-0.008176904409348786,-0.29471578428140666,-3.043273722650546,-0.09498812106403322,-2.2086519657475545,-0.44070409464396454,-1.2195448224373902,0.5244551028270157,0.9929199390888674,1.1195791942184512,-0.3529938384598564,-1.7223558956747698,-0.7683537672847898,-0.5941620412064925,1.1906033878401565,0.01776697403990335,-0.22975177999618385,-1.046454343248731,0.0955312715448405,-10.545962189275107,1.870033814805901,-0.021018357874414723,-0.022540818971144475,0.045390944323125376,-0.022286038504116118]},{"bias_weight":-5.010668730515757,"weights":[1.390913460827989,1.3143740793148173,1.6270706344674453,0.6466088469786886,0.5169152635512059,-0.4532712094124393,-1.1927313851273456,-1.5646858049064571,-1.4916387083020575,-2.549060168778889,-2.3471382753008707,-1.6212624378752123,-1.1687049596789505,-0.298950335996128,0.0396774593888825,-0.13623685992706244,-0.16237907589048825,-0.25942798364947667,0.27419800722885285,0.5848433925728551,1.1516794393930567,0.7250602355733297,0.2229903052827257,1.7928456600223017,1.809973265733794,1.4741280419937022,0.7187195695318108,-0.8379401350675333,-2.031314079893016,-2.6456317348375378,-3.339664748040575,-2.892922321985798,-3.4184762046755073,-3.3408728677318322,-2.5350909965158945,-1.3784383172216732,-0.15289144192843093,1.00806417182781,0.22576455096836512,0.6762610163806181,0.12757064926486483,0.6588212756443809,0.8404533300874745,1.14837022152883,0.5599290870798764,0.10043481134704496,-2.5835644489963907,-1.1013275931305413,-2.871010941443537,-2.6130620943527245,-5.19672233364968,-3.2898255802466356,-3.3521625877724897,-2.9710009822433894,-4.928781101750636,-4.944716227352949,-3.176514880201011,-1.7258363370935967,-1.7766657201731446,-1.2048919249157313,-1.202989169923663,-0.08003815431890905,1.78395440351829,1.1719843670271597,2.2063473194670618,0.2621606536669117,0.6290942026882761,-0.645568562746034,-1.2978167224248818,-1.5854895299530818,-0.3319664629425622,-1.0683903662173,-1.4963709299189325,-1.0839062085214084,0.31204243394493875,-0.6827601586732603,-0.7433134613975908,-2.1521397225576626,-1.8228640132855733,-2.4845378010607457,0.09518621688713863,1.1595413772605103,2.5793039532895747,0.30221302091299646,-0.4400525855914712,0.05672790109125474,0.2853715888357976,0.8699328083298302,-0.2586413562418714,-0.20281810894933167,-0.2722016186172353,-0.8228910499711443,-1.0920229875784544,-2.198292245927697,-13.393060623389834,-2.0613729044101774,-0.021018357874414723,-0.022540818971144475,0.045390944323125376,-0.022286038504116118]},{"bias_weight":2.6034788307638084,"weights":[0.7817400693438393,1.2115561629075844,0.7685129156631132,0.7152071040873249,-1.320925038399339,-1.9591685353144463,-3.37405551716386,-3.163121111377094,-2.4282026236059915,-2.1400477445400465,-2.9531982210976713,-3.17146239551132,-3.6157175085344897,-1.8244933399554861,-0.46995734523645766,0.28958130679429267,0.8713791621835085,0.9386433828323043,1.1018928744432097,0.4005785049574151,0.2721731638565763,0.12322068863368622,0.1236040088556599,1.337399174281044,1.126665201679712,1.0539731895356,0.7253116197568509,0.48268606679435594,0.12338003293107691,-1.192009899658481,-1.1245487926413404,-1.2006737615431506,-1.6080933062216085,-2.318532117790631,-2.0919507204683776,-2.287271146975495,-1.726996089126515,-1.4931619445597688,-0.25004305768817486,-0.028031225814792542,0.01217169018279319,0.19734954020705522,-0.3983024321800952,-0.4294112014556037,-0.0317060200928098,0.09439320432538822,2.1618250709183413,2.3409165916373027,3.3631300132916513,2.2410718676176042,3.802181779764291,2.668536168862454,3.4198499205225628,2.50195594655149,4.199205532944501,4.417594981042035,3.6482726734478206,2.9996338303922707,4.149529936820002,2.407057451003102,1.3172406238004029,-0.8033578168096489,-1.7144164031752664,-0.8274283335898804,-1.5282591941146426,-1.9877341660446144,-1.412933449505058,1.1671437760172154,0.34758945219663856,0.6458383907766473,1.4297213965227364,0.10881207043269403,-0.15584455654546356,-0.02540124819827173,-0.25913578434960766,0.987828715357943,1.164861060004091,2.6830205511354115,2.4847204333957973,3.9020062350667595,1.8051751982443616,1.1294554230439906,-1.3133016599711769,-1.2852808562495548,-0.6443491072381107,-0.1213035443085816,0.26861926740602227,0.2277612000021058,-0.6467428614015547,-0.9245445003569165,-0.41185945159296944,-0.8431236093139852,-2.2216563131815055,6.344389362280964,10.383180866831246,-1.707293492241672,-0.021018357874414723,-0.022540818971144475,0.045390944323125376,-0.022286038504116118]},{"bias_weight":1.8124301332405655,"weights":[1.6653712563614589,1.3443118807955248,0.1591869340123137,-0.12365601421836056,-2.6984643256647973,-4.2144829833275415,-4.412986065823255,-4.1927627295766365,-3.8471368522568503,-3.8772573553675143,-3.819569916603585,-2.682928440629927,-3.4790546515893,-2.0618523658664394,-1.2186444850165994,0.12221433475391782,0.37553687169067546,0.37973640247219503,0.7942244663556091,-0.25759364087411646,-0.14285224172898495,-0.5568293323318805,-0.2949149932018636,1.130224458806643,0.39365677510121166,0.032085571159701815,-0.14599347490745695,-0.6785980919083275,-1.4795761118263282,-1.3950628391143804,-1.0888503823414202,-1.1512730070465689,-1.3238642012466009,-1.4421886872930039,-0.42220592185454087,-1.2564144906501515,-0.8063940085500795,-0.7620736877844589,0.974419723613406,0.7467180858768779,0.7839791263139587,0.8831231992783115,-0.07036746898264058,0.12648162462973828,0.03155616325749288,0.06986524106324882,-1.0677590303499103,-0.29923800514378995,3.1858465640098492,1.9889817764031024,4.093401166168148,2.3676623623159876,3.313865264882603,2.773593268118804,2.7700995799524364,3.747785069092309,3.740638769027003,2.4645362025004824,4.996015250594367,5.042797028066598,4.597752263509848,0.9959086994524466,-2.9060101843516106,-3.3866011324491523,-3.778922032738663,0.308430016453588,0.07225983609085936,0.4450541283856199,1.7135258935922737,-1.721715968316396,-0.856533868223017,-0.12807786337200497,-0.501152352191228,1.286307054032948,0.31462685703839155,1.3126566677472824,1.0454682381015583,0.8286177210149295,1.2248924995964956,2.7223303083309927,1.0168157342884103,1.398548412820911,0.38815252630732205,0.4772751059705717,0.19569205280263155,-1.3770527201166634,-2.63981567929559,-3.0220279342019998,0.5508992413029026,0.37008007185682507,0.2523784370895911,0.8828690111310188,-0.1952212778805254,6.896797595953205,11.037246991842165,-2.430484995237397,-0.021018357874414723,-0.022540818971144475,0.045390944323125376,-0.022286038504116118]},{"bias_weight":3.2863924943743585,"weights":[-1.4436462917697248,-1.3501875160226389,-1.6249345207164299,-1.2199663898653363,-1.3200087123783801,-1.1638805337160056,-2.3727979725823856,-2.326956926235186,-1.4433665147871984,-1.466760730172898,-1.3998686194472043,-2.585401894934592,-2.9121921723251476,-2.4044538539307494,-2.1918340479206253,-5.073992907715514,-4.8068363629288875,-4.443687888735793,-2.0555260538577085,-1.3028504245857464,-0.3151599200435667,-0.12330287269899168,2.7947117528239414,-1.956727105941704,-1.9372176362094895,-1.6275727734303567,-1.1240548584115424,-0.6164705121909333,-0.08369782018693087,-1.2727583401935316,-0.8132249621770528,-0.1351237521329847,-0.07840903483657301,-0.13060276588617747,-1.710941114248774,-1.9929326120159543,-2.0956308087512707,-2.088999666108169,-3.0085811061336685,-2.916260674635783,-2.7947895243480643,-0.8920519661995111,-0.03694181022647952,0.6699775978196608,1.622146195566427,2.3229482160518553,0.9792423378817962,1.521341068562557,0.6827630024209255,0.49151187414198727,1.9935460725313245,-1.850710548947773,-0.513383468585791,-1.505637620585281,1.0059680348083386,1.988400153316608,1.8224665775545454,4.230454101153167,6.558042687306923,6.013513763518864,3.968574412670079,2.7945994694407883,2.2500395949732694,0.047665949759595226,1.858673067260159,-1.9437137086552967,-3.6770800903732255,-2.3250471649499738,-2.0182834452824028,0.15948667856615925,-0.2757440049819938,-0.27171988878408915,-1.4125231344263638,-1.6189778218381783,-3.234335752039711,-1.5198266305274704,-3.1815099149459685,-1.0742760986032547,-1.5448666287930115,0.7728079626523112,2.393516725028798,2.389187682451598,2.452150722946989,0.11029663734582776,0.7933748605160604,1.3989007474632484,0.014747267026615888,2.296111343805146,-2.046976741297801,-1.8163323919650225,-0.8728725178961628,0.20830772275851162,4.314773908834002,-24.296607393036957,17.23121154889754,8.474343892025614,-0.021018357874414723,-0.022540818971144475,0.045390944323125376,-0.022286038504116118]},{"bias_weight":2.5502191096435918,"weights":[0.08639257687764085,0.7191368542107203,0.5122534274243034,0.4346491741374317,-0.9794444861065394,-1.3402333960801536,-2.9381973514210893,-2.712580048732794,-2.26925302633391,-1.5992381873715444,-2.6094618386843225,-2.5890131065071094,-2.792329824127932,-1.7845119311264492,-0.6163315840786884,-0.10825284637989036,0.9369820096577343,0.913881739216956,1.4700251122738213,0.43808375459687543,0.4483194446109318,0.7925236194066608,0.5505821982058524,0.859528637135653,0.8703555833498512,1.0101857822066351,0.6973955878376437,0.5442175592810039,0.2533233102869921,-1.1856531174736382,-1.2033859250571628,-1.5515267344474002,-1.6177166285285576,-2.462627320199794,-2.055038640338252,-2.0885174133494226,-2.0371590189872326,-1.8681958395277154,-0.9581509311840881,-0.22711538008879797,-0.16098519957796062,0.30938163919807155,-0.5370060594098597,-0.3937396152744737,0.38344741409234573,0.3528826732911841,2.6508231017310946,2.654253542085936,3.188241489295201,2.0038111038866186,3.208596814709497,2.0774491970537663,3.4481530490273444,2.58336287390285,3.8939089637784066,3.672424247419616,3.1224038093886737,2.307406983130086,3.9483459571694914,2.5786633224780338,1.1575631017491281,-0.5617174074634855,-1.5160844002765983,-0.5727886894550268,-1.7384202612348916,-1.0106669614628836,-0.9225052765094143,1.445390922727309,0.3335816309271477,1.0820235630854482,1.6495299668318744,0.328849253099462,0.5598527848648637,-0.49563577114351703,-0.5812462074998237,1.3506376893535337,1.255431173475616,2.623180397695276,1.8335181990597598,3.589047918349021,0.8579175482417112,1.0516579407628972,-1.448901660782982,-0.015272908073432215,0.5101459351521265,0.06673193848928213,0.8344177000527371,0.31173167136222685,0.06636278440125593,-0.2997198007368112,0.39677479048864184,-0.08623270215971193,-2.2585643437607135,4.328899577529552,9.296777934304675,0.029135347073257392,-0.021018357874414723,-0.022540818971144475,0.045390944323125376,-0.022286038504116118]},{"bias_weight":-4.602300608377547,"weights":[0.7195999261098948,0.8058340985579967,1.2375797337356318,0.7408177557175323,0.9361941083023003,0.0015713710510366586,-0.8358058038043564,-1.730743837303392,-1.858721371866762,-2.915230602910988,-3.0591230792466577,-2.324294745508798,-1.6180249637513762,-0.4348441591406218,0.0664713783031677,0.7854489644104328,1.0471345290666119,0.7618711548560351,0.9914740670973785,1.0082525295895788,1.3565053570798318,0.8966393393871743,0.2578955110613478,1.2191840938411125,1.316416728140609,1.0803369559405742,0.7546773709470821,-0.23373963917117122,-1.4221099464686744,-2.097538992757121,-3.315039625844743,-3.0314554743354285,-3.5524583170055997,-3.7666640484838068,-3.14731240980011,-2.0629905159504656,-0.64287969438396,1.0060092660730413,1.0106914127631683,1.753709682975188,1.105770230259941,1.323176136417616,1.2614192699074143,1.3407218972445647,0.7339921257272767,0.4434864846639763,-1.8417087048069003,-0.8987211663528979,-2.9623337014261297,-3.076269078085988,-5.2350479150386935,-2.859280185436741,-2.913816033665707,-2.3057073899531058,-4.735108001837947,-4.8093287861252465,-2.9950433429808894,-1.8180159176806439,-2.600012940610125,-2.249301894830903,-2.2907624999034204,-1.5215921952193223,0.6570618876383949,-0.0197172310803775,1.11278880006797,-0.33161947330278063,0.7684106845652245,-0.48839855043858554,-0.44948767436869996,-0.9454876850859194,0.1273339418200391,-1.0254191025120498,-1.6813288775392026,-1.1911331340690714,0.46805426535495676,-0.6087731056933985,-0.032459566607029935,-2.102225924446147,-1.7342454437687884,-2.232286603397044,-0.07438901830045834,0.4773809949383568,1.6043486807329073,-0.5237648023212802,-1.7997877552446402,-0.6128386028859109,-0.8374254929945993,-0.4291055463220289,-0.6719783852245137,-0.10141060843020076,-0.15532491033295126,-0.5122261775206762,-0.9216578171591779,-0.8842221124475009,-13.718521258348062,-0.9059847273824047,-0.021018357874414723,-0.022540818971144475,0.045390944323125376,-0.022286038504116118]},{"bias_weight":-3.7663270669835853,"weights":[-0.04729446555321411,0.07119019310068976,1.0292340297516782,1.0372437600060456,2.485608031141904,2.258036467436736,1.5988830706532768,0.4521213573560282,-0.782557798959502,-2.7407046883870843,-3.7223593621023987,-3.8765070861581994,-3.41652933301046,-2.8410772025096427,-2.153698843008372,-1.3526469427884558,-0.5729319875132274,-0.5236658957370872,0.1298803332115821,1.547776962552771,2.206370207362937,2.4769946935095657,2.2044699379104555,0.25090204180102166,0.6431910685753883,0.8871362387483139,0.9646278172843564,1.0346067458747232,0.5746950704630521,0.25895092483931764,-0.8373728641364029,-1.686663720078229,-2.9603219135064287,-3.7577068943936043,-4.303007371275128,-3.355861826893448,-2.4752478512162357,-1.0577691648036782,-0.8710435169319842,0.3102964221705288,-0.11947572904294575,0.389526274379407,1.740915733529849,1.9670857439781955,2.11638660600034,1.8328326948743257,-2.0707586078234907,-1.1614528118378524,-2.675035055974798,-2.6034780196021567,-4.907590837374629,-1.951301309717135,-1.8534418165935378,-0.15472010330057917,-4.862698833802873,-5.778583694094371,-3.968942416351765,-2.185578482112985,-2.467111561305588,-1.941181279335583,-1.9092842970865476,-0.9498839399738107,0.7799272745966811,0.32316542605577303,1.0483794432979625,-0.44393891867270696,0.020350022023155306,0.052603059858409816,-0.4972555908726607,-0.6967749088042775,0.18491300932526067,0.3677271519924701,-0.3273539231758239,0.3173890687733035,1.8737797352700194,0.2801192420446312,2.070117279707423,-1.7847006429350016,-2.450572256956467,-2.860146986631721,-0.5019261174292546,0.958170481478121,1.8870679936834769,0.2173312093316857,-0.8579143597189933,-0.7649812173630692,-0.29295099410109005,0.22696003376048374,-0.5881059338137964,-0.09161366189700135,-0.01653611925720806,0.31565324463784317,-1.1998635331788294,-4.6125039690818,-12.457887985450123,0.7513736228395101,-0.021018357874414723,-0.022540818971144475,0.045390944323125376,-0.022286038504116118]},{"bias_weight":-5.384572025039152,"weights":[0.869165047976692,0.4451939670558006,0.8614538558340777,0.06979235568587189,0.1039477562394051,-0.5995394097775925,-1.2468214717670978,-1.426343870410015,-1.262623681553889,-2.0007670017074397,-1.7044866717420444,-1.2118845220132926,-1.1296947803645614,-0.22703807588015465,-0.06641148708066923,-0.19223630945328127,-0.3648676794619996,-0.5876363262818095,-0.18783569135605346,-0.09194793234530349,-0.1687024113709176,-0.21796014580149373,-0.33506379648799706,0.9720472111353499,0.6176955505505349,0.4017127557435329,-0.16821158917419538,-1.5520684200863635,-2.6483792921506,-3.157744970977206,-3.6996694958693865,-3.20027465066977,-3.2363978205635595,-3.0765919868924425,-2.438699594174553,-1.7911874612527243,-0.5846897866651498,0.6926844843292529,-0.20033022305562706,0.147720402559942,-0.49138347709308167,-0.1117200245066947,-0.07557537902630049,-0.3557872292455677,-0.6204406579323901,-0.6253726865293994,-2.9767416280854695,-0.928542826651424,-2.4101146743424398,-1.9890081849557664,-4.726463788858571,-3.3238352208949484,-3.315062517451107,-2.8557686960346156,-5.707239156156532,-5.317466030112646,-3.72873326502864,-2.1809601711796898,-2.5645440625341314,-2.1185551058762235,-1.8291951483155755,-0.8973069262843125,0.7053657793765323,0.31432203328463576,1.418927668535317,0.5366175780810661,1.0371367763899995,-0.3514726662318931,-0.9765140668396122,-1.8111213980861682,0.0585009778087902,-0.4426282363628379,-0.6724695727835608,-0.34274098057185176,0.49850128663929466,-0.6930831887621959,-0.6855922183865979,-2.739847557206819,-2.180899282561529,-3.418375749016769,-0.9340645356054149,0.2502458342111814,1.7192737230839206,-0.330631344723739,-1.2776082579945425,-1.2119725400031693,-0.45020952334652536,-0.15787814693205943,-0.1352590593787383,-0.33849607109309,-0.19341322159894297,-0.962256756925135,-0.9464941549610693,0.09841417145602786,-13.707088933818918,-3.4155747738789937,-0.021018357874414723,-0.022540818971144475,0.045390944323125376,-0.022286038504116118]},{"bias_weight":-2.909630923729022,"weights":[0.8284419571753535,0.8305478870037013,0.7639402550162987,-0.08286700555770143,0.7587143455958,0.4972550706747053,0.2139808452523037,0.8770720474034338,1.3208659869201,-0.008805878077906679,0.22214336341597565,0.6474572671496979,0.26593040202190643,0.61717929164352,0.37261772652097824,-0.21785267216171553,-0.024940982328550874,0.02890693429017375,0.14005420761898718,0.5217156021906759,0.5516050753886477,0.13021319330037207,0.42582620874500493,0.6913077225444109,0.7190268604876359,0.3116071572821269,-0.010841943982615367,-0.1902988815878689,-0.5244486090812235,-0.740345866221349,-0.3822098663247247,0.28037210310556937,0.08025179510408745,0.16864045129716074,0.5401525257058339,0.6093292977144691,1.0710462329632195,1.146560816293832,0.4247062811712256,1.17943345558968,0.6413969020960852,0.8568480874513341,0.978726250014606,0.5773137070120683,-0.04342961461535495,0.12736032222504376,-0.30928536805011164,0.8887276797091288,-1.3698403471064855,-1.5295908395284654,-3.3938139187524614,-1.7913728618666818,-0.514732864817728,-1.8913904836532993,-3.7359714460333167,-2.570210073876212,-0.6753732546572319,-0.5488147527038333,-0.6366216036140997,0.24095175394461082,-0.2254219621517102,1.8839723766369418,1.8040945779563904,1.4516443408238229,2.2988494517580724,0.3989983215616856,1.1308593319950064,-0.286731408816493,-0.931137356143463,0.6829053548759719,0.7268551835824841,-0.4611174554422618,-2.3914437117995737,-1.7567552012199286,0.30598697783168877,0.7848604077122635,-1.026752811929985,-2.6174076666275874,-1.0515090026082676,-2.045771548758225,-0.20443613335675678,0.6481163595791785,3.5474301115182745,-0.12191347491384044,0.22099396058900436,-0.11253420123510664,-0.8479657489787583,0.392630400911435,-0.7619484702411214,-0.015799731102279488,-0.41086445405309324,-0.0829708047485154,-0.32766676095140856,-2.1804276400838494,-11.611013885464674,-0.5067714717754143,-0.021018357874414723,-0.022540818971144475,0.045390944323125376,-0.022286038504116118]},{"bias_weight":-5.295039414833666,"weights":[0.7733575273929122,0.4311262322610315,0.8281157120532552,0.055789169004546106,0.10154039857330362,-0.5109314238734868,-1.1296549879625135,-1.288399860547266,-1.2039250181197945,-2.0313716406538598,-1.704414707115147,-1.1515087547447511,-1.0601103903004065,-0.18833717425093036,-0.0978292660313963,-0.1813438572709454,-0.43823303230935057,-0.6411044862301851,-0.28682768005937886,-0.18563221316067416,-0.2342680369295855,-0.2535212310569168,-0.38565883962988096,0.9134002483006447,0.6497345336416241,0.42992822801744024,-0.12632992803141455,-1.5070146004515135,-2.5205037433069086,-3.0250072330603457,-3.52701638585613,-3.1057712894153013,-3.266818046837761,-3.0834607886686936,-2.4056639450046444,-1.7768974508650968,-0.6146776943845029,0.6047371119690212,-0.27007189369224155,0.0052944696675286465,-0.5962923282892879,-0.2521586510624512,-0.20753120139434844,-0.4474767279424271,-0.6693461622947803,-0.6631134863618934,-3.077085408685585,-1.0344716470237458,-2.4847641341764253,-1.9066623274750825,-4.653609443145085,-3.305396635633911,-3.2926902959789923,-2.824476877805547,-5.672187197238891,-5.314075027370214,-3.749994188677449,-2.2912103356259923,-2.7392968728729703,-2.2432689001503934,-1.9031778663461953,-1.0076200579490682,0.636028497110146,0.441287897549259,1.5377104917035767,0.5816527321728346,1.093933925733508,-0.25657604455403693,-0.9714840473106284,-1.923867356478492,-0.06292598297522822,-0.5845135432946432,-0.741770573660519,-0.3785174982912317,0.4768084693117285,-0.657821404911872,-0.6162061026101141,-2.6894044221451607,-2.0996259243383006,-3.420619475305371,-0.9907497945169531,0.08031911159592911,1.5675910975114198,-0.383142364568262,-1.3543769844793228,-1.2583341284145275,-0.36931521848405724,-0.10733735431095763,-0.20323282828118028,-0.29718389255400035,-0.1263246932636769,-0.9598973268832537,-0.9807271660765278,0.13582728538867841,-13.727127039753602,-3.2779506872809248,-0.021018357874414723,-0.022540818971144475,0.045390944323125376,-0.022286038504116118]},{"bias_weight":6.3074660074219215,"weights":[1.3552840210723192,1.7874955782777924,0.9831599852723246,0.9751453417427149,0.4582154797284819,0.12130087879849563,0.2259602559718866,0.5327623574407983,0.99158067947574,1.1445277216717695,0.6167308403212193,1.0295112357124139,0.4475844600087795,0.6666568293757119,0.7475863269799803,-0.19846158357549157,0.3829972372895187,0.6772515078020794,0.9188283789491601,0.07788924389019738,0.32714584557558524,0.29422756636346953,1.1514623767866001,1.0111376383179271,1.0247030933505648,0.7716206335219555,0.6774287309423166,1.3107899888497594,1.5894463808499313,1.780348629319424,2.5856021423825144,2.6072215711134863,2.630719217618103,2.0755595640338003,2.583540034573317,2.1134678100991273,1.614478212781613,1.178005050491193,1.6176686556551323,1.2938701125075995,1.4150893519428973,1.3376648933808744,0.4958620425488012,0.5761625994684764,1.0416812237822126,0.8327313284061849,1.68517244552525,1.2306819192387575,2.3270249455190504,1.7380164572447414,3.3674483744394066,1.6507185683944658,2.5779779946927714,1.8573251311794,4.2355482337641615,4.032893931161999,3.7264775686077223,3.9655779930701804,5.07589159049391,4.941090274227225,4.124753822335653,2.4593350938402976,-0.08996924109479765,-1.3104378580959182,-1.1081649308665102,-0.546113422238642,-0.8869293208155756,0.22518346909341264,-0.24569707074486463,0.7716502880606189,0.10226561416556176,0.28112991940138965,0.07554031328418569,-0.6864158617433133,-1.1686149281007125,0.15239945897412396,-0.4761644380620152,2.284375851750251,0.899311325304463,3.1804335017374883,2.0738128321699496,1.1935975693725633,0.30881676322282076,-0.2029265871935419,0.3981037160551325,0.23087342312262718,-0.06622269787095993,0.2596455320317855,0.2915779486620924,0.0664243961293021,0.45461988494019323,0.6002670733472646,-0.8601022608749515,-4.824653377449842,14.984829708184174,7.012016713167393,-0.021018357874414723,-0.022540818971144475,0.045390944323125376,-0.022286038504116118]},{"bias_weight":-3.0085308939102373,"weights":[0.8838989978221854,0.5839095667464381,0.39755983411785845,-0.39553777569021514,0.24818727867405807,0.08600613823866335,-0.14763656828485652,0.6855226895754359,0.16489170034880668,-1.1066256562969907,-0.4884204198620771,-0.36175838973966956,-0.23962994756163125,-0.41365018888295374,-0.840205536784834,-0.7497634342223619,-0.48260020509909124,0.20585443420269614,0.6003437516623006,1.1864000816386264,0.9977498764637168,0.49622940228080925,0.8695930157116519,0.6175782127533455,0.38881172213178994,0.02436444906303941,-0.1109625632913046,-0.29449380057941826,-0.5949673455604362,-0.7757273516819013,-0.020173149508619467,-0.15357263576698246,-0.37972431008889995,-0.36872956250236416,-0.5823195253065656,-0.31609782543423137,-0.3132085185483025,-0.08878791336987095,-0.438495927922082,0.3251340035806695,0.5268718622694629,1.0578503950468592,1.6201612500541767,1.169475977143271,0.5300708142959601,1.1317106216782324,-1.1690609617695347,-1.5575961443526993,-2.1064434567625945,-0.714688910555021,-2.349567342425718,-1.2673985328018733,-1.7547234844751052,-1.5966175694931546,-3.985753422954673,-4.00157667297271,-3.55069604474747,0.022913002459909338,-1.1320904494307107,-0.23789533062798948,1.3878374910700066,2.1644760932280063,1.4726978225227398,1.3806179580532016,1.5621666870796784,1.506692352952116,1.680304784139114,0.11289904116440434,-1.337337599714007,0.058036717755090714,-0.8257750987997806,-0.4010095466675009,-0.22551962934713715,0.4956405119799816,1.3436976879333478,-0.08258285303337824,-0.915364133188476,-3.8901990832792848,-2.425471967410992,-4.010868455726802,0.1405890514894482,0.6171397024930538,2.3468013502427727,2.1588869730795626,1.7001801476400074,-0.48839772236128115,-1.065073918136392,-0.5118049062682074,-0.47337937116886275,0.4261541461289077,-0.03629276788977217,-0.3294167139108787,-1.0911885551547607,-0.4468176712165706,-10.121860965780066,-0.31908721321463057,-0.021018357874414723,-0.022540818971144475,0.045390944323125376,-0.022286038504116118]},{"bias_weight":1.9342886745633776,"weights":[1.6895575515387995,1.494483385457269,0.24499524230684896,-0.07105538857698024,-2.672025255862483,-4.208350351447576,-4.649247915602394,-4.532240102374878,-4.0943187369489245,-3.9780012924636985,-3.827879172729228,-2.745758591178643,-3.3979261345907714,-1.991317641945954,-1.1789062247756894,0.10150062368925018,0.3819252008368566,0.34118566677304,0.6579882196845266,-0.4758337552254004,-0.4316328381094809,-0.947185794738167,-0.6453752438218873,1.1991625257342298,0.5683615013784049,0.14972537958056464,-0.08740084956801955,-0.6485193392047469,-1.4539390829224448,-1.555040899628322,-1.4039149643826199,-1.4597857500993363,-1.483211433797344,-1.4727263895804588,-0.5083595678003217,-1.1576400800678306,-0.7305153017363925,-0.7350244934100003,0.9875910959091533,0.7452234598984379,0.7445560750480374,0.8136379900701143,-0.22676451378851936,-0.11769186475836897,-0.31899497328547355,-0.27818160305828527,-0.9950015310716847,0.03621595756736634,3.250705880882889,1.8330016172660641,3.8951868899690534,2.2249250154678104,3.470252169207835,3.1920801549681075,3.114547969178817,3.7063725336278415,3.35793200073252,2.2353475808995875,4.815135947758865,4.714636830149908,4.596829470706035,1.0737442058737467,-3.0000946266151716,-3.7028107367320233,-4.027075442396071,0.05643832537762595,-0.18299487854309746,0.7835648244745488,1.8285392318121996,-1.739704146291696,-0.6733038665497026,-0.09325757355177836,-0.6338887749348469,0.9468218898384121,0.1424665795157221,1.2491044711680064,1.1469907975593954,1.131214676575209,1.2588904648265526,2.387667496594361,0.7962618222086277,1.1244483753820798,-0.0025304425576916654,0.2925912653660252,0.07516029601003014,-1.7648692541283206,-3.264574663800199,-3.5287479342836043,0.04935786409675864,-0.19141191713325667,0.19105496950079126,0.8536610301304326,-0.14420434401209084,6.840858459716434,10.835275688174415,-1.9624566181332235,-0.021018357874414723,-0.022540818971144475,0.045390944323125376,-0.022286038504116118]},{"bias_weight":7.152346650783467,"weights":[0.8633872005093862,0.5443503563241467,0.6266019841721162,0.9931872797622193,0.06879431316224034,-1.6093108450825369,-2.9549322854411892,-3.271753027495227,-3.4544579617549944,-3.874829234425649,-5.201656187630718,-5.6295056015169935,-4.857625527541519,-2.174247137190657,-0.09053346171994124,-0.585646413735758,1.82655390988383,1.0445938435197344,1.0227118246001088,-0.4147559615445212,-0.6587322325593166,-0.02032212494817009,0.08905375126010054,1.665730843446283,0.8760746665690422,1.356485307801336,1.6965639968604644,1.844181732095935,1.0154496658744694,-0.677216780547072,-0.9938187259488664,-1.2253811004523356,-1.2807770529842486,-2.4295695304030884,-2.556577631866391,-1.7592680544160224,-0.35480326230336307,0.47843028647019,0.924395515044676,2.2106472818990035,1.2789720148189356,1.1132667012085418,-0.1738648668536385,-0.30152154297232164,0.7913702823442056,0.46301285474312187,3.73504479140856,1.820999253496587,4.410498287120669,2.2944577410467466,5.3078500059271665,5.382999458028569,4.8580508710948775,4.372474754531479,7.461367959998195,7.411522747610501,9.760508825367001,7.843210444357942,6.046742950768893,5.0435025806310945,1.03064688258601,1.4618805564782686,-0.09673500267042617,-1.192570212949799,-2.141885587178068,-2.794736771050593,0.3120004112713419,1.7454022686025226,1.14453441466345,2.9748904517905803,0.8121706364543423,-0.041181301259129645,-0.7058209369568146,0.04261926258306898,0.6519061017608079,2.13724537442216,1.7241179447108046,3.704836045749362,2.909959122080377,6.391478725883156,5.209625756672442,2.146316116257799,0.9310887542849365,-1.5640880772786796,-0.1279381138722386,2.6907495518702733,0.7371429051821186,0.3205186779673348,-1.8239410709367114,0.4377115356629375,0.9356633083920735,0.39950592507588006,0.7005201537563277,-0.25117246544386906,13.85652073190229,-1.4126275333718292,-0.021018357874414723,-0.022540818971144475,0.045390944323125376,-0.022286038504116118]},{"bias_weight":6.316115730956438,"weights":[1.3819288962480527,1.820103418197897,1.0120114812248693,1.0125173039443756,0.48554389403953013,0.146186627318428,0.2365272496604381,0.5494451843700144,1.0076886317376632,1.1660226444817732,0.6200419074535151,1.0502392947804016,0.47804533963143336,0.7296654182736033,0.8182243144409633,-0.12430469781011837,0.48799270123724864,0.7448831003985458,0.9773147313183356,0.14486634458472342,0.37359391558168886,0.3247067867111427,1.1233205700048186,1.0477550880837145,1.0642536290570517,0.8088934878313238,0.7167615804385636,1.3393463942664785,1.6137327921690787,1.792544431200097,2.5992966054745725,2.624456576602894,2.652870431893088,2.080517172419764,2.6099149606467744,2.1483572200033723,1.6780920161900903,1.245296128147259,1.6846420192881872,1.3876848138246427,1.4741652166126724,1.3904218164433875,0.5576839852971835,0.6224781924668299,1.0713283190354135,0.814139396159215,1.735237322086791,1.2413423390910343,2.336636434215641,1.7723384673096483,3.418491848967191,1.7013866590670388,2.6020128393345376,1.8864841157162242,4.277182725224197,4.068656428704375,3.777170022070759,3.99013872084466,5.064955934632909,4.9113409772366365,4.0957684423651015,2.438164959180433,-0.0947555466853338,-1.3168464558043393,-1.1277765152251296,-0.5907485712151322,-0.902872869335594,0.21495329958384815,-0.2299448459943224,0.8156745950393038,0.10995983943723568,0.27176099691807903,0.11297843234969665,-0.6336833597056292,-1.1270999959070698,0.18090329462180402,-0.4363084641635205,2.313276866978068,0.9204445899017205,3.228601035498743,2.0967360176583747,1.189860525390183,0.29479950236738656,-0.20580646832086746,0.38829787644766156,0.2505650633185915,-0.05395955371330004,0.268291933318269,0.2762194364689038,0.05973760925633536,0.4498967075281422,0.6067712579019597,-0.9059914577844334,-4.601688008944403,14.884629656821406,6.880515140079622,-0.021018357874414723,-0.022540818971144475,0.045390944323125376,-0.022286038504116118]},{"bias_weight":-1.7409222336633061,"weights":[-0.09767712028135989,0.5478583381951895,0.5786930283879315,-0.15047483729494107,1.0130813053596124,1.6958187379159035,1.5944131083738353,1.9420908065916014,0.9166477953466862,-0.412889746584457,-0.3189821755104899,0.434809838971415,1.1015278165427795,0.9764450058428626,-0.13291449298865177,-0.3310377901365608,-0.20779623654287507,0.17483183010252068,0.16500964993700004,1.158029372365728,1.420642737409305,1.0490532253206002,1.1103366554694798,0.7488054905787059,1.2490233006447269,1.103381831134125,0.9169416491640128,1.0037287430677047,1.458980416571521,0.9367943032392109,1.0501505321610898,0.5300993495554595,-0.4517060350872794,-0.6755216185357169,-0.20812059577216926,0.5402652833622487,0.34267931621528963,-0.033140068201392335,-0.7595288882382059,0.06347547725472524,0.09118818245355376,0.4935950321429904,1.3871240367143935,1.461408270692879,1.1380379072668398,1.739863428331879,-0.2751531820634993,-0.08859273895016198,-1.6244456030753034,0.9972565114904829,-0.46995814628890337,0.3835193379767686,-0.22146338878732327,-0.5206828245808476,-3.076189265739479,-1.777128243204713,-2.3090284371919254,-2.0098552552230897,-4.322874135675885,-3.8183469885865513,-2.432398866063455,-0.20831992678026837,0.3929604292599763,0.26330275512910634,1.7307612994043717,1.7530291380308165,3.2803095962585913,1.8706109122121743,0.8483005391259927,-0.3647648922193857,-0.4856154708764545,-1.416408448056859,-1.0804091333335797,-0.2289868252643248,1.1748065999736623,0.1632452597335856,0.47753427414781724,-2.8537609997717928,-0.3906911683760247,-2.464995565283885,-0.5702411352301843,-2.6073186723931783,-0.43894900949959587,-0.058908290879587336,0.965809759833021,0.9318416794915577,-0.31887748318194054,0.14023865804276656,-0.9532731949311289,0.6410863343007286,-0.4593235801336819,-0.8819336110448921,-0.8891782827518109,-0.08154945172009177,-10.488102757528045,2.2553701442341234,-0.021018357874414723,-0.022540818971144475,0.045390944323125376,-0.022286038504116118]},{"bias_weight":-2.147452629135697,"weights":[0.11430304007792559,0.3891660812529696,0.7471165552792886,0.5502561042059144,0.545449989742753,1.1675536719195363,0.06564941107845282,-0.20085209346418048,-0.6012295013835235,-0.6527218213426383,0.03133113499123922,1.1128571249771095,1.1004847910254507,1.5766049879601618,1.5163391405597155,0.923421803229367,1.017366060395196,0.9727201990685572,0.9913189166431632,1.0389187428345148,1.1769660838282479,1.3110787678247686,1.4707919299562646,0.8032308769589667,0.9845820966210149,1.368414813163625,1.4331149268977255,0.5835008355770438,0.45884270427858126,-0.8769050650898951,-1.6641731144081313,-1.9476607162421944,-1.5083523443957445,-0.9131663402311383,-0.09566905528275128,0.11619675989508851,0.7699166729446356,0.7265953958693959,-0.3578967038536931,0.7801108293971893,0.3479761970526139,0.8571871441484636,0.8344527890263973,0.808125295184428,0.9752274933469903,1.734859685100524,-0.6471125833171161,-0.796271539745902,-2.6020880042538215,-0.8725425640896645,-2.2486005502754955,-1.6016053258031187,-1.0682557074578467,-2.3961381811390314,-3.7070711184080665,-1.8913019285852601,-0.042883555994948946,-2.2248758512995455,-2.7145801573328074,-1.9751648797746717,-1.0579255689566502,-0.6387044696057362,0.7673058007912495,1.7307637553846336,1.5780299271578622,2.1178658917681665,2.3991642407352574,2.0943513126346955,1.1958316056282248,-0.830122263482432,-1.2016513248117209,-2.740147523038116,-2.5304020299775467,-1.248487030371589,-0.5213004752391082,0.18789317169770878,-0.1528870109129588,-1.7742663148066917,0.6472796191172667,-0.3476664401175969,-1.8583892893614982,-0.2292332659295329,0.4602503553532787,2.5661481971334323,1.2794997076852164,-0.5336483037933728,-0.5704947793453006,-0.6840729817281779,-0.5537721060560815,0.5445869970611696,0.21194248316269282,0.1645344455234335,-0.056870937139495537,-3.655426803566304,-12.372336055665244,-0.4958821654286261,-0.021018357874414723,-0.022540818971144475,0.045390944323125376,-0.022286038504116118]},{"bias_weight":6.3378477463730425,"weights":[-1.3435088795910048,-0.7143110938302091,-1.062699011263643,-1.290728340008686,-1.5022563266746958,-1.0045538416865885,-2.008078330818425,-1.6274467324635142,-1.3469638289936445,-1.804109407261653,-1.8025408190439283,-1.5329545299218965,-1.7681543842478025,-1.3393134785017629,-1.1753111043816642,-3.04762748783189,-1.3549127362359608,-0.9946709772144506,0.35107637151015647,0.09957645658778823,0.44885091228141893,0.9485039075871092,3.0358276172172673,-1.876072412792847,-1.5022739747608058,-1.3957464282179535,-1.4745597676621651,-0.6336550938262083,0.7735175698183471,-0.4991222029622057,0.726877012070896,0.8629854663037829,1.0244351523331443,0.5714061383055802,0.21513966400448992,-0.023114676556534788,-0.4511506606835736,-0.6074619382593446,-0.7766409520214411,-0.23984513915357605,-0.04090941803242764,0.9376280013603264,0.9527409715620353,1.3705458051165904,2.206322027109721,2.8768439054397605,0.9919509184920834,-0.9462696501576663,-0.8543593499704721,-0.9955997395224777,1.2541342295858522,-0.8623382056722286,0.022501887521984964,0.0916798660879103,3.150997741697836,4.410438930887826,2.5776105399105718,4.603252422363593,3.718539101502998,4.621042249109984,4.314914332162334,2.3344546405439828,0.4479697604803915,-0.8530404503073042,0.21248216290188351,-3.1406666407389117,-1.4256015242764486,-1.4270136801309716,-2.7132726757956154,0.7169810039624912,-2.1432968206943026,-1.400640528544344,-1.7280373279613594,-2.1737422875892842,-3.3147934842994458,-1.5948048176704614,-2.2949349567241106,0.2751182414289475,1.0154677724475893,2.492107864231678,2.6810514218703476,-0.09743966728479779,-0.2731380449379586,-0.2897670401699154,-0.7795430605302457,0.6870345874315679,0.14392161807017706,1.6193170853154883,-1.4035422289910806,0.33504841876047936,0.5227548087243141,-0.4138923914596516,4.999513094488237,-18.409401336237913,17.260159905047004,8.440774614978283,-0.021018357874414723,-0.022540818971144475,0.045390944323125376,-0.022286038504116118]},{"bias_weight":-3.0079461580532785,"weights":[1.8379156347475452,1.0808172668692908,0.25097561195252127,-0.40325299537809867,0.02486703645374642,0.023184091299800123,0.34307815827230126,0.7294197180009618,0.22494727724556313,-0.9230240255325569,-0.6737902430834781,-0.3473322699068071,-0.7848211126715634,-0.2836850345221199,-0.2543381276011202,-0.7675937880616053,-0.4936585689788688,0.3414051919252944,1.137504201022997,0.6480926188729319,1.0675487079359836,0.38899339435914393,0.848933109538968,0.8716030637659057,0.5432268901598051,-0.330812885175536,-0.42449008449495795,-0.6187792893708335,-0.6393355908710615,-0.3008309524096142,0.16980732489912892,-0.1917920861632791,-0.5062466824079483,-0.5698482621369795,-0.34175370378179937,-0.3680195986309227,0.25315721092599086,0.6394837600045742,0.0004798180510984538,0.7311097124288702,0.8506442205350377,1.6249469090502666,1.0545451788522897,0.925573868842816,0.05091082475743985,0.3906176167770906,-2.9332773515124826,-2.4641422088239198,-2.4881198227743546,-3.1095091344319035,-5.303082873973773,-3.961398853053214,-3.9203186988013523,-4.004046303768583,-4.212036431795028,-4.4847748657657736,-3.010145317109259,0.7360650768084758,0.3132873551522542,0.2768800098657804,1.2816244829800314,1.94782434718881,0.8464858744825515,0.9357679917027301,1.9549625091286484,1.8249423913572764,1.5266043099214763,-0.908531701349939,-1.2882684105354358,-1.8238132483423806,-2.217379705111475,-0.9991931573849389,-2.3412282438727368,-1.8356715142601923,-1.4174315554948498,-2.6047416982281133,-4.048316631601673,-3.1802370790227337,-1.4007814385173656,-2.949256572337467,-0.06358321531683273,2.1896449305145467,2.312443994516809,1.0118358048506164,0.5397682021726204,-1.4662892270955026,-1.2047096509255535,0.13238257150277535,0.6038683816911513,0.8243191741304152,0.7958938334897233,0.515150188105014,-0.6901221114187454,-1.7875916585322282,-10.637390809533198,-2.2588006548301056,-0.021018357874414723,-0.022540818971144475,0.045390944323125376,-0.022286038504116118]},{"bias_weight":2.348330742423211,"weights":[0.9091102231805683,0.821944545442285,0.011579460494746379,0.2608812658526873,-1.8489230368799205,-2.967772652161406,-3.417397225267018,-2.860104372884161,-2.202989807216243,-1.4989515232548059,-2.086786571074539,-2.278182467943479,-2.902007602797417,-1.4184928709536941,-0.4580519687496907,0.6033905022730864,0.9590068324969406,1.0745739747567535,1.231802425397351,-0.35870327732416973,-0.6931955718588452,-0.7877760488356298,-0.5353962884172548,1.061344834946147,0.333365047005727,0.21167110277855258,0.501653943771672,0.10567711638589179,-0.4326313177175064,-0.6115558952183788,-0.2178955775632982,-0.38306217400621645,-0.09956217020821106,-0.5296267004242954,-0.4852220366311371,-1.3193214779955482,-0.7646043345126123,-0.3828814497449636,1.157840029792547,0.9926880734082513,1.1352061258019959,1.2335472462747017,-0.30817549550177564,-0.5598144159967958,-0.36057814920519926,-0.4155757292756614,0.9271275591759628,2.2883487256624613,4.388736650340965,3.2678939987292868,4.869322396598459,2.7357247905955653,4.09113365447706,3.432251841754754,3.2730594892790346,3.9549286987550842,2.7208973255633695,2.086253994712593,4.039544715299086,3.9634340646153463,3.1276899146303188,0.031211019143746167,-3.017870491082046,-3.794316611015954,-4.761866536824896,-0.6379554916954845,-0.7968244885042658,1.396777739240583,1.5923195856763384,-1.0915768492349058,0.6218270392476547,0.22745310610515249,0.16408895403846052,0.08876327014863136,-0.16733178852138328,1.0610008819776218,1.3060580918194165,1.301459241482273,1.4233339518494241,2.0870287612402283,-0.33976104370356663,-0.06179420520645994,-1.0807042705590357,-1.4139891191300566,-1.4578099452041893,-2.220241140212086,-3.51778003307016,-4.382524633683289,-0.3575581325474112,-0.5786743350597218,-0.0808481687433184,-0.14699263013240968,-0.8014209675698628,5.648721669572501,11.878743895225712,-1.6746478460013143,-0.021018357874414723,-0.022540818971144475,0.045390944323125376,-0.022286038504116118]},{"bias_weight":4.180693974480697,"weights":[0.19030903734386548,0.5232369841721439,0.04066889428911098,0.22234495348574826,-0.6976664525738153,-0.8580332860064959,-1.5527818286332817,-1.7888651439857175,-1.3088522449569049,-1.0877269106790781,-1.9826264256178585,-1.9093950183237953,-2.647100189674842,-1.7271060866560262,-0.9337664132978979,-0.5328554738904024,0.43290908684792523,0.7092924287500355,1.1413764651123903,1.0094290563854802,0.8866618943046847,1.3237188760330885,1.257260968310678,0.5800551750044716,0.3628463195894022,0.26152251567548923,0.13560410851577986,0.38575199012715317,0.5623050538849728,0.0713201721099798,-0.1841470418515565,-0.2669466658810644,-0.8394473344275633,-1.369229134279828,-0.8484961271964337,-1.572924571756272,-1.6369848261867983,-1.5850191195486032,-0.96732108180949,-0.29744541857051265,0.05390608396278491,0.23954206844730913,0.1867857961497081,0.10328651455449735,1.1076617493873522,0.9529792149151042,2.5806525467989156,3.3796406516542317,4.082302012598258,2.8085324438475308,4.094356139542996,2.6978719059612803,3.2199782023755423,3.2911176677709784,4.524708436692794,3.887972686326798,4.447890903958706,2.525542944907189,4.83149529146792,3.79663306020314,1.6048952184890595,-1.145419412169902,-0.6108971719660814,-0.03662403162965448,-0.6044240563578255,-0.16419257681638869,-0.8845069136028865,2.063055193903545,1.849863275496912,1.3030173972203623,2.4904257682098665,1.3146236061313334,1.0398504259682304,0.12454915445195855,-0.6025177986452489,0.8058561614391561,1.434893344729313,3.1724318189868783,1.4729207321991118,3.9485359119538206,0.9178434559381791,1.6587254152059268,-0.08733094324583952,-0.3347619553182312,0.3638841005299414,0.3163387700471108,1.0670277410736475,0.8007631845939512,0.42906109110345103,-0.0026830459083786373,0.5582823137856842,0.9327343425316286,-1.9681470741792217,3.018941926096843,8.968964504600859,2.3380430958040184,-0.021018357874414723,-0.022540818971144475,0.045390944323125376,-0.022286038504116118]},{"bias_weight":-2.4685686378743044,"weights":[0.7837813224207183,1.0626821442161123,0.9786664399276932,0.23488590973157414,1.173919269178874,0.8370755925052871,0.6964343814308991,1.4029116576728058,1.2617043371654826,-0.6928801451245172,-0.3842161495763934,0.4366279443174566,0.44654181021901024,0.6595706082102709,-0.14080654149474392,-0.37784640558052257,-0.3807135305417895,-0.19723318479088553,-0.09508467279736137,0.988525993729737,1.1759364134886818,0.7448531715133621,0.946362008169862,1.0666368990741828,1.261164860851135,0.8827176244186663,0.6892048095543798,0.6094525749205821,0.3403094643163579,0.13598845374537077,0.5402162373569721,0.6937675385413768,-0.2972380801049396,-0.22257133518624703,0.3591676571077875,0.6310249667889095,0.8462292827935247,0.7257069338442486,0.1526661984166071,0.6811522834175493,0.3351543513869089,0.757679621284834,1.5579240716502911,1.432845688653777,0.7923160313563453,1.0317507450197052,-1.4814354551250872,-0.2624604113473344,-2.0906021214554666,-0.7620317940933954,-1.5764826391206856,-0.05065013116499475,0.18340017395537603,0.03084462396433563,-4.143088900048163,-2.4322283479044535,-1.6318059804290486,-1.056983720553851,-1.7881725166086788,-0.13468110189526186,1.0810400698340679,2.7455775826932096,2.810747460935809,0.9065610138343683,2.3191394238508565,1.0053024666656083,0.9842806009244823,-0.908233853761528,-0.5701014273115746,-0.7718521634586346,0.18961065162829985,-0.7870879549053869,-1.524877970114266,0.09277136761457203,2.108422916114512,1.4920763910398827,0.8367826448361277,-3.7300875364639627,-1.1038301454946142,-2.803887039191919,-0.1352853694664907,-0.5615012885067374,3.579164714768395,0.8993757217045165,0.8415752509374327,1.320175929162543,-1.4080216483665708,-0.5377774868349479,-1.6313491313930166,-0.6914272314868684,-1.29872831557893,-0.5860799328373419,-0.8452399617237821,0.1133222747011915,-10.582894555350904,1.510512445735951,-0.021018357874414723,-0.022540818971144475,0.045390944323125376,-0.022286038504116118]},{"bias_weight":3.192718247426478,"weights":[-0.5123854620016268,-0.2896711226333134,-1.0092747403701223,-0.5090134515937831,-2.1422496341880133,-3.1441659007906813,-2.879306344375943,-2.9591075498136434,-3.128890487115523,-2.360452832885472,-2.364408260297829,-1.9969443597930052,-2.063973878039028,-0.7125959687856503,-0.0715450822526074,0.035530343095208826,-0.042522394260321485,0.013892417058344117,0.27521424668486266,-1.0919486052962597,-1.3197411946207112,-0.9958621847376381,-0.7371325095623162,-1.044622916713556,-1.3181041990232831,-1.381604161143287,-0.9230999920399275,-0.8875737857577184,-1.2885054807153213,-0.7326068020166814,-0.6095515755681643,-1.0986094250618528,-0.6250406372843412,-0.6027673611528981,-0.11768307250792527,-0.415393424434995,0.22371720010855467,0.04964968858774641,1.0165400341380046,0.43867308021864504,0.25116276055315545,0.33515857956395856,-1.0384557813873116,-1.3807504643206046,-0.5988773177641602,-0.7943635819912273,2.4822029152957237,1.1757688474049097,2.6070686041778126,1.5111452254902362,3.5352727430302475,2.818942709200302,3.4562079319445176,2.7273588310663,5.793559872047834,5.3111669539711395,5.4660712951123,4.647830961637922,6.073889908710969,5.177890333691897,2.7353117798724362,1.2633456186085341,-1.4955923201693895,-2.9886724406698093,-4.28935670875834,-1.121584333889522,-1.0364712024949665,1.2818971922514006,0.31315168812123,1.5859277102046916,-0.019513682483841558,0.018802982658624585,-0.33650273266424385,-1.336301701350495,-0.3438988451253098,1.0409399474577923,0.26998213879973043,2.9173361462468295,1.9902047509566005,4.402443642826986,1.9753566816955477,1.8781141217980968,0.17211208245257195,-0.9056798886134652,-0.4478712716759505,-0.9083565419650036,-2.633596527524275,-3.1855864189344056,-0.2727631395681445,0.18923763483359263,0.6438857550975972,0.07781967307345632,-0.5984049385440291,6.187691018999072,11.304414221664093,-2.7312859621046552,-0.021018357874414723,-0.022540818971144475,0.045390944323125376,-0.022286038504116118]},{"bias_weight":-3.1114548985600217,"weights":[0.9234582950189523,0.6057387486829289,0.6847478050032731,0.13820854935374485,1.0479113096023065,0.8670719193407378,0.742240521886704,1.4712985675634964,1.7795189726935918,1.1127444050521849,1.6806839925137633,1.5696537992390118,0.5372689269456294,0.6495817996693825,0.5054685391905304,-0.3774964464996423,-0.3478039608260049,-0.4424487402680779,0.2001438233908741,0.37606824563318664,0.44041404430323666,0.1301071905245098,0.7511704962553911,0.3717846313910846,0.13994034043824508,-0.21680095884563141,-0.3208182737778985,-0.4499235009894577,-0.8641332450359392,-0.8369608775415186,-0.2115928263729556,0.23330582305224234,0.5690454588104747,1.0374921529273313,1.1366691948069798,0.6719656203135279,1.069250383903802,1.1099727982558902,0.11755331259530329,1.0543962449946223,0.23785728494781175,0.8395061350771246,0.8059365157176939,0.348887209857824,-0.11491287679156872,-0.0009165941794929339,0.11951092752216592,1.1964796205362727,-0.8919611725034536,-2.572624450413076,-5.051417013013118,-2.9110337189504585,-1.3968699749195537,-2.701209111057172,-3.568067783695903,-3.6086588363703793,-1.6766125718700988,-0.3952249463145705,0.6172441599510786,0.4971678704873494,0.2140155195487304,2.3866655287596985,2.7030367552241357,3.15657459361621,3.3834450053610152,2.2385126312269428,2.3505955778820184,1.3601276153383188,-1.1425064126404596,0.9194343841314438,1.24943093125169,0.977186084253753,-1.7198846443715352,-1.8853964905105245,-0.3817488987916531,-0.4690045906199292,-2.397126191268749,-1.7564884979696853,-1.1696581784450217,-2.6474814008489447,-0.6384532992181465,2.3143325882125727,3.336860109233074,1.9753686408016866,2.003291138867046,-0.5060591924682926,0.42719774033301,1.066476935511112,0.4587982219657466,1.1308138656056175,0.5530682015615891,0.3646304364177528,-0.4656693834419392,-5.899158142368582,-11.484873586268076,-2.492879689509922,-0.021018357874414723,-0.022540818971144475,0.045390944323125376,-0.022286038504116118]},{"bias_weight":3.2618031068192446,"weights":[-0.25974898867136337,-0.1288774913257528,-1.2192239022946976,-0.8588390243258014,-2.4418985938104365,-3.3229266680786966,-2.7659162182159136,-2.9213309175051942,-3.1191370369123015,-2.387568989584404,-2.2242972128418543,-1.8720632276768052,-1.9839522021040406,-0.37713304975819956,0.15234524570107186,0.1727149485652496,0.5444513624496067,0.5534800275125806,1.1977501524702465,-0.1959601893164414,-0.43134128765207586,-0.3208170660224128,-0.49145660563759397,-0.8860913217907457,-1.056362646083197,-1.2945047097697968,-0.7499535143304757,-0.537826814518763,-0.7968972690139936,-0.1627187713907238,-0.07425978072810538,-0.6088161091768506,-0.5767856365315787,-0.3790410642236132,0.2439835260318228,-0.1150246286362342,0.6899224719064703,0.5007559413735332,1.2822026326346987,1.0551378629560786,0.8480174996241705,1.2755501498176287,-0.011439681828443606,-0.34149360411454494,0.1645900060920009,-0.5051520785992107,2.2354350054054652,1.496752264352832,3.066903713776195,1.9563898973183964,3.5993346713960483,3.064313359917849,3.7128043610596553,2.9058296705766815,6.094302826953593,5.865834938391695,5.997522441257258,5.400262581300766,6.398755561614272,4.850177031539035,3.0146063268444823,1.0669098116533928,-2.43327673133885,-3.658984381889321,-4.848635908553747,-1.260768290489963,-1.2714109086427627,0.5000896547825228,0.6188673709714814,1.078987774819537,0.10126077506865043,-0.03526407989186247,-0.9120684301117675,-1.8111436943131527,-0.8489603487071502,0.7890568772010049,-0.2143246951749958,2.510029175764996,2.2547959897569574,4.400889638418937,2.2554248173022677,1.77800941999823,0.013301181199529924,-1.23825729679124,-0.8974581847153572,-1.6225902145302566,-3.028042449800376,-3.6890055742838066,-0.3034346486446287,-0.1755034754987446,0.5145095260133717,0.40256289562916286,-0.2376120767014796,8.460780585918116,11.42281094571473,-2.207235000874203,-0.021018357874414723,-0.022540818971144475,0.045390944323125376,-0.022286038504116118]},{"bias_weight":3.3965932832619337,"weights":[-0.5477473244812947,-0.5525855642397516,-1.4683438494273346,-0.9498861441878578,-2.439267733030086,-3.5173314644941587,-2.9426356579190323,-2.961468572192751,-3.1476662835264095,-2.0429055239489107,-1.993424589142919,-1.7195950710205348,-1.9001021567681153,-0.490705002136464,0.08910458265327838,0.14458605083706796,0.3532833119949608,0.3795412384071471,0.8428872274667217,-0.5597267019151729,-0.7520690352490659,-0.5122968785864428,-0.44908561471180614,-1.012681721184465,-1.299196757092433,-1.4319339883174758,-0.8344860422551996,-0.6579635815312737,-1.0978596318775034,-0.34564637267087334,-0.1306559342391133,-0.5617051229819451,-0.22833726919289757,-0.1736781998932507,0.28984099466654295,-0.16861629961232752,0.45566957938639374,0.25245552839778923,1.1098809393861393,0.8157127633520299,0.5589854853202609,0.8248266698110321,-0.533809497405662,-0.8217233447423025,-0.12580839733626034,-0.5238304242189061,2.5037880223004945,1.5157695796456971,3.1792844445337205,1.7757563291141385,3.4066117500921007,3.1874105468611207,3.5599690787782485,2.74213296347329,6.139230011224322,5.27628352223293,5.348475723080726,4.638010724879764,6.201731858032621,4.9119035961700215,2.6141474339365165,0.9121155114791989,-2.158916137203405,-3.530787792033242,-4.648744457025139,-1.3021455988521158,-1.0070259633950702,0.9429242873890942,0.6605319278854592,1.3873034212236197,0.29588125438572943,0.26968026017516555,-0.7589530643852086,-1.5483308279706705,-0.47434038319100963,0.8532314395706003,-0.019748786583216556,2.629722204018256,1.973136126728255,4.239554716545804,1.9933351172352376,1.9963679814307003,0.28286237032428607,-0.9892780841746367,-0.5972183227914618,-1.2559557175913147,-2.801193433211103,-3.368100982141235,-0.22516601172862308,0.09556367192929235,0.5957600273545095,0.4566215212442366,-0.4479070962934045,6.882290945082289,11.381008910688545,-2.3791175888816114,-0.021018357874414723,-0.022540818971144475,0.045390944323125376,-0.022286038504116118]},{"bias_weight":2.7837485647321927,"weights":[0.22929395456232443,0.7048970868027051,0.45615803908184926,0.4399758642003952,-0.7395367777492675,-1.1286299956554422,-2.671149209780686,-2.4580496030566272,-1.9863347145066583,-1.2929808289776956,-2.2005179839397733,-2.2972109874230044,-2.689142483472933,-1.9237116590040626,-0.8903122176867527,-0.4815697403159523,0.5637105989462426,0.591164383204745,1.1791499155242962,0.3236243375433763,0.4483580599994208,0.9195093248843605,0.6286050875017055,0.964722736545031,0.8122225046577467,0.8905171176562461,0.5893241057407881,0.5613334502283496,0.24269377358219194,-1.0593847859490177,-1.089069223076921,-1.3982532636784268,-1.4026778433953915,-2.107923871311627,-1.7980310372400932,-2.111327641460787,-2.2006644360910266,-2.1175213182149393,-1.344275227113018,-0.6348524851297344,-0.5082258316715175,-0.010720107748182195,-0.6845996856315201,-0.4196863905782942,0.5121818222071494,0.4153768215282166,2.5332526094031382,2.6589973198764985,3.2629178519221433,1.9006898237115355,3.246046935941875,2.0257993270717214,3.3357091358847404,2.4816271752797707,3.9369039975509117,3.443676296644749,3.373216697031985,2.028844509464216,3.9316145632262662,2.5680225810302235,0.9412909596095296,-0.28814184643115415,-1.3501144124956883,-0.9253736322389781,-2.005157370123427,-1.0530706343291785,-1.1725616643632715,1.9064946368457127,0.8413772330001413,0.9568842432778412,1.6408117453890352,0.37448150421724197,0.38070936450299064,-0.5199820167481284,-0.6927973245001878,1.1348967187047125,1.073898211564008,2.8055791757094632,1.6364889918390848,3.673336843846509,0.7823275047725639,1.0532407429592066,-1.3690010267555928,0.1223587603963745,0.7453218517808153,0.22354743444068337,0.9140509309242111,0.32185805937190587,0.02496843347295299,-0.22588004331425646,0.32846031581967366,0.0921036465083005,-2.3390471050395742,3.6179508703067795,9.055963148381606,0.329934684412398,-0.021018357874414723,-0.022540818971144475,0.045390944323125376,-0.022286038504116118]},{"bias_weight":1.6449985172002655,"weights":[1.5626500861959611,1.2477051464069415,0.027904335405535694,-0.29505720817036296,-2.8740296285339815,-4.488012631633528,-4.583767988568095,-4.560134232843124,-4.2620683253636535,-4.0739513864347865,-4.008962332783448,-2.8199732412063443,-3.4547793017984487,-2.0573112324751466,-1.140690049052323,0.06500261995116226,0.3445074929644478,0.27795539772892774,0.7136653513653718,-0.308900066865986,-0.22750586298541006,-0.6695194347102918,-0.40679656047803975,1.092887428984746,0.3937168523624419,-0.02132447679683154,-0.2404925169019101,-0.791706713534468,-1.6245661107842189,-1.4993706185181908,-1.3823643701727513,-1.503976515826062,-1.537982686488118,-1.6475239245669966,-0.5755844134512431,-1.2301955962788242,-0.7949807559274962,-0.6227745441306242,0.9899182447039557,0.7494154815920723,0.7455616436328505,0.8745453414828156,-0.04824555019198761,0.12490920921712075,-0.012131077652028635,0.026699172120640872,-1.0766666675262968,-0.19265607673486893,3.411588078523093,2.0869544926006016,4.2087603907053195,2.305751270397573,3.3975941400855203,2.980530479072837,3.209739953243392,3.9248900519145375,3.744886399012563,2.7122117439277558,5.078538363068332,5.023081662263616,4.570891208626189,1.1951709453823411,-2.8199283061890377,-3.3161439263940475,-3.673466039710283,0.4789828463276866,0.24577658344657466,0.5011594833956958,1.786468237160981,-1.6971627395159476,-0.8706241739687492,-0.11109409388171561,-0.654865905558161,1.2586835922861153,0.12312160355158303,1.256379930902256,1.081575075304888,1.1793005043975888,1.364710041169659,2.7643657996370243,1.1963095146240088,1.5104269469272444,0.30913519218349034,0.3131700656706108,0.22764158377721777,-1.148397832603114,-2.390358726145348,-2.852997385750285,0.7358745591073805,0.47606966516897636,0.23118079985544512,0.8150639541636664,-0.14708582819435873,7.43285762858617,10.44402079988245,-2.66688886469001,-0.021018357874414723,-0.022540818971144475,0.045390944323125376,-0.022286038504116118]},{"bias_weight":-2.8123225714391418,"weights":[0.7710615673894817,0.5141817800084816,0.2974031119158532,-0.4764055745103162,0.10773006776812132,0.17160444907287434,-0.04542032740468583,0.7450632028324063,0.06077028031058857,-1.0565230848281189,-0.2580716321526865,0.03313060027778364,0.19861681452586105,-0.13985098893994846,-0.8118595557087244,-0.7441468711143931,-0.6153464165406655,0.24797746116084585,0.59903259518064,1.1472475087731238,1.0619539503283797,0.5065596367807972,0.9802296013329583,0.6413493374708293,0.447817180583162,0.10037985528534808,-0.02371315077465262,-0.3066963026877749,-0.4977808580302485,-0.7279692531840757,-0.022416803531319196,-0.3637024541776886,-0.5001565030818774,-0.3413461084716502,-0.44729616550026635,-0.1497493114361722,-0.2818940783801614,-0.2246443794527404,-0.6490937718843984,0.04064105911229823,0.47685450426969916,1.0390909737325051,1.557758945642085,1.2622099089792873,0.6021690395062071,1.4285186671910552,-1.433229900351494,-1.6158078253577295,-2.170988691435462,-0.44459865586338315,-2.202526849387017,-1.67365830819432,-2.0350098951769304,-1.9096979111440051,-4.229911019067515,-4.036363323050254,-3.889194454996,-0.50668576206293,-1.9951044943016623,-0.8321236300141092,0.992228290998281,1.8813848337757866,1.2024598894367071,1.2220187211926312,1.6964957950128383,1.9737616544699843,2.1565284886292195,0.6200634848111712,-1.0520683132354274,-0.2734884654657112,-0.9199545377018604,-0.6065561160773052,-0.1829449159254683,0.5348811072387888,1.0024159618005957,-0.28799773156620584,-0.9692024429798687,-3.73483032198712,-2.047517356361586,-3.7988886992683737,-0.09881953075690722,0.017917939324254884,1.8246244170282808,1.8919404447990362,1.6769645795594679,-0.7188097086610404,-1.3436215172272863,-0.7832323438494113,-0.6182294915944406,0.44133779875005963,-0.035871629396412814,-0.3475687330321269,-1.077622121030036,0.02539256145929361,-10.042020972362977,0.053877653646558735,-0.021018357874414723,-0.022540818971144475,0.045390944323125376,-0.022286038504116118]},{"bias_weight":1.780599107093474,"weights":[1.7102492821406816,1.404902152876451,0.20701953085590294,-0.13814530315183624,-2.7792905774997414,-4.359675976350468,-4.551549886777453,-4.359865886060507,-3.9968734038788383,-4.010214939616408,-3.890179975140343,-2.6802291254889132,-3.4394530691429392,-2.1005658250120653,-1.2762038362122243,0.05047528577288293,0.29705863346558864,0.2851190248619459,0.7285147773825601,-0.2963174778035932,-0.18637005261923015,-0.5797532283822179,-0.3008975780757654,1.1953516813900893,0.4578773665476868,0.06879991442194615,-0.16589386325863134,-0.7615538564145325,-1.594288585860751,-1.5036945260628736,-1.219348570592018,-1.2794851339719318,-1.4317657415283935,-1.503182288634912,-0.42559664952462023,-1.2257425577913073,-0.8634878044671219,-0.8190582630813714,0.9256547950713416,0.6929827101466132,0.7190723540366316,0.8395891184407444,-0.09425379521426064,0.08759826312380979,0.014684684957186587,0.06335277041671294,-0.8289418060257838,-0.1330689531186215,3.2643089881044203,1.9927472354780096,4.030956627505695,2.3528526186412653,3.362795596337355,2.88172342299212,2.8496718086644437,3.8102228613704217,3.7832580224495813,2.444473264755478,5.01105768535331,5.120604576140504,4.709422554232951,1.0402204509713304,-2.9024891881806405,-3.352365653539403,-3.7481821539955944,0.3138381409494919,0.10368492792828936,0.46409229998706314,1.6976517335618575,-1.5153411603359137,-0.7322386484604179,-0.09247156435940636,-0.5104996360505738,1.191398688472397,0.26153941835394606,1.338692765565297,1.119104816496541,0.9057830996192575,1.295529217463609,2.75440369809601,0.9344473401384095,1.3494271207341224,0.46631759865247896,0.4956336264330349,0.23139709605567052,-1.3547671929901826,-2.599347881807992,-2.9986349820200053,0.557952136152149,0.3891663976179548,0.2644112995922871,0.8750249596666464,-0.16511088626590023,7.008107660309141,10.89573434470494,-2.4207346708903295,-0.021018357874414723,-0.022540818971144475,0.045390944323125376,-0.022286038504116118]},{"bias_weight":-2.1315824906290035,"weights":[-0.15195279081652233,0.10425089008154691,0.4675220435966141,0.2287571869119758,0.2950910126378962,1.0072711177264833,-0.07738588796717234,0.041662613551742986,-0.20435514939360086,0.3138900772930294,1.0168451862407004,1.8186931261943813,1.5760947120793172,1.7533494843314577,1.7229267175993066,0.7727080661004009,0.4999754978862423,0.24003517367500976,0.021250839406628374,0.43664365749275885,0.7030366452869091,1.108075140114023,1.519447064848346,0.5885841528808371,0.762453407225,1.187485070678169,1.2096239322260791,0.4494735279068782,0.2712281658780393,-1.089299280802361,-1.5057639819832873,-1.6322251615839487,-0.7151899158590085,-0.178588409519487,0.5044423813085314,0.5337656994946439,0.9225955463561334,0.9499189187221194,-0.5841616155993324,0.26810649089790567,-0.20400970911556138,-0.0690340603555137,0.26559694883182744,0.4086933811376805,0.8631943570312148,1.7782373733598256,1.3004594838778314,1.381411543848099,-0.8135644230483619,0.24979476641903722,-1.6116426762474458,-0.736210366880183,-0.36954903748588774,-2.5914220854334817,-3.5086160401920683,-2.736151008234655,-1.154266236233458,-1.7274554563328084,-2.761570097122547,-1.781213732762937,-1.6315495944271814,-0.8830519543739715,0.6348050826000076,1.7962765786594423,1.6954727367819966,2.450199801773981,3.130209111491349,2.5639833264821723,1.843164085825443,0.6862603421200482,0.6076312976825561,-1.3184971745437568,-1.528171727666849,-0.5356054768640341,0.04666401848786539,0.8733538635420265,-0.507445321187832,-1.6088038025558822,-0.07071260940361151,-1.1952999091469299,-1.8213709354612433,-0.44901241658981195,0.4278696746872451,2.0560232096767024,1.5064279519911348,-0.599943229226922,-0.32840134782503594,-0.2743919468958415,-0.19093166965849387,1.0350718392977636,0.2539844015341667,0.6249440671975864,-0.3772973771858909,-6.367846788009753,-12.215008724864129,-0.46405205712086317,-0.021018357874414723,-0.022540818971144475,0.045390944323125376,-0.022286038504116118]},{"bias_weight":3.7687545844657038,"weights":[0.0013208410468820472,0.46078826170685655,0.18850606783522803,0.5389582899375372,-0.027811702635325727,-0.8418849515399136,-1.3246725293501171,-1.5077605327181778,-0.8568850088165227,-1.2562822216056166,-2.7409446789077925,-3.0109397427367623,-3.6375528605366227,-2.133626433052801,-0.9008409891824976,-0.33425172190964914,1.6798073920587384,1.7020097123151678,1.9552038007300439,1.4449873866200953,0.8238992758676572,1.1540637377622225,0.4788344263350739,-0.008009171652273234,0.015348725973277657,-0.12831489154631873,-0.106642740355033,0.2758515396786008,0.3535292996458127,0.22437323969279055,0.06643069642011615,0.332571285942944,-0.21072595618351245,-1.2640769154700262,-0.9867622063349086,-1.4945930578641111,-1.0259555332421892,-0.8204429612649744,0.016057737060832078,1.1469578466696921,1.135546209016401,1.0615563318412893,0.754039302595312,0.027897989554621205,0.8950201498952586,0.11292296009181968,3.9386089429474307,2.2450411144743008,3.3736154189967884,1.6022487727401336,3.37940207361271,3.5025937069801114,3.2529072622967035,3.5112527405670977,5.561472003104583,5.040477111744795,5.7137484560664715,4.7546159552995295,5.867548688722076,3.390626323377632,0.607489545558604,-0.7219342917307049,-1.8819359279732755,-1.5885829295733047,-2.730351174579107,-3.8468906712707325,-2.5509067330315944,-0.6114997116297519,0.12220931630995828,3.112278332365137,1.7731156815568916,1.1841512240564591,0.507315804569897,0.011776480254857051,0.18329171650616413,0.5071115605968767,1.3708416020723764,3.4758369965598264,1.3838239088394444,4.372550573275371,2.64070419898558,2.3000554781265268,-0.1267436407349985,-1.1290377252073533,-0.4861836028305611,-0.2017043284272513,0.4941208929528666,0.10391652244188308,-0.6613450046312829,-0.1210931918377264,0.18066332071860863,-0.23750017378202312,-2.2420300607346055,1.3161950102943414,9.814589384761492,-0.49031398825971306,-0.021018357874414723,-0.022540818971144475,0.045390944323125376,-0.022286038504116118]},{"bias_weight":-4.595565203219917,"weights":[0.7261647138889811,0.8221325033931327,1.2650359581233606,0.746614990144809,0.94616682837187,0.002022990748265802,-0.8248980667319983,-1.767095877144156,-1.900872937774939,-2.924329996634032,-3.0474636040434477,-2.3107663043092965,-1.5634816743494004,-0.3986152521129139,0.11303267269680768,0.830076637966045,1.08431417378627,0.8079441709973403,1.0213904256169841,1.0359034613152203,1.3697224088171256,0.9190078939900682,0.2700617568173598,1.2334213250557464,1.3361988127538098,1.1024863765310982,0.7462783078381177,-0.2577793260689116,-1.4265158216127414,-2.099301905269024,-3.367842881547195,-3.086401466669698,-3.586014842295003,-3.764725945876018,-3.146674150691902,-2.012900675096587,-0.6098072169714644,1.0375138447154768,1.0481042947088868,1.7883336424489622,1.1448107231031253,1.3475960422319573,1.2818110960662021,1.3464264737625995,0.7530011799048449,0.44110921932870767,-1.8747535521079934,-0.89001246643659,-2.9157597134280575,-3.030683098244797,-5.229907944281596,-2.8729010831006785,-2.838882107359145,-2.24680452537385,-4.627892711696096,-4.696165729667807,-2.868492192144151,-1.7119745695421658,-2.5637144503886953,-2.254838188029216,-2.320332458113814,-1.554324271436341,0.6623018230082994,-0.02171743797773548,1.1098301607984569,-0.35393455587384864,0.7520914166087023,-0.4944340271805253,-0.4670361736054411,-0.9702116430922547,0.11786018216138117,-0.9783219591579986,-1.610143275824296,-1.1843313135171332,0.4685896410226435,-0.5650841468728377,0.03813564728259239,-2.0025734318754647,-1.625239679707511,-2.094151107548543,0.02872192330719424,0.5367470259537116,1.6005310577059313,-0.53386465705614,-1.8154685958015542,-0.6078920893986933,-0.8414137062526859,-0.42639817984948947,-0.6798025513409729,-0.09851936793365777,-0.14752672421754656,-0.4742922149153137,-0.9160818519365791,-0.8975262029305179,-13.718821661687429,-0.8755669494578964,-0.021018357874414723,-0.022540818971144475,0.045390944323125376,-0.022286038504116118]},{"bias_weight":-3.0712916734991307,"weights":[1.2820903081993404,1.0132523986566835,1.2428803720832933,0.8013977929270353,1.310002360001693,1.199260285986398,0.5904727327615763,1.0568019376585096,1.2588607827919271,0.30565013079778885,0.6197347997278594,0.7490928553870303,0.009721693723024425,0.4758218333945499,0.5722364735824415,-0.13336438832284161,0.22662152794983467,0.3655687731046829,0.8121473969174319,1.0716049985042952,1.047904575697294,0.6442450238477999,1.096928530110701,0.909380496483264,0.6922350579294666,0.6118136060630847,0.5440715152349397,0.1602626579011965,-0.3029502541604295,-0.7590653033028086,-0.6143444331428881,-0.2633648751409024,-0.1316505083691971,0.11364933607336798,0.35390908094479695,0.13234599392244303,0.769746003984906,0.8424326830563411,-0.030805966183573986,1.183801106784264,0.6294796607953338,1.200855915356811,1.2994581358933224,0.8248216529785806,0.3064450180989999,0.6178612096851067,-1.410156434863242,-0.8013006645280719,-2.2083420732001957,-2.7045901800677092,-4.5179161291501835,-2.5923675231604464,-1.0346277777871487,-2.2529757384033227,-3.3188260653113852,-2.755929970683105,-0.17211288809843636,-0.6885263211055592,0.07164279777043321,0.26093962015420336,-0.0480123995393577,1.5777457886298019,1.9706761591247757,2.5131784895186104,2.858561206103925,2.0074643260598615,2.222528347921981,1.3325670293393679,-0.7721246105887583,-0.6240324456249738,-0.8610772317151744,-0.8914342207844205,-2.3331010774065977,-1.9408476046495424,-0.46677035806729045,0.19831732261271864,-1.1719666979781758,-1.4392557613483126,-0.3440016970739598,-1.1996131834566985,-0.8717519597217923,1.6606109323480154,3.284124302613892,1.794321884271757,1.3977099510864892,-0.7253936707108399,-0.12536178868411513,0.3895685005573581,-0.019390903130888554,0.6301696567534295,0.27697047450057655,-0.032881733417646164,-0.046021500409271034,-3.9144575477550827,-11.572113504401399,-1.9660422655035934,-0.021018357874414723,-0.022540818971144475,0.045390944323125376,-0.022286038504116118]},{"bias_weight":6.340206049028048,"weights":[1.4998025472442411,2.0411957448715112,1.2968579414352162,1.4121475431245767,0.7491529464151456,0.3320827952074117,0.24110928045581,0.47642815516600207,0.859692152998434,0.961959664676882,0.2652045544916379,0.6630672031982996,0.38280848565826175,0.8551813871703302,1.1267642723077462,0.5120924653856884,1.418544613095764,1.584829794912577,1.7568526593838916,0.9982444508332305,0.9164763538429828,0.8877689962615398,0.922770233210356,1.3175102369415763,1.4138190867595688,1.2430610797681207,1.1740976130204923,1.689635118793116,1.867897102015105,1.8739060813991066,2.534879848390281,2.5379742811808534,2.4808892980034374,1.7853639717785055,2.306668104849755,2.1061168577671494,1.7976120694374678,1.5089548696503323,2.2256440312575405,2.1558289796298915,2.1969659572827047,2.076157901552824,1.3375027587095596,1.17909558288921,1.6489645091697038,0.7895325849690195,1.8704772622479888,1.1917224181991566,2.4987429663649268,1.7972125414526217,3.812583202637841,2.390366963195785,2.9646015398998213,2.303355312001427,4.747919673974658,4.556591790940186,4.363737990512629,4.20931113200528,4.809587256635684,4.530501212281171,3.7567424826406373,2.157512233526644,-0.17158400072302807,-1.4199081524331423,-1.4166205395710783,-1.1374464616338513,-1.0175680163681222,0.15157049616717239,0.0457422181169232,0.9279863559926458,0.13854486689816087,0.18225446801493983,0.13740365884658876,-0.3403931003826419,-0.6664879007082762,0.5397724182240277,0.10750068019647978,2.63091673044481,1.2461936947078065,3.8026376291102104,2.326465614771792,1.0652982264706319,0.07597248838310167,-0.22580539148046933,0.24170411624196805,0.5561423643578147,0.07748423528813764,0.2844952698160381,0.03686099988291264,0.0388705456691446,0.4045697535877986,0.6670589286495358,-1.3165420970596395,-2.548192644093749,14.008628538168969,5.575308112417323,-0.021018357874414723,-0.022540818971144475,0.045390944323125376,-0.022286038504116118]},{"bias_weight":-3.065391949333032,"weights":[1.2256197978684653,1.1289885525477008,1.068882014963555,0.18307728302815907,0.8642485564913271,0.5366717565793665,0.23286870502724336,0.9519776949916351,1.355029363407286,0.15846039914982818,0.41849891897687697,0.7607289052532479,-0.02432273929133256,0.1894152412886279,-0.09964024046351236,-0.6268268368327665,-0.3789748452161069,-0.09941404220119415,0.3594052236784877,0.5362748243450064,0.5508048386313094,0.07771309297055079,0.6182166542418142,1.0339972748542123,0.9335057575109222,0.49913853903053645,0.10137473071034526,-0.13508177755688355,-0.5399159529386296,-0.7191328684340111,-0.26009236472619734,0.2977571318499255,0.2935894370121443,0.39157068593744127,0.6559506951315166,0.34653077495218326,0.7429975192487553,0.6787137305546508,0.09686624024890084,0.9360073444114125,0.5499088707026729,1.040130406958094,0.9685699623121299,0.5506101492053005,-0.17460435774285382,0.2203438067114039,-0.8707590151037845,0.2052904932563348,-1.590437876024576,-1.8863856969582866,-3.6630778976576406,-2.3179723449317833,-0.6969650539524201,-1.861093292487487,-3.7215639747027063,-2.929571378392001,-1.1602964978450616,-0.8745524383916018,-0.09279763868677227,0.9704052822138404,0.5017557885134291,2.4406953575155224,2.036391703159929,1.7264983961768827,2.391178648848912,0.8582382759010331,1.2908568128768039,-0.12393409492936533,-1.1697122736218657,0.13168325001762712,0.30530177583556445,-0.17849553396998435,-1.9903736586703566,-1.4472954068513466,-0.023903122712371026,0.4902115339781645,-1.0754051345236535,-2.2954267508798765,-1.0839376024703768,-2.4839379876278818,-0.6025510319057481,1.224660008340484,4.012702998701764,0.8249179708395445,0.8728035276051337,-0.24536275652835696,-0.783833882657862,0.15530016004049116,-0.6458307449560163,0.03236173169794556,-0.2317803400513447,0.0024238573270671305,-0.3309205192631086,-1.8637553626867815,-11.335410257002646,-0.6598333974688634,-0.021018357874414723,-0.022540818971144475,0.045390944323125376,-0.022286038504116118]},{"bias_weight":6.184492571543887,"weights":[-1.1690528623600511,-0.520569502731845,-0.9034343023640019,-1.0944953860595326,-1.3724593676552854,-0.9921698028175412,-2.107577131168505,-1.8108501018586656,-1.5887697409913832,-2.2252574117703268,-2.3083406648742395,-2.1181352477497186,-2.233514560125379,-1.6534169397243446,-1.3304112634023375,-3.119189625152717,-1.3708647113528827,-0.9253630008201097,0.4598883606543429,0.21760232182129197,0.5672229235692136,1.0807441939435256,3.1270281488133214,-1.6337640019912743,-1.2702885177934586,-1.2365604738500242,-1.2893621791060967,-0.5114701103633731,0.8087853603880313,-0.5352257475262339,0.564370667800886,0.6399405351855304,0.6681156693203734,0.1427214667043701,-0.29275022556538693,-0.42248170054210815,-0.681650477046674,-0.6831307274772873,-0.7688784260485486,-0.11099737747220369,0.04400362705061807,1.0718061428495527,1.0966204755057225,1.530360954429237,2.3880080812056472,3.066366041765273,0.9530969921042254,-0.8842863995546715,-0.7918256255565255,-0.981458970048771,1.3055545291375747,-0.7887232680147755,0.033702268054869075,0.11070419028000969,3.109726832516592,4.351466385486427,2.602990203502428,4.680652627358398,3.6243467972293324,4.666791809070006,4.240068537770885,2.3827452076822593,0.44702153339404194,-0.863282075192946,0.03745485448070997,-3.312008619044152,-1.5766570118944199,-1.6067871162725245,-2.7708402955973974,0.6765714854849937,-2.0850416996358696,-1.3554718992074481,-1.7529255448153,-2.2298988871140915,-3.2840955274296904,-1.5959591679220295,-2.274897476689259,0.19319504778448862,0.9305584242234215,2.546289714772938,2.870341278829238,-0.12002815812146887,-0.13168109030384545,-0.35576723814992534,-0.7887140397564623,0.7718075727361371,0.1851600823492033,1.5029682949883838,-1.5180891724966414,0.14042748430561167,0.33621489438833396,-0.5022494767344569,4.892068075029007,-17.94177807831404,17.593197574927395,8.481758221513385,-0.021018357874414723,-0.022540818971144475,0.045390944323125376,-0.022286038504116118]},{"bias_weight":-3.5297305038130995,"weights":[1.5936299625852086,1.461627162011174,1.086200724325317,0.007279611618493199,0.8218334565157172,0.3249301959265589,0.5322118967462051,1.122301480822442,1.5229171856216859,0.13623238925089665,0.7947198073814725,1.4430784070022156,0.4694989366744608,0.833745384527275,-0.1298942589063341,-0.7423200832724799,-0.6387117355285744,-0.4411994095777459,0.05735708622474474,0.08181303061940885,0.0033599134722250177,-0.24371903193029937,0.0892590150719109,0.7776222920901226,0.7789662259198962,-0.055060904683689314,-0.49503251937325815,-0.717164638990928,-1.0052611768237476,-0.6156808907364997,-0.062307952190165314,0.45615352041222446,0.08786199984273652,0.5627369868455105,1.2337950399824684,0.8871322656957294,1.496517888680844,1.2832923904071811,0.5883289768940968,1.193375424993104,0.6765588276569454,1.206176340014337,0.9323369002662358,0.33092452305429715,-0.21557090098374435,-0.44187549753371463,-1.5242246324834627,0.5403336349221843,-1.3417916190673889,-2.397382980253886,-4.619733220236881,-3.0979664933318882,-1.8030375123490359,-2.627346430757474,-4.410276715589944,-3.555126381485271,-2.0068234690456923,-0.8939528894325626,-0.11022251556840483,0.804718860746605,1.2745565723487662,3.4930111417736307,2.8195453928511434,2.0900596092664383,3.130755711309881,1.5343301772735012,1.5130587086612293,0.04924800320682799,-1.6907851885771248,-0.35959858458676713,0.7703681150397212,1.0001837635543267,-1.82162556024642,-1.6805592840417618,-0.30966533840060734,-0.7791598091320232,-2.4806122263874886,-2.5492366052082085,-1.3995291976150745,-3.662460329899512,-0.8780534089547116,1.3028736965570555,3.9637317646995025,0.7532501235632791,0.854480760123224,-0.5350970363129679,-0.8816259783883327,-0.13565574769415212,-0.8526160439480058,-0.46806551008222264,-0.8005070790369199,-1.3159292521304689,-0.30840312120571356,-1.1630721919904599,-11.219170771487125,-1.7221580375981813,-0.021018357874414723,-0.022540818971144475,0.045390944323125376,-0.022286038504116118]},{"bias_weight":6.453658295262201,"weights":[1.5959160628785916,2.144500298230286,1.3944121125457087,1.495696012826824,0.7977870382050297,0.376312861330421,0.29550015262827617,0.5304566552079782,0.910956560493638,1.015351573782622,0.3357406673307236,0.7677002984533118,0.4678390439260434,0.938131203815452,1.2043182314315954,0.572826761122018,1.4187841574493887,1.542455529628962,1.6876599559925796,0.9482546724691275,0.8872452276803129,0.8473521039140938,0.9214244321437038,1.409345118363945,1.5131697251005158,1.3320790876239375,1.2540389504340526,1.7357352607072356,1.9114876592909154,1.926718558204572,2.591480451878838,2.5875132265105236,2.5303179052065397,1.8461002604489543,2.3975857756724506,2.178615989572207,1.8704484695002708,1.5831892261942697,2.279279414242173,2.159566270664084,2.156842590711411,2.0063334928257426,1.2789299452663971,1.1342456631757831,1.592588288345426,0.7582108527349867,1.8882435915267404,1.2473841222322064,2.4875639574686903,1.8031349074193226,3.790207978260211,2.343620213645174,2.9481714928852716,2.293290935507969,4.722488547662589,4.53449863121761,4.329235768414871,4.186993700311478,4.814829166375859,4.540018039770209,3.7652834180888495,2.1523558244773406,-0.18679188943450709,-1.418535379505763,-1.4082468458154807,-1.112987201749957,-1.0199428186910302,0.15296154820252966,0.030514388548709276,0.9148080524215079,0.13256459368410423,0.18479421887324873,0.13674665288006405,-0.3589389535687129,-0.7007120885566375,0.5261489050232016,0.0919265454325735,2.618647530591963,1.2412945591556648,3.7744249022348257,2.3039083512858065,1.060266645121334,0.07529702428665146,-0.23570531076449397,0.23814774232473165,0.523085969056181,0.06656589660897404,0.2747378923796028,0.04071541724422367,0.029088996425183124,0.4043668943252634,0.658639375682507,-1.1862666670562174,-2.7129304924980655,14.059622236928528,5.968559738610775,-0.021018357874414723,-0.022540818971144475,0.045390944323125376,-0.022286038504116118]},{"bias_weight":2.5105553110298158,"weights":[0.17630408860468189,0.8224733979222602,0.5746923076741274,0.49999923681520403,-0.9747418017438467,-1.337177742806801,-2.936111070735236,-2.7741469852108467,-2.2923311966623445,-1.7045155573045916,-2.6976027509937537,-2.6740187568975515,-2.8325227028437854,-1.8155269830514904,-0.5747431723693307,-0.04419865382386854,0.9443844032613449,0.9339488573616758,1.4177727808691218,0.3641545132285947,0.36371841521151616,0.674945389623777,0.4886788024367593,0.9588567170396574,0.9667289565436935,1.0499951898057902,0.7448996186770291,0.5864557546068038,0.30653707984423917,-1.1176715773303165,-1.2027273970557701,-1.4918689810826091,-1.661024010475098,-2.5029179972009796,-2.080831651677951,-2.060811508634123,-2.031119319971895,-1.825933588193514,-0.8877994799426755,-0.21388322418511865,-0.14783756080705718,0.2647589722178734,-0.6134424703291957,-0.4860289377803144,0.28589823561287553,0.3052965402002147,2.7457590524626294,2.617649302959811,3.2160869669600167,2.0811874920234033,3.2653932158981016,2.132422442739172,3.4421820298872237,2.665291153550392,3.9084828778797407,3.7136846453928447,3.1180415771702097,2.528444909223684,3.8949379469722687,2.491982431152851,1.12926426594404,-0.6334864018945425,-1.5910423832608231,-0.5888413195565818,-1.7328945709223833,-1.0334145262660728,-0.8859715766757424,1.5317372347522697,0.25894648407446785,1.1731601920202117,1.6095544926953214,0.25707710183008275,0.5663239826486101,-0.5357202521258024,-0.6110804048133189,1.2782522652951296,1.4292369808547916,2.593637273903181,1.8514718187556232,3.534653295173696,1.0969831871699431,0.9995275521539412,-1.5019515736623201,-0.1720308700394377,0.37011397390698964,0.048728314059402124,0.7583012317557144,0.23577029155756685,0.022897165516933608,-0.26266124468540475,0.5017762688362846,-0.09031457704861502,-2.220890041172024,4.556551912030644,9.454506966807415,-0.17575988802433634,-0.021018357874414723,-0.022540818971144475,0.045390944323125376,-0.022286038504116118]},{"bias_weight":6.194757160217031,"weights":[1.1746040500449013,1.5726376800975552,0.7226761742002742,0.618888262757102,0.2490091205677228,-0.08393282230426984,0.15772274747176898,0.3971947264202682,0.7529523507877738,0.7703751136829564,0.37434921042153496,0.5581569069985907,-0.10815694399795699,-0.09919986383829127,-0.1545243406939545,-1.3543280527051353,-1.0577616854411136,-0.5125201154599532,-0.17173804337659884,-0.880800059703667,-0.44911377905096267,-0.06434850525135262,1.4028738426397278,0.782779465560624,0.776667231636583,0.4474198263869877,0.3178520033896046,1.0897887993439979,1.4797696887739062,1.7830501157254968,2.5640391177267516,2.472456282320915,2.3156608276038124,1.8809713771446954,2.098881738806153,1.5309095729145974,0.794735751209798,0.3226800517784701,0.5376707911852043,-0.01846710762397645,0.36319206711564656,0.401102164239682,-0.3397546550825194,-0.09659768824435667,0.7165507901092043,1.0538243977789838,1.4229116356014448,1.0846484273541914,2.111723470649067,1.6370527938199348,3.132853499362194,1.0484551955409034,2.2312518577453426,1.583422797753468,3.838342006959724,3.7327680422626126,3.256578465795991,3.739520901515364,4.93105492176135,4.982690202153872,4.213381375619957,2.4824229651261405,-0.17722663118846024,-1.3103876930113512,-0.9478120644946038,-0.3725240336689415,-0.8684532304120163,0.21701469348053284,-0.41900823202507215,0.5620003580520092,0.06742806121088131,0.3168148158537441,-0.10343124185044804,-1.0115821183161615,-1.7082650160013002,-0.2920606054085059,-0.8765769308566536,1.965409029739466,0.7310930081422012,2.7536940122945515,1.9544866218305534,1.03456092736187,0.34143202883491103,-0.3943989244714998,0.25992930671956893,0.058124499844831326,-0.1732750482548504,0.16362499380454862,0.26055569676426876,-0.04433027151603678,0.34515991031218207,0.3538704931860485,-0.5031522906943219,-6.433817884508632,15.851743569756389,8.03828924714169,-0.021018357874414723,-0.022540818971144475,0.045390944323125376,-0.022286038504116118]},{"bias_weight":4.4084315581292115,"weights":[0.7156030918739558,1.0874822469821686,0.45779528863745345,0.4611374855443085,0.24297131584068415,-1.0784024988668413,-1.2721796320402563,-0.9492803349038558,-0.6432238523770247,-1.7182529505120145,-1.8608983232408414,-2.51616641802124,-2.519352347666971,-0.7839192020224789,-0.6162979439385146,-2.35580691676758,-2.2477905770159103,-1.5633967172626746,-1.7110255276701936,-1.1914366994847327,-1.3924393123767163,-0.8154532852151691,1.0329998176078339,0.375636627804215,0.5680697146809364,0.42809570059256935,0.6251562359583789,0.9514502871539603,0.6775817160361183,0.6517508801845712,1.1813276585944292,1.1758188109303978,0.5063974053553109,0.23340585955604803,-0.5277162780736616,-0.4137622529166679,0.7332468736889097,0.5123102696572904,0.7144848951776899,0.033058661523527905,0.2655757491360298,0.08959116689784836,0.3140908248460562,-0.15641420415249782,0.8590790256716959,1.029253138745696,0.5015953157261891,0.030973367228576423,0.2111362679022206,0.5757204334750678,1.1433780229706287,-0.7522714453886297,1.6004182230014958,0.28586746808897057,3.0113813151562208,1.9424909647048596,2.539617112526768,5.2110649718657305,6.385744863396331,7.442690294567972,6.146795609853422,4.909888728661329,-0.10623011912715813,-1.2914349240675613,-1.4665911035404362,-1.684346760719606,-1.8720252471766392,-1.2775478002736396,-1.813732951030492,0.1309394057474987,-1.3204788539990784,-1.2828956658985613,-1.9857760612494482,-3.6435389837662506,-3.2005748524329234,-0.9829761938863765,-2.512286348021311,0.5978264421500494,-1.3294576181060793,1.3821872191542606,3.681306149694807,2.4062739740583625,2.8567263639268825,0.059192232225456,0.9564145763003141,-0.8090591402182213,-0.7975756818130061,-0.854194565318587,-1.626708473840598,-1.6743800044417179,-1.6558669853394286,-0.8527864815024688,0.1500547099444929,-9.907066526896141,17.31748066778739,6.731528528483433,-0.021018357874414723,-0.022540818971144475,0.045390944323125376,-0.022286038504116118]},{"bias_weight":3.23654485723109,"weights":[-0.5658091320280767,-0.47741596769784167,-1.2390222831645565,-0.6884588217291662,-2.1674765813707535,-3.152344307192552,-2.7541446735283763,-2.8846660621460445,-3.1090051648588504,-2.2781309980631375,-2.21645643028613,-1.7573888539752693,-1.890593090625113,-0.6418691057212371,-0.011791880695847017,-0.011972212026452694,-0.048789200553913954,0.03937092252981884,0.36236086948525076,-1.0697105828711917,-1.2880710038564518,-0.9445106443215999,-0.8513731766062841,-1.1569006625144647,-1.4717018029425162,-1.5297959350152885,-0.9752384951164839,-0.8493804604013605,-1.2841594096392992,-0.6833838074031652,-0.5838000440127309,-1.035158932785525,-0.5390805801188397,-0.44174508284837805,0.14158185229908157,-0.21083509392183078,0.35950418842042176,0.14378221488866694,0.9622383899162238,0.41308267205149946,0.23678909977853446,0.3781489769680651,-1.0111646742688478,-1.3370826983292063,-0.5254161821522827,-0.913450621167812,2.1920093262206723,1.0604511356897592,2.6725887705503886,1.4937238384796083,3.1672783605348003,2.812742546199756,3.2197811827348963,2.576290717814543,5.950976132705046,5.485698154948061,5.658830522127803,4.756650886096174,6.013931483384139,4.967911726325799,2.679833208527383,0.9743450198171968,-2.0213436173468966,-3.2661077622194497,-4.544161333013425,-1.187704415213701,-0.98546970859803,1.0918139866654253,0.5863543923524022,1.444055320458376,0.0979008582230134,0.14649296878625898,-0.4966485431634314,-1.433586889278604,-0.3928586754633129,0.9918438269819906,0.18681624091817015,2.994824724930103,2.1460347754191846,4.604059240443484,2.0478390744091244,2.04733706614222,0.29034096625651606,-0.7707727409346457,-0.42319518728979255,-1.1527222007486375,-2.6827055469528776,-3.1788963983708554,-0.11161092501589613,0.2451743734724951,0.7135672050458527,0.42431585445854797,-0.5759035136391998,6.460078168090706,11.280944235881737,-2.86302163489693,-0.021018357874414723,-0.022540818971144475,0.045390944323125376,-0.022286038504116118]},{"bias_weight":3.311060615643049,"weights":[-0.24741412525266743,-0.16409239262802405,-1.2232017011131586,-0.8314281448181686,-2.3915689443605035,-3.2835006813187664,-2.7314588709296364,-2.8683531937350475,-3.086084341874524,-2.3041971715305865,-2.1561893393343303,-1.8221081789874933,-1.9571677349256191,-0.3762436514622286,0.14205196344791027,0.12805187193707956,0.4606639094181638,0.46168818960823366,1.0767111408217442,-0.29600816147060965,-0.4761284285884973,-0.3153059898381323,-0.4481301055208214,-0.8284785979030109,-1.0461501364803123,-1.2686132315942606,-0.6985767068027833,-0.47624449168128846,-0.7532059242786455,-0.11151287857199339,-0.004423336847891629,-0.5562417554002549,-0.4542135413567464,-0.2700395974855022,0.33532481915471335,-0.059740261176810486,0.7099628540410136,0.49235809523370977,1.2471221168280822,0.9929511121595538,0.766576520703746,1.165527736598785,-0.11094045379644756,-0.392613226525953,0.16716032319092564,-0.4812854669702795,2.2678166480112982,1.540428959205869,3.061229434986524,1.9455794827474997,3.57607168206904,3.0292021753495466,3.670719716081642,2.8804024363133287,6.163517365627451,5.893294911179862,6.017107122223203,5.514787025224076,6.420466902537046,4.9027051204850345,2.9681584866175483,0.990193536387767,-2.3988945008032805,-3.665267625586393,-4.83997607599911,-1.2879083943899083,-1.276996613657042,0.49881180957773585,0.6005441620004514,1.1128054069802742,0.1457086578039611,-0.009332934088262995,-0.9072298871053287,-1.7921438990688063,-0.8480423334631566,0.7658766925217644,-0.24066226813448732,2.5833486297263093,2.267453063046633,4.388480164751463,2.2767165684145287,1.853551414044049,0.08207511229005456,-1.233825725114091,-0.9382164687344094,-1.6213559093348764,-3.0386502859316096,-3.6752127131792247,-0.32892544784884864,-0.18686483522010533,0.4923033412358956,0.3866428064448349,-0.24998606708798315,8.322535418327586,11.415366203238113,-2.2260062441677158,-0.021018357874414723,-0.022540818971144475,0.045390944323125376,-0.022286038504116118]},{"bias_weight":-2.0184103607988173,"weights":[0.7010743608221476,0.7838489751063052,1.3408382644629029,0.8903140402014768,1.0583489694701143,1.6998268797993805,1.1833136820741028,0.8940676603678136,0.4227905281743376,0.7501402881417072,0.6946114634435797,1.1746123775437436,2.0815457051300323,2.312528297073005,1.9945124741713423,3.327306089545201,2.97935370926982,2.1730603885170905,1.6307814012712933,2.1362512843344788,2.1654259428861993,2.230982562584735,1.5667650318510715,1.4704516614656635,1.5387463376908117,1.7574137037725852,1.5775088101118526,0.6348468608702872,0.40259415636292034,-0.04871654344187934,-1.102283626199753,-1.2947196925843434,-0.7907669134708972,-0.922433863014736,-0.3867342288176639,0.6287761497547063,0.9122144910136218,1.4663937801917302,1.3301994069450795,1.9005673580751798,0.8852173435179759,0.7152501320691393,1.372427595364727,1.4585439636947006,1.3881323629191575,2.2306909658254526,-1.6311691209756043,-1.1926017196695715,-2.1328571599414174,-1.2311171157865586,-2.8758163103125525,-1.6603302127227269,-1.978734078282028,-1.3522903707969343,-2.744269537975866,-2.7262808928274143,-2.042997835965787,-4.263868440322066,-6.250375924413628,-6.482196996062821,-4.934745413309154,-3.693862111470296,-1.2636900798100426,-0.3169359595404831,-0.4548050614481699,0.06360376171392401,0.7802387379255326,0.31284538280756685,1.1305511327072078,-0.8678306935564962,-0.5610658674912588,-1.6604508195911363,-1.312522353071691,-0.4755180028104831,0.44843959505487696,0.4962309503137612,1.5998819003623739,-0.5732480411712833,0.3269996340526101,-1.1522767127835367,-2.343870264934565,-2.056554402169377,-1.292417421106089,0.1794133312849929,-0.7559909671615026,-0.6032066626751046,-0.7425286086393637,-1.0562144742692987,-0.6368243427004224,0.00827846581561642,-0.368078598180523,-0.418351596562162,1.171925086844091,6.438764324842935,-13.676736185832388,-3.324464826159392,-0.021018357874414723,-0.022540818971144475,0.045390944323125376,-0.022286038504116118]},{"bias_weight":-4.351678981206048,"weights":[0.2716454318340064,-0.941113873729333,-0.6508482929593046,-0.3770956273333352,0.910454773190049,0.051325395579204694,0.4764927594212823,1.0142868103304488,1.1195928414374734,-0.7379897841400287,-1.6892400332868172,-1.618708155422075,-1.7574341567849778,-1.934142864692421,-2.1870320133615455,-2.0498814139752084,-1.4474636063399153,-0.7683289882052061,-0.03401164650032248,0.5322985906981821,0.5424205268150335,0.21775405440973383,0.12145403202987888,-0.5074098775447733,-1.3479037938892438,-1.2007173317916713,-0.6392107929890076,-0.6533216248126135,-0.9371068128506511,-0.21472149632827334,0.5698894245066752,0.9275751285267982,0.07479916823938358,-1.010667327503141,-1.1512991002447752,-0.8089237409666867,-0.44854537923507165,0.08245556907075392,0.2001575517548909,1.1208546694786348,0.9998477740561672,1.1757275593659644,1.4297321651030965,0.6225109835450976,-0.17946073214336425,-0.7231064479670337,-1.0220375279998186,0.471067055135664,-0.5480776125095463,-2.7491655653262748,-5.117401660572592,-1.8989393353761277,-2.325771119618885,-1.686119861681963,-3.7794637399243163,-4.987137498672958,-4.198826442039485,-1.303892801181123,-0.06265224293423242,0.5919244017356741,1.3920012789743414,3.664437366744706,2.998047500639127,2.8073051752776577,2.5461750760907655,1.6682600588918801,1.679293127871249,-0.6960198719535767,-0.8621316842755006,0.7158299649142569,1.7914122929681,2.5117507684306912,-0.9807630187116557,-0.3505087097421757,1.165516340667688,-1.0596727034099527,-1.005076333824282,-2.2812895640960544,-2.586726864262633,-4.037132865377194,-1.189287124318643,1.5071187557081567,2.6846541795866306,1.068855052018138,1.3510639843020595,1.1789069424717997,0.7689568703756539,1.225461069643919,1.0488424767902074,2.4681239145358562,2.2541164721193248,1.330256167529104,-1.3784260049098687,-5.1520155702952275,-11.660900969551447,-2.9845432361329642,-0.021018357874414723,-0.022540818971144475,0.045390944323125376,-0.022286038504116118]},{"bias_weight":-5.397172626677728,"weights":[0.857216754476691,0.37710284704302705,0.833833328963542,0.053539955030303,0.023894629269832515,-0.638709195517736,-1.2154872208761165,-1.290088730270611,-1.0897217869014755,-1.8417207055314597,-1.5034604207338689,-1.0111887008779143,-0.8898770647628169,-0.09017504357232294,0.05467524670877458,-0.11483333053545491,-0.34623003403489466,-0.6674051961265973,-0.2539850106512663,-0.11543687543259067,-0.2494724433958638,-0.3140675952291265,-0.5670028601296521,0.9753224490992288,0.5594085375866061,0.38401525417094395,-0.1781623442276063,-1.667904046977592,-2.77854573360456,-3.2453087165847303,-3.704030832987314,-3.164451001189531,-3.200277560403009,-2.981645521493209,-2.3236398747987987,-1.6356127690079083,-0.5234353730777987,0.7064066569257164,-0.21101679537180157,0.11402688801401525,-0.5907634370604826,-0.1831353657802408,-0.08724042489191579,-0.4069027352940496,-0.6718386951151127,-0.8245886677782192,-3.025203896023632,-0.783991389374379,-2.3924464487392223,-1.8919128522932638,-4.70738260979042,-3.514606182049372,-3.335944251400887,-2.824897669630073,-5.507966329628747,-5.141125581285781,-3.4494122777198934,-1.9583790385828221,-2.4121122195438867,-2.0077363058702726,-1.786198043080315,-0.6836468046649987,0.9011893962898609,0.729965977272221,1.7667270998127276,0.6930114158062917,1.1109743829860785,-0.32499016768542743,-0.9693864108429837,-1.8580325296187181,0.16024426672879966,-0.5142640736603362,-0.6207209033176094,-0.29091774141724036,0.34935880342307507,-0.6436244070816963,-0.6326637205980671,-2.5369540308260343,-1.9942179210511968,-3.1632415219898804,-0.6948593164902575,0.4446007978403516,1.8568657533436006,-0.15933151147768232,-0.9768344231591813,-0.9837874965546577,-0.048535521468257084,0.27980849114302486,-0.006971776570353301,-0.2660553228374785,-0.1613536510415692,-0.8823173420045578,-0.9384637936506062,-0.1794539597849198,-13.71027350737252,-3.5168429193735267,-0.021018357874414723,-0.022540818971144475,0.045390944323125376,-0.022286038504116118]},{"bias_weight":-4.591664409112828,"weights":[0.6281082321533134,-0.10830601680797769,-0.24019499938873626,-0.7670554099175475,0.1687398593728236,-0.3354389214982724,-0.4950260456992705,-0.7317776595088219,-1.2312931363173663,-2.7321016965226117,-2.42865016414679,-1.8482183309737632,-1.8095822577441958,-1.1025249229700433,-0.9807512397270128,-0.7323801399903858,-0.025377223673757148,0.9282709896312431,1.6785012745437533,2.065610511252341,2.0687664262381533,1.217566554885483,1.3961993615089086,0.14979316109401478,-0.30146510029827484,-0.5210709069172237,-0.7098954232526181,-1.0077177808197406,-1.3809672377192297,-1.1242442012852385,-1.3001345295933604,-1.6185860755414214,-2.1916863840772867,-1.8388076447889712,-1.7357103285606716,-1.5587085839787167,-0.5459022052347227,0.1393775603162788,0.27836119419267696,1.732679896760453,1.8414168031291067,2.5580493994495637,2.7288448055711143,2.047390277656644,1.0870372132709263,1.074396815308951,-1.6339513034011182,-0.9717741526844387,-2.4409818756512296,-3.2827642103466386,-5.255863193805804,-3.982112645276828,-3.2819487182042444,-3.717867736353982,-6.123147881162707,-4.865798270524734,-3.508221984175398,-0.9570362911492649,0.5194806979317832,1.0831059000816021,0.6468197956683924,1.9438954723721344,2.522979296971141,1.7657720545712177,2.576658633683287,2.1920455030701995,1.5943252167203035,0.34979482643072785,-1.8648325453535362,-0.8586766161757085,-0.22497752120185185,0.29446974566434,-1.557241185885584,-0.7727096265323515,-0.0881734064322308,-1.6550702151551362,-2.13570973178995,-3.5355758198969633,-1.3633018877649277,-2.6323068922430384,0.33758099002698877,2.80321168422536,3.763701163409245,2.3229490342335035,1.591342411520332,-0.22458583461866724,-0.07349411059796987,0.34762801795643694,0.4703310648037756,0.7707039310360589,0.3084613616416125,-0.3760487384101035,-0.5363395545421148,-2.3622383147219703,-11.695622817803095,-2.520894190934204,-0.021018357874414723,-0.022540818971144475,0.045390944323125376,