{"learning_rate":0.001,"layers":[{"function":"SELU","size":98,"inputSize":98,"neurons":[{"bias_weight":12.14677063158344,"weights":[-1.5153946399473983,-0.6232174636117324,-1.568556062813256,-1.53096835798294,-3.2564282806147014,-2.3280646806339553,-1.9654084427231688,-1.2314106072058242,-0.7664526672389703,0.5305344152502066,0.6859932049329129,0.044008542559408066,0.6944446703519993,0.8245101560853548,-1.6855655517465944,-2.850545558917524,-4.480718004949272,-3.252093305400598,0.3381818640942052,0.5567831093274146,2.1200854332731445,-0.37578522183618013,2.4806133335996052,-0.008244866823802164,-0.6495772550745376,-1.1920573805343906,0.377269006661632,-1.4725408511147202,-2.4782573266592793,-0.5065932799858107,0.536555323002916,-0.1373923143339892,1.6056561872671786,-0.6966102262855906,-1.8044958727528542,-0.4139012821871338,-1.1675287785800306,-5.487707700940862,-4.693105509743163,-4.710239315726469,-3.5556382700847253,-0.8384558399205284,-0.8495948042316974,0.42222066455942464,-0.2013361747086108,-0.07212999159512944,-8.227654396610161,-1.668161060978481,-2.219771972332352,-0.5396165733201292,-2.9161238346404024,-5.2922303975133564,-6.445580057200777,2.313227260526267,-1.0505854875185447,-3.9669024381431615,-8.227911086806241,0.7315854881266332,-5.228042293807011,-0.9144041522933866,-3.7675300451927756,-2.46425694763076,-9.002740066939785,-4.204845600990635,-11.967121893284009,-12.129536389328445,-9.339366861897902,-7.321015747629293,-4.616120140101609,-9.061227383610802,-4.942636820306372,-5.635574953696901,-4.001811152626579,-6.336250955131084,-9.163724050018391,-5.10686748554097,2.943158571596855,-0.008068762972247942,-2.964044745755681,-7.016731636244733,-3.1621644185055655,-5.5677402797370785,-2.941429142096418,-4.508244917594184,-5.801330780794974,-11.85901846153927,-5.7254645853747705,-12.078413618019976,-11.62879439968343,-8.646494537688788,-8.289163334480044,-1.5711810389588794,-0.2776421791916415,5.9575506442702695,5.664843465736469,-0.0698139823854772,-0.021231747689149025,23.435967658768913]},{"bias_weight":3.7063112432233547,"weights":[-3.6522169527587405,-1.5764907521366405,-1.085174431408193,0.40360915161849065,0.23332856717740688,0.5235138998133193,-1.7625462486996784,-3.9372630633113928,-3.024539972585481,-2.82044058493171,-1.9436465558263043,-1.7387327907073882,-0.5663834464988506,-0.9118649758625361,-2.493608677279417,-2.8055535050441467,-5.052466621837881,-4.917492061544945,-3.299550561180038,-4.622756554386357,-0.50413296926184,-1.4326395492520656,-3.4715161735942157,-1.7737470011420517,0.5171603906214731,0.44340932908777214,0.22175908333549638,-0.30925833731757446,-0.7144054449285548,-2.656346991468295,-3.8904972425501927,-5.128631957840283,-3.9739940052133784,-4.499591533068675,-2.638771039911843,-1.0885380390952513,-3.2027822712794873,-5.003284942377272,-2.0138465087756816,-4.984560636143274,-4.265289870145418,-3.7612979827161896,-5.1162839058118355,-2.0282100021696516,-2.6840611263577947,-4.7536323418494835,-10.361690199449686,-6.484003770700913,-4.768855426930164,-6.461579808768902,-6.2247980755534895,-5.833975391889032,-10.791915475610418,-3.3565600685444497,-1.3403394313869272,6.565594933417135,5.740813039160257,-6.7626553376881455,-3.2240208478678984,1.0046010809930244,-1.7104019200308325,-5.025292980125968,-1.1211023291934121,-0.25239860309703144,-6.059839355928521,-3.4080384335823544,-3.8309375155801844,2.2587976773652345,10.587863014685539,0.3018984148821936,-1.0237347790722096,4.9630691813670085,-1.9659275710019148,-7.750468450400809,-9.203258171901709,-10.86199786868534,-2.117523921645581,1.5456809254034005,3.8902244541830484,2.385942218645818,-9.942030195536919,-5.725646599884126,-0.7065198100476923,1.1841785751405531,2.316677398235009,5.632143256520248,1.8771014138135935,-0.47973079058069024,-0.3464580904410484,-5.6654281275601734,-0.3538494199550816,4.030222579881576,2.215268836847073,0.5012949289427523,-3.5140868323905843,-0.0698139823854772,-0.021231747689149025,-6.441382375497273]},{"bias_weight":13.56024087158086,"weights":[0.08988838826003928,0.021886142860205515,-0.6190330624284353,-0.685167284275537,2.4689629518281526,2.3182574097624338,3.204076846487485,2.68568568804602,1.4256163601366172,-0.18219267562791314,-0.21555939134521113,1.5438293495882112,2.0612864579673396,3.3354323342003185,3.0947381101182496,3.185453407424307,1.3654037202917646,0.9294928635566764,-1.862146595336274,-2.1171962085571607,-0.7148458242705363,0.8045047706261831,0.5938174372297959,-0.1819622497428455,-1.5901287098668477,-1.0967286413306736,-0.5524623765465227,0.17150334966818123,0.37097694349167,1.8302920819312654,1.8525204665396744,1.7407028372396156,1.2872107917637128,1.596668626341503,2.4609198499120084,3.459535798944623,4.2786477822654065,4.568519716741667,4.001090343067135,1.8250063174677902,-0.058999154395401,-2.258064290820921,-2.1118397701707208,-2.2430540719366467,-0.9421225009551867,0.06162194918652956,5.2595313128436585,4.87524021252409,-0.524151735712449,-1.171604868631541,-2.3416333326716496,-1.3881903730882919,-0.8553385997881409,2.0611581845200058,1.5386332423625138,3.2164538986121287,4.92020221510926,2.839365191730345,1.1680264956210606,2.7475068648209415,3.793588164134115,1.1300048053767697,2.617528335016108,5.512370225640016,4.633455629870109,2.0208292098185345,2.2923280701252216,2.6103514104365346,-0.9811705358957417,4.716727737950375,0.09072545704842384,-3.2995814074458014,-3.2512989843279314,-4.501697504109658,-0.832814646238333,-0.7996414360547995,1.3614880776373375,-0.5625184649245017,3.4215670373588223,4.176846646854639,4.561648531409495,3.425164714871269,1.6333492878721827,-0.006207341573421554,3.3135637648594596,1.9185212728764998,5.6283084753019335,2.0356414511035834,2.1166364428442903,2.5458534698589514,0.3948059367980297,-1.9462443897719321,-0.6507475136576517,6.190484239936638,-17.07445400970792,-0.0698139823854772,-0.021231747689149025,6.611734152157136]},{"bias_weight":3.678923846066259,"weights":[0.4284960926668981,0.15220554782558215,-2.0548515168723718,-1.1266392416591606,-1.9041798279313582,0.5623238933218015,-0.34334466280910664,-0.9762461427659161,-1.955403629407327,-4.579444993366649,-5.005849304504629,-5.672514912871254,-8.665624473743586,-9.630189828159134,-8.349482301208097,-1.840052170195122,1.5238326623752245,1.995554576488296,2.8249062850374558,2.3134613583744175,1.6443779871933397,0.5025943163642235,0.2579718362993238,2.5879952057842144,2.5276041389322312,1.4082186638333796,2.1210742764935486,1.7614684451650517,1.7661300658249732,0.8782153622747446,0.07841140308913679,-1.0686410767884584,-2.233476848768554,-3.8398235493336865,-3.93252812591573,-6.816611791289459,-6.959452311377863,-4.592716550873291,-0.9262834217815533,0.3179952274355887,3.2433115065166223,3.7391060862709504,2.1601593938742885,0.8409842465279345,0.13877945231347655,-0.6683943134879102,1.3524461107819257,1.1260416686900816,1.475583652092029,-1.5833425159816452,-2.144961694260322,-0.33900435750011426,0.765986788782785,-2.101628633498194,-5.013721803485145,-9.910196531466495,-6.808615878694653,-3.500684750805365,-0.6077033137174122,1.463710968808035,-0.23001375253768938,1.97467449832885,2.596857238215525,-1.304918299523834,-1.4075639109486595,-5.391829046594462,-5.861136642366339,-4.106072794140525,-1.3280092245196562,0.15314715178194185,0.24917538950225238,-1.1754647371533395,-1.8628087568333629,0.3919074962697076,0.381591125591437,0.8022561641882288,-3.296515231887234,-3.4586508251001935,-7.013774161041558,-5.205928788062855,-1.9808756736031232,-1.2104303345014433,-2.6518916759130424,-2.2818022735658348,-0.4610777922357268,1.9762502986125385,-4.273644484088308,-4.359984733269731,-4.857753259012928,-4.191983809596661,-2.8481041778975853,2.5529486248522084,3.3201555787107075,-9.250357249815947,31.177196436382346,-0.0698139823854772,-0.021231747689149025,0.3334985311973622]},{"bias_weight":19.185391982589028,"weights":[1.9930150890673288,3.264767713622807,1.3454302789748134,2.7384373549805363,1.073399118406818,-0.5456049175164193,-0.604669898849721,-1.4882222193860728,-2.4637482974767826,-1.9051133437289753,-0.12146851047439138,0.28721765006025657,1.627691171652925,2.050062777808917,4.696885624772752,3.660499091626049,6.0865171917688015,7.214705200605361,4.055300263662756,2.3347044374432833,1.987201931521085,-0.6762488792850344,-0.014569630026129585,3.796144210426556,1.503029492866527,0.8300520844871343,2.9254416875377482,0.049931273184102815,-1.3914561565585808,-0.7749943143934794,-0.42061315952558576,-2.17070798486451,-0.9205341021739611,-0.48796354141715503,-0.5746898838943495,1.4060581987390188,2.9644903082436747,5.614587483593187,5.030549328982792,3.2110255779903323,4.425855661167144,2.465145430059064,2.4853452398204228,2.466031659365801,0.9988729309321175,0.010739600607587272,2.961148754510308,-0.05462387782997282,-3.4743992672135717,-1.8286027227833959,-0.7501329226840736,2.8101834723072923,1.227628146765316,4.9294670778803535,8.612465589485941,9.536707509462799,9.241031904722702,7.036272137603959,2.3727055725132087,5.432682836242102,3.251708390668971,4.607343595826692,5.600498416871364,6.826972437023326,3.23889560515884,2.08588434463534,-0.0333367758875935,-1.8021648041483669,-1.9749723929334286,9.871575176782601,3.7776215424906723,-1.0934086317789788,0.8657152936931363,-2.334286830564665,4.309772085615779,-2.3131334524261344,1.1757687193794757,7.024070359331886,9.880962544076503,12.765682798333398,6.900435091861224,1.7714290693775763,4.692320445711318,3.8747298750562753,2.083056153035387,5.139879252637302,7.853646941086459,1.5818607159544595,5.953713913385211,2.439598032180101,0.5538101217267698,-1.524077423282359,0.5992203435304347,-10.462366541200751,-6.228053066698301,-0.0698139823854772,-0.021231747689149025,-3.5515366935407298]},{"bias_weight":30.735371754293485,"weights":[3.455976185446405,0.02435378962463323,1.3970914885711208,-0.9105927967068038,-2.7358118736105594,-2.6067668436282743,0.6047555134435175,-2.4642657843389046,-1.3684520968459886,0.36495780435534014,1.0589243981327883,1.6137985866010638,-1.3124456865323957,0.827766416377136,2.328175952328207,2.3244026161828506,0.8886737882440796,0.6155253566156942,0.7646544550916065,0.8761263510451762,1.1652942626683835,2.135022242436775,-0.5196444690374659,4.120304988663215,2.0788846588427807,3.3351248392599273,-0.5315258008415821,0.04359135993362172,1.2609675797310533,2.7717422788467942,0.5441715789360039,-0.9079095961669368,-1.0334244264666628,0.5399472641944938,-0.30239638319651596,-1.8270824190075365,-3.0076260847635,0.5334873413969837,0.7339310078936115,-0.4336841480371382,-0.6956026685298583,0.1953461117530618,0.5463515737113799,0.9060311811814394,0.18849635817840474,-1.5577496514084788,-1.6864346204452354,2.8595790690216147,0.2925041730836706,2.796680803558937,3.765372719785131,0.8317997809260129,-4.4352161684138105,-2.7025244690906267,5.626431052513237,6.449069069240544,-1.5586040163700807,5.093878162233031,1.3893696932702242,-7.403006791398181,-0.16032954064787397,-0.2710611509422223,2.699631527990601,-9.112189049051443,-4.000715904745206,-1.874436772952708,-0.4237045257783377,-1.907553075708127,3.8517501563435226,-3.4183226715954054,0.5199739915362924,3.470117932223941,4.271248057836977,4.860367486281712,-1.6538442117911727,-9.343412248687711,-4.600409676797794,-1.7246989940780746,2.5667636546895958,-3.192150931348231,3.5565046679992145,0.8172842247959419,-9.540568778786598,-4.171740156427879,-4.198577841377382,-0.4866741954141075,-10.817378503852085,-0.6884837756214294,-2.385448903553044,0.224613170532557,-2.3613166242117845,7.211500135990196,0.7362962317634755,-30.89615747954507,-8.105391784546274,-0.0698139823854772,-0.021231747689149025,8.807240082826528]},{"bias_weight":2.8268188663017733,"weights":[-2.3925577310453043,-2.911054269774707,-3.394757414976995,-1.7421524087965417,-1.461000308869646,-2.5655703576585878,-3.0252760981528413,-2.743916793986799,-0.9494930404968293,-4.125978954882338,-4.406760785185981,-3.2118597518402163,-2.2142308725961812,-0.6972566591677992,-0.4675252810713214,-0.8879729643355272,-0.13967520526233063,-0.134124790130359,0.4833471000120868,-4.331555214263971,-0.6906704904661857,-1.5453121636863638,0.9950996162281515,-2.4202286428119315,-4.544064112829214,-3.8545360867220406,-2.2989711790336322,-0.8037503997054877,-1.128413024209914,-0.4169416743584681,0.44471650301177207,1.545456516705378,-1.279151532094727,-2.941284979617149,-0.5796294033925031,1.5555579551282677,2.1699500239093648,2.2261950195158526,0.36250188918847037,1.0566930040794118,0.4439113911311358,2.1784185438817314,-2.5798267457657182,0.9776508173288003,0.7214252229090077,1.3924137810868484,4.135007508131386,-6.145396834144532,-6.906649157386121,-1.812736386719379,0.7713061171747319,2.653046355250224,3.459570667109908,10.444619976895636,7.794518685125811,-0.7228783726760839,-1.2082243480713655,1.4388873766795918,3.8557893008397253,4.571947099635317,2.026659396855819,5.4616724841736435,-2.4613203769004164,-2.6089086398234667,-2.9762737525514065,-5.011135330933249,-11.287141933282882,-9.774891032880715,-16.38130110723657,4.372706857311363,-2.104331391591447,-3.6284977946978647,-0.9189567709770424,1.1700872527879724,2.6430043697190038,2.2682082779410986,6.543221808497866,5.928751386258403,-2.014111769893779,-1.488419339515802,-0.029577724780474605,-3.3674909330692184,0.5617750555806659,-3.174854174425452,-4.05523539397469,-7.650160385112411,-6.6669989061100825,-8.335080833968583,-7.558768362498369,-7.443931208299254,-7.959415685960069,-11.272935844745863,-0.12137004199448556,17.405183798263693,6.642034623938552,-0.0698139823854772,-0.021231747689149025,-27.46782373451003]},{"bias_weight":5.8849917444903586,"weights":[-1.6480967712093118,-3.589456140499815,-1.7629885335982496,-0.4192459126401675,2.996347230119511,1.5725353608479677,-3.02045209894205,-4.2854365759000546,-5.4316977881134765,-10.116396965278007,-11.29718649594458,-10.96080604321925,-9.440891293386633,-8.466358772405112,-1.508307294382391,-1.0723933128082044,-1.7930709675676524,0.25913042431762107,-1.8527346370773543,-0.500543181060488,-2.2751022903515974,-2.6797962920737133,-0.09092933177300899,1.2639337124715322,-0.22341233521366313,0.0653348157717578,1.7624325769235893,3.589990070813305,1.5338609614036505,-3.215554609346108,-5.399930451290943,-6.706766511909284,-11.178192652064292,-12.100399577846165,-12.439784346474251,-11.383531598260191,-9.70278436690493,-4.698361481225219,-1.6035479884332045,-0.3915239479518356,-0.4336515440082309,-3.3976690061378223,-2.413668311542804,-5.887182490914953,-5.464341405076823,-3.9730673523290596,4.707458794014131,6.361085942084196,5.286740371087688,10.363395372601355,-1.4773003314071953,-4.210459242611635,0.043328839575774804,0.4524871942443956,-4.394013556961357,4.085606777248816,-1.0077148282616384,-0.2726554359868603,1.2518150513018211,4.48281315686806,5.0161869529069785,-1.9853199526865648,8.230914889523762,12.473117149855932,15.608684120912976,13.460365039925858,16.374639152025303,15.003842218130856,14.071741671618412,-2.6334186966406814,-1.8047486453971968,-3.1362384031466095,3.3073182972704647,-1.8455619652406194,-8.399558010791894,-1.7951630962726435,0.4138904707602358,-3.2686941183119527,3.9517568474993614,1.2209609485666428,3.6055137959686725,8.198455570907248,8.568868545643834,11.158384977580331,6.007692470072155,18.05760513592779,18.031421614532146,18.431552116976658,13.526488976728722,12.594689572596668,11.155683917784451,12.824170487371443,-1.3607973738896055,-3.794540994357908,-18.76452185770566,-0.0698139823854772,-0.021231747689149025,12.20142951495482]},{"bias_weight":-7.382101110527388,"weights":[-6.6326339441624,-5.350259596291201,0.1639333564112027,-2.31328331462743,-1.8304653353850033,0.1400280163264931,-5.928697281896223,-9.258212420617523,-9.299671680945778,-7.048575279969733,-6.14418955747968,-4.542549230306595,-6.399870302923687,-9.021226423311882,-4.08065907734212,-0.9709019095334999,-1.7096976738222829,-0.07801328033771852,0.9467492521546358,1.7216827107544554,2.881300943532945,1.589090144691153,3.3809859232374846,-5.777147852628754,-4.806673351244686,0.03921869548786178,-1.4429703654744082,-2.7529400210428934,-1.084244719697084,-5.008780405653502,-8.345244727884008,-9.45548212464723,-6.829252749003784,-7.365333263763668,-5.719816453240454,-8.839392911552872,-9.009079315601415,-8.661547119973033,-3.920820441549509,-0.869281819856302,0.1546046050057325,-0.285645737193024,0.3924808506637461,-0.5367340805478579,0.0754914920165832,0.6638990931600629,12.856345208752733,2.3248400219288095,6.851038959722424,8.410316341153452,1.2444381416455013,3.553191164057042,5.754155447489174,13.141731746113468,6.8893078069615745,3.767235107081906,-0.48959155599469395,-3.248936549764429,-4.328329824275266,5.489955680481331,-2.6451080236959115,-6.05173067393389,1.2628445418404548,5.279507351239731,1.4714916955525783,6.791445118548399,12.646348211534528,8.897658304273758,-0.02120889073351169,8.417319459634248,-1.9238977748688544,-4.252932085700528,7.270514251541269,2.742021265885688,2.5453835515458474,6.675590908563699,13.900115269195878,13.034609744697624,8.475031330313554,6.444954052391584,-0.02889659775704071,-1.2169781213921214,7.7351588504269655,2.7160957142487616,-3.9265294228898493,6.524349666313123,8.706987570604486,0.6785990661947036,2.3834149346625373,4.983364892641637,6.027636602118398,-0.47856969854947967,-1.379329009432366,-5.803702950893145,-13.099742283485604,-0.0698139823854772,-0.021231747689149025,12.720094671028264]},{"bias_weight":-0.3680640071592656,"weights":[-2.0903759008361678,-1.727355044811836,-4.647643794686138,-9.354546827552351,-11.644921159323967,-13.558592571268244,-12.309878994050605,-10.143522891186807,-10.661964096471563,-5.682101278586153,-3.083333344969519,-4.099637648916835,-6.85364397373564,-4.196926003048914,-1.248727067757573,2.5136633348534425,1.340428033683831,0.6504717333996496,-0.665509052658051,1.8601790862518797,-2.6985616698731003,-2.9676554517317504,-3.882415643513371,0.3058193429073718,-0.2982978037710438,-3.114023631338028,-6.7831530444322805,-9.578604058882448,-12.15706521821763,-10.679560355892557,-9.384162515849107,-8.529020761510095,-3.6377155383186524,-2.1525795529272216,-2.2919165542076367,-4.041497145175738,-1.6133581331567846,2.7250479563812005,4.5604409531444405,3.3904296576386512,0.9277425166608828,-0.8501090528597485,1.796685322255774,-4.9208493867802625,-6.856267217270887,-6.655107188276492,1.3620476126878922,-2.6735981085137124,0.37905639187500734,4.458533648572837,3.220628745317394,7.856255232066414,3.4935595132017876,2.851285479001496,6.154665022500526,1.4275537116104347,-3.850288392733784,-5.997296582182711,-3.8347544857689058,1.887350438159239,1.8034646644935772,-1.9318285117583454,-2.654677158610276,1.0892854287114229,0.2573777146923568,-0.7254218729271602,1.9934905082064138,3.693421872213099,-0.6036272389750249,2.3392945955330213,-5.137127209330983,-0.05964328126630809,3.1834180104776926,0.05628538490603243,6.444497416399035,2.193564968285331,2.7633576219268905,5.4419502185165545,2.23634990487608,-2.816909086312222,-5.805124251626351,-1.4754791914660923,5.453250662375008,4.582264801921751,2.3158878833625383,-1.0290663084479386,2.537880733435895,-1.171149701382149,-2.688657114331362,-1.983618445118558,0.6200266456103408,2.1378571705090876,-4.94536336943447,35.793025096392576,-15.020510815887707,-0.0698139823854772,-0.021231747689149025,2.0255708129827843]},{"bias_weight":-30.899576638544744,"weights":[-8.893412971869687,-7.079058501331314,-10.986278554302087,-8.245505650705034,-7.595862529436883,3.123363688394554,-0.7268494408698828,-1.6329839906777692,-2.570042375864157,0.19802220600994727,5.189576704626196,6.124941980912564,0.06309785305051838,-5.941761095477773,-2.964247240322124,-2.4209147787864764,-2.354925461007897,-3.1185483153721285,-5.09299953345091,-5.188609921003583,-10.411707868510028,-6.269436337696332,-7.0136541361485145,-6.909325060934752,-3.950597386251615,-10.053840021913567,-8.038259628903232,-7.066940919957326,1.2104188420791822,-1.121430370697796,-3.8468621244732475,-4.574578725496638,0.5171903569528302,4.718900998000686,2.321190428256619,-2.6956384072403563,-7.378030497309896,-5.547058454996807,-5.235929744133585,-3.537224283315833,-3.915106628178638,-5.791591291369956,-4.2043714633170355,-7.959135288134206,-2.688982966649801,-5.986214617322983,-13.482958018288342,2.4514988231575163,12.595133416924227,8.472415144337601,3.456509047385508,7.983339898972406,11.277517622821398,5.594498422470304,6.279241028068181,23.495586074116353,-3.358786694857962,-1.952140038612239,-5.009496772217896,-6.17393516056619,-1.6431676516068945,-1.0911718399288504,18.194435049242564,15.59147628878284,0.9105175699328377,7.194269311419549,4.935985493401046,2.5809902936547755,2.3072424485283,-7.988768322161849,4.394521238519305,10.855063716323716,9.414975674069968,4.869901065306728,4.9401089286990825,6.129784638320244,10.813329700649742,5.296726333346563,24.742141634472294,1.356540684092676,-3.6899998697651775,-1.6436792695209235,-2.5259058777586465,11.521734633700083,5.191080879055683,19.579678696917266,17.65109930482337,9.42925113086208,3.4268849230233065,0.39562813622597837,1.4979485800451964,-1.5020326197183302,0.8170169474077739,25.528974017888054,-8.050571435321775,-0.0698139823854772,-0.021231747689149025,-3.531722704891298]},{"bias_weight":3.272135699668572,"weights":[0.30568871302940015,1.0364578929509782,-0.8775415820849486,-4.933847491247074,-6.257345128390419,-9.118789162871956,-9.642141954462907,-9.269748762253615,-8.70457155934792,-8.546962974256198,-5.606849573697002,-1.9410643618096022,0.2806411684978304,-0.5984184673697911,1.1574825948839085,1.6495003686191096,3.3221801477944397,4.461362701060842,2.8111592055648837,2.4470737243353433,0.09932392802669482,2.8437964832917197,2.5358390114631684,2.2096026079050795,1.6062269259571555,0.21354937007904584,-2.2975803510801645,-4.079751103082865,-8.697797100953363,-8.869422724768983,-9.202029704841179,-6.746089393274037,-7.694441613281091,-7.686078845576671,-5.27854866331553,-3.1822977560226184,-2.6148794809013607,0.9010091143733325,2.3683912691880664,4.605107787989876,4.779220753783615,2.6755302411272712,2.7027052190381795,-1.2587416420123858,0.6837082068168011,0.010493833143552228,-6.001148446094093,-0.9658452223610302,-2.3776130908017263,-6.28638216340045,-7.406832243077397,-7.769345589094907,-8.589314440247486,-1.881942958815849,4.294843151662172,9.35264479224502,7.490726664526271,4.59450271282478,-2.1303511797217523,-2.7986713912317795,-1.9822507283371138,-3.2376611252939465,-2.7470991928439576,-2.6160950751475984,-2.3262601073720592,0.1271581045821311,-1.1090559631530774,-2.197903743191196,-4.603284506823641,-4.408611329289932,-3.597431361027806,-4.048923071423013,-7.279222742900838,-6.790125378136565,-7.363811846832327,-8.6412878688187,0.15266527937911714,5.504137635310373,11.306607386701932,10.261517835343382,9.538473865972858,0.674072441743178,0.7064299967351515,2.494098204995737,2.2069931885113845,3.9489077421299643,-0.545492485544891,-0.876465371232746,-0.6782997829603683,-2.1544857009867,-1.896591833911024,-2.7327416952658243,-4.249606564229191,26.131611921296763,-24.14561762968727,-0.0698139823854772,-0.021231747689149025,-2.960360686710692]},{"bias_weight":26.10341261418778,"weights":[4.538847363975553,4.70573728661405,1.8146641848327643,-0.6270377517622587,-1.1838082281677398,-3.350028199499413,-2.946262871307487,-2.1011868750209786,1.9443760232834821,4.372509381328273,3.4651785515546885,2.3512066351515597,3.5315242594632807,7.622793028455932,6.355435758672032,4.110089742902181,5.2512552512630775,4.534257493599597,1.103156442916395,2.542521353782217,1.0520276721281445,0.24598146365016163,-0.626108070567047,5.43876183371479,5.843549902260122,5.788706876555271,2.75276326002633,1.4341671725687504,-1.1168104108195656,-3.4796560771105525,-2.4820965886116837,-1.2469597758060156,0.3081585882866531,0.9835252175894279,1.1040107054781951,3.6586884215837205,5.143698241435612,7.40193210046771,7.531570050247799,5.0601543957001685,3.240237092167152,1.1119211827687088,1.395808751861513,1.0817961381441838,-0.06565630519432042,-0.6229054374002532,2.9179488113110157,3.9325815605324577,1.5064999366998308,5.1724521709539335,5.7320862422528815,4.979263585638718,6.004390475237838,12.372809805625787,11.98350897496443,10.270329596824247,13.948333818739979,6.172478496689282,1.6038933613291315,-3.7225605571419194,-7.927479073593171,-2.8170995758561626,-6.585972166959906,6.519153640479748,-1.4498897932778025,-6.282926820167525,0.7621327183519846,2.624386532154304,-0.7062537967791348,5.641482341568062,5.780033367430282,13.241446291885167,6.413896414310366,3.421244191376787,1.64148894651776,1.09488952659508,5.9700420431397685,12.35769932363638,8.975524869219315,5.096688908586273,3.999011244942409,0.7209563287508148,-3.94776210149621,-8.499870631617636,1.434868695676001,-1.442140223223041,9.530702012372702,8.243995041688878,4.466814759822496,8.50284220770334,1.633566467592972,0.3703607936683404,-2.0178748142448097,12.723288710391039,4.234651262746168,-0.0698139823854772,-0.021231747689149025,21.534652098994584]},{"bias_weight":-0.10448074467687521,"weights":[-1.400275486563928,-0.5733822827647937,1.173207331709501,2.5130191001615736,1.653380349077456,1.796012995979652,2.3181068112472243,0.8279531306039062,1.3430002662690814,1.745517424949036,3.623323751523268,2.143087812298709,1.367818023225788,1.654152506764997,1.6319901968607378,1.3937683317697716,0.9433258998023616,-0.4423715213532066,-1.6735294122700892,-2.8307278017640716,-2.0341618953259673,-2.835978255853375,-2.693355928915422,-0.9623746410695783,0.2229663145748641,0.4967802840907919,1.3249407605191486,0.4057084777139104,-0.5067840769426112,-0.416313312201639,0.04989957253039285,1.0470055280272859,1.3400484794317478,3.5768592539699973,1.5254117655014006,1.4157036701869266,0.79588427655242,2.1659747696432183,2.7441731015398085,1.9140567355267024,0.39746193401063645,-0.01160931342424737,-1.380379409191072,-0.7503233011429374,-1.8924796938896291,-1.0930904273327564,1.52060289027813,2.8768471980222095,-2.5724271323909513,-0.7314447919869936,-0.22189253114231802,-2.8268937396526357,-4.405799080087358,0.6082468729775357,2.681882439774308,5.200326626872123,3.0440683736767262,-1.1373876455364407,2.832378394205981,-1.2649031316665567,1.5078602081289039,0.9773831382902374,-0.02977811748710814,1.6941775652720081,4.166101476790874,1.8903740553685917,3.3020713925015555,1.605516735332454,0.10296249707759449,1.689882457980113,1.9174486066844099,-0.6762543166595858,-2.379632787831638,-0.9266984609944957,-1.619051599809672,-3.1993091540504492,-1.432155883312964,-0.5620910183595239,0.9917633922636008,-1.4787581587022975,0.108640547185702,2.5480774769416445,0.0008911728640603834,0.827819145793392,1.0182560048187295,-1.4284867717178178,-2.4516745369432944,-1.1718601563952595,-1.4591116635786585,1.3309733268613035,-0.9238335309881127,-4.511149642432172,0.8165150918197621,6.312038431874352,-10.157192863943544,-0.0698139823854772,-0.021231747689149025,-2.4741453474936814]},{"bias_weight":3.057490847776353,"weights":[-0.8918111442082716,0.005677591953232739,-0.6906273049250595,-3.1608886270211425,-5.9923867553597185,-5.292821442379669,-4.441143518790216,-5.450642951680105,-2.9422965109405332,-2.842243932622126,-2.241161131265411,-1.8941450018528552,-0.6924465731489589,-2.058475884584899,-1.1715172558999227,-2.6507693708708464,-0.423376500166945,-1.377656115811888,-0.14938420280352455,0.11665845661360194,-0.38043412979410646,0.8457279709669672,1.5484883059304948,1.0055242278380756,1.4368946549094335,0.833869167269595,-0.10659313918991814,-3.6442911202590555,0.2082077477310082,1.8172637763168613,0.1898036984125989,1.2001008165506875,1.6381128811458388,1.3397556648783564,0.5682681857407025,2.429799695493152,-2.1821568107652016,-2.1007482305090233,-3.1197471664045358,-0.7638091179921213,-1.029030832347088,0.7543340463515215,1.0859403588892274,1.3039722980130042,3.2043514376775852,2.5966301411826893,0.4679323793663556,2.8291105035182085,4.304406546478254,1.1735356421921048,-0.6814854067122585,-1.5540756236124305,-2.3448096328347927,2.0142241463652213,3.79915392516652,6.648058691627647,-0.30029854943520723,4.086367285730146,5.431127104352004,4.350996183440286,-5.205438257456217,3.4537913016189945,1.6150355094775786,-3.5066076525184133,-7.0771948004098695,-6.409240381096017,-3.929462691412347,-4.789481988993938,0.5414983082409216,0.7764325077899161,-0.4773053687974526,1.3375734874404968,-3.0793852136757764,-3.8229543426681394,-2.357748040554431,-4.498427277740846,0.7279340925945554,0.9651793383251208,5.079354728542078,0.10733038339829634,-0.5262261952764339,1.242889474333094,1.7596943922510735,-5.477168374742281,-1.3890289800808173,0.727203415754475,-5.451792747602818,-8.269167654596977,-7.347670123960669,-6.179191693202662,-4.567492981783904,0.6835067019100777,-0.07846530485046241,2.7047511839774385,-4.77504514229016,-0.0698139823854772,-0.021231747689149025,-9.233423755970193]},{"bias_weight":24.084858505018726,"weights":[-0.21323700855021638,-1.770872560919068,-3.0801999658610244,-2.8969955286295397,-4.719163387170376,-3.1800071533148717,-2.718065286680731,-1.4939890703891485,1.5725016721637182,-0.35883515549199885,-0.5797247682699747,-1.6909165065397587,-3.679789769473563,-3.027730240825149,-1.9884257444123845,-0.12566893991283692,0.13442125923682546,2.2630771287621303,-3.465150223951613,-5.149738436198869,-4.406492757093878,-3.0525639398239024,-2.1011002790023694,-0.8176029744196104,-1.354615935789868,-2.134566109586561,-1.270439135844702,-3.046216439628409,-1.8542293894590256,-0.5567434594878732,-0.007155375352557793,3.0441410604942596,2.3282791353706083,-0.09909636435071804,-1.4134690067048734,-3.8439150191447387,-4.1225800265129084,-1.5859551255882218,-2.3091080226002876,-2.527437306920679,0.4307922443597079,-3.631926618236994,-5.918062783946547,-5.589822570267219,-4.608735135133248,-2.1619752018469676,3.29744296512286,0.3510216202518729,10.119587272275687,2.7414003476338884,-4.087079360482472,-1.6730951274989985,-6.873514923120674,1.0974739410789789,1.1986428619643386,1.5867605417381216,6.186355409115913,-0.9201548133028171,5.073275830671847,3.10675338874976,-3.4772393533950487,-2.8420435479249884,-4.445145734463396,-17.86562287762176,-10.480222413063698,-2.4123464669100003,-8.983843590654388,-11.870129122801831,0.08665560728726432,-3.1727611249861947,-0.32582317721838944,8.389916614828273,3.142162729701387,-4.5935718699742205,-1.8699291459086576,-8.540968826400167,1.8360465742174072,3.7273933814204705,2.9540668270631136,7.103862156662782,2.307729810903484,4.0252266292111365,0.9902782177565167,-7.154390021211693,-6.162639014921692,-7.110394031888604,-18.278939708776953,-7.153019105853248,-1.1144895759400768,-3.9241163680358473,-5.479172773603532,2.552258359150775,-0.2230143599377786,31.39383185989413,-6.876267510756924,-0.0698139823854772,-0.021231747689149025,24.015384028000486]},{"bias_weight":-22.856370642706686,"weights":[0.7974024421629905,2.1893688930445467,2.4499418863339013,-0.8934810909156499,-0.9371848993056894,-4.056276171282995,-7.747902281943991,-6.2993012412250025,-3.9420243154002823,-5.766636042032812,-3.988216883627714,-3.5423851196781544,-0.97766713206753,0.28004053819279995,1.9142325059551786,1.8627415730983872,2.5298145542215593,1.3584105199797876,-0.18636203738347587,0.7956754829333283,-0.7760833707465417,-1.1223215275850797,-1.1733126081069467,3.472188746343047,2.764953899112301,3.7155371204204948,0.3136476169057505,0.8142145023934012,-3.4367026769650924,-5.89097330128878,-4.857147756444323,-5.533306712938554,-6.1376751497244735,-5.142446085740916,-5.456720165577893,-2.9387133398940914,-1.8263569841437508,-0.5245872941221967,1.2613781016983179,2.713141478293551,1.5133293436527782,0.05977288653134057,0.7043358620541345,0.2217935266158831,-0.2640655367150805,-0.23550489304895272,-6.909327504350409,-2.8709198478656726,-7.290399866000248,-7.966303316541335,-11.448987872156433,-9.215856433350721,-0.8313225338516409,-2.015837109756822,-0.8594052199706794,2.0781784444095397,4.761317449030685,-0.2877937154419824,-4.6169698523777924,-5.926671855071885,-12.105276711741668,-3.287116120194476,-6.472254457997375,-11.590233699020448,-7.2363503745831705,-8.827604269087976,-6.4285461552135095,-4.008362296116328,-2.685157697720721,-7.127918803012783,-4.395521465993145,-5.182125348748423,-10.191741722283219,-15.406758800441356,-8.410550456277688,-4.075294719388105,-2.509563822349971,6.669444419082002,7.918516565514289,6.7808032396527445,0.26677475513694376,0.01950153601280285,-3.1329200628441027,-10.985880384501575,-9.344871104594635,-4.800737167219772,-13.166994995371219,-9.013237155445205,-3.3046933354641785,-8.339885309820628,-9.613470252053556,-1.9180258251293951,-3.5336198076317915,25.18006218180079,14.56072593321805,-0.0698139823854772,-0.021231747689149025,26.153911850361514]},{"bias_weight":0.7574547768743394,"weights":[-8.208282102869902,-5.807197483891659,-4.801532899079614,-5.118750078327334,-1.489728039688134,1.6095988091136397,2.8120325334031446,0.6187064309074743,1.2898082279042904,-1.2540621189552918,-0.7203398717824737,4.290301568151718,-1.836600270701837,-5.336636320706712,-4.979774135380161,-0.05872263409034708,0.6969912406224372,0.8354724041647171,5.52099657932224,3.894279691941357,1.2395923510229279,-1.2075271839290815,1.2948622476082308,-7.98982083540395,-6.156041048276919,-7.893356352562697,-10.096041773875667,-5.991464932886162,-1.2482208588649004,2.2632388876096003,-2.037529466461146,-0.6925788588563023,-3.0338279168366116,-4.154218228944217,-1.5190726839761324,-5.154764822182687,-5.635863872758038,-8.209819123440505,-1.5908642606475416,0.582210244177754,0.40748905102196104,5.1522871117219555,3.6936417134193467,0.7679173950694413,-0.43500981020289775,0.12655554526603083,1.7802906921953547,-1.4782999217962478,3.4477369534582407,-3.9906256122290844,-17.890932645005407,-17.754810512849517,-18.98832528498916,-7.244952936911314,-15.462906549581726,-7.847123203927143,-12.99334425553136,-9.11436042308877,-6.337507130700326,12.393487036166107,15.536046718788082,-2.4871807270934965,-3.873989149683095,-4.612698369833242,-18.25429424341148,-6.067876714249254,2.1143950885690805,1.951555340674239,5.788416445819214,3.9856871095191186,6.296018120146463,5.04963193563205,9.067471947551313,-3.436644770624508,-1.7169252705781661,-6.413392529392143,5.806516863304526,-8.014371056196154,6.842032372258989,2.0024380728995803,-3.1341712593340127,-4.059085439863665,2.9555571504010754,16.868747438661256,-2.347501006917843,-6.062899210958424,-0.7607906867545888,-19.208293112414104,-10.597783649088267,0.7615129876465138,10.904698103661321,8.782326355146585,0.11344262049483136,-15.687279117955677,-2.7045493115418164,-0.0698139823854772,-0.021231747689149025,11.061446077918577]},{"bias_weight":4.880172143666709,"weights":[-2.3416315860956503,-0.0993874707224507,2.379524608808431,2.612253941460142,2.147456443554146,0.9240583149173558,-2.934816268604534,-5.982279950700103,-7.228232799223356,-10.427724935423905,-8.614991514520296,-4.109687515098015,0.5025069692107746,1.8356163886325492,2.348028113867901,2.4069252488152135,2.7819346136337284,2.517166477946127,1.0318067639509918,0.926108441512284,1.989828723345716,-0.4713925233927676,-0.6792939304160108,-0.4705491808264764,3.205450984109751,4.15552985150098,3.154253005167541,3.4051908999481038,2.0882801339238086,-2.3637337895859174,-6.2304630836917605,-7.4976536892164996,-9.910928045395208,-8.973989074956966,-4.390095126056652,2.5854227004561112,4.5768131336933955,5.552126227325437,6.0271690872732275,6.036357406153354,4.864581281383929,2.046845245401384,0.6661019468002772,1.2197147131816157,-0.29069991972784254,-0.10135282190488698,-0.21461047932906235,2.9411827133707313,2.2834945948804646,1.3591033660378378,-6.051365346802183,-8.455208814218011,-2.7579977631934103,-2.058430494157899,1.3475241946961902,3.7899212058877465,0.1292087587736989,-1.050109435954632,-3.277085407947768,-1.5912160361211365,-5.3198860323561625,-7.225406434501591,-5.30335980540619,-7.317347915118507,-7.297745580522779,-6.845428254885206,-6.858800221900309,2.2923544421233637,1.8171402950355846,6.106025507315394,1.8926590061221882,4.438845550596993,3.501420045807637,-5.069149434582184,-9.303603539403422,-3.1759490594047417,1.3334398635524494,0.876427053614034,1.551698956890394,-0.28900846390100143,0.7866293887508563,-0.06352531578492725,2.2103318182410923,-2.4515806044406743,-2.294586693789287,-3.597993426300256,-8.869648779242334,-9.9922172455092,-8.175049136061114,-7.231855005153444,-1.5482909279908703,-3.472701003723096,-0.21953865424471145,1.0092349966699738,5.962723993123595,-0.0698139823854772,-0.021231747689149025,-1.9008210446083402]},{"bias_weight":66.35273459175974,"weights":[-4.900135096391224,-3.9524662666901946,-5.974157779019472,-7.023605805129311,-4.432176938104218,-2.995154744024301,0.7367941582702238,5.859276952849571,10.913997769806773,11.904129039112409,12.817799074940455,8.270790168682163,1.5007941778734617,-2.4675997683357846,-4.410907907604763,-3.654317488206845,-2.419656136676825,-1.7573027651414106,0.0026651411884084284,-0.5409814446017615,-1.3634125230142289,-1.3307083686259291,-3.2833360473108413,-5.7544337851088745,-3.0990345452985864,-4.673753954726445,-6.059847679026011,-3.0213132143603114,-3.3365115905069835,0.36107583498080087,5.056296697947683,9.516453386987175,9.258624911757469,9.410496530367267,6.262959887757836,-0.13008538532380923,-4.6045836239887015,-5.762255209701388,-5.705822832368726,-6.775749963404673,-6.410166365807103,-2.964724627645484,-2.682286809247063,-2.785711428184349,-1.8281985499966276,-4.584796408497699,1.2283370837335557,0.8927782773483621,4.526317000525482,5.457926231025738,10.14929056043476,11.416495887895659,8.938053406574515,7.438391519210662,5.351625195271403,4.5243394579375735,4.145859277988705,7.29845719301269,7.594966485568231,10.925085252552124,16.28549452343733,18.228344184307566,15.17331095406572,13.392755640867586,14.483282019574881,16.74060029453503,15.04532344837796,7.7432573375648515,8.079100533672422,0.10410247025344423,0.2405064404870576,6.820967537957552,7.235060937393871,13.298975034659906,12.197418458401234,5.4464899616477505,6.8801318636715685,1.6460198536699568,-0.038115327804398115,2.5387065299237066,1.6332702923672568,1.8782124841522878,4.580672988952918,14.47601320706102,12.965286317858498,6.838482344133829,5.417098319412709,11.074922498280879,12.77725482538688,11.92289891551345,3.5837988808993564,1.8180404211134875,0.2284675432235078,3.5318150477922594,-23.191150651902618,-0.0698139823854772,-0.021231747689149025,-11.18752792914436]},{"bias_weight":-4.559951778332334,"weights":[-12.341741452074897,-11.358544830829869,-14.866594397616936,-11.298436763819625,-11.104874066548778,-9.185427884083389,-11.462813243592166,-7.898218351635583,-8.293222542480903,-8.222046550117831,-8.10976518108284,-3.858323605736403,-6.801182149054522,-6.954936325904706,-1.5266474104587393,2.0664018374985216,0.9917003022166461,1.7634514098000167,-3.6491905890447685,-3.312247595594469,-6.018806917770367,-6.5735068088938595,-4.954755962137933,-8.114783336857837,-6.792461249110113,-9.174944595540499,-7.384781398761039,-5.5563119031176305,-5.044003614538843,-8.304526874013328,-8.046391510044005,-10.182279948571193,-10.395180076035325,-9.637290173429971,-7.1031453180468915,-7.962230266990334,-10.95440252262586,-0.7716504803204279,2.077127773334107,-2.1703211006344687,-2.8040885823770445,-6.097970785392746,-5.744576622715874,-8.42141191242835,-7.630256021461265,-6.695706257927502,-1.7166392474627141,15.412106925437625,14.102883537752033,12.339609740056895,-4.03772909830091,1.158644368118216,0.9104774227919644,17.61717551437022,28.33937661203054,34.3472460740965,8.626122462364421,1.115729384384011,0.7012986548771193,2.8354489468556214,-17.50724908473352,-15.975192724546083,-7.274577330944493,-4.599603758658766,-19.91673751211163,-15.642585088026404,-7.219126151242114,-1.7406936785876284,4.2597662954943605,3.633443200193361,18.690961822596293,17.636075067081862,9.844801520511323,-7.285287146619233,-4.33085373722065,-9.560560318546695,11.50731512565823,30.931145603833173,32.159029796675604,11.790403744915256,4.172283427789077,6.424145389057931,3.6071456028903897,-5.116843369689965,-8.660328709234824,-3.1607998570146827,-2.5335348568910394,-4.664386505454001,-6.49732751463419,-5.910867572487647,-5.87706861952783,4.12426973826704,0.5074437998800745,49.56778529218843,-5.826482607952001,-0.0698139823854772,-0.021231747689149025,1.6976932746974298]},{"bias_weight":-10.582072890466362,"weights":[-3.7401311294045545,-2.067558447022705,-2.111344989530044,-3.0813617758043894,-3.454701220966411,-3.0601172320862915,-0.725216160613182,-0.9520593703733861,-1.4761089856856913,-1.7472416691071846,-2.184118338705943,-1.829658683572219,-4.467523550615392,-4.954210821011661,-2.541475537711211,-3.7760830121031175,-1.3589231232879848,-2.1847334857994967,-2.114028708801781,-1.4525337403120588,-1.8047985374077506,-3.5551239956309204,-3.8165835693886545,-1.256701156353843,-0.6336530120559519,-0.7833575041700251,-0.36949539886950983,0.6728858136610695,-0.9436442137670974,0.1533329869109969,0.008932361973342667,-2.1807966515755903,0.17433491004597065,-0.9382391314982149,-2.3678386049459266,-5.3976583618318585,-7.056535330289995,-4.011877008382222,-6.860485099336657,-5.47787036346221,-3.562052559435687,-0.5960922190207391,-1.138063366899705,-0.2544225561003925,-1.7506297409181188,-1.1934771302448786,-0.8195277983250974,-1.5795426462423072,-2.4235130292551785,-3.8684666683434794,-1.2658302485639243,-2.6769946292860953,0.8180635747078172,0.3465658199958525,6.316314967306818,4.001288937829349,2.2208713553349115,11.588500524278478,6.667616610827199,1.81943364200354,-3.2209029530622133,0.27339044523283557,-4.675885929480889,-8.564087307717866,-4.167341605601215,-7.315706498169823,-6.976348691979224,-6.528266916935816,-10.579436664670329,1.9329849958343,1.9549176991936428,-0.21959943318384928,-3.672649613145378,-2.2551508802023394,-2.513896701734105,-0.5470723921275978,1.3386297327891978,1.7758596759375802,2.6332610344497254,2.287958331183308,8.505325579434801,5.294787582150992,0.7320493970447937,-3.6380819871533485,0.3647662185833404,-3.4912652805217435,-6.747597799120143,-4.220087572090582,-4.433200816395302,-3.0507197399937542,-4.4425450565017455,-7.265623182983985,0.8222795124141438,-4.340389588492881,11.059415433359694,-0.0698139823854772,-0.021231747689149025,-14.246120984509036]},{"bias_weight":34.814335605368825,"weights":[-1.5128010172976698,-1.5154363465324887,-1.7548050059185887,-0.8049720654203459,-0.9246052495536317,-1.1472297992395517,-0.14819410890995555,0.13357877999873222,-3.5682357187790776,-1.859324680036584,-3.948009247764481,-2.1331229264007825,-2.192194856173816,-2.3075613089167124,-4.0250452357346695,-6.4442505537859756,-3.215331469226659,-2.8695517241201602,-2.794045348384466,-0.29603172659981236,-0.7676653516273986,-0.7468223735053227,-0.032071849376913875,0.3433137852915544,1.2016418774927293,-0.27955169515532363,0.5269796075102333,-0.2799195274927141,-1.0296296678796095,0.15798177517378592,0.68972879306102,-0.45582628600171865,2.6704887226570304,1.373200888811866,3.1608992760164947,3.240242335992569,-0.5337470113419776,-1.9463336382479839,-3.300154002545988,-0.6746312901059993,-0.5569208343347442,-2.3564773231026104,-1.7159471530617993,-1.5444106016024546,0.19623072569028674,-0.27072754631684054,2.691686977974657,2.3423835564246014,3.53940429396875,2.562044241946196,3.0508951343380954,-3.537323726117053,0.9922207857255382,2.947082779992143,3.0406549588656304,7.606042854781637,10.646647563388981,7.933955966463167,-0.9593676336509728,-0.7563211347564331,3.226037664948162,7.545069697116241,1.9787896951453388,-3.0516731718616783,-3.9320012591184024,1.928524867334617,0.1472871817838505,0.42724159944427,3.1190584788153584,0.4515235229716193,-1.6682432651395454,-2.329721405788378,-1.9627657638047233,-1.035985872791267,-7.0881066942921,-3.793439581499492,-1.0249449564481086,0.6799437892358371,3.010756023657421,5.594119831934927,-1.873958724743647,-5.902835017135475,-3.2315847282941395,1.8730080418189325,1.3848677965037643,-2.080516644876825,-7.083574156915041,-5.659872282311094,0.6320177402015772,0.5978470923792081,0.7128730257741708,2.3168056810670508,-0.13945355445952923,8.62179340442342,1.1859145669012863,-0.0698139823854772,-0.021231747689149025,-11.730777576597362]},{"bias_weight":-30.369100365032,"weights":[-3.7694798802012195,-5.226362720430887,-5.6564942671673375,-5.120403155708792,-1.4120331503067378,-2.0057663662465117,-9.828887547174297,-12.932207096027762,-15.21647568194829,-15.077276244803944,-10.165797032985571,-4.78829007727494,-2.086998574712597,-8.311514158959294,-5.900872635225156,-6.101398678698978,-4.375748600894636,-6.329315080454249,-5.406793499989501,-4.405839627460817,-8.016162331383777,-8.963394603040546,-9.851600125518193,-4.0196220191350545,-3.6257926729089243,-7.957917434117322,-8.258850441276167,-5.693639776173224,-7.505451910602182,-11.98892071899355,-13.305823118329496,-13.703413671160705,-10.22134685354995,-6.8533942301007045,-1.4039022097796798,1.3522609333965483,-3.5451016142832685,-7.395710861451028,-8.417791139230822,-3.9937370393441993,-5.015402957532037,-6.759229444346353,-4.979359525475331,-10.757774865693149,-10.609277843417813,-9.82436294030875,-3.717333846552159,-9.46855786167496,-3.0309344817858683,-3.0503476284230855,-7.509618131177428,-13.851460209294016,-15.917469039542747,-13.186652444945056,-18.18161940181475,-7.798147574127028,-20.200865383942737,-5.188896835197628,4.025128274181903,16.701931304065283,-0.2163094316929299,-8.63667188399734,4.498874236989076,-8.039760255036379,-3.6031600023818093,-1.0309450238475009,-5.7241036434100465,-12.67302857481396,-16.475463957897876,-3.8070437442230114,-10.585738009966772,-12.59184184420996,-3.5211832233368234,-6.5860595812004785,-10.04566839562214,-12.083164161687765,-9.76258972373365,-18.73651127231333,-6.869721897074255,-16.731587550085486,-10.806563533413327,-3.0602091110436156,7.6124403779057594,-5.961439098195155,-15.078621424497324,-2.7427625566396805,-5.839504451670823,-8.934253229939479,-11.157938185820832,-12.681852433146284,-12.505220349361307,-15.760567333834931,0.9992494319015468,-22.962497457779417,-3.689567116455302,-0.0698139823854772,-0.021231747689149025,3.204283087569258]},{"bias_weight":2.705619032454168,"weights":[0.5348849115581125,-1.4856457557105058,-2.8115405694269047,-6.433847768851684,-8.951586458257774,-7.976711752667634,-5.963379220728607,-4.076292043030149,-3.487891826140755,2.182588009529162,-2.96579781453393,-3.856540200769676,-3.3564346839532293,1.3478098021281777,1.9695273231041532,-0.33090106068102604,-1.966673111345695,-0.6616411658241192,-1.3137482128834017,-4.898583951330052,-5.379033415431159,-8.122589666077198,-2.395560531010531,4.348693924258897,1.225449366397748,2.4218154405656582,-2.05020792872021,-3.0551529104829114,-1.2448563170806919,-1.9518713898595657,-1.4470162396302957,-1.6790695703604965,4.611550076376957,-0.25184284543457885,-1.8694973210755377,-1.836465579061016,-0.5174161855407889,2.0577375547371046,1.662555966640182,-0.7735886757594533,0.4975419109337534,2.3058446966981307,-2.141200057728472,-0.6856488150287429,-3.8637813312653115,1.255169162922906,0.4243546101633547,0.7616422097795464,-1.0383799321800624,6.335231703116759,4.673497399242078,5.5705340572414785,4.776708827855977,-3.703591406919236,-0.6927884449318922,-4.047769928019901,9.212949711237915,10.333687077893247,5.807540434204273,-8.685408774263111,-12.794790290562549,8.398858958001401,1.6476506456299125,-2.9905456437985567,-9.334551486662711,-9.449945569008333,-15.342240149550694,-7.804212124300289,-1.3177221236178278,0.17518308241784686,-4.279371160777576,-4.453695511181011,3.80628991800206,7.900117659593724,5.601832966229277,6.229077422812518,-0.43801652847501965,5.273817724677141,-3.1223628052389456,6.715582588502669,9.451037475342725,5.62193771712944,-8.46510943272857,-13.931980320964776,3.6376338892732876,-0.041117286911660555,-5.571285262146013,-7.325334130617732,-5.829570069969874,-12.752801666079757,-8.629733194137344,-2.6174700991220954,-0.027504470012828134,-0.31249388721677135,0.16704588492735056,-0.0698139823854772,-0.021231747689149025,-2.756103800794463]},{"bias_weight":-3.537593452072251,"weights":[3.13843548335994,2.203069212762429,-0.9149120929803934,-2.45283972612416,-4.885604762742735,-4.734842042209815,-5.316197234824198,-2.1510867485220855,1.998158522161712,5.512568519632982,7.974291803665945,6.1338502676239495,3.728231406882608,0.730802901867456,1.8104137077362392,0.4615271235052537,0.9250464081911501,1.2782169780826078,0.9052788698326678,0.6571564032758469,0.33415078500244744,0.6121729367654375,0.16726204255141833,4.280470538182697,3.7304125346100085,0.2659013586711913,-1.411908250464831,-4.872830869245805,-6.268887340335992,-5.540976317091571,-3.404807459659707,0.4203091545007805,4.421281733050287,7.224629249326531,5.0018709610231,2.5274152417569287,1.082204260914479,1.0468225395029163,-0.4686579156993004,0.11122218872541309,0.21008757064523897,-1.4238913790902368,-2.414904567932039,-3.1576097001657284,-2.7719034631029533,-2.0350022625334647,-2.9957896482602404,0.46860119870871475,3.1546967409171693,7.151929540107897,5.672083147462573,7.985069441740913,9.589965956635988,7.524062169570591,5.9861592991630515,7.412015356256744,9.74362703020386,2.970350527066416,3.4486582220834063,1.2383475004657756,-1.1048141677201446,-0.07090756043738376,1.1423459597151093,1.0894133990066333,2.515646863152975,1.483329223160899,-2.3287698072450156,-3.566319734604269,0.0567842948191279,-5.831533256964016,-1.0950570872838858,2.2197431887873615,8.46352199378865,8.293739247976715,12.217219339612276,12.43109181887215,10.073008498636337,8.54427422663366,7.305071761789866,10.281086892572631,6.796033152864917,4.681437426867036,6.051532538767211,3.2180754699221876,5.162528496719643,3.5248575332521446,4.5379402137107,6.886944567316376,6.249884985037562,1.8347129690652717,-1.1363727312726357,1.5501138799722753,0.5767706577189933,9.72909577957023,-1.5008027824252728,-0.0698139823854772,-0.021231747689149025,8.885828409663329]},{"bias_weight":38.62528129152816,"weights":[1.828549231304683,1.8827870615791893,0.1892980003019155,-0.4079541674951623,-1.0799799907637657,-0.18460089593174014,-2.165413929798101,-2.1747469792187015,-3.557167355237086,-1.919061227137745,-2.29721923615981,-2.6558933703625716,-2.5354026928637294,-2.8835170617332815,-2.4094791493833267,-1.33998848697448,-1.8535244614192918,-0.744759557996635,-0.45103476699196804,-0.21055562200745925,-0.06626064815336492,-1.3709872973563118,0.3409432799485753,0.00713205043680272,0.011842616157038886,-1.3522150901150272,-0.8728650380370886,0.13251398409785337,1.0145487547890182,0.2962380161070004,0.49207182219375367,-1.7395219139697873,0.42353918359713905,0.4284183141763332,0.900126022314723,0.03303007421740479,-0.4822326287447657,0.2946117572085118,0.9722038244511833,-0.8585990773307113,-1.294008659532338,-1.488165780887905,-1.4646917058761277,-0.7597236801237175,-1.3852863617859854,-1.2366005182976234,0.20768381304446282,-2.566786341097912,-0.4564954601530354,-1.350260883964616,0.5694079837473358,3.4025396419829947,3.553655984531508,3.7947378969980674,0.41069559490624524,2.1883240222940534,-1.3431804995627405,2.1706482684276285,1.3129197844086986,-3.7206824454765797,0.9092138518748565,4.344262823262626,-0.12907536297471792,0.5288455098195392,2.6462598235722385,-0.8663180182091506,-0.3492065906169878,0.4795550971105414,-0.8843239097457926,7.151059885557458,2.496954042661872,2.3701563144262616,-0.3916566280240956,3.0275946532716747,4.567145853148035,2.4661802991670174,0.4636620037566845,0.2073850271540539,1.9089588042503782,-0.19680357317585917,-1.1626148850902471,-2.5144165714152527,-3.1568798986128175,-3.32467507813053,-1.933676415436031,-4.718615589382714,-3.770918250750207,-1.9967614831434553,-4.709180586114172,-0.14381517584408116,1.335700165126428,-2.5154960020970103,-0.09363182892624217,6.682895721029565,7.842629521203779,-0.0698139823854772,-0.021231747689149025,0.24182567053838908]},{"bias_weight":7.956610816794374,"weights":[-1.0601281559325053,-1.1638535304298923,-1.294510738594737,-1.0586394939666826,-0.4017135650892285,-2.964541429922979,-3.3731173850626743,-0.7807182058525599,-1.24183486256953,-0.5554451992326944,-0.26316735427023946,-2.1956191114633063,-1.4592338271547398,-0.380779058468381,1.0020709582862461,0.6592143711632974,-1.3594415300618674,-1.5853091523829739,-2.0523443146742286,-2.5136212864765626,-3.387612501348235,-3.6508544290580534,-0.9275226122269917,1.7911971102325988,0.32450961347993107,0.4504566963937968,0.5972140019912529,2.009593775302873,1.327990923720782,-0.4584274687392765,1.6556230859592034,0.7213221626396179,0.5730576703381913,0.4486091696474635,-1.3894630076904197,-0.6567792997957734,-0.46665356830271126,-0.20138466833706864,-0.8693410223650075,-1.7387119011075993,-1.6828646269734358,-1.586338701872074,-2.3732643502131046,-1.1080499951704679,1.2739049823364694,2.32819037097582,0.48495510367056843,-4.572255467938283,5.026542120899891,4.573915889100982,2.127328153953686,2.0632184078975344,2.4542729130743983,-2.9331719144328483,-5.892166543851568,-4.885864299823778,-5.658369752101722,-1.9960017096038414,3.5178125989972924,-1.5271719505430605,-6.441735063433749,0.6285743145661986,2.809446795655138,-3.788454248454365,-4.661614280439546,-3.9643812305718575,-6.4353286826076515,-4.660516866917376,-3.1807032486787894,0.5200265417837554,-3.828216620526415,3.9850274068033076,1.6775862525642526,-0.12796081205515653,1.2371562541876486,0.6743421397448969,-3.0544995066376504,-5.133627483001934,-5.360369998326609,-3.6780382095167674,-4.540708102395707,2.713566226288257,-1.2743548125798545,-4.5052000578544,-2.2812721111501237,-0.5828805275385576,-5.5762873083345745,-7.601140036367043,-5.002981202181703,-6.078155188343134,-3.385635160962116,-1.3719507361083974,0.04806101802118468,8.057355902799586,1.4367173711288281,-0.0698139823854772,-0.021231747689149025,15.691330156562413]},{"bias_weight":-52.82663966139022,"weights":[-3.2541077290699847,-1.8631947793777275,-2.6885761387856335,-2.3812806319685245,-3.0536636860591777,-5.423092390224428,-7.935219682271935,-8.212096987497695,-7.16876694476045,-6.5451764501966485,-5.2738160406393035,-5.708197292947315,-2.1772950747920725,-1.2108987196792371,-0.33727578846500844,0.7395605734402187,-0.1665111933559069,-0.1824225547811836,-1.5303639405128768,-2.5692169630872517,-1.883787109007367,-2.9198735537714424,-1.7103082055236551,-0.22469291601197905,-0.31983014556013334,-0.16941918058714792,-1.6035660538766365,-2.719728485479153,-6.034841954565053,-6.624702028207142,-5.635187784838573,-6.135978820835546,-3.610194264873706,-2.0131490125012808,-2.6972823075317027,1.143994801214564,1.4977514630719555,1.5438150032458968,1.3086214708854877,0.3690217736625607,0.373213334326122,-0.21235474105235858,-1.6580981164170547,-0.25196528661428047,0.2558766993256616,0.4157554289636392,-0.7788013619012778,-2.7327659493485896,-0.8980400129701687,-5.208075754668099,-6.288858434570849,-9.62367564523596,-5.301033191652069,-3.492400362200173,-0.7880218463890143,0.9072908976168271,0.19689503273048756,1.7218283442299565,-0.3741365876372869,-3.0292050043255907,-2.892639613695566,1.8651873365574474,2.2961591282115648,1.0113661478232028,0.2869037354391556,1.0221129384898062,3.847214925518164,-0.7686461274590162,-2.950450256673077,-2.9745520496737163,-0.0433937999702988,0.4987184173356566,-5.079697113217344,-4.719627989661211,-8.772955734639167,-3.626072242269036,-3.741402522096472,1.3240549251736127,3.1188625523194937,4.306062376592067,-2.6500862335450686,-3.056632351282135,-4.986368344949329,-3.5128365806381994,-0.6658956671923575,0.6519642064677774,4.377064396070384,3.9758016108201404,2.7920848267124576,3.86977805639759,-0.4441857608855144,-2.4107844537566083,-3.1585585681411437,21.443461787871104,34.4106480509589,-0.0698139823854772,-0.021231747689149025,-26.223405775376868]},{"bias_weight":28.131405816782237,"weights":[-0.13586654782285298,-0.06390148162613844,-0.3365233365264861,-0.018724554897835585,-0.14912741307444521,0.7544116992711034,-0.5727237324632797,-1.2032840498695712,-1.6636823508162462,-2.6129587162333228,-3.4429189997357392,-2.0875664744808917,-1.7751004071201852,-1.3258450100153352,-1.6759284659014757,0.6550417769512368,1.0094688726047212,0.1971757748767991,0.1018589279960774,0.00016401377638068068,0.24971336952555115,-0.7939148035856516,-0.905555895713437,-0.6961424873762593,0.5804119408541205,1.959432560723886,1.31916568267518,1.6690882030795071,1.0011318686928021,-0.4951948363149225,-0.9369932271817126,-0.9982093012298007,0.0372669880910547,-1.7473411592007722,-2.4672746117193047,-1.9073144520754566,-2.0589577514478066,-1.740850263166829,-1.4425077854959136,-2.0016463525058645,-2.3470262757081994,0.8263537542776369,0.1342780232048456,-0.07391960305132785,-0.4243058348340383,-0.10047486414700627,0.49600822643731396,-1.7658847382131708,-1.9762682109414194,-1.707910996531138,-1.395158559300004,-2.0880933166975693,-1.4449375142481056,-0.6603567936675572,-2.1934892524591483,-1.3336330790767343,-0.6080696082128191,2.8850920274479637,6.098616602196475,2.624755904456486,4.1386903299598625,3.798154924961964,3.383129356037056,-0.49397679100641106,0.3960976090669048,2.5700311596163945,0.3501159925593148,2.3189737079335737,1.6169601046548283,-2.742707979992441,0.7931705438479162,-2.8740752140777763,-1.541238928718242,0.9047979072005865,2.9392625448135146,-0.08741036587817848,-0.574693828879135,0.10696803018689943,-1.119522515517489,1.6147582248443888,4.867449180736214,6.508943859294672,2.850144597259077,5.182182250042061,4.382121340029109,4.7698284754303355,-3.009438945800832,-1.2738654616087555,0.07299616723373097,-2.4825981765629828,-0.7031332294832543,1.1414779754830477,-0.10794490765476107,0.8528826708607082,7.802745907942163,-0.0698139823854772,-0.021231747689149025,-5.767371130474505]},{"bias_weight":-4.538392066866715,"weights":[-5.819630361126808,-5.655283114162862,-3.8837528978550817,-4.3530879305763985,-6.859840548812373,-6.679272442299803,-4.281978181341063,-5.077362742853271,-5.104896438931349,-7.546520170578157,-9.118473164999546,-6.845191896193701,-7.8103284495675425,-8.819767762168453,-4.185200528948699,-2.909512002704059,-0.04795000566985843,2.1934839874697962,3.465811335365954,3.4841925757443066,5.674483118530003,0.11586878360119779,-1.2324581579396396,-3.243892493059935,-1.6798139834070753,-0.4139039798774428,-0.05483862970136863,-2.605468339406849,-4.208887553331435,-3.228233460381197,-5.067498656406994,-4.97627704618609,-7.226127353179852,-8.216657013235974,-6.432068988406262,-6.797774006678616,-8.278813964433006,-6.610875331601086,-4.225616186683503,-0.6138355020675232,1.339752170030294,0.08068772115501613,0.9441796579616495,1.6249700790675456,-2.0652192043470636,-0.908407777066206,-3.272870378011075,2.5792704202352486,2.0823522117404942,4.255328737050121,6.513018266919798,1.5214080727465928,0.9058764337392956,4.161853402620956,6.069006293975997,1.0843327048603038,7.079348808015456,2.6074178970873203,2.929959545218785,3.6474369472231962,-1.297334361822177,-7.8816968057838785,-4.043634569596237,-2.5686841701231238,-3.595915727617478,-4.036250170429223,-0.39532373847899877,-0.8166847094450379,-1.4257686528251954,-5.392625842377768,-2.5608403196154876,-4.307072206070021,-2.2986809385392886,1.345127961080526,-5.375516797138865,-4.917603434409234,1.171643616350917,2.0146016189916045,-1.2596750899052327,6.612748918690881,3.350843473817577,-0.8121559887485374,3.1586107938865697,-3.5697652527526644,-6.037457115937139,-3.17377559396661,-2.0859671198530805,-1.8792051145367374,-2.2926800106685827,0.31280538219857046,0.016835317595576618,-1.0783356455238555,1.3978598357110301,13.773866506377786,9.356883879936724,-0.0698139823854772,-0.021231747689149025,7.554706837946448]},{"bias_weight":36.46708344595994,"weights":[-0.6847334983760361,1.1527893234433182,-0.3971201034289083,0.6059536587361702,0.6286696149958209,-0.0038570768072477466,0.12387554120227004,-2.62988750842929,-5.239887094321649,-6.724677704452969,-2.5667731849963236,-1.5800161117125935,-4.1219903872894506,-1.4552435982589527,-0.6019087492599061,-0.016273878092589265,0.7140904945216932,4.290679636072977,1.0317257873287553,1.747962833393512,1.2247327618579176,0.3966873429523949,0.9195645223593741,-0.32244092338895797,0.36332669847850785,1.7244495199714414,2.019161164052722,1.4009914339506269,0.33210891969713774,0.06347290980084272,-1.904948196447361,-2.974491101687407,-5.305673310266523,-0.7211702276748201,1.3790376282763952,-2.892666675109443,-0.7680475959731178,-0.5863730354773637,-1.6294271726541827,-3.069239208511744,-2.023393828139498,-2.774365003206587,-2.433103401622914,-2.5255386346541626,-1.7188028186780653,-2.810576548743252,-4.619890113840548,-5.580825927982237,-6.055704939801767,-5.218121319931345,-5.745723709066457,-8.837130302641896,-1.3373172287249793,0.036436930883605875,6.538860063662123,8.170698656793098,2.9215438843283152,6.450574214056753,6.959276415335908,1.286269460919795,-2.799269044253716,0.18662079396952186,1.979456064577446,3.6408926532710892,5.86576932481532,2.9255814355401877,-1.5664269168930247,-1.7097683870384364,-0.048574215863058226,-7.915882950589256,-3.7113889830243996,-4.43639852652737,-7.028807388221454,-7.689274471933127,-8.6413959083859,-4.989390725046164,-7.5449779124660825,-0.7983932520749498,1.5186430419634658,1.2661732279396234,4.17042249094131,5.951340124960281,-2.5024616733302296,-2.2382730871144636,0.6721779341924935,1.8960519177013868,1.4449360993874083,7.264107491821455,5.346602078032075,3.899670109621979,-1.6758223240065304,0.530900148601415,-0.18010074716307353,6.875351678591064,-6.856419933465361,-0.0698139823854772,-0.021231747689149025,-8.064993367733795]},{"bias_weight":6.579839248094738,"weights":[-0.36149954095214115,0.7803999266776308,-0.45209680135425323,-0.9150691662760636,-1.4692467390355834,-1.8889341347387487,-2.5215796219118793,-3.263731982036119,-7.856582131224501,-7.552331748574067,-9.01472336946159,-7.647861222406198,-7.527502245194886,-7.584031593935966,-6.072307427582312,-5.484482659825309,-8.080976234820827,-2.8063831119549274,-1.801955245611975,2.2387540225775036,-2.500435199409757,-5.021797650205752,-9.379029883966506,1.221557859260533,1.882824587970661,0.9516710665796647,0.7622510940744593,0.801047597897869,0.8765890189900991,-1.1666120058304796,-2.872078180267542,-6.074531673258544,-4.5197788990965435,-4.845150287068521,-6.226027002798495,-5.239115378584407,-5.099597537700447,-3.232551024105034,-3.7887472043395114,-5.6429013862464625,-3.641404833131061,-2.4106429456161536,0.5796828465178834,-3.965390702848062,-7.746830873994235,-11.675266651861286,4.61747440086836,-7.825377323127069,-2.0410325990106872,4.389901752046184,1.8366849260815867,3.441782733788971,6.2967299483011425,-2.166596685073001,-1.6303772523659292,6.252762694710776,9.608935330689635,5.751099739016298,9.752208047466725,6.104837003691785,0.931738298650692,-1.356918996528942,-0.5478761629886209,3.6124588606782004,0.9339715221474358,-4.879240446675378,-5.160767730803448,0.0814587167817037,-3.761805558696924,7.808813132512351,-4.1415152063474965,0.9600630546298723,1.4746414197265036,2.770576397338959,4.018368828723207,10.459872236578029,1.8772096034930599,0.9725019738095195,4.3775766907975955,7.448118450676724,7.502540114370942,7.463344910823623,4.118577250912591,2.0830368121708482,3.1522768586470122,3.1984959535853354,4.4704275716862645,3.398530760358944,-3.5626533421548525,-4.561261297048013,-0.6943086740109775,-6.032577667169805,-2.0941053880155827,7.752852626387628,-9.848829220884658,-0.0698139823854772,-0.021231747689149025,-7.609221015180291]},{"bias_weight":7.1934020006195585,"weights":[-6.779124205992166,-4.726557229784116,-6.131611751783863,-6.656523700749765,-6.834872295782454,-3.8646277839985017,-3.8899196934161955,-1.8802681569755553,-6.565429624372969,-7.551642767420152,-1.9987929908100701,1.109285709988452,-1.2633940645431732,2.8211825012367786,2.364719741852669,-0.8054787414992147,1.251856307636427,1.066844294043453,-0.2051566067580925,0.18192823005834136,0.2351143374269023,-2.9493734059966865,-1.6257281913948203,-5.047394761693422,-2.986617993658987,-3.238242554965235,-3.6814615699591937,-4.517684534916165,-3.379757221621104,-6.518897778276027,-4.638216385999119,-8.350297193655242,-8.452062521127951,-3.053807441984495,2.2399137265495552,2.8459739652506477,2.5024265983807212,3.8387901729226797,-1.8554755547288062,-0.8251030051861054,-1.6430741652213303,-0.7137301636584298,-0.10970083550008591,1.0269103674254665,-1.1966066885525604,1.2396864264986722,-8.625404186727707,-2.548019652872605,0.12459749759552011,12.63627047250187,7.753428205034818,-3.434729351436902,2.8559353519076276,4.639194731416666,5.016796948546073,20.40782760191735,-2.485221805006847,7.5011826386114855,0.17409066473620688,0.5475421100208295,-4.517653540621118,3.31126496093886,-4.83151215458098,1.474805220871314,-9.051621384058606,-12.029172448159638,-8.574838524042447,-8.19605787449602,-11.341733733761696,-8.551876350014105,-10.832644128499465,-4.340475175692107,3.340893748288624,-3.790282659277013,-9.193763881653387,-6.51691500755728,-3.410453818628811,-3.0731541872947403,11.181272504535544,-4.998099660040568,-2.34272038840685,-1.679779973297991,-7.119278419413278,-5.907663485156049,2.234924626960869,-2.8777405561376694,5.897480944244147,-1.6963366451488648,-6.436285486616159,-2.4044196773629722,-4.798360245564784,-8.622829043234832,0.4533518166760623,0.7233453591213453,1.9286109745420645,-0.0698139823854772,-0.021231747689149025,1.0458920970288759]},{"bias_weight":12.761615775348828,"weights":[-2.994965515168061,3.908686061535172,5.261524949957463,6.203955803226268,1.640015498776863,-3.768321062894588,-11.082445324554211,-11.237891597300644,-13.22639910280803,-11.152809320178049,-7.468802698133989,-2.6498997487026097,-3.100428361521968,-0.7474097912411417,-1.0101252336005917,-2.4863643791458827,-1.3673383264602172,0.20440562444171864,-0.11612517486529864,0.24592957544850252,-0.13831692699805218,-1.387914803748296,2.1104728590348216,-2.989764293600477,2.865250134184582,5.187313853116333,7.9490880278222695,2.2653947825214735,-4.551817852990857,-12.766471717259114,-15.16654595682075,-16.782152133136307,-14.30697334005083,-10.064153260133955,-4.006627761335923,-4.913004932646311,-1.9254497548071492,-0.4775198402150287,-0.6196439296882204,1.4884146390021795,1.4842129323379147,1.5175140938334446,1.1896252230981563,-0.11082396933493258,-3.037816232129752,-0.6112595808217851,-7.7422393825497,-6.672276185596407,-4.17010520827267,-9.801220726474938,-5.690163332363159,-9.82344797443994,-11.247739097025656,-13.27784490307055,-9.568361436895094,-8.933864154618002,-6.117687629141211,-1.989349349842131,-3.1852600733153995,-7.213212351351025,0.06740515674284674,-2.461455559957701,-3.388117688762887,-0.2281536569126438,0.8866406424684891,5.380812322964654,9.675538451488459,5.095913042962506,-2.092814646425062,-6.673107667375689,-9.768902281743161,-6.331060395622813,-10.667010879543925,-6.4111240660845645,-9.174782626155746,-11.760708427026662,-12.862091871776665,-10.273944693986023,-10.45469514841802,-6.902704121573175,4.314210997749427,0.5941855973594701,-2.6195718000000183,2.4335474800481607,-0.48557965469440534,0.4350631902400017,-1.3042448736205718,0.46448822166599196,2.681394345245862,7.506425669513662,2.136587682694619,-1.2900885974730336,-4.139675322540875,7.454026071162245,-23.855283202099862,-0.0698139823854772,-0.021231747689149025,0.8857768474414633]},{"bias_weight":20.992359784709155,"weights":[-7.956840174632398,-6.182361530955108,-3.026915267639969,-1.8533255185851871,-0.6173465461091439,0.3142090497823285,1.6337503763782284,5.005300718258413,-1.2594804611620334,-4.153416853021575,-8.850301150758822,-11.621330832201771,-11.712334876186977,-7.448658367000704,-2.7581524345881077,1.7492005892623812,2.3857349321170918,4.0487295514271855,3.554341118396557,4.501509871661121,2.2869720938323583,1.2633595667376625,-1.1834040036663642,-2.2827596826540444,-2.7002577107266834,-0.25804886829584184,-1.0446995100644838,-0.1836890346695133,0.06685144474384096,2.962582619094176,2.2872324647819697,-1.464484603769829,-5.77564212697276,-9.648540230362011,-13.070834380560168,-12.926329360437233,-10.90406833001941,-3.899742481711153,-0.285318368210832,0.9073050498139308,3.3281047960598515,1.7988605984148516,3.624356475875883,1.2033618769295036,-0.6659925596838138,-3.152128017048663,-6.236850913222688,-5.808883203814033,-11.62242332220796,-3.6263725573090513,-5.520608481405452,-11.971374461825274,-7.166099905369872,-1.6332145090708459,-3.035693384546321,-5.075379191564779,4.086380779263363,-1.656047390963618,0.21562822674713536,-3.1286735874563254,-5.6034152327883255,-8.383252756701419,-6.878470941573049,-9.041118144118377,-1.0271986096830112,5.131549703288952,-0.4649270020238368,-2.6889120131733018,-2.271332387616641,-7.894628110157388,-5.597441519472776,-9.130472272692069,-4.542259827582996,-4.569760861623233,-7.804158315033652,-3.938663131260605,0.23808404888830098,-3.2068277813054005,-3.528810838562306,1.0962708270328259,4.813157399947398,3.795244895927122,1.3708295335243437,-4.0478788130673005,-1.0606486473657357,-2.737597541236471,-8.305086023297708,1.1079017867506642,3.2557387933020925,-0.6029449885890873,-4.352215730369116,0.15235778954172785,-5.743105034454075,7.6661120257617865,-6.280078520856752,-0.0698139823854772,-0.021231747689149025,-11.80652185195404]},{"bias_weight":23.437822378867608,"weights":[0.939013762915628,-0.6182543716388835,0.20754028735758115,-1.1918870685319582,-2.7461058740051714,-0.42896487881217854,-1.1123123183478696,-0.18130492931670206,1.508648022702681,0.297944303392767,-1.688773035633249,-3.1009015269016005,-0.034902887847742425,-0.5558674366811432,3.375820077502146,1.802055652972069,0.10589752528997716,-2.180536918793222,-2.7046220858467174,-0.1946150093474262,0.8259411971912521,-0.8198274697816819,0.9900603467753917,-0.2441758870222277,-0.9419083001322821,-0.5609659897144034,0.384980703843738,-1.1356668091211322,0.6194423975291363,-0.0025158193142487254,2.0457476447707252,2.5908118475237036,2.6753963748640426,-0.2944887326043697,-0.8912847863463108,-0.7963747149043873,-1.4500017413505413,-2.6801012575247936,-4.84829410033011,-4.627718782673903,-2.971771579269134,-5.466540995374555,-2.624594986019281,-1.0822864042864202,1.9040180610350175,3.008814960919547,-3.532827116116197,-6.2190854540034985,-1.7779862737548224,2.722026601347572,3.789379411298918,-7.24082836267024,-5.65242812445729,-3.6142791554629476,-9.795834831920791,-9.741268914927296,-4.652540588203843,-5.370399295869491,2.0607872013860566,7.5635528324593375,3.783960887873967,7.383394799707975,7.157291511575929,-1.5335683239656437,-7.7373690320236035,-6.064929014632906,-5.77834371404247,-8.377921029952292,-2.66642209164713,-7.4672296463431795,-10.530789719165893,-10.607853802042527,-1.995228149526712,-1.0258579124854752,-10.728931097440775,-10.115387817735794,-8.405862306421412,-11.050821872571301,-10.684595329474465,-5.777065310014283,-4.550230025272374,-6.280927287492116,-2.425459098893485,-5.841768881674295,-2.237164149695363,-1.3284706526223966,-8.228705606764168,-13.967377468993787,-12.583721250917062,-9.062123850388405,-9.686998310712003,-3.2661701930845073,0.19792876906701765,-0.6797484902575321,8.963067039375025,-0.0698139823854772,-0.021231747689149025,14.893368284014906]},{"bias_weight":16.670524959403075,"weights":[-3.327646357019631,-2.101545927032907,-5.067957355958085,-4.50513917661012,-3.204809028736343,-3.5327477017796878,-2.530149471388766,-1.5602521966481424,-1.6739916059245152,-1.808042007098167,-3.7315163378951346,-4.927224582876519,-4.1644609396774355,-4.335567141315192,-6.529206049441059,-7.804783985318541,-8.596657852590576,-9.441286595153404,-9.61652350279156,-8.029697663703033,-6.182729732785142,-4.540332376715654,-2.085614271826817,-2.3950887282127997,-1.471655220369954,-2.68346074195636,-3.9025564326938254,-3.795045970177465,-2.6633874650832654,-3.087142436555897,-1.990272291502698,-3.7143626748606327,-3.449417735344809,-4.881539305819959,-5.874629284849213,-5.450027574891646,-4.704601083959676,-7.187033915814449,-6.252079103566374,-7.693195529005847,-7.104909880249981,-8.06140176740402,-6.7615773823915655,-6.569265072555166,-5.09727726304869,-3.1293870794676333,-0.8822200488816744,-3.703499158134467,-6.57800597861137,-0.2865542386070549,-1.1418225387463152,-0.15694013471274543,-1.9523758922937224,-0.9634070813528249,-2.6382931317266296,1.8792668943628652,6.015869162986144,-0.5891678070675361,2.4980126549770167,4.483779956742392,-0.22421461468196988,-5.027437107058789,-6.600306661809633,-1.5178932616953629,-0.9917338317279336,1.4287480094352547,-0.8031927285209552,1.1143124619784381,1.1578908557196295,2.4050603989705395,-4.794183584779352,-6.2636627338438,-2.820254987245525,-2.092155257465646,-2.365618766218239,-4.181776232438244,-0.6327706998918377,-3.6842526080736864,-4.730054113457596,2.4076571160232985,-1.2336123547613944,2.1874302468814792,7.8142254370077175,1.229669098009191,-4.90023037399018,-5.111200906657652,-1.9307771282242834,-1.2035316156101108,-2.7018363980705242,-4.829559244134187,-1.568965203842511,-4.048869924974468,1.89591144067683,-23.53169172143674,-13.838611562886646,-0.0698139823854772,-0.021231747689149025,-2.8544234980964944]},{"bias_weight":16.251122494886914,"weights":[-1.6311913955021167,-1.5665663976499997,-0.7511156553375021,-1.3628237597747601,-2.0941246829240576,-4.080399323003965,-4.1216477763983095,-4.002038211403985,-2.6543638210867178,-1.8747570621138698,-1.518959515820953,-1.8451769393226114,-2.3613187659428374,-0.9028081224502154,-1.8395430055610908,-0.8130857854752273,-0.9532707410946434,-0.7909079867484062,-2.021654319731593,-1.5702728638309371,-1.247455770097989,-1.123326232260059,-1.0155086219719025,1.0589763968753751,0.25545191124890426,1.0638911428353037,0.38983578094466936,1.1045881852200423,-0.20925531809311548,-0.08496672939795083,0.11749256589914718,-0.42143195892570057,-0.14406040533320522,0.11731772401612002,0.6002495356863596,0.25912398365887374,-0.3599675473754257,-0.12077387747047146,0.8984959322170831,0.6904388800032005,0.11485451889094499,1.4612261818436287,1.2502566451444557,1.0626838151519404,1.7125433119144886,1.3570018488701514,1.5965274392575426,3.5914081666574296,6.040372718004991,1.7506146929748678,0.27977595864557037,1.389003326273903,1.2761921479341918,1.1319728085255425,-1.3550997820323119,2.0550698296023553,-0.7109656155286072,1.8427666083923633,0.0796607450880288,4.291268317901332,1.2066965578653175,5.181312792861215,4.50511832354851,6.670885642053284,2.8173955085587834,2.3200543741374973,2.234903967033759,-0.04611579400292575,2.304226200506071,0.4484052911187709,-0.19383775893678232,1.7015587724524959,-2.038265577371474,-1.184696384399068,0.3246614204170759,-2.762704046128413,-0.32336565222967634,-1.225966358642213,-0.4637549504148643,-0.8105735110093883,-2.818031692553434,-2.5650747052583696,-0.7906044226123364,-2.7570397470916284,1.4883864483648528,0.7548758803165564,0.5222732038538023,0.08294009341839034,1.8750422369885487,4.1085908636083115,4.1191033667541905,2.8363950536088067,-0.3829998755695718,-1.5173102917282748,8.810265665499623,-0.0698139823854772,-0.021231747689149025,-0.5616675229674485]},{"bias_weight":30.026149527845533,"weights":[-2.9447161216604196,-1.6652751665529661,-2.0879137572438693,-0.7947300614501552,0.3866696025435159,-0.42755193103421035,0.5536688894855005,-2.209228920440483,-4.060630191881477,-5.260527705192737,-6.808746915205451,-4.2141880919339325,-6.827068737774098,-10.3405355439207,-11.03659134429205,-8.160908814774286,-3.1279751498459167,2.771235243020732,8.155925762578557,10.014417089351573,8.767960235856675,4.585465179357479,-1.12287368888551,-2.172915017412496,-1.5790065066424694,-0.203935482806894,2.6950145906470215,3.0822533661513205,4.162716063608544,2.28387880594657,1.0311477172648618,-3.0318797431049735,-7.344359927129752,-6.525771029966526,-3.204762413309867,-5.863177950211292,-11.55018050543685,-12.203107295444601,-10.043778690411244,-6.475768301289058,-1.491753093503187,4.430166078781388,7.729724385358363,7.521697933735176,3.4615187577080775,0.45316177006395664,-4.207522988783609,-6.398485542323897,-6.556863966873392,-1.3844349401022704,0.4480026596514,0.7862250709954409,-1.9108380528014866,-0.1780147135598128,2.255894436289826,2.6599078905125677,7.7690829252298546,3.958806370938076,4.30418188846871,-3.868943240463467,-3.4975670210762875,-7.7899700667528995,-6.310245127477928,-4.114885684075563,-7.595271632184045,-9.226140464342805,-8.720366367431462,-2.6146158882198005,-3.8456513913617525,-4.41253967312576,-4.522804334927594,-1.5679836866554449,-4.1207279324443045,-5.640583314113256,-3.0914950830076235,-2.8529875353386176,-1.4863160406076799,0.01827806718607322,-3.9651858667149584,2.3168049613391304,3.2776740345139688,5.244326340534796,-2.735994757708888,-3.103553645227337,-4.142111422568537,-3.240674184529704,-3.403892899080854,-2.737468575779986,-5.389828843508127,-6.282233546337757,-5.213762734790321,-7.990451994019011,3.738299895950645,8.043565915763796,-15.306649598529674,-0.0698139823854772,-0.021231747689149025,-10.901352739374454]},{"bias_weight":19.97874824513531,"weights":[4.8402476307757425,4.322972979332526,3.6993992911248528,2.4271680259813873,2.457799587096452,4.016963058045735,2.988755531321463,2.1602719637937433,2.6598844795938055,2.1180244132194552,2.8526046120824615,2.9906745377600092,2.6064944876623395,1.3596630229479094,0.039966412676801615,1.2937587421448813,0.6248912213066596,1.8396742898372482,2.245628644938109,2.122974049762735,4.101310797945427,2.779419906016987,5.23897305013212,4.702039913798941,4.664562524509233,5.1706970319708025,3.8203067946278604,4.219229554105564,3.8707600381288247,4.608673937354469,4.586137322143175,4.866863221735854,4.864859189403982,5.023894904031799,3.850218399547721,3.310352137871264,1.6237269618441328,0.8469210602926438,0.7287966519119097,1.0342492884815953,2.1376153077230478,1.7907317783026344,1.2799946774115367,1.9352596283860937,2.5467546849295766,4.063125856805699,-0.4859905044544553,4.925302065663509,4.841077199638905,3.2060467349574124,-1.5906441752589924,-5.561168357287285,-5.852019063148337,-0.49689737596251266,1.1886585683827995,-0.02392103975758223,-1.8229166879380372,2.42541583798868,0.9767818416003288,-0.14877290222241576,-1.7854011283365958,-2.061408851682366,-4.692845416966763,-7.522825960442917,-6.219639239814579,-7.102453581152332,-1.5896482133506233,-4.8978956791473784,-4.473808954448319,-0.24805633854075013,3.394505047297072,0.06814470319923883,0.5419363776075884,-3.476838946977841,-5.629033255905126,-8.013119124591697,-2.6740538512930287,-2.059488757819667,-0.6032247848338954,-2.6213775303672873,-2.3582794001257867,-1.977611218029058,-3.445080711724188,-3.375097780307165,-2.6348196329528,-2.905573109497965,-2.948041240251164,-1.9330590212135252,-6.878882490564996,-2.0257825919067196,-2.6382096640395005,-3.538112162409057,1.3082370785263322,16.375746944279093,2.5371541733091183,-0.0698139823854772,-0.021231747689149025,21.7423145456153]},{"bias_weight":47.597671568058516,"weights":[1.680247199602437,0.5971454019660095,-0.07910992217610584,-0.021366457462738492,-1.9321369277808003,-0.6680650700464182,-0.7559752175777776,-0.04972250615781459,-1.1516226905053593,-2.0862228644017624,-0.49002629912827245,0.9599767116123653,0.4681584458826663,-0.1309995372090855,-1.850223189599219,-7.741983390554689,-6.427094809092798,-2.084939324860032,-0.6210726259900632,-0.46361695163466177,-0.5546614125765124,0.15937549889646005,0.586457731339554,2.0645467412654623,2.0624957856575237,0.2949045549541019,-0.09417132399026971,-0.32321409711730203,0.6440959315592407,0.8295749494856139,-0.45146138568599614,0.1098623063016054,0.08569610701505881,-0.03183791075124713,0.6102475244647456,-0.4404219168634083,-1.9150053862201202,-4.755824518361746,-11.43810212224385,-5.973396276386436,-0.18655243288507836,0.8587907361864026,-0.043707552169253844,-0.4708136598652884,0.40613820239659026,1.2512960533210091,-11.731477626895872,-7.4456632326875996,-1.065862913848842,3.5283967196364774,2.4608412801278083,3.3624396668639194,1.653969236071423,-0.7640549058558008,-0.7286245742431299,0.4029925702237505,3.021043145543789,-7.053160794647964,1.0108515709476444,-4.134953854604992,-2.3084380615820885,-4.495293525195,2.12445474071455,-2.881984248614869,1.9164142896661793,-2.5405190302749725,-1.5035704003031314,-6.318494568032549,0.7251778682014947,-12.6306345351442,-5.330569191141406,-7.278533509437293,2.7803193224407754,4.022698910522535,4.271386083073338,6.406311041852998,4.882807423119791,2.484416249157238,-1.0569710543818234,-0.7222243446560053,-11.820357905666803,-10.04865766287626,-6.742805538032611,-4.937039182439159,-4.240032679454322,1.723442933546552,-3.751276032979703,0.8266485271501457,-5.765353060843862,-3.9430202192382233,-3.901864718904968,0.6702959430164135,0.2395253629830972,-2.184814732268641,3.877412717059577,-0.0698139823854772,-0.021231747689149025,-4.78368016065459]},{"bias_weight":4.4300434297299605,"weights":[-0.30959772903102123,-0.30985298237682757,1.8031495752263165,-0.33569313342343643,-0.774743973755823,3.160942536602492,2.249018286450953,3.0225112661964433,-1.4243082535313516,-1.6423711933474194,-2.6918477677901658,-3.4598981009819902,-3.1157088957753625,-5.158484077815146,-1.8216529453679755,-3.746552722826979,-1.4590773946739928,-3.1422953170214303,-3.632002291845003,-2.284559835425168,-3.819192497522184,-3.8686454056753665,-2.2591078812770387,1.3086444259083607,1.8304706451143777,2.397573445890391,0.015217366346003371,1.2886096879264421,2.42623547494252,2.278644217252332,2.2306251339318917,-1.196861502014153,-0.8865616138294791,-1.0912783418943093,-3.473909543712792,-1.8784192290605652,-3.3824338120666466,-0.8381697774695993,-3.7166466869475068,-0.9470975517048642,-2.0358493731144565,-0.5180274217559359,-1.6035456385640419,-2.5229234534119858,-2.938700260046533,-0.9015007453371786,-7.076867115719543,-5.0441043220942126,2.528802880215644,2.850793498961189,-1.8936572988152849,-2.0617953684498382,5.3979739472188735,8.197307348457038,5.5983892342845705,3.1137121218939496,0.4801103445382797,2.59040588480152,1.1393858282327523,0.0092264515609958,-6.726091667701153,-7.460053638528118,2.5087904370154503,-1.396301148643705,2.8891744937440356,2.0414038678949193,2.7894021213598053,0.5528921962284574,3.769840345403172,-2.7272801887028884,-0.5093844277629673,3.7344952803693268,4.9186119211135955,-0.6898428333729643,0.27334817687912966,4.42337463060343,6.314836690896661,2.805758405879301,4.226852510150423,1.172380646273018,-3.5547357022859303,-1.284399350930345,-1.8134491255302103,-5.904313996636654,-10.483013379855166,-2.8351405065371478,-5.250169109063177,-0.9180673896670766,-2.6627879133295496,-0.7108859119919472,-1.0857682957770523,1.518707264504181,0.3664625818791298,16.079178404256663,2.5412590963031905,-0.0698139823854772,-0.021231747689149025,11.769943950531166]},{"bias_weight":59.75594196485312,"weights":[-1.0273373098217733,1.0073512391747175,-0.22910828117885698,-1.523388973728989,-0.8073869677062565,-1.5759625503782384,-0.7040439919292232,1.2094881770563144,1.2842107000945588,2.332773858460042,3.2951283847763713,4.76483174883838,7.2153915145577905,9.687407139280225,10.965034845859456,10.659110904395098,6.300240871789047,1.8719279819663488,-2.8546697733622755,-4.741578075530043,-4.402047218563519,-2.752447410155199,-1.4270273105443545,-1.2460599359545261,-0.8620780863198103,-1.7489502136562958,-1.293010314909666,-0.70127335731667,-1.598841805816712,-1.5638940841660323,-0.22759846945049578,-0.9133560000428758,0.015169367446170859,1.5209179489296225,2.5960367460063343,3.8328240870686905,5.559419657417423,8.37487373744468,6.4555808866036966,3.670313589636916,-0.7500389349969963,-4.210643921988646,-7.030432617074344,-6.283651905192796,-3.660942446572108,-2.150032273432963,8.201989375971221,6.604929927859152,0.816643509685463,-0.003160671465273109,-0.4827290035257943,0.01206966328829608,-0.2897832672934139,3.301893794305021,6.718850851273428,7.444962219923598,3.8611183510747304,2.3959872530454756,2.3532968072797433,-0.5850921655040217,-3.7559375213170805,1.8968209565364793,3.5357829844208957,5.007691175350275,5.22645740157246,1.8451581618633326,6.369075804012954,1.4574273756052807,7.8882054748562735,0.9401738654140869,3.701416389228202,-0.32015212072827215,0.695046500857013,1.8835167431616522,3.21145615769934,5.9652354344137315,6.213220915056052,8.37844563198519,7.584126622310359,6.134799174925166,0.10292479310278935,3.175769942033233,-0.5542500877833002,-3.471764253763438,-2.1159376153502825,2.4628203597689784,8.122377031531434,8.607724745560839,2.6647531614257454,4.858470803644371,2.8679327047464116,6.6538453720651605,-3.42356890489497,20.2616738180141,-29.970173671817765,-0.0698139823854772,-0.021231747689149025,25.419935832155033]},{"bias_weight":17.99358523030972,"weights":[4.708138241333283,3.286225188216297,1.0926708715154174,-1.1946871318348733,-4.254149469552325,-5.670412718637541,-4.863139560739439,-4.028854799703473,-4.012920430344509,-1.4261559693928354,3.62378985987347,5.954314062215235,6.167140036146573,6.014277224670857,6.007379384440881,4.954684867766644,4.910395665166713,3.2787486713324463,1.456733489616201,0.5963171937873241,-0.17903760965430632,-0.0021312640515583933,0.9439764712585115,8.131191999982715,5.67269076287158,3.5825243982496664,1.0505612562895257,-1.0883450751872488,-1.8883336868688843,-0.8643118820617158,-0.44101228542384857,-2.4036256444006088,0.8450365637830902,4.440756673387057,4.710508221285248,6.497335335249125,4.661850264385337,5.695473375561695,3.8436392240803428,3.1212123568322836,1.2619454921600397,0.9815469951477965,0.34901898711048446,0.19105975584545112,1.311169287631989,0.7364492663551347,-0.5212729856428987,4.166520725142386,5.94862253108013,-2.9638892668462167,-1.6648221801549459,-1.9264900190022736,1.4496085767376827,5.185866623362609,4.317230765731232,9.59022134408285,4.278623719535483,11.638152784758038,8.261868394814414,4.651619803620382,2.6749953812448304,0.10395670204011,1.9344643496388882,-2.6225796397433063,-5.1687103506482694,-4.953049054232236,-3.198958109463897,-2.833825705881099,-3.244840734972185,-2.526782537889968,3.47295467187582,4.085225448271336,-3.123283668136877,-4.230828846230124,-3.9871838972353473,-2.5609053717100108,1.910758521893402,0.8109317187357665,5.0321110329226695,1.407232369623498,5.7899937576557745,4.288208221686832,1.7108679482970728,2.478015734280239,-1.09668921713683,1.251222524270719,-1.3330968366234914,-4.662053310481348,-0.6041920301184301,0.8408610124488818,2.0277357601606365,1.1946983212812092,2.801856296948358,10.29169898777335,23.13082992477163,-0.0698139823854772,-0.021231747689149025,21.37662079117826]},{"bias_weight":4.583074806840252,"weights":[0.4334339551953515,1.2139196808155106,0.6308300341820635,0.1484539901730837,-0.6969989131329396,-0.5132884387190111,-0.8585382633152177,-0.7924760164459317,-1.9097467229757883,-1.6562322403329564,-0.9893633685019876,-2.165284293473229,-1.5679106674479157,-0.3394301370054109,-0.7370141030010409,-2.572064077752445,-3.419645339027111,-2.9915912605919086,-1.2140405916126846,-2.65224136889558,-0.26836934069524454,-2.1292952797562843,-1.0376785158022623,0.39681010637443387,0.06747513656340656,-0.7397301149142359,-0.9397851214896997,-0.7851900645398815,0.14030948309006078,0.7248612304081087,2.2720172710572997,0.5122483927082309,0.7161720828570064,0.3530498729488332,0.32560708490027906,0.9531852022631544,0.6495328857957017,-1.0299515830437607,-2.439672014565079,-3.4704851213177745,-1.896847340385928,0.18630739134394658,-1.0833179682309473,1.3500006974976038,-1.2515990510457937,-0.9343749087946692,-4.442801025528118,-3.6275896176662394,-2.3355134266903117,-2.3093754993426328,-2.0118076629795265,-2.3167847711784235,-1.3276936666220551,0.3752243228075026,4.3365311445740655,6.4654017176096925,5.473273962955556,4.618423955560589,1.6578848530278556,1.8725501907734299,1.5802747433472266,3.5846159588503417,0.4238872522973494,1.0841178874084,1.2992391931638783,2.082723168369149,0.378087838294773,-1.1426904084381524,-0.08260788909187278,-3.307279982680781,-0.4506792864452579,0.263985129433356,-1.9653901181521698,-0.5461747188463598,-1.4185696913567114,-1.1735715545023904,-2.0218574446774875,1.5428230930062488,3.6134234236757785,3.2247234419794752,-0.3219016490140591,-4.546438034366817,-1.5204241528010165,-2.7875206798690537,-2.7262053440357406,-4.1394938700105675,-0.26794044027045305,-1.1085287349624129,1.5749111589257838,0.7246536776777536,-0.500085845324763,1.5146716188316827,0.35189741468241575,1.9536979778412533,10.83861509466735,-0.0698139823854772,-0.021231747689149025,-9.261656543849107]},{"bias_weight":9.173248726255062,"weights":[-2.0753828273912407,-3.762098437861105,-1.913652923414479,-1.3133538841505696,-2.02121478719657,-2.003918244069477,-1.2472545963624457,-1.973216003855957,-1.682094860263896,-0.8015976929630723,0.5431196638820731,-2.0565724291492793,-3.058908014356502,-3.1565222008178293,-3.4918425805536213,-1.2644269110189013,-0.9814130695437341,-1.2506868589826363,-0.6117208568447337,-0.8491009569438369,0.3798856663962269,-1.4592872616280292,-1.3492614280181758,-2.4103562910825187,-4.901618601774706,-2.102067266068246,-0.8629549729661129,0.21682699823041343,-0.2378213187648482,0.577962502524251,-0.0858871300356798,0.4433849349003049,1.917912188775688,2.317957169499746,0.8501148225915408,-1.212676354609731,-3.6783312321756223,-3.45104557162235,-0.6436864085939297,1.1895678012706508,0.8187115366499158,1.9979814637620892,2.4129755959468793,3.7647133647688262,1.9100539121606002,2.0055713982930556,-0.8791712713585141,-1.2923805869559668,0.5790115196371376,0.9971308978036673,2.3429017194904262,2.9245419179391257,4.488840886420207,0.9875840439841231,3.827702693475937,4.129712659430354,1.2140207449034197,2.7402641214609327,-1.7353451845175045,-2.1344725725080136,-1.6213345620561592,3.135355508995666,2.1838018077023653,5.033128874680262,-3.0226323455742143,-1.4326088021496506,-2.758104141953715,-3.53292497157484,-0.35960996318979727,0.6802360414727193,-1.3780975000376952,-3.2549200256371593,-2.3651187376712235,2.732684053456853,1.6383127591042723,1.8104809474628545,1.2893504704440601,4.846278043276612,4.732999040201936,3.059517619758508,-0.3909618326183286,-2.7495083305634203,-2.172269679171706,-1.6635889869722724,1.7510506778544095,1.9589755481987445,2.2830579904015913,-2.6658650332380986,-4.373125079461214,-6.57587626709329,-3.20466011630066,-2.1302318254095547,0.6103631281651635,-4.959469926137627,-9.253721244982243,-0.0698139823854772,-0.021231747689149025,-1.2126209386972173]},{"bias_weight":-5.485475750321115,"weights":[-3.2067373509255357,-0.8813252295577855,-1.4893767992903113,-2.8638101878806848,-5.9503648715289135,-1.5718177455429978,-5.8531845547928665,-8.603333898732695,-6.305384496107142,-12.613138382427582,-15.233493815422282,-12.003543166292499,-4.909046310556513,-2.5278486939255798,0.47704832982266104,1.5698011252993906,-4.145227542641576,0.44037442142182537,2.6123012659695677,1.349667804070664,0.4242540495954367,-1.8595676722890404,-6.321563132865422,-0.9904099464551912,0.048504268031687094,-1.4159604290102878,-0.6215100536751587,-7.379371503962141,-3.648649685981183,-4.287115171715968,-8.048837478698557,-7.043284145724935,-9.441128368339848,-13.256007373267314,-9.834846004158774,-4.039092923308304,-1.2545916591621806,-2.1786505076535816,-3.3451698951933158,-5.497783497470162,-3.042873838704145,-3.0453104986259714,-3.39502242073904,-3.818382694937778,-4.305572005375142,-7.710294539768977,11.345828559677225,0.15968772775061274,-3.4746116191113647,-9.87067713397539,-7.336597299888184,-7.424355318241502,-0.6489010538708763,1.889082822806955,-6.267906468947976,0.5905715114166896,-3.7498920842942516,1.623420969927297,1.264331559606059,11.559307481872699,6.739957649633122,-2.5706957816074802,6.228279306241071,12.75363307243116,9.555107628514792,-2.8074963123138996,1.8361685286420732,1.1568998485279698,-8.246383176339577,14.267096738535475,4.177222381372762,-1.6518644920089658,-2.2473970330384097,-1.6401362234665517,-1.1508518311061124,5.957683025716278,6.294426708164854,-1.3759352848359414,2.9820051846021105,4.999077401941565,2.275591541693965,2.9907131248367618,15.944426422048815,14.914818519086428,1.904458698811671,8.417849407038963,20.293877458860212,7.795695461050419,-7.354213793629226,-6.680379681656267,1.2479992983492088,-12.047530919455863,3.447339036569322,-30.23808297346138,-13.044196204026854,-0.0698139823854772,-0.021231747689149025,9.465693462649579]},{"bias_weight":-4.938681073467544,"weights":[0.38836173352283787,-0.5449859737681381,-0.5562150104359984,2.8964658939054693,5.502784095773242,0.29434237073777775,-7.686538869861381,-5.11071487425838,-8.157849421409102,-11.364395165217847,-9.575500118899562,-12.927296525518921,-9.74777263888751,-10.3448707224013,-5.459483099972285,-7.6404878563275425,-9.141071544798667,-7.210285296872951,-9.559249963167922,-9.521532670247014,-0.9696871276889043,1.4380783248500755,-0.32349847470651255,5.434996462655305,2.731972674538662,1.2261089233785913,4.931378290329526,5.461359420760273,0.13890344625398476,-7.470196013979724,-3.850551280354031,-6.8545920400243014,-9.377477693629528,-7.617934281906632,-8.153891656901727,-5.013130059090296,-9.115431327353837,-5.781195246577427,-8.762580697065236,-9.976117949276507,-8.538309282549617,-11.928493775072905,-11.369561723920134,-5.093582185642763,-1.4038334987722136,-3.240067586576835,3.097480527482626,-2.0267342195283806,-6.575675890911723,-11.086387840026857,-12.696801008252269,-2.982521654054861,-8.471882996464462,0.13109002285642535,-7.075563345740646,4.0707534419525775,-3.4030847256466665,2.4004134249201203,-1.2320549166444579,-6.770812541571243,-1.4352149038191613,10.873475142373252,-7.779029477274874,-14.548569699744823,-0.6399125578557331,-9.349633089395,-0.1330740730761477,-7.416394516336686,-4.149314380440878,1.2594281547007902,-9.176383004432916,-7.612845295029275,-14.444386107292365,-23.632865128232435,-11.363459495921742,-10.028878262446637,-0.7918981382990512,-2.0995589292265713,3.1187142680278153,-4.515652022989738,7.2327095902248875,2.1060022018015703,-1.501591932196712,2.358915979743871,9.770803579571105,-6.172069245793822,-15.604658398045101,-8.350303234701615,-7.692760189263826,-2.5337815997196733,-15.651886985580607,-9.768196028102958,1.9253788320325396,-26.62120423232277,-4.810488883616084,-0.0698139823854772,-0.021231747689149025,0.8814104899867728]},{"bias_weight":4.58452766693545,"weights":[-8.907597801542737,-10.384351750554451,-10.828686170667053,-5.998191227898298,-1.5482706790798801,-1.8536221868512772,0.6536105387030796,-2.477291816083579,-6.475266627341793,-11.43585549834657,-12.311317098741194,-13.435138124306247,-7.973483955644519,-5.460665148179628,-5.899522426923667,-2.277777218268391,0.29542864410789493,1.8076715250268867,0.8398683687885522,0.08106080536666614,-0.9582875201751325,1.713620826890921,1.2736688501737943,-5.04549205673536,-6.668818991062747,-8.19705919102137,-5.017223281392061,-0.325598921241899,-1.0385081623243788,-0.002704893123567026,-2.4367954300143793,-7.235620472594259,-12.119749765230528,-11.852118859480905,-12.17156308770983,-6.274645221238942,-4.475864991491361,-3.8227793231513947,-0.2629087527336319,1.076272793948768,1.2076404853370741,0.6691649388501258,-0.1898502481934642,-2.3182994732140436,-1.3895895429142617,-2.8714286087727507,4.6210311291927955,1.067778278279635,-1.292419823165343,3.247203132469754,0.040673308545604366,-8.15449579005045,-5.136142730148149,-4.119847186142157,0.18924516297834965,0.105553814770055,-1.103214358011819,7.1504074971034965,-1.581824569258455,-7.837345597550516,0.25339964238060086,-6.254390227385896,3.79895040624,-2.0309146159850635,0.7882611826779149,-4.046227100937051,5.221241750157614,2.519000637762268,-4.1635774451598015,5.511542464436077,-1.5411659968820468,-1.3380042146664322,-1.4447137042735674,-4.223989896871596,-11.568867217858852,-8.794763144272162,-1.6848901596023045,-3.3332378010762262,-0.6530791100384753,-1.2645568555239324,8.583441052978271,2.9901023869024224,-10.07043103330824,2.8193878695951797,-1.0256736383448062,7.881987634746754,1.7383925889543395,3.53027709284172,1.741668353350364,7.408445154978216,0.13729569787204243,0.3826648605660628,-3.78133245014667,4.257719599827779,-30.725479868027545,-0.0698139823854772,-0.021231747689149025,-5.811869094124199]},{"bias_weight":-12.182785497474645,"weights":[-2.230676142436249,-1.0666675747940833,-2.126726851674964,-0.381548558209625,-3.418973431237605,-2.450699146782698,-3.2759994668332983,-4.186720022166935,-6.085345313871784,-3.547925356286884,-3.4440703432360404,-9.42402641314041,-8.630542303047951,-11.535424502365053,-12.220219136295375,-10.645529649736247,-8.188209466439632,-7.489874276256858,-7.328590507444346,-6.921335461759719,-6.06578970986274,-5.03337228054264,-3.9076673027995033,-2.899866564793169,-0.5160223207452184,-2.0672114873962757,-0.3591286840663955,-4.837826334296059,-3.7008739916432716,-3.7794171720746115,-4.627515460371591,-3.702742723294929,-0.3777112322846261,-0.3990802394928856,-6.535835004842231,-6.318564155677591,-8.606793052743932,-11.453320182648563,-11.038073878033234,-7.902331476548953,-6.482451495109437,-7.761983212895678,-6.784197502050152,-7.518461921665596,-6.147911804372221,-3.992873123804021,6.434476766553123,-3.565453723221816,-7.6771873713646235,0.55761548220429,5.494580873222966,2.2602056051608725,-0.642430972663473,-4.320525135935593,-9.190862354974744,-1.0759444851448412,-1.8434957882078498,-4.922193323023106,2.2229267170089533,9.122039612462881,7.196542132205283,8.885548367464894,16.3338503222442,12.000832651114758,11.50029061647235,5.188351928043718,1.1803380935092014,5.098343770144068,3.158876353898251,6.899390484083178,-5.87275392785943,-9.86944483367556,1.352328397684632,10.834381603488836,7.35832515858308,7.698674453710324,-0.6160417515898505,-5.458745887136792,-1.3043998338587786,-1.6848148639386251,-0.9993705296805568,2.687012511087724,8.322001641463228,8.202661512047287,12.500631126687411,15.99100364481506,12.501978343632002,10.020862006481481,1.4624541319855604,-3.9282801809643977,3.0137134359031825,3.243939199591697,2.2834818764020386,-51.459404844839476,3.250963914222594,-0.0698139823854772,-0.021231747689149025,-2.8376924096984775]},{"bias_weight":36.610995890567175,"weights":[-3.5741023997758226,-0.07910534861902577,3.689472474432021,2.4910170132564713,1.5148255002364162,-0.9180022152681145,-2.958717978417677,-5.871700655844628,-6.8215991440669566,-10.157605817891099,-6.806634780360109,-3.067478553111524,1.7041398269615997,3.214550077533744,5.0540464744941245,4.56593817884371,4.37464490672812,2.482738695230496,0.4131857985527094,0.3510325125984008,-0.35029751676094595,-3.18801720134337,-3.5484364226924554,-1.3898620059524427,0.5933600648574722,3.2178401645507244,3.242043588036308,2.5472341710886544,1.5606218952194069,0.058232117467724734,-3.4180703552295686,-7.1825367041142725,-8.81903281203782,-6.497157830799744,-3.1615910195924983,0.1347879952892355,1.4639598324718173,4.276034008382256,3.927972094098304,2.760041638323813,-0.23473689754658145,-0.27156499156367836,-1.6847650541948682,-0.7650614232828855,-2.293561713189901,-3.79573721749186,0.25301435874931844,1.158310962893176,-1.0404232792248942,-8.211042347405947,-7.3306413763512515,-4.561285115141382,3.504285475880798,9.5857203965723,10.97598246970457,11.710775001208278,14.329776572762382,14.18785480259199,2.929522017528176,9.607049132423775,2.054302182661827,-1.871961667448262,0.10792644370381195,-6.311527237318624,-2.6669332113927693,-1.0118043345674963,4.402585873611738,0.7021644394462033,2.7911697848618435,3.304893030801136,5.308447146498301,0.9423099768801597,-7.3016728209133746,-11.338915800514435,-8.615480796965413,-2.355191486056269,0.6296844054451003,