{"learning_rate":0.001,"layers":[{"function":"SELU","size":98,"inputSize":98,"neurons":[{"bias_weight":12.480131299228379,"weights":[-1.899814998093828,-1.6122564427410322,-1.4056774091121718,-0.4589046264430067,-2.5295978850326253,-1.8608254888455118,-1.5655361036974267,-0.8740289666589026,-0.929363701652018,-0.23986338883733435,-0.29407319276817595,-0.00004591540518509897,0.23770189964795843,0.917581830840048,-1.200302285144654,-3.4726049805756576,-4.472314432387494,-3.067752394469406,0.2792573083124851,-0.4543228268174949,1.1478059110169607,-1.392817624104607,0.7163689662006858,0.44363170754128883,-0.5829727511706808,0.03088795874626976,1.8474246001329666,-1.3418924287312244,-2.7847849442987633,-0.5412651743834099,0.16314414015388073,-0.18824353615456826,0.6185721728024388,-1.3687367188079325,-1.5444001566772212,-1.1142701831325041,-1.2779054122711808,-5.941680376825689,-4.482049875359471,-3.7327472402766495,-2.4831954723831253,-0.31110303727686917,-0.790303237077802,-0.04050446806920339,-1.6954491533427591,-2.0801640072907235,-5.9610971695115085,1.2932321211774218,-1.4141335705026103,0.26762527475489284,-2.433200675672528,-5.945902130325841,-7.032655491111461,3.3277685019845094,0.4447872731958948,-3.5310496727700045,-7.848182669012019,-0.035500195417850516,-4.895912476461063,-1.872916882343602,-4.539958223873341,-4.049243091863176,-10.531439140983613,-4.434554531167199,-12.301566649097966,-11.2310638842973,-7.10977509278744,-4.156958714982606,-1.3277234103089028,-7.311955683073747,-3.23306482882075,-4.59600083830277,-3.0505551964683955,-4.909097994303823,-7.588804549443323,-3.441194242191367,5.451295362093891,2.387490721729792,-1.3970130941545336,-5.522931310265651,0.04857412958556048,-2.7456070545536866,-0.6004948974150018,-2.964567931740677,-4.022747142381865,-11.47864603257264,-4.183499096354081,-11.791760288393228,-11.39511138012701,-7.849665242612788,-7.3997587694220845,-0.7530920182280466,0.04392429021559324,2.2535544050288463,1.3661516655359076,-0.0698139823854772,-0.021231747689149025,23.569156845566944]},{"bias_weight":1.7972598524245607,"weights":[-2.258116420186903,-2.695254525909499,-3.161915554690805,-1.5049381412769838,-2.316086356348193,0.8409108517048072,0.47510815907594867,-3.3929043077600194,-2.047256217873592,-3.7612692637692122,-1.02271949186691,1.0405977525775356,-0.6143357670086688,-2.7499872393457383,-2.1939149491957535,-5.040086614462649,-4.972754545310525,-7.251827867818996,-4.478053770831054,-4.304458597115186,-1.8707179340378421,-2.8163503890504957,-5.335271409349952,-0.3495383962059016,-0.9491512714199379,-1.1038390119048995,-2.3809821135695337,-3.297946957791955,-0.9851591393005693,-2.1358752545510695,-4.003697795065686,-5.628683787509629,-7.613205751824258,-4.293871647964907,2.747207649668321,0.9173695883169065,-2.548356459435022,-1.771971230268705,-1.3063604928541903,-4.400064748532742,-5.722286605604472,-4.621283825943103,-4.508147024096323,-2.380583478938532,-3.0828131978018374,-6.809267265551952,-1.153546998822758,-2.2618164844104554,-3.788424682082979,-7.212345915991611,-13.848559788547707,-13.583010824075334,-23.96887840579794,-10.078111212241415,-4.624997506339542,4.8362351814062405,-0.10210333722242523,-5.148382335606454,-0.9560689249346143,5.926010331655277,2.8241952896895834,-5.516914490994425,0.5328778503573672,1.6537120588382803,-2.075613125611297,-8.01379558997372,-0.008644201541657267,2.747662131421342,11.639101821325848,10.36954962247852,1.428406767967673,3.0924136723570945,-6.443283978577678,-17.52098256672298,-16.157157372796867,-23.618319801347738,-10.043032299907614,-5.427862092519388,3.4812493772747133,-2.3697317459123255,-7.571888020758897,-5.0092698654365435,3.166292118827388,5.423501070647926,1.8497848376406438,7.860668492022896,4.7060334917822555,5.1587517394630495,-2.6292374781912295,0.9447466084875741,1.7945547531092803,8.302524937615036,4.1990028481955655,-10.53666039705439,-0.8098626763886746,-0.0698139823854772,-0.021231747689149025,-0.48284382868748205]},{"bias_weight":13.7787222630934,"weights":[-0.5055042498812136,-0.04825384646742944,-0.6965077692272797,-0.9859169029845415,2.0835937688647843,1.7216332481399423,2.3108172290109894,1.7437167340148851,0.7980014644777526,-1.065639468255004,-0.28284796618558666,0.8148916785955668,1.397497735482852,2.704264298938931,3.073348019551444,3.774192684777768,1.8655596470520381,1.095292875893104,-1.5732228016983536,-1.3787303081241542,0.22220165008861847,1.5197240427672964,1.2691747848575912,-1.0229785045857083,-1.5737115628867457,-1.5901766290603727,-1.2021030136878479,0.0024236524883942422,0.05339657416169339,1.5323695418685046,1.5253080541352673,1.4564650873842584,1.0093822340228746,0.9313737829681596,1.4502775685600253,2.6651177172063694,3.7411357275659496,4.760757157041782,4.720030017803304,2.301253590357118,0.6973032026538655,-1.3212955670554118,-1.3869620095200532,-0.9107335098586651,0.8375457277953593,0.951702884513914,4.643729850985633,3.287816968440357,-0.6585415881383044,-3.018626342555246,-2.7294424801703037,-1.4375820736023475,-0.5669007954387175,1.0893853782441119,1.2878271312205674,2.4387193619238663,3.512127343800409,1.9922981939220303,0.1274858836296847,3.2617738774692726,4.72725295759591,3.085951850524924,4.91017591492313,7.164102300139969,5.404858610349612,2.2106753515061177,2.6871798179651236,3.146999794282184,1.4481746086351501,4.459747698642348,0.07132108953593436,-4.130594793311438,-4.665194591044734,-5.393815202169587,-3.75805575809582,-3.446231590133905,-0.83394007972102,-1.4402060825112888,1.7827347585460644,1.8665003460818597,-0.4311469496353501,-0.3185345461317567,-1.1634808603550646,-1.230085788477257,2.1097775136337726,2.1676987350122054,5.1995886037753944,2.35690207522795,2.708272971646151,3.82277084403511,2.970553645437866,2.4082743607234653,-0.6612240839978883,7.616404424852809,-13.493577292043646,-0.0698139823854772,-0.021231747689149025,6.302584251147294]},{"bias_weight":-0.7365953373225752,"weights":[-1.111836079580042,-0.6147625534225807,-2.0313517771815626,-0.3677294940847918,-1.4357493395485705,0.6479147523208174,-0.010836790418438222,-0.9653443329470014,-1.9279515385539334,-4.438147444446456,-6.050013988945382,-7.021379783108864,-9.822546991748299,-9.766649606480298,-7.737592889912941,-0.7356919475845056,1.4601800942459202,1.9746008971136566,2.9578545536211167,1.4616217434083598,1.6684765649885942,1.9540461023307232,0.22363006723391166,1.078541466815828,1.6300751769676638,1.4198461557419173,1.996078853896668,1.1833580340037744,1.2199626304029993,0.4503754433866321,-0.09747699085045959,-1.3766499925003688,-2.4892041463996843,-4.894027554290593,-5.357453578997753,-7.79216767040298,-7.503582178915976,-3.9276726506230073,-0.15249338471968324,0.889729172831289,3.174617076589711,3.730391769301863,1.7441476602856272,0.0854640920777923,-0.014353250329947468,-1.6919797469798137,-0.37178638560288957,1.5877294359760508,2.5472132530123637,2.325561492904876,1.143506726952644,2.0892090967991486,0.7510414246530944,-1.3159493895234244,-4.933659684196954,-6.397661191104779,-3.5934495509235247,-3.898660364162665,-0.8837095075676143,-0.3627719113456809,-1.8842726235853395,-1.2399061274128758,-1.8106614602919424,-4.2356581020862984,-4.1623624770174,-6.310124798502796,-4.99876810848801,-2.180683228809203,-2.741017641162944,-2.4556055132070727,-0.8750797678406202,-0.23127723352702947,2.625776060475989,4.575734817945328,5.017763485063245,2.944766770815869,0.5219974744180407,0.4150436099001243,-2.6247355625693305,-0.4903409628613055,1.496739535348593,1.842970260217544,-0.2414585376892313,0.20150861860943986,1.1428933957548022,0.7894770966178275,-4.15350793743256,-3.784124566222389,-4.864384144227657,-3.2697176603096874,-1.8387719137375935,-0.5226548131368348,3.114448699587594,-10.474269070633339,28.744271812414315,-0.0698139823854772,-0.021231747689149025,-1.6740926383356336]},{"bias_weight":20.6518019539516,"weights":[2.121780507103232,3.713666377149589,1.3438848769772485,2.4988710713426707,1.69856368400289,-0.06230604425724235,-0.17312141309869564,-0.7439386752528947,-1.6324577577921309,-1.1913386140480322,-0.1620668163474669,0.47286983467018884,2.2376024484723076,2.7779410511511675,5.763897850088688,4.588557115107962,6.0591642521090705,7.356867616854196,4.772244358214651,2.937074934234075,2.9814256912655686,0.44722497743834105,0.7984869045319156,4.305946892831493,2.3360274024838508,1.4493642778915579,2.7293337631262182,-0.21956822682024962,-1.387619681280573,-1.273999746241911,-0.5452847836250752,-1.8622626398358804,-1.1266674581939737,-0.5753937195102752,-0.4799448461136964,1.7723340789779816,3.931900227602495,7.19783976566279,6.485811968938003,4.19425141160145,5.154913495543131,3.4754666433656785,3.586138167833091,3.2727741693355146,1.0681739349665171,0.37331692190401355,2.576827707666824,1.2208908625753183,-3.8421427730148796,-0.9447701339270761,0.36659071399415594,2.40632381898459,0.3900143778068343,3.4661093296706875,7.6739433830153825,9.758323042530016,8.915744786745195,5.101075286042839,1.5084220102227612,3.996905762957035,2.8224629493203155,2.4049509140237233,4.1828590414219615,6.446729835171289,3.24888233983062,2.703469420668125,0.7258335807629629,0.259932776833523,-1.9059009223569883,9.044058896680617,3.8410356357272875,-0.47975585564234385,2.2236815746842833,-0.2735745444062106,6.554564459886915,-0.45050795704652885,2.0709732126248896,8.533183269202791,11.835905320763906,14.018844002167398,9.064531933876621,3.689767420201567,6.356461507397057,5.826957804140962,3.3749514816156805,6.2060758897690995,9.370705180684993,1.9906867706377465,5.646844779580477,1.3913661636829515,0.3173824054052675,-3.648043761928348,0.22315615606981112,-9.179795106206935,-9.292664741284609,-0.0698139823854772,-0.021231747689149025,-1.6666581764276742]},{"bias_weight":34.094020392524314,"weights":[0.5290019762597754,-0.6957440540043262,1.150487702794504,-0.7630626908957318,-0.5282979835796608,0.2172338279951826,1.6613837695990477,0.5524383918358056,0.31611035600449366,0.9531651673456927,0.4857092271794894,0.8430961124893297,-0.7972088513104841,0.9839628320839392,2.1469226627846454,3.3116438126313197,0.28196938292070917,0.5338593896285411,0.27983825195075274,-0.5308738316977002,0.20081139352487368,1.530559592853812,-1.6244156117515705,0.9673974334370405,1.1346965275841767,2.057042725262198,-1.5324513118961467,0.22091523686417053,2.626459698556958,3.4147592768109334,2.3490857619124577,0.3428842230767726,-0.6756045243655834,-0.4155321726723552,-2.977815107715789,-2.7623494520058505,-1.873171085558031,1.0105222786186274,0.9574313206924547,-0.0039686341341521195,-0.30714389442177714,-0.17067897575655053,0.22528134802696703,-0.11364346080092483,-0.9876463983153984,-2.5019065395941964,1.2674454206665589,2.3738977984324885,-0.6353481969509378,1.8719582208528402,3.2210956071180292,0.3390248345495913,-4.217590804309629,-4.293065400892129,7.1060538755807885,6.038448057337858,1.335146388663042,0.41056432325447423,-3.0602464861158034,-6.7272107658409785,4.391076307253819,3.9091162411387743,2.6136192852504094,-7.432414528529958,-2.649919548947739,0.11866495046803266,-2.283010424512858,2.082004150047377,6.0344220938855955,-6.827298077067254,-3.3624865958705015,1.0047283254693016,5.138873934206656,3.432455037210539,-0.5248840373096163,-6.526634938414752,-2.1309943154005873,5.015018969329499,2.2401011150176773,-2.952218906543992,-2.5803691533548676,-4.337254231838004,-12.529862131657186,-2.4505751711918657,-0.9746450293574308,-1.0376045935851952,-9.962431720545016,0.054476699974148515,-1.9589055903029695,-3.80484120869028,1.1406639686168578,8.207074472323836,1.0711713089102601,-28.83356556563882,-4.111424735156823,-0.0698139823854772,-0.021231747689149025,7.639312980373814]},{"bias_weight":2.6983092252946164,"weights":[-2.7283961214610803,-2.9776749782358873,-3.5971135022220504,-1.65935890562221,-1.0073908677204466,-1.6039463178537097,-2.0027209395253176,-1.8100606409867956,-0.3173974215478342,-4.345370629036817,-4.8992211683640186,-3.016855134487534,-2.4027499301956783,-0.6672840680903568,-0.7927765955941654,-1.6527255958093756,-1.8240565463629699,-1.7260766703079033,0.1276615877478678,-4.169614786333438,-0.1103726091623391,-0.5860854336358129,1.5448520687472187,-2.313280395783376,-4.241925103104478,-3.4435362740087045,-2.261088748308497,-1.2981103488193921,-0.7214618729636864,0.020792560083856795,0.5935926477784259,1.8675154691987195,-2.083079791317124,-2.684485459945583,0.20154943357997235,1.976461106874007,2.853671539794707,2.8874930472479017,0.21651496441720358,0.7497464766843412,-0.04349145738206313,2.1008583160036287,-1.8160557973127753,1.5329786897685356,0.8839962209042749,1.6456742298734095,4.294448118685519,-4.662335956755178,-7.07977991186209,-0.4411601528404001,1.764877916175817,1.735644031396773,0.789271114314159,7.910427849156449,5.703110688737088,-0.4173223911114513,-0.37428095479400325,2.104180922686446,4.715042584057658,4.6355221068686,2.8848296233370654,2.427095168273379,-3.796926786457592,-2.4444018933920586,-2.336929555308873,-3.595723523938009,-8.63865085450529,-6.7575762153109356,-13.004082762376806,5.037992129504469,-1.735372635343839,-2.872407729394703,1.0806465787074675,3.6494266067845165,5.253583166639354,3.6447070564251334,6.880367078723362,6.157067262524546,0.0559600202773486,-0.09577763275398066,3.77897303491487,-0.601086071955272,2.6379690996764427,-0.36688129856051743,-3.7852187021169814,-6.8562857470141845,-4.760902500921614,-7.384209799361496,-7.235034469475145,-6.549441030649262,-7.272387840783732,-10.191684573245842,0.009652836187609128,12.455636059281833,2.803936884828576,-0.0698139823854772,-0.021231747689149025,-23.283801143279216]},{"bias_weight":4.235832282721453,"weights":[-0.08459618753302849,-1.241284338276144,-0.8568171213265747,-0.2739234639705223,3.2326318719545744,0.54842790024186,-4.731361486398944,-5.6149470988949,-6.750734846159038,-9.651935685643739,-11.124260375560016,-11.160624116043858,-7.960728693593625,-6.31261834831248,-0.6742029223436984,-0.8195365719563452,-2.8738956825890876,-0.20385816533012363,-1.6957612409842633,0.8163364214426901,-1.3020458135010484,-1.5061269637338606,-1.531672035413444,2.326579416517584,2.0542820065727643,0.7265675788566356,2.4591097765094796,5.378258993893548,1.453848594778638,-4.451705975153887,-5.989331099389707,-7.874802318675529,-9.768027388946367,-12.64400371934813,-13.401001728230812,-11.160239201791473,-7.694597991564933,-3.6473730257323855,-1.124727789230619,-1.8250751171247805,-1.0719678773821564,-2.8759956380110214,-1.8344436026737594,-5.877508932340421,-4.6030515851859475,-5.493528583096465,3.8660545658588985,4.7920884217411075,4.100056658133721,9.622346499533387,-0.33931876575328396,-2.37301073252491,5.817012456139843,5.9308116164803755,2.2967886241452913,9.00131325670464,3.4036678721390246,4.3439940083904505,5.308453604372803,3.163738179586054,3.7546543485409734,8.094920523929716,14.072831275512415,14.736970871386857,13.781856716284915,13.146649454477094,13.07948177622325,14.47018592840536,11.002646834258787,-5.583742553331899,-3.04760500626212,-3.648513340363359,3.0838244504832697,-2.0750788538287446,-10.013299036474956,0.0847553967925132,3.29703898007267,2.688646413113236,5.608689019851187,5.384473183863335,6.254807703625527,10.676027908606818,5.167664014081204,7.8719731784963445,14.053138119586437,22.693054773375927,19.10465279005034,15.968043811737289,14.194018636333302,10.032247334651313,12.443619421935521,10.054631176837738,-1.5056698285747074,-12.969855903588096,-17.91858346622137,-0.0698139823854772,-0.021231747689149025,5.687405512235497]},{"bias_weight":-8.153501412770973,"weights":[-6.365065861143801,-4.914919256264725,0.4713121540376812,-4.169064349596554,-4.867869083532887,-2.449494233808379,-6.588691846019555,-11.793058801385103,-11.060844742197206,-8.966340986528444,-7.593948603982346,-5.737735147013768,-8.81652661704684,-9.865169852000006,-4.815939508567453,-2.174887172482151,-4.7376292878522035,-3.553697002604893,-0.39287549025805607,2.7681404433425634,1.9986063633876805,0.46332422950163676,2.5144629042701063,-4.891533520413182,-4.1814412722445,1.1892476510285106,-3.0571879248210254,-5.444300184741712,-3.462288388609816,-7.165912647781968,-11.161515772024662,-11.73754570039338,-9.775284644871613,-8.64441613533458,-3.8290271604035637,-9.798025384616688,-8.451290317125364,-7.937214074469964,-3.259206769804926,-3.1102370928720187,-2.455427020465146,-1.6586663000131248,0.9003645692111212,-1.477445492047466,-1.332719255139473,-0.5586650285519996,8.550856176161048,0.8373592735954243,2.0646857505118352,4.440144037847525,-5.662384375269814,-4.021655400453656,-2.251659062987425,5.495190502935274,0.9869600383841981,2.1841730048343266,-7.073586143363527,-0.6467691103007492,-4.26530166877145,5.933308280878434,-5.1396278752576885,-8.79604323497514,-0.5862479457187514,5.103621998221365,3.11664531803594,2.86425210250074,15.689504520330278,8.561196203203133,0.03592638269115452,8.471071265599408,-1.98948911007211,-7.898726679108385,0.34441423822786316,-4.920315494138255,-6.243933292256678,-3.388090238251831,3.0417046264686105,3.3162014095736065,6.06530010053733,2.2368341480619596,4.086830674382044,-0.6850839330196082,9.300514145162337,1.7216155843755725,-5.651900450434263,5.105337472397913,8.93502659267151,2.5327215383535977,-0.571276400771097,8.397949688648096,5.361198529856383,0.06585199510996433,-0.24060559424641564,-3.3434500353645724,-13.744377941399001,-0.0698139823854772,-0.021231747689149025,11.581306697628676]},{"bias_weight":-5.189996151741395,"weights":[-1.6768617750817179,-1.1445102704197392,-6.121917268015121,-11.042386262217942,-13.18524390900214,-16.227643158234045,-13.452714495585104,-13.128106773575485,-13.478457195541596,-9.64256276199188,-4.517571693064149,-5.327805528637766,-7.9344636040784335,-4.117802435292089,-1.4971937029376483,2.5087570515073576,2.1241807314233325,0.49785148448778493,-1.0015499891879796,-1.204275750301223,-6.843331830794545,-7.708408549815454,-6.780590591460927,-0.4298058478268654,-1.094962688860392,-6.264414713236873,-10.195322854874261,-11.889988507742101,-13.83536186210887,-10.512172162219262,-10.539713501148784,-9.65519442468305,-5.692217468490327,-1.780759772522159,-0.9350662074667193,-2.0524003155693418,0.3179138175689349,3.084146148491628,4.208492476131191,4.007602717547253,1.0623498090717292,-0.06961612216871184,-0.47440019519966703,-6.990753782690937,-8.99809490975284,-8.31519988096409,-0.7939136772354851,-5.339949417544843,2.1381527448521522,6.965630256751022,7.016972056499226,10.978948935510331,7.336071689571908,4.795746370793233,4.702440633787279,1.655386734459082,-4.4152860644338405,-5.663670840427061,-1.020548037753949,3.256256194048367,1.568496518075578,0.26282274506116815,-0.5504869027801651,3.882406186483258,1.2217237302066772,-0.00035504147049950676,-0.15762915709058922,0.3957205904449882,-1.101394176418942,1.018292047295781,-8.021758840157194,0.7477242144525718,4.562069628525395,1.457849081233214,6.0958189337338995,2.1169696896811923,2.9620945008514097,2.655191575196911,2.6994102257715755,-3.435622319520576,-7.725535316991604,-1.7970377651814566,3.8079193468794172,3.446794234393752,1.1847458785981673,-1.4547704795242427,3.565620562373009,-0.6103821525344353,-3.024344887606627,-2.8759879564357975,-1.1510535754617057,3.820857131089902,-5.084130289862388,43.31076298798874,-14.363644820968943,-0.0698139823854772,-0.021231747689149025,0.36757832972572474]},{"bias_weight":-30.56684027520205,"weights":[-9.368346916447582,-8.382910146587136,-13.023141698267269,-9.385763547023016,-8.405249861600067,3.3853778241856176,0.5111580871944729,-0.8879364996869739,-1.4882790689445131,-0.5438440403590784,4.3099773414390325,5.524528189809901,-0.47430401278701356,-6.2637391427809375,-2.7097424816350837,-3.0003819829751577,-2.0273027429919215,-2.6279027284750063,-4.674365655278638,-4.787513530975716,-10.208886662955363,-5.911626947910071,-6.493443731578601,-7.046889301139306,-5.036269667041426,-11.680216235274761,-9.561284213444676,-8.902679846481332,0.8188230996086091,-0.24330524770945558,-3.703259034534043,-3.9807107628220346,-1.1514755757310475,4.253239045743547,2.2272592082149316,-2.6642211667525526,-7.262793240223117,-4.6107717570799895,-4.571616428066195,-1.9791892222452778,-2.408519432240999,-4.637163257376075,-2.53974001760616,-7.017051683256039,-2.2581695873682355,-5.470406692145234,-12.315166591546815,2.5609512031901196,12.21049011015072,10.336877793756372,3.7143719512218256,6.962412697261754,6.536311830944724,2.796372133533805,3.409905703232822,22.10683345948425,-5.183197247638389,-4.1843397082070135,-7.94109125269012,-7.514975828694758,-1.4627383256667015,-4.7351614955189865,14.884520172256478,14.06311591889683,0.0678353080025744,7.720911699162311,7.792232224265037,3.935417545828518,4.076627308454425,-6.883451361979953,2.9497387944185633,10.319907578584134,11.397799366578793,6.441680718010704,7.064692326647441,4.758898457435211,9.857649535504812,3.5162784496010144,25.038138819829875,-0.19616017747753017,-3.382963648933787,-2.4718188542358672,-1.305166203985373,13.286585644343898,3.723161305109762,17.462757848955196,17.731629022172893,9.571334471274742,3.318023206822075,2.3458692852248606,0.7172696712666606,-1.4731172939604718,0.8670525457101423,27.32567074591688,-9.072367816515639,-0.0698139823854772,-0.021231747689149025,5.123378034866195]},{"bias_weight":4.760078347436053,"weights":[3.2641546139538775,4.2050371449964254,1.7159374464892592,-2.715031231894825,-6.075507081623219,-8.19426708993471,-9.552156650409087,-11.473705455605295,-10.283533653845202,-10.56627966670569,-6.704803587762839,-2.4433124490963634,0.6995787606014965,0.1240086182879138,1.806708955606331,2.7167920075892362,4.552139985700405,5.0284195997122,2.884192499192255,2.6861820881480227,1.4237873277845952,3.5695730282180813,1.9205810359395479,4.855101250838958,4.2777186039584265,1.7534747841542335,-1.1234183993760556,-4.094993079086724,-7.356619606909762,-8.9857907346449,-10.225603069045674,-9.053105934061604,-10.148513294772401,-9.643829662251441,-6.290438010690723,-2.5348389602951658,-1.634784304236444,2.262535624088378,3.1376420948807198,5.433965338652443,4.820088845068525,2.7817558270943925,3.1076780219008304,0.31668331361449975,2.253246681746756,0.15654915912721387,-7.96779874986123,-2.2018923751218007,-3.4319878314462366,-7.1844648550525765,-7.096601518794176,-6.993656603277381,-8.107056384031981,-3.0405436830361614,3.125790357423086,9.451732320063902,11.428361930086059,5.284153293101053,-4.291467119266744,-4.406837011377786,-3.568492320007523,-1.5060091089984602,-2.929604547031182,-2.973992869736684,-3.0167046795933663,0.11746568202822484,-1.723729597748593,-3.751615076554644,-6.507342605398667,-7.726828172482857,-5.186786498500102,-7.2175524531568795,-10.66689284736832,-9.112143151142286,-9.154319171494405,-11.135466534810048,-2.7433540460739874,3.470730044906686,9.842508601348184,14.693648778119853,8.814125652595735,-2.8689399058923986,-1.7890953867044619,-0.2092745576659142,1.7013800119319686,2.3786121816689616,-1.7440908752954185,-0.7537618113552518,0.8339268309841505,-0.2615405050540931,-0.7286181706283693,-1.898995080045769,-3.7145310915581873,30.542098749160214,-22.091170349353224,-0.0698139823854772,-0.021231747689149025,-3.6440297327832227]},{"bias_weight":23.322376720729142,"weights":[3.273087396600048,4.207657305876262,0.8436422878837827,-0.2893801814423901,-0.9936617642389896,-2.9411817831314657,-3.595933419501431,-1.7167370169149465,1.952912425024735,3.3528891384787833,3.9495334577573504,1.8370377547222663,3.2511525467667766,7.773477959441087,6.556774798088154,5.221027585810219,6.293688787396998,4.90049130250633,1.9456068738905183,1.0804025831386035,-0.020140547200462506,-0.8681302385867508,-1.482657868551483,4.202270332425396,5.863610823315636,4.540796976040685,2.9077731066775487,1.9855329245651432,-0.1536699047114084,-2.9108139836278366,-1.598716441238902,-0.4555005245845853,0.3072052062006891,1.3537718927412392,-0.2521002814047478,2.968544815578252,5.141828653764781,7.394421055845634,7.338504687012783,5.295149141566832,2.844658637244973,1.270410602895035,-0.5500154168156703,0.21065199590946773,-0.2503591869578424,-1.0246718138123905,1.165965384187108,1.1126724883392984,1.7361324650831527,4.089569952846501,7.424850472154208,7.926261341675607,11.196998450354211,14.436583876413247,9.606400123625198,8.65399888545229,15.92028612229055,4.297213997749721,1.655075229293112,-1.8030867492779323,-5.3086781214693355,-0.3699166798905203,-4.752646197083821,9.158151588838555,-0.5718857712416626,-5.8467325728794375,-1.5039988681092906,-1.5461029539948328,-2.849341700638456,3.6078457595982396,3.9560318993509442,12.584369608615765,6.763035024576869,4.855782907134285,3.4506067401636886,4.905601360015545,8.940889068062958,12.167233529767497,7.612010779815461,5.241076151527772,-1.1066347165364245,-1.3494403738092227,-4.872740987273078,-6.6454566523178,1.937040358610302,0.04567876552726098,12.257183922076226,10.60340976173204,6.281328280833607,8.16511707700676,-0.3210502560434039,0.38717279657373554,-2.6790747549161136,13.504629590179995,4.163384036002942,-0.0698139823854772,-0.021231747689149025,18.377700320247516]},{"bias_weight":-2.1981960017248134,"weights":[-1.261549838098174,-0.8009834611030491,1.2277017928123148,2.923227127546612,1.3910957332684533,0.3799752433834839,1.0748425817235434,-0.6767924466463561,-0.2820769634772977,0.2489489092213354,1.9008420409966695,1.0884798468054853,0.682481346609634,0.752289272632653,0.6725096204634853,0.7825132827970973,1.2748215965314886,-0.7288825633643038,-2.2927104473679365,-2.7704144703563047,-2.173203904942937,-3.3083744251624503,-2.70026200659274,-0.7749825782424127,0.03870291193623591,0.5078146322742384,1.612967453692775,0.8249245426794883,-1.4312469930204506,-0.7090799430048847,-0.2550717485503939,0.5127046542680997,1.0316641570273364,2.446566171346424,1.4222589779670392,1.2387815797427035,0.5942993429924082,1.6350966863328271,2.3380824668043854,1.923262466463098,0.32825885318914855,-0.4701536303265873,-1.7415391532805382,-0.870905272170106,-1.6519948651225749,-1.1074379391552227,0.36181241255833363,2.1437307587082937,-0.7629542416608933,-1.0185119564124527,-0.18565241320418233,-0.49515234683649084,-2.7502962832902513,2.3261837273177366,2.9257656749361836,5.2948111884123,2.370641906414285,-0.018089173074342945,1.545264540313819,1.236627548573323,4.1901550777923555,3.6829595732242533,3.0510672970172203,5.431804264058793,6.479866430161706,1.3221217795052453,1.0021051147276754,-0.363331221854079,-0.021338135573226315,1.8786709262672658,2.410847765718263,0.845417779055321,-2.363505320097649,-0.9417483223977041,-1.6787740247918128,-3.8624426870280755,-1.0724000558981452,-1.107706249828866,-0.07190680600619395,-3.2828191158350233,-2.6364304793503974,-1.7021889564652304,-0.7023701661785984,0.81599492785047,0.31431260772031433,-0.4424366496372167,-0.9418258492515396,-0.0037749916056523175,-1.7513824599644634,0.000956362483623999,-0.5933560164511403,-2.490814420691013,-0.18513141637363575,4.5998028046222785,-8.786718169452543,-0.0698139823854772,-0.021231747689149025,-6.81282685200299]},{"bias_weight":2.8739131520567045,"weights":[-0.38365795704096023,-0.0002603769130183115,-0.5427933589208032,-2.4613939939438487,-4.56440243665412,-4.644214111768468,-3.9969935498973648,-5.008414539801731,-2.468389086738832,-1.8728195700428325,-2.2844659517890826,-1.5602471757678293,-0.5687799648307227,-2.273723484036985,-1.247115314066069,-2.9824412630955712,-0.6735074804031261,-1.7257156189146265,0.27910457673473615,1.442007989587223,0.22780804241038197,1.1849295368314967,1.1813606529893996,1.5428745111417714,1.2495741168554781,1.1210394267515993,0.4153954085485814,-3.326965213795622,0.1567677684468753,1.5170753150572114,0.08347180403993043,1.1516363207962712,1.6774770302762199,1.3308636913241672,0.5021457679605469,2.3566856579231583,-2.6916421195166844,-2.4482072772076777,-2.9158070107829195,-0.4833811739890378,-0.862426242585068,1.158070439120708,2.418998610088664,1.517087147846927,2.4625993447541883,1.5544129345217141,1.6484727872044564,4.521948608416789,4.154436460103614,0.43387533211953544,-1.4078189197233435,-2.5947464963842184,-4.144414718962452,2.8511956453719614,5.348183542700229,7.985525801642933,0.6397531346655292,5.21540582149492,6.92561122579976,4.407082414448589,-4.2094281048814315,2.1360478012485555,0.7206981628916934,-3.7076056586610653,-6.987255959058802,-5.986730177891627,-3.5322489168079882,-2.402688183915613,1.5672844257684964,1.9198127547646804,0.7306605797555199,2.0734348843852097,-2.8001937985697327,-3.2139970207772457,-0.7912041695128866,-3.695187069344924,2.6992000013423674,3.311661655968228,7.233216920117267,1.6950840693161635,4.351818874073864,5.10877464056929,4.933966645058837,-2.4430378485344244,0.8295585028405382,2.029613508035693,-3.899549137056342,-7.461509150062651,-7.524037923739674,-6.977489720028004,-4.65536615062893,-0.9241099077746271,-0.2910553559127244,2.543181208178764,-8.7722904781462,-0.0698139823854772,-0.021231747689149025,-8.170230631208433]},{"bias_weight":25.31462798668131,"weights":[-0.9224895649423512,-1.8638518571661151,-3.2497483299244823,-3.5069200893833363,-5.534146426326419,-3.1284925031988373,-1.0584855294999447,0.9205328802963769,4.060298019709268,-2.236765258156162,-0.6271265999689551,-1.882773939247109,-4.8455747852363436,-2.2360843293761556,-0.5426266203142524,-0.4667970938089577,-0.19600325638556232,1.6054440138881534,-2.869711920951114,-4.200833417158271,-3.3439869224048397,-2.2616984168741108,-1.1116616477716454,-1.4786370080563935,-1.092813327289968,-1.754639129671577,-1.9919149749681382,-5.038771226844296,-1.951221334925936,0.9708901996481182,1.7592351323978495,5.625822449359254,0.3287108406394239,1.5444333498989973,0.06603217508777348,-3.3774252690701196,-1.3719118030778463,0.566853306624855,-1.1858687100886036,-1.129612661088201,1.0474430190003567,-2.485896624777911,-4.135270517824977,-3.639234990400054,-3.4913227166149516,-0.7827856358056267,-3.0346377913511398,-2.1595313870568615,6.496103200973681,2.513789623558764,-4.0573806009514986,-5.640177368027433,-12.504695435314245,-9.120428921442805,-8.655187715707436,-2.763989729113157,1.890023656167952,-3.249868892568861,4.194088979244667,1.9185710051936975,-3.786106110201498,-9.051442734808838,-7.554558545227663,-17.598155205787695,-9.403678391984574,-2.024811466132168,-6.693308809485702,-11.7468259017949,3.497709320529381,-6.145834327471605,-2.0104758405171235,6.5257050797993355,3.7254131462478934,-2.1448041397307436,-1.6523190125507436,-10.242534330837447,-5.636811958187102,-4.214663788493068,0.7065311594215691,2.476288551508951,1.5281648270235977,3.334798062363639,-0.43239424398610815,-6.332689237595058,-10.066784558976748,-9.286214002951967,-17.259868008337346,-6.630261994993442,-2.896789348279437,-4.059560830338174,-7.814627277664572,3.572095534916001,-0.3362610413529436,32.021552590533474,-9.156790827463205,-0.0698139823854772,-0.021231747689149025,33.35647199240746]},{"bias_weight":-27.24621891131629,"weights":[-0.42463673085833153,1.1104234377755158,1.1523809488515806,-2.2918949402681266,-1.5696502881693137,-4.193912419363734,-8.717675612062541,-5.913371677799539,-3.905641265608706,-4.18481916912684,-5.087779250184374,-3.6053305073451773,-1.6056707914749533,1.5569561070449403,3.6666257272348077,3.325018922595444,3.1627109806761458,2.3639909538925368,1.382444215772356,1.5988265252518012,-0.022778797104130107,-0.026640820966668505,-0.8927048688660556,3.573986418576096,3.0159013421848324,3.6222020139491726,-0.08410409230181178,-0.38427057075323845,-4.6014894102102595,-7.7585334772579975,-5.824205582252262,-5.304194802064709,-4.348617995389836,-5.1612392339797015,-5.9674690208804755,-4.451813338024087,-0.9705168884638862,1.101316642712309,2.946430325122581,3.8119314215122624,3.0061474439492857,1.7759520928701324,1.4787727572575071,0.4370458344808643,-0.15937049536580117,-0.3470362373857662,-6.72523915454219,-4.391584250485319,-10.606894590163225,-11.659070381956012,-13.854948347306209,-10.432949979624318,-1.7792312467861453,0.6236397713745857,2.90962927445515,2.741858201818006,4.12827333801325,-0.4792955802935117,-3.657359555315229,-5.2757569641126585,-9.183728808477593,-3.274052160043265,-5.1656958862413545,-8.559183239698557,-4.941251563183094,-8.32737198315931,-5.150302268359581,-0.9257544566681343,0.12872369235512718,-6.068846996536084,-5.661855926375417,-6.310619439525836,-11.911442930193473,-15.775733533076139,-6.89416929922428,-1.9256754612693776,1.877633541430026,12.059473050641595,9.487259524393302,5.2201991737112605,1.6819278002750122,2.4111229917758115,-1.2410076404073274,-7.270031813772554,-6.660803586177018,-0.6160918133031531,-8.50607647302404,-6.406648195538129,-2.8238880691415775,-8.285197762201514,-8.22080876971341,-1.3898645738619364,-3.4013115541272114,11.620271413207204,18.847899817988427,-0.0698139823854772,-0.021231747689149025,22.661671572944453]},{"bias_weight":1.582486872118144,"weights":[-9.744958981762814,-7.0219851605238235,-6.554518184782002,-5.7203564631938875,-1.6240842205887154,2.3492896421261924,3.2043689611359203,1.5120541164104435,0.010194903175370707,-3.2630928311517198,-2.0910469389484416,3.6413585281092495,-3.5099870679573337,-4.820151305160845,-3.8264268744272005,0.15204032393431693,-0.6536205179618322,-1.4500729725175923,4.469873173027495,2.4203131143992276,1.1982582332377687,-1.270621084835804,0.5604211005209189,-8.753195855424599,-6.633822740605462,-8.692894851968308,-10.549155706064212,-6.846944006938384,-1.2317369424814375,2.3708649968040842,-2.3806709106208865,-2.2660313430904586,-5.6028049393889825,-4.423598804289154,-1.4828090747866733,-5.586547032464743,-3.6944570357508923,-6.484178054866779,-0.5094713876174273,0.7564980350197495,-1.2185402660941735,3.5989263432576206,2.5827198970168177,0.43709261363728147,-1.4648000462049537,-0.9595481319513951,0.7261580642903361,-0.9556833205281408,1.956756180623086,-3.5940597215282324,-16.96593063199489,-19.914711082029697,-22.26318512222321,-11.119757687540506,-18.019365905182035,-9.24290635783887,-14.040069251260054,-11.759633461821297,-6.21444714364099,11.126752150254468,14.341773102639461,-6.345127582879404,-7.534501170771568,-5.838892176476224,-18.07394917581279,-4.3573882293979675,4.705810834008409,4.7351704253222255,10.601938695870793,2.7974146655180396,5.380757563083675,4.4852492169339895,10.236337043203866,-1.8472060311727705,-0.7091838345585103,-5.537012287815954,4.75756913431183,-8.910643895262714,7.663770985431613,0.5572319389925847,-3.871667384923195,-2.8230249655968374,2.4500180950808086,16.380806678254242,-3.3641886867747037,-7.957356655992963,-0.8487263178625393,-19.205251822560566,-10.334756883507364,0.9878722448149092,10.527864463700075,11.182387085271394,0.1226021061220245,-19.558102918445222,-3.4590685427940917,-0.0698139823854772,-0.021231747689149025,19.169992232790833]},{"bias_weight":4.550669635598678,"weights":[-0.5915248048520433,1.172567160614003,4.0611342491755105,4.323497617173087,2.7910026201341838,1.4360816973693915,-1.43747472598037,-4.988147758619234,-7.162971737222889,-9.146967580777986,-8.054828590456513,-3.7268007390378917,0.7746659131349348,2.1741138993470392,2.888873434287181,2.4757616618921796,2.904807951594803,2.277004445725729,-0.029796468767837637,0.22812214657889635,-0.5651338464927647,-2.00532937576986,-0.9609281489541678,1.0895852102685795,3.527462149478731,5.159805260547444,4.692599889757039,4.4366080069623335,2.2460109025351094,-1.61004332095178,-5.760062038938375,-7.535385339718032,-8.876280159887006,-9.834373966118244,-4.825451522667474,2.204399576184349,4.322625454865762,5.3946245495479035,5.229650466889502,4.735099064639992,2.983030113696539,0.36539467481595694,-0.49187175103679115,-0.9964073209742516,-1.1069080121946488,-0.2079165699145642,0.646392045889712,4.444493345849393,2.654757165071836,-0.3715416717257336,-3.037704173359051,-4.529514466589341,-0.1782763982851351,0.161403880889106,2.242619306864119,4.466116784450924,2.7412508462324934,1.2221575775765277,-1.2029425947894221,-2.1518252644408657,-8.988113994050787,-6.3631644663446245,-4.208203748457665,-9.09527756288318,-8.339112118368197,-9.683791454713033,-6.905049938551778,-0.7526457186698313,-2.675618369716617,5.338684956695357,3.7620442394697307,2.8409649092216696,0.3040015741957784,-3.291947306330994,-6.348554421731174,-2.5749246764597,0.8258902464115513,0.23710533379617824,0.22178146379240207,-0.48108914036634426,-0.687768756791296,-0.8645672669534609,-0.7950099460432043,-8.386398224976935,-6.28570041677798,-4.560168953624756,-11.493435334346708,-11.422263553654302,-10.228095067274852,-5.517096151216856,-2.426418871924596,-6.2570239439248905,0.09113570872663228,-1.1387327272406291,9.929415425803455,-0.0698139823854772,-0.021231747689149025,-0.17863745368804165]},{"bias_weight":74.53589639362092,"weights":[-4.3379330391332225,-4.90275392215875,-8.452309786278562,-7.710034707158148,-4.950695291063958,-3.038314690033165,1.1022410601927632,6.823790712704016,12.079812129381509,12.939662095764524,12.822137972977814,8.09998111599905,1.3392178038384857,-2.831270513491874,-5.201798468942451,-4.173637527840552,-2.667216928630783,-0.9820683920617617,0.962633656177289,-0.3182830736557811,-0.8584903614251668,0.34501214393510105,-1.34204054379768,-4.136485792695705,-3.865001383383557,-7.287233132115535,-6.574142840848039,-4.585620977339767,-4.449118213220419,0.2354741289673136,4.84347223830327,10.088066160415949,9.355847132187302,9.238549578861322,5.478087600535497,-0.8355307841453796,-5.862455108747566,-6.883880424017524,-7.60896486567416,-6.760934761961018,-6.187481205537004,-2.457162460536175,-2.02905231233958,-2.5406819814295014,-1.4697501057583209,-3.0049849078022,-0.8350095472428338,0.017655248185075693,1.096135782299101,5.124989477120818,10.37326553352055,13.400834304370255,9.750856342651774,8.155595468953193,5.131129471223916,5.925431305340518,4.750241669213118,4.61613643242109,5.277587227615622,8.247697912515715,12.412089043818165,13.511374874250789,14.05244284514717,13.64921761768407,15.255917604725852,17.409467419547838,17.49067389514546,10.244032207264588,10.051560252397314,-2.5878998650386196,-1.1040725000446474,4.6573656631358835,8.169662482796173,15.362405188842704,18.419213208349454,11.150537686786476,10.32943680882643,5.0045201832643995,3.019883284374462,3.4107610866182267,3.0116579231702514,2.3712776694696367,5.284371018635614,13.04843509454318,12.061346256570049,8.775362343086485,8.118833085920599,12.725537930716571,12.887212053869149,12.850977648161015,3.674904504152274,1.3458667333443803,-0.2852390622555606,5.542555321450475,-23.296654706917323,-0.0698139823854772,-0.021231747689149025,-0.2985182869203845]},{"bias_weight":-4.969753737229767,"weights":[-15.280357464129702,-13.508937819450969,-16.990112681242024,-12.005603269038993,-11.174146075033889,-8.475010929500701,-10.579740111360394,-6.261685229809424,-7.537089420326643,-10.595152240897999,-8.018225500852322,-3.4001632396934873,-6.40730728615456,-5.847653238094988,0.24893037206070726,1.9900327992771925,1.1397913152769934,1.634796856281372,-3.232738557152365,-3.917596035636143,-5.973504921333944,-7.058901510836828,-5.929613718893074,-11.094225068567189,-8.746880137705528,-11.60185094401361,-9.04302278751717,-7.303650930531013,-4.785025943408109,-6.423182839959498,-6.84744505502393,-8.930255989141504,-12.283251027198201,-7.806596278529712,-6.172437966943579,-6.114468609480595,-8.374333285273547,1.700831386665729,2.514590623872463,-0.31355372652516333,-2.0260475188421294,-5.093618216388865,-5.341019743293209,-7.53986208998191,-7.606087068228647,-6.843879238264991,-6.463941345200271,11.319613713517457,11.744352521622613,12.588543169068641,-3.6265056464101875,-0.1967560842481525,-1.3076641217170513,10.097025197860187,23.013231762965262,30.156826443264542,7.848793522167215,-2.8818500471900945,-3.9260583831871037,-0.9972336273313623,-16.981927231535636,-20.357578911762264,-13.008253108181036,-5.856409168522077,-23.507203684245354,-16.011244939552856,-5.4432332344824355,-0.5864171243044487,11.116566116702684,-0.10602020034875508,13.90590628739219,15.111086363279897,11.833994493384495,-5.207790897604595,-1.9721230396963356,-7.419615200014974,8.791119230548869,28.892255161114672,31.00647091739622,10.980788721862485,1.944925232652207,3.355965451080334,-0.08812130028887953,-3.342712390117115,-10.432208696076083,-7.606256730356917,-2.8897345795159226,-8.448634709977993,-9.223313198239023,-7.172763620484897,-7.65092662149874,8.970145677950182,0.8714799930049834,49.843461893408964,-7.669565124944458,-0.0698139823854772,-0.021231747689149025,11.57426315746631]},{"bias_weight":-10.588555566835891,"weights":[-4.94243856814256,-3.17118074099774,-2.827633841947672,-2.891528529388459,-2.2096675528749983,-2.0458217600492756,-0.3142334182278842,-0.6500074991659778,-1.2608612067056582,-1.7268838100906048,-1.7271870114520584,-1.0016843170439027,-3.2910745377444837,-4.192562993660753,-1.7233783970374148,-3.773190984894253,-0.8622298752427409,-0.863129304220649,-1.1703490571336925,-1.3909574983070838,-0.9609166744139116,-2.3897236758803455,-3.510924726902357,-2.658050594935446,-1.3067538237815863,-1.331292872300667,-0.37437414112722167,1.033342524781625,-0.24025932148340284,0.738098559871674,-0.08133738442629643,-1.8306269552850074,0.19350655756329269,0.44380452576268364,-1.8116249286048596,-4.016147356007069,-6.366572880476738,-3.506410183279115,-6.607814200935209,-3.8881727931311776,-1.601595705172155,0.8914575523319628,-0.33108466865198743,0.666309904503619,-1.1312644533778442,-0.8588883666757258,-1.2661379177853902,-3.0116779310377586,-3.7617291070352805,-4.3348054554216295,-0.7725525085445687,-2.0120483549555135,0.9051631859442186,0.014472560109417438,6.408253763583891,2.971429675001722,3.4184188869547127,11.140153229112816,5.282170103969407,-0.47036227176340684,-4.029709236381656,-1.9352175998706826,-8.065963424170087,-9.562048152027737,-5.886042802303714,-6.6382194879705985,-6.435748596970032,-4.723025970838987,-6.7683699818791245,1.45393033966064,-0.06786389120197,-1.2833789488592653,-2.9998726292380122,-0.36107367668213647,1.1266221228518238,3.0302442963084077,3.980225392148763,3.8655292696794787,3.4094094497096745,4.37060861971913,11.899446699040515,6.983853884040022,1.806514590485677,-1.7971199443198649,1.8254349368752707,-4.739996403076719,-6.025448820523183,-5.1308986729849755,-4.544935745039038,-4.224963991360592,-5.449438879430543,-6.012878829048606,0.36218385277133275,-7.20092253661685,7.379531796049358,-0.0698139823854772,-0.021231747689149025,-10.464240788847754]},{"bias_weight":36.32505755021702,"weights":[-1.1573886133816451,-2.4186297408349478,-3.1010056803318244,-2.0794520021433747,-2.6093266768431227,-2.067482921595427,-0.4851681819526223,-0.6506990299630974,-4.113633019498539,-3.362490689125832,-5.664488001841306,-3.78265054226321,-3.290137896570838,-1.8786872138827277,-2.9354184372812018,-6.019595254470149,-2.939511419394726,-1.8216540690855922,-2.205484215243463,-0.4284786137534646,-0.2937002606521183,-0.25319233873928276,1.458523453596587,1.339614353257751,1.368971416131628,-0.4213930034040047,-0.26304881686546794,-2.259101205458134,-2.500449487540612,-0.01147107703538589,-0.1190641205787635,-0.3694846649813585,1.5833334382882311,0.5192496870100818,2.065343559172593,2.642960458909458,0.019743610733784903,-0.6807707245156248,-2.175756207957806,0.6763958134143752,1.2682323814514742,-1.1969818369485683,-0.8424274738038882,-0.652020200747829,0.5051092675115819,1.4294593638135562,2.527535681764735,3.8921317298634786,3.6933881671160456,3.573535165701565,2.840410167601281,-4.998307874025398,-1.702149681532504,1.0231838572391148,1.045692967730026,5.64413393516547,10.6185756178047,6.97474070599336,-0.977487389942293,-0.7140556043922095,4.056362424057582,5.288387011144406,0.08072049315998615,-3.697530717744557,-3.348225023686328,3.0300810832112974,0.9799689505409093,1.383845386776047,3.4378780535655356,0.8972102363689771,-0.8882407328627195,-1.203141172942302,0.08196103804764845,0.4353664405716797,-5.453005717478738,-3.3317504190300333,-1.2121529112073768,-0.004140992882093545,2.3187130641474267,5.922072087868165,0.17041886865428563,-4.438992268746044,-0.9949003721173028,4.086973469472207,1.4856760695546591,-2.3631714345996437,-5.818021035901992,-4.595481986998029,1.2345093478496458,0.8636585212717608,0.3597301847928216,0.8836896026626511,-0.17651644918756737,8.83635271528623,1.0079830008927995,-0.0698139823854772,-0.021231747689149025,-3.6812756265796627]},{"bias_weight":-31.272383263448134,"weights":[-4.754901924378232,-6.714095844567646,-7.501088473047116,-8.008974348072718,-4.881297651579039,-4.369700487611667,-10.595718863823288,-15.600029589388022,-16.889620417039918,-17.24019791124654,-11.964087976681341,-5.325575966765713,-4.576833782326931,-10.823803803910707,-7.467179557473557,-8.09936561257366,-6.767165021679856,-9.203356208872771,-6.925686368750789,-3.4731701485705844,-9.109480405324648,-10.692818617147058,-11.377104743259082,-4.457003974399701,-5.116244632969683,-9.032157598984174,-11.209773800727948,-9.401156625833064,-10.109575880870581,-14.304164993058656,-16.427833178687035,-16.33576510271848,-14.081121595720477,-8.785868094213582,0.44197046939628204,0.24652193985514162,-4.690838489577269,-7.4038906082198634,-8.062671469532386,-5.154506552646317,-6.509050984984656,-7.769591050451589,-3.683540793663839,-11.428077196490412,-12.097985762677435,-11.463894959314969,-2.643750052743521,-9.295218761439973,-4.870130828852673,-5.444014944360128,-14.851568713127703,-21.383408590755046,-26.150067962258987,-21.28721832942484,-22.48986560775106,-8.679213479295797,-26.611479187278153,-2.1044116553140046,3.7262497176936744,17.164332787772047,-0.5518145817895166,-13.623238040669904,2.3898673334597964,-9.304901106535441,-3.4654951147985877,-6.548365808026642,-4.529778469867899,-13.96358744070545,-16.52457896358846,0.17845476275139358,-10.268532152202011,-15.400393075616085,-8.910584786599058,-14.797805113517194,-17.534819699559815,-22.412310029429257,-19.615072305306555,-26.246262931059093,-7.465011721042389,-20.578961647526313,-5.500828520503768,-2.53362703246048,9.389550995423406,-4.551347002447683,-18.148210171690625,-4.065625530181154,-6.523842720613804,-8.306378698531176,-16.507083980371096,-11.37223176037214,-14.569200206702105,-16.158319809394662,1.474920773316969,-22.77495487809002,-2.765638435509849,-0.0698139823854772,-0.021231747689149025,10.311606818832288]},{"bias_weight":3.4212128171814515,"weights":[-0.7061292293618243,-1.6617687712647526,-2.8569151193542344,-5.997130306427597,-6.251637299133116,-6.90463251266777,-5.117324964257571,-2.874321368523545,-3.302046124889076,3.590808019830829,-1.274525657937373,-2.714399435330872,-1.3091012163952254,3.13203956557871,2.7458475513527594,-0.7212257328851979,-2.545458817447366,-0.3615759639539217,-1.0433578406788815,-5.500708573069854,-5.285603897669482,-7.205650561822186,-2.101922377891782,2.646108652202989,1.1143561682399863,2.33803503578412,-1.585097827381968,-0.8079138857775329,-0.2782331563796347,-0.6910933893247552,0.014375441015588887,-0.706372793423987,6.827035260247728,2.604749517294313,-0.7813243324163177,0.2725840384470584,0.517858876313657,1.7814621932868668,1.1832137457406882,-0.354471130837327,1.42370032905738,3.0938010835106984,-2.580406755741976,-0.8714425485255785,-3.898055504185586,1.2477611097431538,-2.785165103342027,-1.4268608577003532,-1.2650469123503112,5.336353901891936,4.206551621469487,6.558274963679152,8.384789777336513,-2.1759165850786975,0.9411393285525719,-4.055137367719715,7.032023125022053,7.990305057648514,3.8480415747066785,-13.595726343935098,-17.517302319679597,6.765414183190932,-1.4503022590496344,-3.5562146237943613,-10.94077528968844,-8.043949353505232,-15.831009598801732,-6.805003613315402,1.6554870126657646,-2.510665126211547,-6.576986091388315,-3.8664122660474938,3.582060638502093,8.377391079565712,8.368274414673825,11.84680487182376,2.85199713616001,8.595344674598932,-1.8452165538016865,6.778797113521524,12.149801599064794,7.419563319259613,-8.817704131206517,-15.595106368450306,5.055762777970443,-0.7752664682104393,-4.216462032451244,-8.163784195652166,-5.023598966734016,-14.69502964095434,-10.264914362620834,-2.5273374224623466,-0.13636169876423337,-7.616094728780327,-2.915317394492692,-0.0698139823854772,-0.021231747689149025,-3.1136503373925946]},{"bias_weight":-3.978869537814344,"weights":[3.0614496686524126,2.032356912202302,-0.5123609699974603,-2.306625908447144,-4.465219520884206,-3.4619944013581896,-4.305315125717812,-1.2360218418563331,2.196706920841293,5.0451094992000245,8.311449836775854,7.02519398039848,3.669049017370231,0.6835574758215931,1.4348446911784623,0.14512177661438294,1.2233128518082845,1.15010364714402,1.105842714525859,0.1994618321204398,-1.1829586509986092,-0.36170664282669956,-0.384105170275445,4.0587793790821,3.299057389383584,0.34601078618316017,-1.089472510962536,-3.761828117754789,-4.6857608721159005,-4.313590910622181,-2.074893168677662,0.3829863664592472,3.9401790893994084,6.63367773234946,5.442660297852478,2.0761694088939167,1.2973427323925764,0.9288478487023222,-0.6924939443155013,-0.44494870595795616,-0.6381158462746227,-1.7070524041855701,-3.5372409153650604,-4.760322530213353,-3.0135842607769647,-1.8571687207403813,-3.740219302700658,-0.6353340537252958,1.3017532482184717,7.385794842247199,5.262783206052193,7.614224636866743,8.505889674206758,6.357346523775157,5.986688906177669,7.640342551134975,8.89386483385734,4.82258676465965,3.351812864516187,2.515181549232754,1.4343513576819906,2.625332837814455,3.7960804512531996,1.6553694179191416,3.3572233257739663,1.1592757081020375,-2.982021476056556,-5.647335221180063,-1.2383897181428265,-7.819411773464163,-2.4931038292551757,-1.516484193130716,7.320050365488954,6.47617144317227,8.87444401509964,8.221777171749578,6.556621538288226,6.19510946830897,5.5241806305415295,8.014439978345083,4.174241053084896,1.4726704080651498,3.182507308859169,2.5523327879735103,3.5681511639041625,3.475637679660355,3.143302699558728,7.122518748430119,7.332730374994933,3.6253629350744814,-0.4421374784051508,2.3677387711752416,0.8974485648824919,9.036556161064759,4.250020350110109,-0.0698139823854772,-0.021231747689149025,6.119069583076581]},{"bias_weight":40.909272300216735,"weights":[-1.2261926651884731,-1.1249515336456082,-1.2485803607471049,-0.932378202326575,-1.8383004012511603,-1.5381208056785391,-3.4473699937975026,-2.908041199552347,-3.408455762166539,-1.6228448179848551,-3.342615980599471,-2.3390221560066102,-1.933013648912112,-2.0483091020203927,-1.0046076677930584,-1.1347308768366167,-1.2560847320968007,0.2371232061695017,-0.33474140671429287,0.14657067391004716,0.6323223303454792,1.4027026800791886,1.3635449626183394,-2.6694103304964014,-1.6516271277701393,-1.4490460644233558,-0.5025329718947056,-0.9534318200524247,-0.6382493004447437,-1.2454665487728662,-1.0787618495118563,-0.8878804379290809,0.5819188216560786,-0.09801676040042409,0.38509401097613727,-0.9793390558564092,-0.7275333486022146,0.33633472641099954,1.371610189110947,0.554562156039322,0.9394335931232527,-0.4170588292373422,-0.7753745678118593,-0.49539878943763765,0.023510015431070702,-0.5539182508191767,1.552207266549604,-0.1460335343187503,-0.7185700155286111,-0.2154500724231975,1.5796560743817214,2.478854033972643,4.566064620015639,6.121401534431995,2.7972532739652527,3.5930565178890137,-2.7767375068505555,0.5268984884265858,-0.7388098775570987,-4.994230869540004,-0.22406447882924282,1.1448350639625267,-2.373315498768269,0.3786045660306248,3.114720375089955,0.8237414406866382,0.666060396017309,3.4450475733206862,1.5932272131027763,7.589344480381841,4.0086276107056955,2.8322962896257495,1.9095443823101126,6.1065437932327535,5.8749896220493705,6.146815872293496,3.9905845639895143,3.9482067038814916,5.476254372977606,-0.4840079200096514,1.0694825225914477,-1.6111136344454304,-0.9854988018892655,-2.625902754029228,-2.6931080530421068,-4.57648952724648,-2.90930005920291,-1.463892304593266,-2.5666732233620895,0.49690424637234787,2.6894756352039835,-2.1641316319615505,-0.5903375093303646,-3.0370410710320863,4.508324294208736,-0.0698139823854772,-0.021231747689149025,0.8621469252967049]},{"bias_weight":8.930112920602317,"weights":[-1.377796188327926,-0.8537511482311918,-1.4751764747435625,-0.8435041460277853,0.342844254652976,-1.831375925024652,-2.6645164536655748,-1.5875075567916308,-1.744721495869608,-1.5024254712694045,-1.0431687207034939,-1.3073464044305019,-0.593384978958431,-0.8895003968550061,0.6156521020778885,1.5936329273312817,-2.19454117291844,-1.7836265056519853,-1.7890323441085796,-1.8313327821631662,-1.8394754268980473,-2.1643854506580875,-0.5012066832853234,1.5072635073497942,0.8270574043756556,0.5384015100450091,0.37917899655124326,1.6809189360060164,1.693459107279078,-0.4943598166305627,0.6298280803196457,0.5053944394437131,-0.7226347762164195,-0.21172748386405027,-0.9225057082398521,-0.6004815946396428,-1.8570031901026676,-1.3393634897583366,-0.03939358451185328,-0.9051304875358092,-0.8333402616191914,-1.1809104476475518,-1.7578597411273427,-0.8789792301958919,0.705767079185962,1.3417591843414183,0.751840411623707,-4.368881913033964,2.6220379455194895,3.5872359420602065,2.5173116070331165,0.9932813674315368,-0.25747065208141073,-3.4307305214490627,-4.61696047118255,-3.8001792849861933,-5.416327267312313,-3.3838161361041474,1.0996356964407117,-3.9785122323826263,-7.391640522500396,-1.3345259430776852,0.5810785070013259,-4.093628449263697,-5.99603173645882,-4.088955275469322,-5.931515985752343,-1.9427691351437584,-2.0503532947037777,0.582208074868439,-4.4013310967256825,2.029199718995301,1.6936207738538218,1.589143486472649,2.975036613859787,0.9205772405231839,-1.8416547934865397,-2.4876788119479736,-3.3892875412027426,-3.009437179130656,-2.395368777494907,3.282911158581799,-0.504925518000232,-2.9319098619629957,-0.3232591155469912,-0.7757467130826071,-3.902039060507334,-8.064793029102413,-5.548840018156804,-6.882211029584737,-3.0189493824367504,-2.441843881502479,0.4302402190942423,1.596261334641213,0.15267517367778854,-0.0698139823854772,-0.021231747689149025,17.091155696665428]},{"bias_weight":-51.02154254233387,"weights":[-6.11968273998725,-4.399671027024204,-4.330067826869746,-3.143054750217152,-3.157694004200132,-4.458232192865292,-6.409716604646261,-4.466176632637985,-3.868546358442746,-3.691800524337873,-5.282461607362563,-5.7626760302933375,-3.6728076428482446,-3.5500617461274655,-1.8427346193143583,-1.0071869484995521,-2.974149084820371,-2.0308688847856082,-2.8461257656388486,-2.5826074476276513,-1.6663921035611504,-1.887431327576319,-1.3818851800909437,-1.2225076732321927,-0.8114959416805704,0.37475362411613933,-0.18283832700303035,-1.6047432743311871,-4.598125447621022,-4.576689807558375,-2.3705267461454356,-2.4092752591546605,-0.6847066958937793,-1.111649841881429,-2.4745106949437323,-0.7055067835787352,-1.1318839645554504,-0.2921454544085033,0.2183964510783578,-1.5317269686411419,-1.0006129132666601,-1.6366710574819916,-1.4357038876736186,-0.8446281832254371,-0.06659551476945705,0.14461649942700933,-1.8438156444552596,-0.742301623520754,-1.197305178821939,-6.251946017618443,-6.391704084930401,-11.056519995984425,-8.122519210208923,-5.839336866451703,-1.5867306859681787,1.590510198426035,1.6705524806563186,3.3960750302941425,1.656443565887378,-2.42022136975744,-2.4866669730628495,0.14684749135695258,1.0785890606246948,-1.1756724609655178,-0.18072344839670207,-0.6422311677858085,2.7651167745783347,2.420226967343855,-1.621765361564663,-3.7608362669361393,0.9100822357287344,1.6154938258575369,-5.181421559128792,-2.606032743951455,-7.073043760492385,-2.732878424072936,-3.9487987065805545,2.191589523712358,4.889252955081241,6.196871774047823,1.743047646151922,0.9406573085654681,-2.298150105710477,-1.3012961791396143,0.46634706907511714,1.2972246159090077,3.415453285682131,2.569273587550464,0.3157645461823671,1.1787681009120505,0.5513364887275617,-3.4025456480633873,-2.461285515864006,22.140892793891467,31.240803851851283,-0.0698139823854772,-0.021231747689149025,-20.379776991126914]},{"bias_weight":26.946981837898925,"weights":[-1.3385674831464023,-1.8343173358241978,-2.6549755000169326,-1.2081070914507719,-0.9007110592021085,0.4180422854090827,-0.20653221670699262,-0.3065003452190538,-0.1854775207343084,-1.5758473763280152,-2.639776586644127,-1.0573813659489468,-1.3916444245526622,-0.4902617400900268,-2.5425163690369907,-1.2000983922787098,-1.6258014883642724,-2.1453322237644135,-2.448209023485663,-1.6790252509318506,-1.177397758969943,-0.8467807594027368,-1.3957555659584389,-1.1095637611732125,-0.08444500272664023,0.17707492321627522,-0.7097203847207085,-0.5452165063261005,-1.4104796061830007,-1.7155909738638326,-1.5652200660866142,-0.83140856365131,-0.24731494752691854,-1.3939411981565566,-1.784594625639501,-1.7761510170233157,-2.4847347910453568,-3.0050331294267147,-2.2880982520173396,-2.5401291086252056,-2.36294219806829,-0.4857932036117102,-0.32486500984602285,-1.2706612198042186,-1.4319132088841682,-1.4694964577171923,-0.6009779487338713,-2.468316951336663,-3.6309063746770005,-1.627031445570531,-1.3636220841414872,-2.374380527858719,-4.328144086306493,-2.3509724320465604,-3.793589157206552,-2.428621309928427,1.7597656444005985,2.9710320271608035,4.118527188378016,0.9436094654161085,3.3666909051194587,0.6463092701516543,0.378773795056211,-2.784718508754094,-0.5935107240037072,1.26728574932583,1.314555971730599,4.718919622661649,2.8773684386751004,-5.6104410906954865,-1.5904189268424738,-5.264387141112791,-1.0086632255307384,2.766155800984941,5.239314592583349,0.05328673104463648,-0.36315691680625645,-0.19358924166232921,-0.6746061938294645,5.163616546500787,8.601398504075163,6.560911418199755,4.528125546600382,6.724263617583961,4.046236240317229,4.4670096877635235,-2.9813487222596446,-0.17192631125035412,-0.7835996328740018,-1.6238922398088464,-0.08494796772656382,-0.12446852059423412,0.3835377390581646,1.4199425840681024,4.371961187033068,-0.0698139823854772,-0.021231747689149025,-2.2446260315026354]},{"bias_weight":-6.431323967818275,"weights":[-5.348321382452227,-4.993650958492794,-3.6464937750016997,-3.9605499006506775,-8.04797978992802,-7.370674168439188,-4.842649840945414,-4.8540212015886794,-6.375184958509259,-8.983842023437553,-10.107312871662177,-8.8390992821675,-9.320121624770893,-10.257036604335914,-5.762976097566736,-3.544478258863983,-0.3760243842857482,1.2931929556715769,3.8194845501604484,3.6268849543407073,6.296003945591641,0.46535387032818454,-0.6199648739034125,-2.6780653203342006,-1.1836679597783808,-0.3391853126606094,0.7809014942777573,-2.8710538369169196,-4.417342854756179,-3.5262197569617935,-4.856822256231759,-6.4838795993129805,-8.372705947585645,-10.052075091651828,-8.97892067317482,-8.686885370346122,-9.316060292503572,-7.824988624137694,-5.219230103039197,-2.50949692199153,-1.1285703512908862,-0.20934298488030573,0.42560144177997533,2.09920832063072,-1.350694610163401,-0.024075020954619077,-4.060745274555302,1.8006940705371612,3.1893505134651634,4.420004909235393,7.393814470599003,2.5893715217365525,2.7324539135388206,4.324287171518234,6.14981002980064,1.5900476277423161,7.245647886702239,2.4780184655623927,2.5574356749400127,3.296926002806857,-2.2714789139943994,-5.873508880115881,-3.1771386285740295,-2.91251595618203,-3.6113856018382067,-4.471332859590917,-1.76088922086943,-3.3982817961140275,-3.316067364603729,-6.4912062963983574,-2.5358717025375794,-3.7223233902407546,-2.4138352913474783,0.9408215689021511,-6.831341329069596,-5.465046210705281,0.0790710221427176,1.4604035754584586,-2.205454176377638,5.51111123049842,-0.5079421629197141,-3.2981539210078017,-0.017251429366405557,-6.68461609986444,-7.063738095040568,-3.9299561458467043,-3.4495330317198794,-2.3676838639384123,-2.0123760714739363,0.3569347950524703,-0.20926259291852964,-0.6444505125415536,1.5859585615607403,20.211786027895133,10.279794026070139,-0.0698139823854772,-0.021231747689149025,1.8275827641163682]},{"bias_weight":37.671198228046684,"weights":[-0.6729617809226629,0.5528995297458018,-1.023741331207469,0.41516280858098153,1.098424770377762,0.22808368278687577,-0.020877244141918296,-2.2820550530290706,-5.917892188501401,-6.499119489958852,-2.441203200587099,-1.254299406394053,-2.71591338784318,-0.0097701079194594,0.18313490779566396,-0.26490507233193,0.04698625575592933,3.572690966028092,-0.10801120660877035,0.24055972929884845,1.7131905751547754,2.0121389415025766,2.2829172967698748,-0.14734231806168277,0.441807742974238,1.2488047730730567,1.4483501876862246,0.9619348670695945,0.08699710773628472,0.34824516296904023,-1.9261207864389498,-3.5953728406798238,-5.098355605954475,-0.29430703951096154,0.5980492469029611,-2.481837835554459,-1.319578024472366,-1.7214702861575848,-3.4317865193605144,-3.6091064815728213,-2.553969329509788,-4.199185248317147,-4.172459525297548,-3.1196604625003763,-1.7021007486697257,-1.8545628258488955,-4.54107452378475,-6.8154680233598395,-7.154730967983806,-6.248250417898297,-5.349623617787422,-7.227021163274654,0.5617061979643472,1.840032610001502,6.547668301188873,5.063978617089981,1.3896952682924157,1.0773010471999256,1.5901259461256654,-3.577858549688775,-5.348527760929316,-2.4752283549740617,-2.504993574464001,1.4480915708305189,3.875953264038567,3.3592270629606045,-1.1698383927865161,1.00187693402134,1.9136831302968489,-8.418211128625165,-5.348847358266453,-5.153654653573639,-6.808457679858408,-6.199618567395385,-4.994987937693563,-0.7906310459244693,-3.2310469236320833,0.9059952420900249,-0.18241959672600663,0.6609075880265604,2.326566389677716,3.4109450416137115,-4.3103628972770975,-2.0113164454395056,0.24255415590316698,-0.8717149924932344,0.38047759696033745,6.380232001626386,5.076485796427256,2.286160259924907,-1.370572556504898,-0.6024850130381157,0.4930648277675673,7.151504695168796,-10.456033102368597,-0.0698139823854772,-0.021231747689149025,-8.843413600135856]},{"bias_weight":4.1744709155070145,"weights":[-1.7939370311351737,-0.47861398469365946,-0.37740874788985845,-0.9662401014247203,-1.3117434538680155,-4.112968743596241,-3.5664786129815975,-5.168820358456215,-7.616055330293349,-9.233854584171858,-6.1384567453987176,-5.099614999699365,-5.373737517020351,-6.4346760645094605,-4.115006318129005,-6.130451499480429,-5.569569790166854,-0.7896477444638935,-1.1114366776002236,2.5352500397162436,-3.734845222646868,-5.492094261629378,-8.654360448509074,-2.12543406717145,-0.747945823809415,-0.6656089288241348,-0.1709151899195011,1.842802776949114,0.4057898538462464,0.5548282516717586,-1.9020563914615316,-3.1655427817652915,-3.3264442574296313,-0.0051862727312179755,-1.7702002969263153,-1.4266050262244356,-4.010007664126779,-2.9413597566985223,-4.148805780917566,-3.687433766163312,-1.6607984679841952,-1.2059118407866618,0.5261074264070368,-4.050875034738084,-6.014542117358621,-9.644854982859183,5.561502062143409,-10.124095809002538,-0.574688732864358,5.697931777391818,2.6350847697001942,8.258817898528514,11.217978608345373,2.182350308395954,0.3059171329675893,5.593771911461363,9.39108081106182,8.21566207960322,10.167567162141733,5.2691583517383815,-1.9835195167148085,1.1509849039902034,-0.5082202595913698,4.811274476630206,1.1103643901502003,-3.172386069679699,-5.436675347774903,-3.109553591880728,-1.7734658403651191,10.258552023782757,-4.9069792623872415,1.4964974994458204,2.7484235071596617,3.0458542207626467,5.553137324740017,11.476353097698668,3.5211750454862534,-0.8949172334397673,3.6307197755205727,6.641925314313628,7.942329071825032,6.5272087930122265,1.7227430717779801,-1.6773811059731643,2.2514576219774187,-0.13226672075635879,3.330079062161459,3.346745498313771,-1.9488605312151959,-3.539153624972146,-3.0184993294907274,-2.8942684946461825,-2.5485355530988594,9.678050749721963,-8.966512245674917,-0.0698139823854772,-0.021231747689149025,-6.600231373606869]},{"bias_weight":7.858649701844569,"weights":[-7.619493151104706,-5.622946331685495,-6.327608127576558,-6.1183444020613775,-4.880788019586191,-2.526275501449146,-2.9423473187795843,-0.43574673264653196,-5.159985035305389,-5.67710424946672,-1.2143991544918744,2.054456590697097,-0.2267982870113011,2.9902529581168493,2.4346013980282635,-0.9009988762850177,0.8479311484533916,2.4705512613550655,-0.9672980398821189,-1.2229709935222601,-0.4832841175428378,-1.8947566092815054,-1.287877335178777,-5.958568311996873,-3.5850372042500913,-3.5139636222429385,-3.3300775056733625,-3.4080636478069595,-2.484260361103484,-5.359621297961295,-3.326393418791698,-6.893883540737519,-6.621574059545168,-1.9017480395149737,2.4036337518222424,3.413854631650306,1.4372811632516251,2.8953212854674057,-1.8698438400814175,-0.33190666744750813,0.13402813966924826,-0.9378136551156185,-1.171848109283146,-0.21538292830198055,-0.8352217195350596,2.061443562243268,-9.68779785532671,-5.525180653350139,-1.9398695656982994,10.577603748465256,7.737038205013004,-2.6396968433632435,3.2832397332845686,6.026897096754421,7.143405509218944,21.44711536575849,-0.7492894662357051,7.611577319160847,-1.7029444053715097,-4.592376345827723,-6.398911831697652,1.782655665504828,-8.573305632656005,-0.6612613642365794,-13.247293812847232,-13.008307920371344,-11.117438044731582,-8.304234886864673,-11.052751548716783,-8.940226547876534,-13.477716428542925,-5.378893030264406,2.9629214958677976,-1.8666667524155416,-5.650983969927481,-2.707421867584823,1.0338176927071971,1.2244494093813547,12.951168277098313,-1.7277905560481508,2.406322753209418,0.10793549362648305,-7.77157284610508,-4.441853194777008,4.222974030695515,-4.411479619492245,5.537066747485817,-4.750472909736095,-7.743408848395015,-6.141235963710348,-7.442096772264535,-10.965785773816405,-0.4265122266613868,-1.8794979267265532,-1.6267040378824382,-0.0698139823854772,-0.021231747689149025,2.783858579909727]},{"bias_weight":12.38382871141239,"weights":[-1.4958906494032465,4.698872822907657,4.928479284184187,5.829728831888451,0.5921567868367105,-4.787544745095466,-11.939732487135796,-13.065034560556374,-13.57956634011858,-11.467760275532475,-6.1824184117565055,-1.53625474978011,-0.9353427158830734,1.4763472704253011,0.47526406733053644,-0.7091071943348837,-0.7239084074808166,0.5562917545856674,-0.45995038682865386,-1.5336827803091455,-3.109768482212601,-4.092169334746136,-0.7918804751878468,-2.324068108671089,2.6653783341952195,3.990027543700649,6.972351783137471,1.0834941551934199,-5.13998960928189,-13.713918000475543,-16.137565028887835,-17.401672186825348,-14.274025268962362,-8.93187795440015,-1.9542707250160305,-1.7758018052872933,1.061750613087641,1.757597141449021,0.8504835946621903,1.706879002915365,1.806896256435124,1.7958032887749742,-0.12535298064336473,-2.4610807738567875,-4.6675088517153975,-3.1699678990229496,-6.382685034750436,-9.027735036445115,-3.7713553813071794,-8.892123470030265,-3.2908860875240453,-8.476081659700794,-12.029512628489183,-15.181079841504655,-12.232664662990715,-10.515855185826103,-6.0570212907957615,-1.3563214663267777,-3.4972950319389007,-8.078662389857907,-1.5669238806201724,0.9889690405437217,-3.216870236888862,0.35390623469431454,-1.570052134938399,5.656571468815183,10.423649173419188,3.031449925390361,-4.065013453392332,-5.4932813470901545,-10.92556170771643,-8.021958195175584,-11.77237450061169,-6.540358820317302,-10.573790278857055,-16.18177679605361,-16.695876882180066,-14.023475661221296,-13.052995963404074,-6.536691855812254,2.4186778549101184,-1.8399231093632227,-5.1197200155049405,-0.321230719344066,0.5401605008573344,-0.5741409161038661,-1.507878484916787,-0.8505005058289824,3.6438201906604126,10.020614798344088,2.505959001506073,-0.9242964205965367,-4.581084608405825,5.655897575513876,-19.573016085637654,-0.0698139823854772,-0.021231747689149025,2.4668710254144557]},{"bias_weight":21.8912014394475,"weights":[-7.104120334860915,-6.662929000883481,-4.3903648956155665,-1.374931353427778,-0.9115100287939072,-0.9156423278696555,-0.3568163812070984,0.5041441160195237,-5.097124568497603,-7.050036335784366,-10.557056919652558,-14.267324841127396,-12.482019307152402,-7.628148600535867,-2.1114840613475736,2.21316072560263,3.652351848645063,5.065364753190196,4.056359104162299,4.433319336811247,1.0884364204903585,0.2261811949506789,-1.4150162187987474,-2.674458164947085,-4.954004430682735,-3.592504905475566,-2.3782830112503213,-0.8400890452507012,-1.0275925370898868,1.1514081624336607,-0.8527909802903092,-4.949410018828444,-8.004954732667292,-11.602151843083199,-15.478463740980205,-12.883217715959345,-10.77684933309171,-2.6753217731779255,-0.04070429846895826,2.0133584329337593,4.400601533345033,2.526646043577118,3.926388173278028,1.0381045859546307,-0.21923737718658892,-3.421477599164782,-7.107385449657318,-8.325678119129911,-11.116861679207576,-4.091769662733304,-7.370424197764002,-12.995160666457318,-6.225242112941853,-1.245564325503632,-4.067801461696275,-5.444296584444241,4.584817400950828,-5.026891958123829,-1.7152049671789296,-3.2835470928651076,-5.354235188102193,-6.360574468512381,-5.768851282194051,-5.940288743777149,1.8338727187722084,6.793457290618085,0.8312427769309751,-2.868093783824382,-1.7708490465083433,-8.283575337425795,-7.302673431321983,-9.704343264295424,-5.723925103718987,-8.65213562925634,-12.193757417775172,-7.333880188463406,-1.7578023958195192,-6.3464063568845495,-4.798301478165843,1.0334796493280545,-1.0958298168369816,-0.1262898724587373,-0.20487233943128483,-4.75529305018609,-1.5071831621231104,-4.560380306235096,-6.992487199265306,4.1729213295001975,4.8596030106939905,1.3030199075619742,-3.460698055508941,2.444026830471844,-5.190323768934208,12.853261909583829,-3.231618837289765,-0.0698139823854772,-0.021231747689149025,-11.814654890062126]},{"bias_weight":24.218400841751176,"weights":[0.0627798715134475,-1.5017792334197486,-0.4809951821321596,-3.290967826372124,-3.722417293638475,-2.2426874380828306,-1.9337121487587476,-2.9595928448774242,-0.2401403409423001,1.0869598476148232,-2.88758235159618,-3.727206485580506,-1.2657530393358103,-0.5889572594449755,2.686276633280028,0.5622066916361832,-3.7589718735710993,-4.25670095442774,-4.455426550210964,-0.030721344307682558,-0.03236196368104943,-0.5883327525256405,0.26103727688177586,-0.3835058346343832,-1.7087388606974265,-1.1408635119938213,-1.5985488851394125,-2.5638322482308604,-1.4418137421228576,-1.7004919771326483,-0.7837380316409199,0.6748338184693808,2.748532369440429,-1.688813969051861,-1.4123210815961578,-2.7699883410120507,-2.658447284883379,-3.656214555453597,-5.711957849938143,-6.688711961318848,-3.528160748644032,-6.765583030992754,-2.276575361495806,-2.777035185003715,0.3875743391872053,0.9365221232875965,-5.000437448136184,-4.394078825985789,-1.3718527088194816,2.97854023896162,3.638419121132372,-8.71091675134167,-7.989965085045351,-4.854852872285207,-9.416699204593412,-9.708001331341697,-5.6727800713329,-4.954039279763157,1.8444611424707815,6.76193461844253,3.58712269211992,6.633926212781556,7.451522779856337,-2.3086141399590563,-9.88789372270181,-8.067253179047324,-5.843233057299349,-5.8008765692484126,-2.411342079696858,-9.817039710846416,-9.627449796758006,-10.2301660100505,-3.040844265243106,-0.7148033831164056,-10.676550447720082,-10.91369817129726,-9.31873316443563,-10.043367924164952,-10.272968606954642,-4.369454612418631,0.35696457919404057,-3.2718294185240118,0.4947385545706385,-3.6638724637873605,0.3286859123592822,1.344986473116155,-6.934048671763124,-15.27310760268239,-13.72556795494571,-8.630998706573122,-7.777413558969686,-4.467923999165629,0.4337422170601834,-3.0402303283094536,5.355864385833578,-0.0698139823854772,-0.021231747689149025,18.01942293200686]},{"bias_weight":15.682752736040024,"weights":[-0.7046354008895406,-0.28441504913953536,-3.5855859129522156,-3.9720298760785573,-3.7058626645151884,-3.128977064142527,-1.589164864124849,-0.7163712768899638,-0.6754092830291085,-1.2202976383382151,-3.050341343943702,-4.861842005609349,-5.109772549561036,-5.636171313512656,-7.469649329212057,-9.205173076092612,-8.79254391515616,-10.234249893061339,-9.919750944672403,-7.253170899125752,-6.9181903040186326,-6.18952168434038,-2.255802994630424,0.1990044047505429,-0.17809135833692447,-1.4615149526903901,-3.0682445019107036,-3.0081212700550566,-1.5766974599039503,-1.7474528316140148,-0.5120711626976632,-2.573260052861281,-2.749793209279969,-4.253409030493655,-4.490656948843106,-5.670108698058217,-5.279853812203361,-7.862893051113924,-7.129990226151033,-8.590440278528865,-8.185146714864516,-8.594979858722928,-6.694242520976877,-6.943787807788753,-5.736105439792747,-3.117680098022588,-0.09545972158651167,-2.5619464434705184,-5.075476998549748,-0.17482073074178092,-2.5980413219335134,-1.68687394710128,-3.300037360623771,-2.0082320071961357,-4.4423572079034015,1.2437317334714726,3.9300186987784986,2.4069038544958485,5.815089699290206,8.484458505347279,1.67201078314805,-1.7058612012888017,-1.6868334982711706,1.1353239339992476,2.069209677969116,1.8674475520294527,0.5443978467708015,-1.2438886417434578,-0.8552474604159519,3.3318354126838634,-3.5891829651158877,-5.8906216005028496,-4.381443877018241,-4.855945420676216,-6.038115850587144,-8.470384696462878,-4.4574955694137905,-8.291087190250337,-5.632926808016476,-0.3067969992394584,-1.2835634614025342,2.7327155364933193,8.826435780974876,1.3181604151247177,-3.8578480204499566,-2.0424863521721672,-0.7614300412005474,1.319498314243335,-1.2229646385520818,-1.418319608094038,-1.327976117817205,-3.261179927086449,2.167855276815828,-24.70567761281821,-10.794607362248788,-0.0698139823854772,-0.021231747689149025,-5.812624562432792]},{"bias_weight":15.834648263355955,"weights":[-3.0241404592962606,-3.1447282535685903,-3.4957454578726304,-2.5045656981460422,-2.389028737919314,-3.87672638361189,-4.121833154543186,-3.9827282583805013,-3.23653285692198,-3.475511161523424,-4.053747311572911,-3.8298756253864523,-3.6544584248726433,-1.354740986065522,-2.069638343716295,-1.5712048760492978,-1.898517834713878,-1.6391668459370223,-3.2771611049365985,-2.6452994506035368,-1.7724352994425097,-1.027857630082289,-1.1105367553051992,0.8079531963519181,-0.30042719826200076,-0.3953568553885574,-0.27310730967290725,0.5554836269866973,-0.629891127247522,0.13598223882329813,-0.5042728812787269,-1.1049078756255786,-1.1880766692426457,-1.3742303970915275,-1.177314213500097,-0.8314044861195414,-0.25005450353156855,-0.2053227065986286,0.15264435409746976,0.973194109674531,0.47636995509715563,0.4570809331490511,0.6996133269423335,-0.05199806271737762,0.28694497149975734,0.21067316810953457,0.231069954685033,3.2096210275929016,3.988162817009005,1.409961883258342,0.9201741860685505,0.2774095083597525,-0.7845635904971746,-1.0177367749465418,-2.887068674592859,1.615925482987098,-0.029085981034281297,-2.000629104794465,-2.4134124836729303,1.5315263296582062,1.3241612116604327,5.008815387240427,4.469617237844234,7.284402632786827,2.3116501682543573,3.2369384864296813,3.276247332450223,1.944773194713701,2.254984074136472,-0.30388458767730553,-0.6074423950486779,1.6182392259189922,-0.5912761166013226,1.955770391637926,2.4692138771193157,-0.8404479873973236,0.07163460308018302,-0.4797059519216705,0.7969902512938358,0.8047155207550052,-3.13699542462868,-2.765973643441564,-0.7681828124575935,-0.6070008006535997,4.511051837622916,2.7230245356609557,2.264115278148567,-0.1652168324719126,2.261817633288986,3.5500414276111316,4.520362413341725,0.9652300421700365,0.3672718559623648,-1.3241048634962695,6.191937103962646,-0.0698139823854772,-0.021231747689149025,2.8939932118099825]},{"bias_weight":31.009325637518355,"weights":[0.292499060095218,0.9520938745498089,0.507799790801503,0.5194311984265927,0.5097266953006075,0.35374407400455643,0.8405365638769483,-1.5687684915524425,-3.803398604848999,-5.685944600155489,-5.837764405329102,-3.402550521077903,-6.04070709576986,-12.094736139167281,-13.400103255108057,-8.22902183770848,-2.1181509184970038,2.5968119906437193,6.508402342314235,9.113634114205757,7.349474022043703,3.698159515713471,-1.170389510336557,0.06068224320316114,-0.06691495523195443,1.3296850736579124,3.9653820187889255,3.509245214127624,5.123580499155164,2.9077248080951117,0.8793369722835112,-3.2982987085000617,-7.794683334878489,-6.308598704495831,-3.621087917954621,-6.559779043528623,-13.718677374750119,-15.536244414240521,-10.942155939107158,-7.388843853386494,-2.5988136427520216,2.244334719963402,6.171207652491959,6.1533235007057145,3.337122751132007,1.2231992685067066,-2.0342068824671404,-3.863390031028115,-4.013699896455381,0.6439985123961306,1.8534338949444555,2.065201953693597,0.04397527983559935,-0.6294763206628781,1.8581649579320907,-0.7514721415530126,4.589429725232534,1.8498763493424824,1.9677198083689311,-5.290361606345737,-5.726425326952118,-7.73316198295599,-6.209648636456837,-3.368224490181695,-5.600722902720536,-7.8992508980164375,-8.862415500570492,-5.5967165970327715,-5.2696952048263235,-1.6674335518602088,-1.3703460064712008,0.132016386154266,-3.3464041768787447,-6.059005159853873,-3.7047629115054064,-2.3528260615842997,-3.7341041588967676,-2.8432385542973297,-8.004970390086122,-1.094838809963356,-1.8266105234660062,1.057529148199021,-6.829227285087926,-8.30879643094234,-7.82515077966618,-6.422464043758792,-5.5898309558069075,-3.774842439622894,-4.729695073211297,-6.430104123166336,-7.275268986672568,-7.994541911105561,2.7770140951216127,0.2799171057067786,-13.396281265319285,-0.0698139823854772,-0.021231747689149025,-13.091400301938286]},{"bias_weight":21.68787918125124,"weights":[5.26287032925352,4.619208051829635,3.9410045451522073,2.5616327572650017,3.162278911575807,4.722664764654189,3.636335601678426,2.572938382501957,3.0726474160552177,2.8969558035139653,2.588198292138292,3.187267833232834,2.652488288957248,1.619071775371002,0.527741615999987,1.6087460967254221,0.2820636971827236,1.8906075105161728,2.7787905663954486,2.8644291861206908,5.299644218641617,4.272714090842028,6.483388924008429,5.462699324288679,5.24490093779995,5.991970182085795,4.017844040134387,4.18990829381364,4.048095054215684,4.450967355383476,4.278488480665547,4.833093513922749,4.9401753720038855,5.210151068275945,4.4174140371729536,3.6098497419612583,2.0957822050536956,1.7443094940219779,1.7503189511218955,1.7695122916620563,2.999441565449214,2.7214713905581513,2.5110841609078314,2.9044809189501737,2.9647095818356908,4.703797071916377,-0.6579230053064897,6.006907249666329,4.219982805426222,3.631639092661538,-1.7822877157027581,-6.576164664097518,-7.50766860086114,-1.3654802367133907,0.9881542496729715,0.8465664940053443,-1.6315957993757122,2.1610829070737347,0.9405880276750112,-0.7713799329646658,-2.0747947104287414,-4.363448120266295,-6.271642816740404,-8.38575431562418,-6.45594315558832,-6.603553022246868,-0.4261698036571874,-2.1968732430843363,-2.605824499905392,-0.6428423048026893,3.379181186388909,0.41653986953007804,1.3691378405641748,-2.609041885370549,-4.0636132066011585,-7.078753918880794,-2.045036737239623,-1.0114626876990451,1.3130865388421546,-1.474861785238417,0.9416449981573765,0.30130724731195874,-1.3112479798649277,-1.4846306782675567,-1.4303147252654371,-2.162115738682464,-1.8312397267486986,-1.5809071144264304,-6.9684784120228995,-2.164468987014785,-2.0404793831413195,-3.8795661328052593,0.8749191269833843,15.198683061475212,0.6483141896004486,-0.0698139823854772,-0.021231747689149025,26.88110101699978]},{"bias_weight":53.777438580483356,"weights":[-0.8036824157875556,-2.6730177342642483,-1.1942315209414607,-0.14622049340887724,-1.063738636197834,-0.08778592968915531,-1.5187286053085252,-0.3829692178374724,-1.1943948274572842,-0.8698281946256143,-0.3298486612324556,2.578296550731402,-0.0976190863328717,-0.8689787532472634,-2.1899183207790243,-8.704305276492597,-7.011805738600517,-2.371137953983508,0.7045727753043125,1.2037227562602975,1.6150897990857014,1.9253197215486617,1.0350232449473682,0.05066815915417898,0.27706437368795905,0.19475515101175586,-0.29554659883627177,-0.5220252860043849,0.46873411722367475,-0.9234749252276425,-1.3044860465991506,0.36058124957452364,0.7669544873038033,0.36002585194334985,2.1889248015815705,-0.4231096402618307,-2.1662761084900852,-4.861501733086767,-12.279763566839664,-5.385136608180659,0.6654745693974499,2.018045166415897,1.1719136335896805,1.3354613038833052,0.3293780917436555,0.2192037428160911,-8.460491228139277,-2.50386572599038,2.8647283014641722,4.3970178820244215,1.5367731359250747,4.454318032193309,1.9156521142573069,2.5898238468628283,1.5208176024652997,4.003552631982586,4.416309906766527,-5.923568251130877,4.70073094976581,-3.884872073363393,-1.5571352850937201,-7.579709987292942,-0.5810852712327594,-4.039038289606652,2.5085729872983897,-1.4979481139039525,1.1393507913252061,-0.8568540068690749,5.18508393670463,-10.507647512977108,-0.8680466837149278,-2.105714203573157,5.112238797537384,5.470357975167944,8.101077725253553,9.200304414796351,9.219664405382876,5.879703055140482,2.6189402919644102,0.7988696624167856,-6.332094474535618,-4.929222160582927,-3.5364746760771655,-1.5628048088339248,-4.395132498405522,1.91096149856018,-2.1996751530363228,3.42603935034996,-3.8736432579606435,-0.7557044790847628,0.08357399202965961,2.760831577798948,0.09828080770496316,-3.833528910977528,0.1592015819494922,-0.0698139823854772,-0.021231747689149025,-3.979286894373342]},{"bias_weight":5.902242473412616,"weights":[-0.4192327617325582,-1.0016124594914,1.8049778227346263,-0.3521250130709566,-0.5551748633246839,2.353577131184857,1.4535429909900646,2.064216902308732,-1.913986381154508,-2.7465113120289053,-5.12192544437379,-5.297330700041461,-5.586656394588375,-6.38851002945935,-3.963390139208563,-4.3851502430272165,-2.0680876688465144,-2.2695373415518962,-1.9122357128238565,-0.503557631055408,-1.4561392522394128,-2.000268346361562,-1.4047746792306528,1.2927143518463038,1.4930517112272286,2.4050513171658117,-0.42819943740130517,0.6170974205610885,0.40805792476688785,0.8819196106957868,0.6692184017792776,-1.7525577242204946,-2.699506409679492,-2.614495330652002,-4.823990128754751,-3.780245005886202,-4.304392130899941,-2.341448697975368,-3.7739453881383915,0.08172378571977473,0.1790067802712603,1.918361693335642,0.9986815681585592,-0.019826884445164762,-1.7973210427636637,-0.33330486983703056,-10.199726932587197,-5.5703757573710995,1.522362375471048,3.128421410192459,-1.5006724173991939,-2.821828377316005,3.5226210528903614,6.540574017948072,4.132740404404123,3.928741091345524,-0.35174522783773254,0.042041083759872075,1.6602622161422762,1.6862462040237753,-5.218666464047937,-8.976846667369523,1.6550773913950805,0.06639888272462947,4.507170600375353,3.337219655730954,4.151444849910119,1.7086519888370855,3.6716853226601036,-5.798533738592121,-1.5922369315234481,3.476953457437149,5.597321836701277,0.8783809113751831,2.1455051941317773,4.689114612590409,5.5859870347888565,2.133566406383028,6.174403360219812,0.6859838909022685,-3.392212616667388,0.47544993355389187,1.3804958427949254,-2.94081982480525,-9.874496903030552,-2.2208797649625756,-2.741975932178761,1.640450857659039,-2.0734290116332437,-0.10377928519258187,-0.7977368545796275,-0.10470363377511246,-0.0059635287042748624,20.029100691036763,0.08155811184958556,-0.0698139823854772,-0.021231747689149025,14.76877482108241]},{"bias_weight":66.28954700769403,"weights":[-1.095552887536662,0.561205574405399,-0.32913806871213147,-2.0327600065964435,-0.9343709655388364,-2.1506181163476983,-1.3848328011705708,0.787372165143377,1.422257095305921,2.968772769261845,3.3354306619862277,5.941772320848489,8.106857120409634,10.090836295119525,10.765312188937898,11.05708291270793,6.937016709767328,2.531482952112074,-2.570573480330966,-4.308714455489413,-4.6444138624720335,-2.374587381478614,-2.564410123597136,-1.062653941373522,-1.1249131448513299,-1.402362981787642,-1.1569499797744502,-1.1858925551035269,-2.29486719724336,-2.417711144598527,-1.1400369262691068,-1.097351134928422,-0.12484085444663122,2.0097362123975935,3.7683815994577463,4.198693448195181,5.682302530503336,7.875655084663898,7.389660945366596,4.786711714964868,0.8755729742309937,-3.6303962475046148,-5.819159870923859,-6.455074806437561,-3.9033887040196182,-3.1006994228003166,5.247915974978437,4.660665483329216,-2.8936721856431715,-1.0189411908584822,-1.3707012188152596,-1.580353331136706,-1.6255571131166848,3.6931520712516472,8.539655142853714,7.418269946934162,2.5317045107753464,3.2283854465946953,0.9598691187903011,-3.0344981469563193,-3.5015058979335256,3.5769728849838742,2.405052523249205,6.354243963029964,6.904208389894197,3.3995272488033605,7.57424529881766,3.4438329487982795,13.031573717949332,-1.540205337072334,0.4895428923055925,-1.9182872720179371,-0.22628730003479666,2.3299088506924726,4.4580624477406765,7.462334245266037,6.932586687365094,9.509175615302725,8.480940574129436,5.6646211962390876,4.247527156411513,4.0790418807873765,-0.8487971353878867,-2.250375865253407,2.3310499169362853,2.216153560687929,9.866241444794015,8.68864829333733,2.3828557834886843,3.2641677684030785,1.8322142337623635,8.983907736748886,-3.279455367584105,17.47346027080819,-31.153003304011307,-0.0698139823854772,-0.021231747689149025,29.03384787035521]},{"bias_weight":18.612617239905884,"weights":[4.35386134632003,2.847153626593758,0.7609975969939048,-0.5675922827674406,-2.98852884400313,-5.62562060365783,-4.87748725159644,-3.6316428438132733,-2.139374745067648,0.7537962679272049,5.099603193226264,7.164337355839021,7.24177678448199,6.321503645909276,5.642441434545443,4.011761496732846,3.5594174365480478,1.857878656902358,-0.07451543742866366,-1.2803469990826255,-0.9855891282888062,-0.7527868063048838,-0.08567333006343318,7.7678719627444135,5.452826432275508,3.3491086904998175,1.341283287377939,-0.9753170487594238,-2.2221678371608466,-0.7763132102588801,0.03854446590686743,-0.25574151525889793,3.0933198317703936,6.935452273237829,6.137007489790521,8.15619157284303,5.688432665492066,6.214985206187651,3.538859590113146,3.2907049895877685,0.8267563599611876,0.3631838216150332,-0.40867193437701205,-0.19535788189968376,0.044074604276752055,-0.514674887490997,-0.34661237919998567,3.586806430702443,4.538079974482447,-3.7974547289175637,-1.2721226465275919,-2.2117443865164326,2.1747606841204714,5.9795517531382485,5.3204813338546435,9.906717308215699,6.116636264855997,10.148113349554766,7.809260774326441,3.063137874230777,1.6511937097944887,-1.1157087941288089,0.1595583059426578,-2.5548546533495338,-5.307857271902397,-2.6446949196261684,-2.3358707271840364,-1.0692773556780661,-2.0712432456747254,-2.717869885202847,1.799952298009358,3.0333449680924507,-2.9308649427091065,-3.113464038452326,-1.7034054435094106,0.684497188283786,5.308869565630371,4.425187782630985,7.23110354125906,4.182275265593293,8.283987484307003,6.831352488182827,3.2304013144887667,3.8109100988619433,1.537564560488409,1.6354782242755976,0.38267980349955427,-4.119536986925898,0.2844106963899064,-0.9140147836642605,0.3963297865569149,-0.4407300491410594,2.722662235699566,9.385765825848207,21.103245232559832,-0.0698139823854772,-0.021231747689149025,24.585339699183034]},{"bias_weight":4.324309142073641,"weights":[-1.765919681988739,-0.08798895310906181,-0.21554733699040837,-0.5042890069672327,-1.0775487623916034,-0.8867357716808096,-0.5510078909126972,-1.0997275495705334,-1.426384433558974,-0.47175463843615795,-0.7877601321263866,-1.6339788778839235,-0.5940746730351169,1.5123509499240537,0.40209330838351254,-1.2295716548298352,-3.1647591572784948,-3.408562911785878,-2.834500514059234,-2.8847916807516474,-0.8345908924558829,-0.44013056822750285,0.7626534602198184,-1.3198916515067203,-0.5473569233872289,-1.2243839872233324,-1.6822952357490024,-1.5294373732917468,-1.0888637584491043,0.14368012457937074,1.0060257719230414,0.3605486389454263,1.316537191049352,-0.1495450836347204,0.13594672466910418,1.2439101996101778,1.1841668941974735,-0.04240702910969776,-1.350083334090368,-2.3080987865285465,-1.6322696051569392,-1.4774469482656076,-1.4804788727077298,-0.019580252817677685,-1.2371785249919398,-0.39963901015510483,-3.625731640904511,-2.8171831362324466,-3.323670249693206,-1.4139730035534246,-0.47335862569503145,0.989002112640989,-0.0974135063411204,2.520452434111346,4.111662488191098,7.3526951745463105,9.009132894864955,7.1418757681048435,3.5955499541528093,0.2190074662466103,2.768689144939429,3.711573020183518,-1.4530327025700525,0.3547366570856434,1.4926237587290385,0.02660736731432121,-0.8566102705318094,0.5002570905155085,-2.2757886258080213,-2.361000291102352,0.4567598344917677,-0.5697063290334743,-1.6410583202028584,1.9300600970666717,2.8119528196674595,1.5110329021326077,1.064758598487787,1.5981905580665356,3.9020312578812772,7.1159639302449,4.717490832961084,-1.370449416359922,0.1544153092974621,1.097301589642684,0.12836652773035495,-3.2726953253594946,2.4424403205301437,1.235648516114297,0.41294002391300405,-0.053996331747659776,0.48788177269526234,-2.4811653197547754,-0.01777735752728364,4.63199686287653,8.295622827763683,-0.0698139823854772,-0.021231747689149025,-10.702307098739617]},{"bias_weight":10.874926224672372,"weights":[-1.0098687838144444,-3.1598543681395297,-1.2706255098378854,-1.9028174851491413,-1.3914347670654459,-2.9915919605635217,-2.017279921713377,-2.899633625174264,-1.7370160241799146,-1.3050768961226744,-0.0993610912205811,-2.1246296348135023,-2.466487745711785,-1.3699003003536223,-3.2422716829968854,-0.6621869146439479,-1.3855215649394799,-1.0407640756766872,-0.39040542558489216,-1.7435898701310697,-0.7345072085004477,-2.1093265147161326,-3.047574605109747,-0.8884418799748856,-3.211261834469967,-0.685318372717228,-0.9586035898932811,1.5083235455776822,-0.5043324672297131,0.1620362974136135,-0.3331985041427101,1.1023694107989026,1.5091421818612465,2.5269681979068936,0.9765603276145952,-0.3982448160339228,-2.601641091499035,-3.0845336229433746,0.4489453460805983,2.1805833751488746,2.239480575650148,2.898749809767534,1.6749112642364083,2.290557783029101,0.42171358558937583,-0.12518994400890956,-3.3484488642899524,-2.0770628217725218,-0.6254332055409072,1.0707632107598497,1.7681624501784525,1.5110179801676316,2.928998054069193,0.3765377107609048,2.2075784566802814,4.620813709892265,1.5705233768611317,1.7885881390868668,-2.817316289643317,-4.585946616542711,-2.5562788946711583,2.48761468699945,1.7072139481835693,5.531650898932607,-4.234461028236906,-1.3850390843910079,-1.7235977973343561,-0.3968577919606512,1.8009722722325459,-1.0205104660612787,-2.0288608332101865,-2.4770550781693292,-1.5734805389380335,3.4549040989334623,2.395387842748355,2.457768761881269,1.865401316663161,4.178038108262467,4.959575232328623,4.834446702244705,2.254840779900168,-1.471848162129968,-0.9014848124257423,-0.3973238133958167,3.8714278666462905,3.1785319095414986,4.383153403084534,-3.3837764299943505,-4.390687566604868,-5.968735163983036,-1.1461293193469517,-2.6449259141414694,0.7090977209791818,-3.1965899443654497,-12.326844159152719,-0.0698139823854772,-0.021231747689149025,3.9126216513692387]},{"bias_weight":-5.460646591899873,"weights":[-4.011107442704746,-1.9137876899643826,-2.965790798786222,-4.746581756874837,-6.548989039017887,-0.8130422041885825,-4.523601436681893,-8.691473344173485,-5.8991481273240565,-12.13358145853657,-15.284622216984182,-12.287424372338728,-5.072355705692365,-1.6434077186034135,1.959998371525753,2.5797286969151507,-5.817309068154578,-1.8566018913838143,0.444889964723467,0.12651476338282963,-0.15785557743575535,-1.2607334901488756,-6.159115534854394,-1.7190504140795728,-0.8983102923296766,-2.639941690632119,-3.081387387563204,-8.434210504714097,-3.6759287056442473,-4.526698723687621,-9.150495111485371,-7.741834448499928,-10.555869950743832,-14.234715550661267,-9.477170827792673,-4.49890538375702,-0.5610660448493313,-0.2869510615054024,-1.3736458193039018,-5.966426234280865,-4.212449001159482,-4.440289383386916,-4.270721910699459,-4.9492704871686035,-4.634809499564746,-7.724403304839634,9.310111315439132,0.20773013500383622,-5.001450804435079,-9.949022648888233,-9.300396037426951,-10.868361724142527,-4.41197738270405,0.13307509581815286,-4.052905702793193,1.9282058069400965,-4.092190052251608,2.7569953391676414,0.151632857698168,9.889877917376142,4.293840963833799,-4.560153412941861,4.671939199590352,8.308334057565308,4.817412380945992,-7.724599152029574,0.89969187827224,4.514591231288174,-6.265010333498209,11.784213067996895,3.7175545795511806,-1.8982515654939927,-3.6486002494380063,-2.7763934714887526,-3.112165811986326,4.209080588287395,4.891149580906633,1.468222945432111,3.8279372545117067,6.084314494965836,7.02712397194373,4.666033950295127,17.321277393988847,14.002402335472246,2.2246274453093804,7.773356742012903,16.719106761360464,3.107130310442553,-11.96153129434594,-7.621003270261519,3.6793691732231446,-12.736018420692927,3.0736538909313795,-36.10788721151306,-14.623117268466379,-0.0698139823854772,-0.021231747689149025,11.458164155185553]},{"bias_weight":-3.9217985534395488,"weights":[0.02593032483533929,-2.723759321302779,-2.2485225511283504,3.3025674078720773,5.673096344484543,1.9425847865735961,-6.886179123328099,-4.773247395472216,-7.0320969450100455,-13.140670090068978,-8.194425894397511,-10.605918780135424,-9.074909260296067,-12.310475390109916,-7.121672020146382,-10.278804006713639,-9.466831602312883,-6.594733371741811,-10.09606028195173,-10.190667290811168,-1.8663444637159092,1.1512048178921672,0.2767488967038561,5.6378903545714225,1.3298981975105673,0.32297243929585273,4.897066716211413,4.8955277870393505,0.6877460758598406,-7.263668778102757,-4.546134608156452,-6.810291597952406,-12.647312696351536,-5.949112284059334,-5.417234388016693,-3.1218001421952173,-9.714557305953422,-6.116005461446685,-8.847913632521214,-8.502899824742098,-6.40410042879063,-10.944553054523707,-10.021338684802473,-4.227931487495167,-0.7069556699531224,-2.4838286288880167,7.967227246378563,-4.688180548917567,-5.867307328899917,-9.483651176445047,-11.413175781620449,-2.7106759464907904,-16.923453595090614,-8.100721820622326,-12.95528561205577,0.5171529926893255,-8.93710675260102,2.0659784600817774,-0.5450571398214309,-5.18072098151865,2.159374580056508,6.097406483949254,-12.911017492733672,-19.590995424061862,-5.686414118312554,-12.474003960293386,0.40298138950745205,-9.920798996151744,-4.289365720509317,5.220479356567917,-12.815095892619807,-8.296413961984504,-12.299949246562463,-21.336004543090265,-8.667550268660989,-13.793118403274727,-6.7117563431063285,-8.657692808360842,1.9741864668107363,-10.795701142892563,8.917429863823843,3.7764119671491327,1.3311671499315827,7.576749749354698,8.041403378086995,-9.936770181881624,-19.04123472308803,-11.616250311954218,-11.287521828224152,-2.050096589038637,-18.55463527544565,-10.498384738418089,0.09430629499453393,-30.657782276975297,-6.741775848784314,-0.0698139823854772,-0.021231747689149025,15.497666211971868]},{"bias_weight":5.273727843260708,"weights":[-10.163778408937976,-13.226295182314914,-13.97717731498123,-6.1424176652867075,-0.05198755980570641,0.17533751612323167,-0.1955536213752206,-2.4750789057205544,-7.112675334189435,-9.164983123201317,-13.619799365693845,-15.24319893529626,-7.607998367566875,-5.746689808934119,-6.9589977146518365,-3.0537248355959314,0.5098053845606915,-0.6834820722496766,-2.8702728985358847,-4.3268008992055,-2.957350642426629,-1.1962795553747114,-3.717030031796332,-6.54223216764349,-8.895274140378868,-11.607821224545777,-5.185309215432284,1.2380716752130314,0.618987370512334,-0.33149446259509163,-2.3249696650706033,-8.120224313426734,-10.311594602260746,-14.663958191449426,-17.307922128493036,-7.693073319413052,-6.1157180090178835,-5.041146989491237,-1.1122814996650927,0.7402191757275188,-1.6009031895429862,-2.672338385847017,-4.1110638344452015,-5.555398956787376,-5.3114490557461,-7.5194400268321875,3.0658229916118365,-2.37406779819005,-3.2448945333927295,0.31361684118338634,-2.610870526016122,-8.263075735725305,-3.201020569953976,4.626623159280903,3.4220545138305845,-1.508011495742314,2.0969472817782826,1.6842490990888836,-6.055834264423375,-12.950858074643053,-2.561896773184384,-3.506328043329473,2.353032042107888,-5.8202886521840345,-6.365869093835657,-7.629831245551787,1.0698201798901201,4.3708632118618675,-5.224703088718769,-0.24644480893173756,-6.595873999951426,-5.6247149693818,-3.2000625918943277,-7.73638357066867,-11.656143448559735,-5.715295574969223,8.703986144969294,3.780304771242293,-3.9692960116848246,-0.4291899434074997,2.259607610861799,-0.1001321708680596,-14.173939302751307,0.20704920984512976,2.001367528375496,7.007907574981958,-2.217453740332214,-2.9960678437542128,-0.4345902049644468,3.880835016303526,2.632990607962009,-1.6108377477732467,-1.9414383568699796,-2.518543216044632,-31.852339742335257,-0.0698139823854772,-0.021231747689149025,-9.398001858915574]},{"bias_weight":-13.580561454887077,"weights":[-0.06695250923237629,0.009381587764382292,-0.24397930240113913,1.4941894119092776,-3.1853099088103876,-1.0721876602571558,-0.65929623582318,-2.4385328572580263,-3.691476895382498,-2.3118794631024975,-1.225196393594045,-6.2900499751884595,-7.360643494254312,-11.855983679260243,-11.369890209994834,-11.911924025938157,-7.288751230686655,-6.7760710996966305,-6.542406542421951,-5.037111011400277,-6.181173438393842,-6.126694271423498,-4.2767101690444,-0.6862605407998312,0.2588747198351416,-0.2465940730221026,1.5201528203476145,-3.2769912430238373,-1.6191874720242059,-0.5398693308931225,-2.092267149798131,-1.4920297170158068,0.19693332654593063,1.3472234784672812,-1.9840825783401665,-3.8169794963804,-8.375405017125376,-10.42231252699698,-10.784465684640546,-6.9998142797031075,-5.406504348309019,-6.431821811657461,-5.340729819191351,-6.748064651515492,-5.37763650478701,-3.5230700786274527,10.302702991463256,-1.2852806724295585,-3.272338665323956,1.8035457595551272,3.7420340477146965,1.2760401541692796,-2.1801930363343915,-5.156660393059694,-8.564057885814014,-1.6040131350980495,-4.536342123701773,1.659081548816213,6.3828726060551935,14.975950400341025,10.149685367536197,10.536881557405257,19.49031167685377,13.784085008073435,17.210463671735436,9.474793951348602,5.948369258889107,6.597570918653062,5.694215369168469,9.98132191409413,-4.635801544558233,-7.569680740398492,0.2865649694890797,6.720590299120281,3.112744715727377,2.4507213568600443,-5.600538409809345,-10.377222615165696,-2.738674751906316,-6.551885201019961,1.217037729711223,3.9206743781797866,10.644393587208608,8.415575174695316,11.869016806406115,16.304596162562135,12.547265289017366,14.68778459267827,6.632707767227039,2.901234286387674,6.177437137596081,7.79441231033037,3.00342725399401,-51.42911432033921,6.632230070561619,-0.0698139823854772,-0.021231747689149025,1.0914112256832271]},{"bias_weight":43.483727191045794,"weights":[-2.5358911815796485,0.7385247989611319,3.5125018284731997,2.613524009315162,1.4609438969708695,-0.3817250171274197,-3.4389051038280347,-6.714649984174743,-7.17532100005513,-12.128482376587373,-7.331445507499988,-3.1194625853659645,1.6351582890725516,5.099404751530716,5.949180884527695,5.33649302444878,3.6134617377714244,1.406541564237315,-0.5230817690056679,-1.4260839434007142,-1.250087149704049,-2.285438955449001,-3.2831906972791796,-0.39537413535030247,2.1147468719999982,3.6988338541945005,3.6787629046953154,2.3122005370868655,2.952240119126077,0.2071772057952686,-3.3480254282734734,-7.116503201013917,-10.210370064193336,-5.34912853931748,-2.366397425687751,-0.06029049291808156,2.847523642312263,4.948713605220612,4.449233397024606,2.93626640797882,0.024274778060624322,-0.6163610610638098,-2.9072681829834965,-1.348170494346772,-1.9376278826287467,-2.939683670331354,0.1871387121194018,-0.22788765603683733,0.9194766812072248,-6.670825294387047,-8.129755061771698,-4.858039062608638,4.5713470430463685,8.041498277912249,9.480102540745861,11.104517053171739,11.720925715912877,13.981317193987625,4.764738514168157,8.649517000649674,1.9365982240443853,-3.8332306877065663,-1.3120097876430512,-6.934002914402212,-2.693540267165585,-1.6376031085139777,2.603334278602794,0.7392574707456756,1.7888851332859652,4.932953275562998,2.756275962167251,4.183805349411964,-5.148024484817459,-11.283000000057017,-8.67334188611881,