{"learning_rate":0.001,"layers":[{"function":"SELU","size":98,"inputSize":98,"neurons":[{"bias_weight":17.45022408565879,"weights":[-2.6044535651431757,-2.0729042157997895,-1.9915939203975899,-0.612487706927094,-1.3160194085658108,-1.0478920016426079,-0.01028850666315933,0.38969378378611724,0.2402639326449394,3.1954867789838146,2.225456260860551,-0.010731310794750355,-1.8134179751801154,-0.8672530405930219,-3.513882452111411,-4.470537743654494,-7.792924443316917,-6.171549536591999,-2.0484471632828987,-0.8026950651691538,0.6874511230122686,-1.4207228578634241,1.3313310129588716,-1.6344175778582395,-1.7274388501227824,-1.4639435114383557,0.10149735174332612,-0.5747409406658333,-1.9547569770353321,-0.13794268718267846,1.1112371383683881,0.728078953711376,3.2484081513803176,1.4251164151670301,-1.1467532477790754,-1.2106222378228515,-0.6648726044496576,-4.46571754035314,-3.377420916071449,-4.8455772360805485,-3.9086840185078424,-1.4790691816675343,-1.1353578269830824,-0.5374318485457797,-1.6744443329593919,-1.2813705423161175,-4.364206608454301,1.1239202804387642,-3.059116497938936,-1.8923897137569696,-1.0546989410564036,-4.257218460326138,-8.758965892987508,-1.1417379255553686,-1.9576002253396863,-3.206280705113338,-4.596152022610236,3.5720702728714806,-0.1631731466696451,2.228974008438047,0.1989669787705185,-1.6691305973943635,-6.183290569600912,-0.9223391070867306,-8.093469412331528,-9.914455208388768,-8.719974052549185,-3.861683283109883,-4.216912557712065,-6.273049484093045,-3.842757861502755,-3.316269156330031,-4.345495512638097,-5.220730686712071,-6.948056832688968,-5.598078873560854,0.33269315851789616,-2.3198011520406174,-3.1476087791321077,-5.24451898686985,0.48990231209964125,-2.5956685663207275,-0.8300599193461712,-4.387620647847789,-5.191608681753354,-10.01500255632867,-3.586658035862701,-8.574756688733977,-7.982790463087697,-6.173769954043133,-5.649340187613728,-2.7684171856268955,0.3434111113657122,-3.020326234817316,6.22960248441372,-0.0698139823854772,-0.021231747689149025,14.03582916776169]},{"bias_weight":0.8340096443098566,"weights":[-0.17321627762666478,0.7992081280905002,0.5579871558332469,-0.7967431091561631,-1.3136608425909992,-1.8629704456814464,-1.2462379232642902,-2.5122898487602106,-3.0877974735455243,-3.295526146655068,-0.5496228718327282,3.1229584988574466,3.7656522817177698,5.103684269532608,2.901167891578917,2.2468428726504235,1.509954711275459,1.4145366639974573,1.03683798856397,0.4400669019132318,-0.16259902575654775,0.01678411578147773,-0.856467387618574,0.5384532726234151,1.5346925637179374,1.03353410626383,-0.3143124581454315,-0.4099561266143964,-1.144973536176803,-1.2509390119052712,-2.6592922340922174,-4.8785843913704126,-4.59332537110981,-3.972342926382351,0.9942963815000032,1.429567590956809,1.40822529758979,0.4893871147248714,2.080586110882911,0.6490424611537122,0.07463768052707517,-0.10387142940502558,-0.7968211459790244,-1.4168291783977838,-0.9410652686492307,-2.3158160051687013,-6.672266040989181,-4.660080777196734,-2.782049050530234,-1.745604608870853,-6.105857402703409,-2.88169290305795,1.0057008099552052,0.012441920007054597,-1.580910098675037,1.7845859557870507,3.401754886315852,0.7910488802406752,2.448522269939857,-1.2532989789333275,-4.399961308149438,-4.057975150249441,-0.8599108863020514,3.7041011442161156,1.4376983103443108,1.6758576401870966,1.260929164888354,7.178266731047244,8.32565619775542,0.1968807151741165,-1.7408094598131447,-1.2324758420708264,-2.9311034918607417,-5.784258659579283,-3.8332585725189614,-0.6943239942215073,1.1969669238152665,-0.029780359671033523,1.847432811683657,2.0870472148970247,-2.4382306595522825,4.089098055340748,-0.49659809506090696,1.816169840954289,3.1942448726085946,5.129754378537408,4.724083411077569,4.3897595276906065,1.364335388033042,-0.5610840012696572,3.716305107616381,3.1376838574878154,1.4954804911435857,19.842498252100867,-5.835092979062672,-0.0698139823854772,-0.021231747689149025,-12.079036379515632]},{"bias_weight":3.8906262996104624,"weights":[0.2833830992383885,0.6182299133205211,-0.1306720143088589,-1.462189944159951,1.4672852808982042,1.6847394933241717,2.3083606558451204,2.009045378032075,1.182983065985855,0.0209648886879028,1.1137244133700204,1.7853515614481037,2.9069514259352176,4.04381454345202,2.924757362264364,2.839854918273176,1.6147028735449616,1.3381708141204536,-0.6923507015878261,-0.47628196080055374,1.176153719996398,1.809522117073637,1.8344596366191275,-0.6428451529849046,-1.8354689568009068,-1.1859437869466514,-0.6687704526764197,0.2812327027262828,0.9109896927644526,2.266002307604413,2.2676264665395127,2.650837668501927,2.8888232072446924,2.9174771383739446,2.8865510240251826,3.691848639511621,4.245834456750351,3.829848043367352,2.6700488882597986,0.31043684735165694,-1.1402181050419478,-1.791465762265437,-1.1438137966225081,-0.27813434004170234,0.39096425467815404,1.2487477229771775,4.238710239841804,3.3716564637083937,2.6479391567296116,0.19226873119487498,-0.9954590787363657,2.305225713048408,2.15794380157782,5.619219965550861,3.8952055667717516,4.9041148209805066,3.447587487535604,2.981008946020914,1.911589111197439,4.289559762801065,2.9540188702960237,1.7729995833133487,2.231377354287654,3.4270308206373272,0.8391089316806812,0.24048029092710244,1.4570567859188233,-0.5811969096772889,-2.9353264518204396,4.080959546368675,-0.34141152386607315,-3.0440974544599406,-2.868432454648236,-2.5419057120776003,1.5583289490201777,0.3429707415968523,3.688654108688361,2.2285578485062425,5.785413796074881,5.041179098952819,3.8014520330561443,6.245824228272752,4.139830000746535,3.1732751776619943,3.9028454500407257,2.438452443534996,3.9312717782592195,-2.3583410527260793,-1.8201749534856884,0.3431722145328101,-1.7640783232942652,-3.0044850576035755,-0.9061842268002525,6.535243278499141,-19.69795929951916,-0.0698139823854772,-0.021231747689149025,5.52513492429515]},{"bias_weight":13.052359343993224,"weights":[0.6501019486625864,-0.8664162167685268,-1.608326386593797,-0.5337149328633051,0.2681680162357984,1.2233199701649735,0.5570083709959653,-0.4794669085206434,-1.030840313342903,-3.4803217355642495,-5.485660651286209,-6.324686672869462,-8.305682420238202,-9.167841159590331,-7.312932756924461,-1.7518098334596226,0.6416273466486991,1.220021408466674,2.5316901176270648,1.6208704630155404,1.6030835753369672,0.5127572272605022,-0.03870275800184336,2.9967056631989277,1.835189786647222,1.8267957658808345,1.4656059301207849,2.9279396431736298,2.0898926954881905,1.0642341924134897,0.11118528367521635,-0.6067966657312666,-2.4374474651942997,-4.309341982483985,-4.387365303313906,-5.40097852576013,-5.410199650802576,-3.035445479051332,0.050147824432638086,1.1880112031460346,3.212454862205762,3.388457448567875,1.4878178779227316,0.6183953714259643,-0.1045667939662331,-0.48771382046503003,2.5936732129496645,0.4803992656841625,-1.4116682137294236,-1.6113623930144878,-1.088101315562295,-1.568246842444527,-2.8811991973012328,-2.5743840386074117,-2.3538430845064555,-4.100256176878437,-1.8548457853398335,-4.19137383982933,0.09689069995168295,3.7441693596701926,2.299121931639833,-0.3816412009555747,0.7951072883296492,-0.30645796348060705,1.1666086033626946,-6.3394772668746,-5.812408521532185,-3.3429361739903554,-3.394552602170374,0.41787375515140107,-1.9158618202538464,2.209462235308546,1.4212554862565132,1.671842493503469,-0.09565603551395471,-1.0691361192586348,-2.7078091092255905,-3.0397020507669206,-4.333019269174882,-4.10907037613032,-2.665652804565419,-2.6274083446997474,-1.408516539510807,-3.1394805130192487,-3.053164928699427,-0.02953543700084445,-4.074682920565327,-1.5731455591904295,-3.5612630661716254,-2.027069021548963,-1.7678747464635385,-0.5909720585266783,2.6555924590002924,-6.303611935986942,27.4120521667504,-0.0698139823854772,-0.021231747689149025,14.960474409730004]},{"bias_weight":24.005641099340668,"weights":[-0.13346225743855422,2.4411151205396777,1.1375640015825252,2.879209801060433,2.284606646227816,0.17871019988846729,-0.14856110542298412,-1.2732781157238173,-2.6282613635858936,-2.442261538133285,-1.3861910517990579,-0.8112895510936452,-0.8934400144301048,-0.1425941538062965,3.3263088219613985,2.7188587483844957,4.240207851360695,4.995705503993169,2.298469361054455,1.3843234207341548,1.0792354828535395,-1.138668565137969,-1.4258363870889696,1.8091955080244262,1.5594889989676954,1.3727082820365706,2.9681503346376186,0.526324213063729,-1.2668016367260675,-0.9218616792558547,-0.9493647122372109,-2.9292901661540456,-2.615047206454999,-1.5737753919943096,-1.4908121928984985,0.028630604443742533,1.8925233271207416,5.21849707021522,5.274726059554065,3.2643036368579716,3.464387985321315,1.178935059304184,2.0951753755321154,1.8048013470929325,0.556036257672279,-0.9399381968892819,5.820557598424553,1.067735490614758,-4.282521827747068,-0.15980426294058706,2.824829854698223,5.273572128533864,2.04636556945944,4.472198172186683,8.364356133613626,12.526507091147012,12.488286064067298,9.236120921409304,6.858805520915617,7.808928609447776,6.545396134407893,4.853956767297264,6.730108309184064,9.839862151936268,5.959461258719049,4.027705194861471,2.7056620542428744,2.061618747481065,-2.0994219783437074,11.45372374242702,3.0349114812607865,1.1842255069590646,3.0021325424702896,1.6174206740617338,8.066424404695153,1.199496694995276,2.25816204463856,5.670293441325956,10.629502218642278,13.067539063053035,9.961900712914057,4.086590739548658,5.758441443962663,3.168593751579109,2.4525720011191106,5.265999981379869,10.025099848085745,4.507919168152515,9.312528481728705,6.105174764192119,2.7199120071217577,-2.5522288584641126,-0.3135614150165964,-9.889557748587832,-8.025856143366063,-0.0698139823854772,-0.021231747689149025,-8.465779658051979]},{"bias_weight":32.0346601469475,"weights":[2.6949294103714103,-0.48968701604580855,1.0055134057142345,0.5352559741170622,1.1839897556453465,1.7418489317540236,0.9822035941720101,-1.9442649542604094,0.5681228560789373,1.5983359914070576,1.2713776484142378,0.9411457820658793,0.6636069400130268,1.4286068009593516,0.30003702667204196,-0.14784646061285492,0.7197713405785162,-0.17938777059270844,0.1736196179495459,0.7683244689923523,1.5525405220770716,1.9942147225777849,2.6420231760459005,3.710206107919215,1.2236992637396251,3.0662660070930317,0.7740623729985181,2.528203587902216,3.741308928579224,2.351290905095051,1.4039703721604717,1.7723983690639185,1.4372169551098228,1.4814961915999372,1.24255778344903,0.8022940637545681,-0.8159791637988992,-0.2548430029451748,-0.7847934887264918,0.929989475243109,1.3464571917971284,2.374209980066896,1.9277353976993374,2.9129739000855412,0.9895472810733715,2.0374298205060075,2.1606035569168247,-0.29801039240769317,0.33790927194697296,1.8891499772333546,0.7892394058526483,2.857672839182642,5.357523312903654,5.175247185997388,6.087443772231711,12.170391862536214,7.707954478396473,4.366190783604894,2.864853313992169,0.020026329383462046,2.9162016175414363,-1.7597808225961085,-1.4268539776082036,-3.0441498172067116,-7.400430333330663,-4.043330128807962,-3.2282621173309667,-2.162959371712242,5.0577050040747755,1.5716430885756798,-1.6179793599050158,3.75585344590202,4.295005200596946,2.377713196351636,0.7880560913687685,3.911004587226798,2.5828719811439265,0.2949224879368097,3.880535819949013,4.326719659889285,3.169956549723211,1.2410864075462362,-6.325049030436139,-4.254197765902213,-4.642073844067524,-3.8239926892924028,-5.776984130486142,-5.0676165736023355,-5.7536399178775675,-5.1212567348334765,-2.62287472614941,2.4946322070355027,1.4673874390407486,-38.221567558982876,-10.461663199717345,-0.0698139823854772,-0.021231747689149025,11.597434895146714]},{"bias_weight":11.033080723108672,"weights":[-0.46795333940635897,-0.8651381018100366,-1.3748639734532788,-0.8133315373611723,-0.19831788451691687,-1.3430524793277987,-0.803742548556814,-1.414803342477446,0.5097311362466165,-2.632568509201141,-3.8401057762737327,-4.660004323761057,-3.9563747899698725,-3.665086384085275,-5.070171182708233,-4.251831785332672,-2.9310262029095315,-1.6574291250846753,-1.5330071332759652,-5.5198863277846195,-2.5481286289900864,-2.494267492953776,0.7602644198789199,-0.2360719021456448,-1.3795172194899712,-1.1852518752292638,-1.0942465232735414,0.012101217106536286,-0.5331902444762565,0.7748096913363566,0.8161069462824484,2.1882989883134076,-1.6302892398609972,-2.917138936359697,-2.2855209206844442,0.31239745829245863,0.18408234337683071,-1.5503890205685742,-2.0858114579289606,-0.32372184079183236,-0.10755387991309515,0.06171213122778137,-4.457628005516738,-1.662956327409145,-1.336877463208245,0.8446326243362504,4.17671966281952,-8.033615010681194,-11.81613969955763,-2.4412107505344487,0.3661250076636339,3.4689587573442835,3.4792596272267464,10.737796574147918,8.262680416051422,-0.2129193197992426,1.2860427298460066,4.015959669877994,9.97092918416344,7.832627564480865,7.257835800066211,7.5258727895016895,-0.9462651992084233,0.18322078592976743,-0.9612164382920303,-3.8334272733883195,-10.295100374113392,-9.311328651737291,-16.809042375181836,3.8590080431363973,-5.6808085193451765,-5.013008397725123,-0.3853972345035609,1.1433623315406687,5.054151136973377,4.637279585541432,7.761042911661232,5.216727819305715,-2.752213180942048,-1.202304805589638,3.814954447085649,0.744425884899722,2.946294097435004,-2.2039403428192323,-1.3021039920278341,-6.201095957575137,-3.780531325357651,-5.392343655290515,-4.205565834534467,-6.088458305919465,-9.44878954776828,-13.855069827921106,-0.3310404269854343,13.317287449727889,4.720203353845456,-0.0698139823854772,-0.021231747689149025,-25.778039143097086]},{"bias_weight":-3.3612764429982764,"weights":[-3.8201537733800732,-3.227386733880735,-2.122536153268989,-0.9823234390425,3.3410564582488966,2.879646310794045,-2.3330732608371436,-5.85956963433373,-6.755662216810761,-8.982408359299676,-9.943732031390866,-9.716856111663251,-8.635154207392286,-8.025096675556286,-1.7053279981008471,0.46485363828483733,-0.7152798434137022,1.5636131473541488,-1.784346838421372,-0.6504859081678636,-2.218828860638644,-1.4846233394008952,-0.16358305091465483,-0.8729654239193197,0.013846038615561518,-0.6264951637989598,1.5312416899140606,4.86438378772188,3.851261722155444,-0.8008359789180168,-5.207962248963472,-6.522311299221919,-8.070725228981933,-9.891664377354978,-10.515091472277296,-9.924971010439938,-9.458464710860776,-4.32692929402031,-0.48725549568752663,-1.2239492099580205,-0.6380416862655507,-4.34927140804896,-2.967976473147699,-6.0384922238561956,-4.405322388180153,-4.6744770160548015,3.140086771087343,3.2106690051946227,7.77444864008971,8.15364542758077,2.348773037154953,-0.7674838413773312,-1.8566271432925807,0.04000274230687903,-1.2043201720799248,-0.30534686363227337,-3.5089853200341303,-2.257860285287216,0.43407292897561534,0.8433731553305964,4.282907036366927,-1.2734037645080316,12.286923455079165,5.637603343885401,10.204675754080322,12.504209646207745,15.40682001197859,11.023239737903134,9.626294077102452,-0.9688502117753868,-1.9568209330463824,-3.921210177422669,3.1026038137795267,1.3668865749203505,-5.02600674145978,-4.934570923697218,-0.41907830870179064,0.3277278431470883,1.6097365004577429,-0.31481911345754515,-3.5868315091624527,4.736365044892481,2.5872542592290615,12.206554228054893,6.654085895158009,20.012300093832398,10.600586286121928,12.331260928646927,9.291624596180387,8.757180308339077,7.31938509221933,10.255462836017722,0.785597349999821,1.5963482776208122,-19.163297870945453,-0.0698139823854772,-0.021231747689149025,11.734466680190511]},{"bias_weight":-12.81710744790628,"weights":[-7.83930057842214,-3.913610398225199,1.2468545476638677,-3.2317384321971483,-1.776156243970147,-1.8330814970302374,-5.217022736469131,-9.888331088441378,-11.46689600283798,-7.325262882754339,-5.657920939115559,-5.0409818055350835,-8.492366052972423,-9.593609040976652,-2.8855514901141865,0.8838097007624185,-2.1658845837063274,0.8721907260142758,0.11180482047957457,0.8813523660755141,-0.1602555624812379,1.1827682246836335,0.9061465629369682,-6.871880385356287,-3.561504214280583,-0.434567708509279,-3.0228603306806905,-1.7337133502509532,-1.9730897726761434,-3.6137782696829848,-8.875332094661845,-11.199771897937826,-7.472470373633939,-6.044046044356129,-6.2453395428542455,-10.244943466781328,-9.669636979470583,-6.5181995507564,-1.618568292703172,-1.7510021238348346,-0.8162679345434836,-3.286713767562249,-1.4631559349347723,-3.77532497844269,-1.160253467366782,-2.1237729512034345,4.965446046325676,-0.9246834271731963,4.150132377787136,6.569777749569213,2.6202373730138038,2.7901068701247365,1.3992594913260197,6.1439005887835405,3.094659938507918,-3.5809798538102164,-7.648291053326005,4.371346621453274,4.685229556517652,7.723647894693248,4.4914859945923,3.8472956815933044,11.17132484292558,2.1342481469953665,3.765492606739911,7.845616618440666,15.263247878308315,5.197425075806361,-6.635704140659441,-0.573850132310946,-6.145375286875673,-7.18327835408527,2.0266347149510153,5.118877442091097,2.8118094337162907,-1.049835432807582,7.34097371857621,6.729240981124662,4.529771364180899,-0.40578147393637587,6.679305365682049,8.006036127865643,10.399224833300856,10.440361289077149,5.607330902086592,14.582668415359032,4.7134586840780495,3.116202902437247,4.824892657075864,8.68847615923809,1.4341892818177329,-1.924962234967863,-1.3261294888354773,1.023798831660615,-13.66468785208252,-0.0698139823854772,-0.021231747689149025,13.796618237760839]},{"bias_weight":-7.816399085177846,"weights":[-3.635150841093688,-2.8964798841764385,-5.006404972338185,-9.102688298759352,-9.33593543884765,-13.386312363543745,-13.09100551261999,-10.2284131255027,-10.135706669103504,-6.005565367754128,-2.4563278601546443,-2.4946251359337657,-4.341639886545378,-3.1610329835432145,-1.6802830532685344,0.17903558372832323,-0.7564687661855977,-0.9230683968302658,-2.3680714396083418,0.13565020361515726,-1.5368656776723228,-2.7344826109663405,-3.1577130135791607,-2.3747414251550216,-2.933698793844054,-4.651501205406751,-6.586112995129362,-7.471883919678311,-11.640118093605548,-9.984577915485003,-7.50466578044023,-6.488690151923521,-1.6792598837223407,-1.2625608305625418,-0.32589551141888473,-2.6671723165941663,-2.742976928818054,0.16716900909779303,0.4456607206854245,-0.761957196108486,-0.9647819570096318,-2.4895255231507147,-0.6854442832012091,-3.5392191284894383,-5.635251397168363,-4.220862848884215,-3.7635829550206004,-5.717583334131416,-2.541198530327674,1.7225043511470242,1.6803407954709682,2.9115423442025796,3.1801568143200174,5.8245324295708825,4.259991247389895,1.1580653173808029,-6.0584697624221,-4.777514796331885,-4.622162109447311,-0.2333317242562013,-3.563670352354507,-2.531543214426622,-3.5873299804931564,-0.708887644710713,-1.6286968835764548,-3.686989116629496,1.3846983671687771,-0.46315642364477666,-0.39747828544504954,-1.8300393044766303,-6.304057081588016,-4.570099094491476,0.5564016080356913,1.6486561317907158,2.4833339583344705,0.0997118882313497,2.7825568057499472,3.5157429408857124,0.8044533583588526,-2.9556830099929527,-5.359350746508102,-1.8329463537577184,2.6151877453069283,-0.06206313250487328,-1.1067014993103996,-3.0427332360334787,-0.4067482517354266,-5.208943563118841,-6.824569909531124,-4.067285430073329,-3.6198565816326025,0.7559773112288496,-3.444378875852424,23.72318218184523,-17.50408021146241,-0.0698139823854772,-0.021231747689149025,0.6166959769040208]},{"bias_weight":-25.517712846648465,"weights":[-8.464241191115823,-6.120191659606685,-9.216954442211021,-7.4758844231378925,-6.923557663333076,3.79258167442761,1.003219274323036,-1.7091638577983943,-3.231523599901829,0.7676731498671092,4.761908950608795,5.563661340482566,-1.8899156796277596,-6.521670869417679,-4.078596110868211,-3.8312772647832265,-3.0551045391302445,-4.289057515482936,-6.140361451593871,-6.183150920915684,-12.065278798806803,-7.1246878823647135,-7.93469693856038,-6.716677466172826,-3.199053115276263,-8.826345300420913,-7.7101867943146205,-6.904905785641742,1.3433221196472835,-0.2723906580353675,-4.86056404019074,-5.580621204752465,-0.07350723907278738,4.638500085415048,2.6725219853865494,-3.9905563186772963,-7.423568761314446,-5.760529379288737,-5.6549712886459655,-2.7176986188963816,-3.5926429335052665,-6.8582854190262585,-4.906476153924257,-9.497745284387927,-4.184727022505406,-6.390455650447814,-14.267733721183957,-1.6804520619155416,10.1705718527819,7.387808990752452,2.016186890385833,3.487984776462228,5.476829171726313,3.45202219641956,8.020197285283844,22.736208655452696,-2.1035499739120116,-3.7599661739630537,-2.421325305067283,-8.431600382520465,-1.711566948999828,-0.7905810023643152,17.65407822954267,15.73614707431969,-1.6130733643734798,6.674469149259247,3.919426305183102,3.0271999439505763,1.521046881672679,-10.013766372111036,-2.3193391094065117,11.493245027026772,9.031444160100865,4.477655895322533,1.204457531988303,1.4501889539531823,9.038182679299853,5.520730610930457,21.513110614892682,-0.5185144412633368,-3.9494165434567168,-1.261594713711331,-5.707128721757846,5.944467067566395,3.9942762563256613,18.227937644110156,18.655315646518442,10.805192898015362,7.602843802556255,1.8091595500161413,1.52433730563211,-2.347044714555903,0.799673035707299,26.517333987793286,-8.762232752943545,-0.0698139823854772,-0.021231747689149025,-2.262251240478767]},{"bias_weight":-9.266636863975492,"weights":[-2.6469266709348616,-0.05585343489346795,0.03439611648467251,-4.029426046015038,-5.018222922781346,-7.409829000400348,-8.23278801928499,-9.840623605429787,-8.646609472951072,-9.534646512667955,-6.474142129658072,-3.6979848967708504,0.2723743356033818,0.6491005342606575,0.493647587529488,-0.7152635010560146,-0.6771912664862798,1.1138934323519378,0.44376668724888746,-0.5663714090353777,-2.453325938893623,-0.4072856922207285,-0.3761756517904223,-1.387463275549812,-0.9783730585730261,0.22946641437506943,-1.3581477025693736,-2.2037493730525,-6.208094180058125,-5.665484390464406,-7.550828717085118,-4.840521490515289,-6.1789896266013695,-8.11258485918856,-6.515127978784575,-4.241494880310196,-3.4035201376981354,-1.9482294029294795,-1.635193459805218,-1.2117455681195464,-0.10033982628094014,-0.8724308887398633,-1.8067014180608572,-4.14428637139429,-2.4928128119540793,-1.8739043262614694,-6.558654709783684,-2.8425424530415286,1.0235305476092342,-2.9521333297729115,-8.313980204322052,-8.638672212027657,-9.181735374296311,-1.8740673836370236,5.492027331932757,8.260965387279278,5.48743135961591,4.703968217112107,-2.3870557886149593,-3.8005453144208126,-5.21753905780031,-2.8555880239493256,-1.7338745513678084,-2.8963802887708887,-1.6788367437405953,1.2704321857733012,-1.208192775376385,-3.6651632974347734,-4.395366991717703,-3.4885717882950837,-2.9809513610332337,-3.0000196470329605,-4.441342068096954,-5.980685892949943,-8.489026944186106,-10.816408551726473,-0.47699776225356405,7.194831582234313,11.097713440597104,10.517102674047976,7.436995307933628,0.65256805625287,-1.10493816228871,0.3357582554461145,0.22919393056717144,2.960722569049153,-2.3115389727527544,-2.4431487060621495,-2.501987775369392,-4.1286655394018945,-4.239398545404904,-2.6110271117347317,-1.904113626198853,23.922187017112865,-28.124348631175494,-0.0698139823854772,-0.021231747689149025,-4.25785177855356]},{"bias_weight":23.41034790729106,"weights":[4.874861838739818,3.7721914814425466,0.6082942065056854,-1.4623640954665764,-1.2862367549775577,-2.024680004091756,-3.7167019606464695,-2.3205304677003262,3.268705793369058,4.39894091258268,4.875707513669434,2.9350798951492334,6.959412903654859,8.374152215560398,4.116006043673559,2.23068680518774,4.882644814429173,2.2714413208847235,-0.3591342433252527,1.1919876197501649,0.5202817041754857,-1.349127976344451,-0.2555882889990309,5.8081624855069,5.004207911480142,4.636844938106821,2.144425870945615,0.7356428848682854,0.6786733465016541,-3.57306604115237,-1.883309097699278,1.3501099024080065,2.1453592172868516,2.511012218139142,2.871811976163711,6.627582076964956,6.139329638426643,5.83047312320615,6.014712537328818,5.050279524485487,2.1662620860199655,1.5199780355052792,0.694823518426785,1.5925071940229139,-0.6072417568863383,0.37779939840769877,-0.3535228914673716,-3.614833550679036,-3.0064231494099722,1.8335101161445801,4.168441824116279,1.4536085355920405,5.02633427881048,10.812548923614813,9.759062039380009,10.022567507770413,11.077793003412383,-1.695388788736096,-6.904241538313146,-4.583903885669679,-7.678826311182477,-0.6404224448421028,-9.15957885739394,2.6188458593535633,-0.34640040618068635,-7.08597963846958,-3.3230464979880447,-2.5209049699750237,0.2914568953963573,2.153618507767173,-1.9433312532990614,4.7416190997842635,2.309601236115638,2.2206209431014923,-1.6777859651987121,1.1787321980479932,3.1589376582305237,10.610014855385554,7.883780193324308,4.306024897340467,-3.7007792372928012,-7.212373847786274,-6.828883289474269,-9.029493907374075,1.221455990043482,-2.7764245596154726,5.764809261404117,7.248438380794176,-0.45643340453442716,0.3534529916962995,-4.638498581019754,-3.160312853422138,-1.5411059250553665,6.3473420634008315,3.9831841368229712,-0.0698139823854772,-0.021231747689149025,12.718378912732575]},{"bias_weight":-4.327137616941246,"weights":[0.42236339372154946,1.6082904280737662,3.5796819264902395,4.273362287027224,2.531974949868282,2.146083394162073,1.686049146553966,0.9013214437108381,0.3019421445175242,-0.14604013505225275,1.567958883948412,1.0714891526739214,1.5591306041135662,2.4269558159415605,2.3916960535605787,3.0746701664383607,4.362362874630551,2.493828649460713,0.5582826528737957,-0.8605627873215189,-1.0834311584253316,-2.6668927427565423,-2.55071529566,0.5915220118383684,1.6397825810889726,2.2214815567718493,3.30006699878545,2.0057455985064974,1.1367454782950006,0.5487185942706595,1.1292613380838914,0.7174076928363458,1.2159187299140652,2.3686775237708813,1.334660755906484,1.3107957053836794,1.0682938542883784,2.451797957083923,3.2739235106073163,3.519682362544809,2.429899004192863,1.545258591479567,0.011210751596319036,-0.29695071667452716,-2.0022105516701187,-1.103400532318326,-0.5329695348137825,2.349880263453253,1.9923004204868533,0.9302438291077607,0.04125347173049239,-0.750401223017566,-2.8176243198678654,3.9843438494574883,6.054531419055118,5.055763472881512,0.36147395188094644,0.694046617950604,2.864027505414662,-1.2682804359392905,0.5403097118228866,2.9565591147679333,0.5851045082895822,0.7083899443469495,1.9800899490403867,1.0592864225710064,3.2726894020914092,2.7039219573047424,4.007736235978303,0.010310044213385423,2.4128378897652447,-0.14731468656097388,-2.509291144713165,-1.3323332901680822,-0.39112434442518834,-3.0194024263509003,0.8659398564075323,2.85770824017504,0.31239538400923367,-2.987265892492106,-0.14187458906724276,3.1953819121281257,0.33920659356648425,3.659350474391827,4.443416484057792,0.7357151929566642,-1.778347860044911,-2.321735632830628,-2.4086152388731192,0.7942956445981729,1.6441398506872826,1.6101229769681409,-1.6312932259252875,7.061338896234517,-6.232718487950227,-0.0698139823854772,-0.021231747689149025,4.980498287046721]},{"bias_weight":11.469437231291284,"weights":[0.26858034382333784,-0.31870614047426277,-1.7583847637055001,-4.053581937678223,-6.149397449195518,-3.7323920279519953,-2.452656164092663,-4.367536393993941,-1.411693482094929,-2.051939360877782,-2.675205538094395,-1.3691965093759086,-1.714539519648821,-3.3235593461412285,-2.064535901156106,-3.1968038448488016,-1.6315731094152037,-2.8922709611989394,-1.5958553245240128,-1.3117925416357719,-2.7715577009986188,-0.6231782373849647,0.24625988782588012,2.140376514745505,1.4059574669737434,0.1509179735570538,-1.398980714077851,-4.227007994891431,1.0241732648063413,2.848720412196068,0.16796592287674997,1.602580413445757,0.937377959632067,0.4304906459970269,0.5119443086116966,1.6654877942256812,-3.1230340672503156,-2.8994537759609225,-3.0150427028132487,-0.8538744259615435,-1.3889876828344383,-0.2514211536637127,0.21405528739751384,-1.2690586600421578,0.9926810676168639,1.2292391292301024,2.4506027356507842,4.806368195895356,3.8875701854908944,0.41325233482212975,-0.07643311037768495,-3.551503498536864,-6.579714337937674,1.4755897206661646,4.55945194798363,5.712392775883895,1.5412645309912574,3.426673137083791,5.683355799317896,5.354365579665928,-2.8027766515265022,0.6046910895660388,0.5348351199257142,-2.3339280072782964,-6.945664788136247,-7.394493850319868,-5.8968313451090095,-2.2035855281133254,0.3040011450052144,2.8853127056038086,1.4799088503251392,5.161373832338371,-2.153843817908083,-3.5393190890751276,-3.492336618848586,-7.024993532122795,1.5360580007708344,1.5868137642896862,3.605177480992664,0.2766300715235094,0.8096649117873741,1.086950240471997,3.4970066270169684,-6.6322123865963025,-3.3919503432512705,-0.8479081664114427,-4.926766593276699,-7.452225538663585,-6.456330975857218,-5.6598457773397675,-1.8912411321831466,0.6686453707500747,0.11009314042462022,-7.184174240055344,-4.4120183143457865,-0.0698139823854772,-0.021231747689149025,-9.25669191136098]},{"bias_weight":31.79184266044553,"weights":[-0.4358495838467547,-3.4448565637222153,-3.127631206670187,-1.963506316701727,-2.577469480130685,-1.7124452180793854,-2.000627688343258,-0.8755782725182683,2.0755576590043177,1.4913734007473365,0.6660274649266665,-1.2821043702544581,-1.8844128673836866,-1.8589175872099266,-1.473652287482953,1.3953902428055152,1.317667307750987,2.4095914069196236,0.3986303716485414,0.037014546968003686,-0.9362433012431257,-0.9585074641653518,0.530569729127386,0.18203645072653504,-1.4321998566859073,-1.0911042225181249,-0.839297106497442,-1.5036329992699058,-1.5476159871985946,-0.9155775049157803,-0.0924271543308296,3.4226974329814253,2.8223060698185054,1.4535115498991849,-0.46558046563406247,-1.323134980492429,-1.782226662420635,-0.33698853316967303,0.2961961428364129,0.42942330183091565,1.4628787350904155,0.48082640030607293,-0.677933842833119,-2.282389825565225,-2.7180990057640093,0.18284340078308026,2.009190484253535,0.7235170527632455,2.9993056303673553,3.368105570019295,-1.383398594510935,0.04168636363995178,-1.3970695459249285,3.9238560833131455,0.13327388167138512,8.598819187960258,4.320603329304249,-0.19155926408416923,6.4099355688594315,3.54816414512206,4.588042615141616,2.8380934855064406,1.9679361050535917,-12.649160633054413,-5.1584868972288636,-3.0839775739716524,-5.468826576150028,-5.247461408173618,4.250669635537862,-4.315482898860487,-0.6158209136192687,6.03762722192584,5.903254728049252,0.7903110742361789,3.025206279488742,1.6405802037661834,6.1477634137176755,-0.04191668007785374,7.804038037079755,3.2091610138495965,3.527663828708247,3.309556378333681,0.4679983497714752,-1.7489628225960987,-0.19869608710925496,-1.4749838298580191,-13.95462440300013,-4.331974110147111,-1.6168434217981915,-1.7749901941829356,-2.4337850507631806,2.5566906268745346,1.4440520530542704,19.881054247380366,-3.036036303585283,-0.0698139823854772,-0.021231747689149025,20.637405974662858]},{"bias_weight":-2.6109524327954214,"weights":[1.174563024224655,1.5875071196241322,1.5766780976134924,-0.7615704541552941,-0.03564111289192126,-2.590527836939899,-5.73443793168337,-5.877072809240375,-4.011142044308929,-4.793995219980241,-3.621164631415658,0.8310707390804084,2.4982280971467308,4.011015149036446,4.0515335056491395,3.0661237967185135,2.6059528680391035,1.2435684697887746,-0.7827441674326854,-0.44968284538674247,-1.8047912698820923,-2.2407589183549312,0.5717190336772241,3.3274632909068007,2.042750959445144,2.879865207436596,0.33421111432287215,0.7442848038534676,-2.4930786986059625,-4.57847442196962,-6.37652783562656,-6.19713036167963,-6.044914019528983,-4.211298949115256,-0.572991971574442,2.3426244962888845,3.5182503237985436,3.58785003786649,3.5081379902370133,4.088817887422519,2.683330032582723,-0.043184853394531146,-0.01205525625216727,-1.1266659636903749,-1.111461431801416,1.2405674722217244,-7.790261096020244,-4.837530349146678,-6.04347143552358,-2.6050417637743255,-1.583778537031641,-2.7639150066082974,4.037981254947774,3.152251574251699,3.6521340929292467,5.529276314689179,9.490122827048374,0.39635527798804077,-0.7173220099227432,-4.846622299556955,-8.837565803992113,-4.195568108511453,-3.9592131792174166,-9.592246531271954,-5.272359396379665,-6.29955151333245,-3.8729000179868573,-2.46299390813686,-5.611996584573697,-8.995373764111703,-8.691575846764293,-2.6618118628587246,-3.5951693248783068,-5.719293004916685,-1.1361978872840333,3.1149392587592764,4.356967133128518,9.374322864971994,8.745925954923361,8.707995205344684,1.8199267783584543,2.3019071340690305,-3.3210878700879984,-10.78775554304611,-7.596300597875112,-1.9467654660845144,-11.1047185388419,-4.899109321051171,-0.05037008931514483,-7.0423608702422955,-10.249194875133869,-5.7220719354010585,-2.660376181748003,29.125747059170937,6.529218733294321,-0.0698139823854772,-0.021231747689149025,22.058462214551927]},{"bias_weight":6.381980538537834,"weights":[-5.3366308759763585,-3.9498291227528117,-4.031380443728431,-3.934356356503171,0.29343958487221433,2.700446630547678,2.9849515106113422,-1.8053003121612223,-1.1951872308577514,-2.6125965342562627,0.25229995464732163,3.790402841927425,-3.4828718486564014,-9.240769649983145,-7.788800610504836,-2.4542801369123532,-1.0811714893671123,-0.04304121360551734,4.696641715933202,2.062015119926525,-0.4897070057183945,-1.2545304884193125,0.060694681733166375,-4.785176508136587,-3.5103967349283054,-7.750545914972016,-8.97176130018681,-4.065020617053033,-1.107335068216935,1.4830691167223082,-4.945587977665826,-3.0286371078442205,-6.013718547684537,-2.3093788498727905,0.08824720965097735,-5.312270121115932,-7.780472890490929,-8.85756957820962,-2.000658530547407,0.6289817819957836,-0.09349375770710598,2.453165558178585,0.3235731804128355,-2.2279656381414576,-2.288106179574507,-1.7588513615522061,-0.4546621762264293,-7.983497558242084,-3.8304353662570327,-7.935881455619373,-21.518442801582736,-17.88529329670144,-16.114798399589734,-7.7916973162372365,-13.66622993152497,-9.917169293681095,-14.113142170077888,-7.246598514944487,-0.15628544106209868,12.287280112374553,19.00978713574667,4.5529606395918565,-0.844773147096656,-6.62805687298491,-20.843900302455353,-5.608551524679272,5.5395306358785605,-1.268523237112258,1.4046693328045154,0.7082552873566652,-2.4142291980816593,2.6439063986193463,5.424938161569995,-6.267190432866583,-3.2128034963067575,-5.070233186777567,2.1051341133483525,-10.479048174574906,0.6696652998598687,-3.6905199361447862,-1.978881338311794,-1.9254957965420096,0.7981210859899596,13.416471793969727,1.5527592653603706,-3.9166787128343548,-2.6162278463925714,-18.008838160575635,-4.461727378613802,2.4105334502848694,2.462728942134783,2.4801297486670135,-2.0869120579860514,-11.860091042635181,-3.1268767903268584,-0.0698139823854772,-0.021231747689149025,13.20539747469299]},{"bias_weight":-2.5101013969093917,"weights":[-2.2311809308613144,0.380266273569455,2.7680625897908286,2.69537568489053,0.7780051090192046,-1.6197647021180628,-2.641462511004375,-5.8366013502137974,-9.47002910500499,-11.703360586588248,-8.766094716713848,-6.136937284898653,0.22643038967540255,2.3283769656267004,3.127419457650482,2.245456435348539,2.6368349224363956,2.1985563706283995,1.3586046982466171,2.51316327220631,3.072778085061807,1.5373712311413004,0.8814548454369243,-0.6662953793743205,3.290009455349381,3.6816056896932814,3.0625401840747966,2.680387005711112,0.8499980918520837,-0.4787173877904207,-4.379029659571562,-8.222524426569816,-9.201965817959264,-9.091971027268547,-5.60007979872919,1.3126053656692283,3.8124473441208924,5.017694008172842,4.750861806646457,4.4867903808063705,3.5727375489473814,2.0675995627858414,1.5688200143939395,2.3305631834893097,1.6489634944228853,1.46537572233918,-4.417808169100913,-0.4436088408322729,-3.587306489579402,-4.739051896642224,-11.399150846680897,-7.453992046674851,-1.0783349148953763,-1.3303565786645368,2.2368760771387795,2.2555746127859297,-0.04043263913148784,-0.6770920134301115,-0.9950950028313483,-0.9284698469326461,-12.716634733630924,-7.552889059794633,-7.407672365519107,-11.743838639601902,-6.660196467236989,-5.032784926902161,-7.511326780551289,-0.8278623442510732,0.2062209642246519,4.261360502414527,1.2675112078972435,-3.264381159958748,-2.03542065870644,-7.192147047787507,-6.280247619827381,-0.575157488138319,3.730211519395418,3.7352733571402874,2.78487851349754,1.251031407892989,1.540027706016422,4.181170197515139,4.095734392155926,-4.418714790546221,-2.505027116606421,-3.721703993883606,-11.265142865505156,-10.769034870455494,-8.884232801400945,-11.628304905359713,-4.350029432894357,-3.6086056967515208,-0.21573818078908308,6.502127472363703,9.624819659106146,-0.0698139823854772,-0.021231747689149025,-12.447345589009391]},{"bias_weight":57.37799029576154,"weights":[-5.333031244075945,-3.2023746158473796,-4.097099788484111,-3.918098401503454,-2.2056127216266996,-0.5345469795551412,3.651939005840348,6.338748263539091,9.16430800340594,7.603262389101823,9.40242774339306,5.9408584272819995,0.7922951964564408,-2.4812889739402286,-6.3312230755849646,-6.99708650227766,-5.053409885184358,-3.837439332674419,-2.0831437566609194,-1.200111031325513,-0.9978649143417353,-3.1654657738518464,-2.252888198881567,-6.420880812296827,-1.6638678007083256,-2.6575606735488577,-3.48276449947408,-2.046262321880242,-1.5204583888353584,2.812332088786191,6.15748090782215,8.089607255539773,5.29784222849991,6.956377194592772,5.31934918484669,-0.19261166488087955,-3.831755508682541,-7.229383346162881,-7.603354094714755,-5.989499420305347,-5.16972221424796,-1.9764469616644724,-1.2870428401855103,-0.6863022263491408,-2.3848497478287953,-1.2464303468716942,0.5003075804818531,4.384028361439316,4.378972263223712,7.301516131193887,7.344718561976627,8.261896291107595,6.062279199047216,10.752677609282458,3.253791671536831,7.244336364238778,6.164600388392263,2.160342938638103,0.28218872800628264,6.768603104537673,14.700566757091005,18.71119415127441,13.720296940293855,14.421608886380126,13.21275586142302,11.828330809007067,11.260827335338087,9.9079981835961,12.180511231818818,1.363039154446805,4.062677860536097,9.876807312376366,10.01301374801206,11.811149239039267,11.302337072653879,6.569293828796599,13.967231247593208,-0.2592126469898982,1.6989492898795202,3.0198501900548407,-2.479773167017015,-7.613948954181266,-0.46496038116508537,9.238747834021853,12.715472430740915,5.283894065406203,5.636855228469915,8.26216524853735,7.9848491323150075,6.3056646441591155,3.3654194610313026,3.1163333459435885,-0.3229334327404075,-2.9784215213725935,-10.703264817085747,-0.0698139823854772,-0.021231747689149025,-26.599123984186615]},{"bias_weight":-0.17354784384075006,"weights":[-10.83732547006917,-9.859366612553869,-12.51177940509265,-9.340436945991005,-7.774313998395271,-5.156886723237321,-9.134114461788968,-6.399592751358543,-6.078855248722748,-6.55909117423225,-6.662760517369263,-3.3921198071351366,-4.469013591744729,-7.084565776090833,-4.74447938769784,-0.2721964739792212,2.2667287082166654,0.6831047534273295,-4.893513030782211,-3.5526162505541037,-5.513044216497765,-6.252903066688619,-3.126651906164098,-6.055936461674526,-4.810620459307823,-6.917727433011875,-5.68947795574142,-3.8182017925357923,-1.1425168040247866,-6.490585338988426,-6.4975160941623455,-7.520915667433134,-9.127869683912133,-8.4287568092801,-5.180574165116584,-6.064643758174384,-10.70892309463472,-3.0715352896360955,0.5952342692697747,0.8006919648194748,-1.3684060189650007,-5.661233219156415,-5.082461617239378,-7.13117859631266,-7.009939247519677,-3.4468473152273185,-1.4232976006959992,7.996520493333472,6.118812202195171,12.14001281842564,-2.884510116461226,2.9344793283622908,5.174819761719453,17.636504904808273,26.848486681958782,33.32066218701239,11.533277620473566,-1.3397077260541055,3.7464260745131175,4.560551722869627,-9.627939471592816,-11.56864720402147,-5.395254828494987,2.3912496687250986,-10.894768844485727,-7.954547924324829,-1.8746126836838772,2.1334898377858975,11.172294443755076,0.6876404037143864,8.22556864688604,8.979511454755237,9.870151761479269,-4.535847336295693,-2.473216486213917,-3.6894744017031944,8.86796594803649,26.929610045593655,28.96249007948024,13.011340816913824,0.3700555794506753,3.7185409377281067,0.5023777092992325,-5.240981019905883,-7.521893419298138,-4.398986331878851,3.661739332199587,3.642659502613133,-2.1945585739716678,-4.312809837174603,-5.283794435225922,6.151604003531976,-0.4094234443037466,37.19906555192294,-6.062934776847914,-0.0698139823854772,-0.021231747689149025,-6.270041267547674]},{"bias_weight":-2.599176949369596,"weights":[-3.3169912915110715,-2.61537005079789,-1.2427922970568914,-1.2565590276926106,-1.0548083425002097,-0.7503986933710541,0.4952072596512365,-0.07233514067479473,0.14853526308939383,-1.0405219868634294,-2.5106071809234947,-2.5834406544728026,-4.9518992554978825,-5.598194472135708,-4.366573347080386,-5.583371541865027,-2.4153805213584087,-4.302050163906797,-3.3187491215666047,-2.340963706536933,-2.442658925250828,-3.7459734141636245,-3.4950828760249086,-0.30752632971912325,-0.5737977184850994,0.5596108009063087,0.8439157187166347,2.1014899802932603,0.610039144309884,0.43729410164329363,0.11289728224267084,-1.5323831103636099,-0.3101987480604922,-1.5746352238354278,-3.13409004433071,-5.866083651258972,-7.037225484625241,-5.406463903806976,-7.7242173679081,-4.745240215492268,-3.4065107356904543,-0.2988152898625367,-1.1906845094277583,-0.7266601333367206,-2.180996842842345,-0.08272876515206486,0.16566940283608128,-1.8401997511300885,-3.7714168195874627,-2.0459117975042576,-0.5214325200403636,-1.80019458559666,1.4544524549995155,3.204355834733101,7.556342970567417,5.169535804383625,4.367723169183955,8.360147826677105,5.351067119839894,2.8059301229585674,-1.3047742026946874,-3.2425511561890636,-7.399786617081006,-7.467724805245552,-3.7259875760257994,-7.773618132425246,-7.7184589544425934,-4.1957885388583565,-7.533584794804482,1.764989911230646,0.3993810933926866,1.6427091671761882,-0.33629679152421355,-0.9812937039971612,-1.1399006468070985,2.2230491604505627,4.692075196885524,2.700744322276467,1.507715757074316,1.5289268701197616,6.460820141751263,1.8580163265534706,0.5981492890649813,-5.8448952275605786,-3.019332265425852,-6.822328976007916,-6.306023621758533,-3.746626090715964,-3.833829394726379,-2.6642262096423526,-2.596417883917827,-6.350780752321996,0.5524760338678811,-7.994574494356486,12.628947175935872,-0.0698139823854772,-0.021231747689149025,-13.257206773573568]},{"bias_weight":41.88575604813488,"weights":[-1.790902420796771,-2.4789126982819107,-1.4164290175487109,-1.0880638710027608,-0.8568559480852943,-1.803324822038603,-0.08546315548493603,-0.09038817063241965,-2.304265037376424,-1.0489591377227006,-4.5365525423655,-3.00321252552611,-3.102404666031343,-3.0538363702837823,-4.713898042170935,-7.626706280957101,-5.229401474953451,-4.082200760546126,-3.4026330464432033,-1.170820260769931,-1.0288087940026078,-0.5634239968533705,0.21999934529062212,0.01962817088642081,0.7482855015470412,0.4762065356248704,-0.2692060774692065,-0.7413610972317172,-2.21235501551127,-0.6595069234490979,-0.11076129277856475,-0.14256099782374032,1.8134764804978458,0.379926252577071,2.1795420144163478,2.8060615688599913,-0.904871162425394,-2.478693732495309,-3.5514152036441704,-1.0838487834098351,-0.455763204721418,-2.3097971547651626,-2.051380795921863,-1.6770514365173974,-0.03698702943225264,0.48951442741391504,0.8857708217822701,-0.8870855079922316,-1.2623054168330812,-0.17727067923226972,2.60480620169747,-2.710977236969429,-0.966123919008564,-0.22202226621026092,1.746821989064633,8.904876417580727,14.873530074797317,11.967449724184638,5.602491115087971,2.8071072503527943,7.386606531499908,7.9975369923234325,2.430855677687552,-1.7015490396164548,-3.9442561290947733,1.1476103672648608,0.1275873550634933,1.4683909196823974,5.7076094308561895,-2.65159294921533,-6.751033972844316,-3.511927954969723,-3.8160763946924168,-1.7597972694059723,-5.502568723798621,-3.822611852319838,-3.109145740868636,-2.1144891813663644,3.0465414989584336,7.571217054416868,2.627698574083247,-1.51982696576619,-0.6074593298042268,1.6165535989527366,1.5081433737283454,-1.9590184323917346,-5.3739123238415525,-4.302169024065754,2.3117857105724284,1.5859587839549862,0.6654538588073372,2.345065408940708,-0.11874190214306514,4.20081004419553,2.6858306711346875,-0.0698139823854772,-0.021231747689149025,-13.350664695422694]},{"bias_weight":-25.6611922415389,"weights":[-0.9917874933966844,-0.3357521014823429,-0.24549515783339737,-1.9002364438194819,0.6743295314659423,-0.46527997372087904,-4.291857520169043,-7.901238594741006,-13.534555868685954,-12.826489225400373,-9.188655267735145,-3.1696698945235253,-4.3905504462512255,-7.108105156737409,-2.677594197658178,-3.235615475730344,-4.2966696860977525,-4.493691116767898,-3.6878710614207377,-3.148229110053652,-7.539043016648621,-7.028143161634734,-9.806005513033423,-1.5562189428733966,0.5205712434901478,-3.495712982867312,-4.76136039208237,-2.5449543837025392,-5.674510563714318,-7.024796242885568,-9.281371096468977,-12.227242131178185,-8.977502358824117,-5.290675769400109,-0.24262223992898774,-0.19760572590377937,-2.395043933112859,-3.9972976194585916,-5.447475897839671,-3.493863731591579,-4.197581742819615,-6.749131180565317,-4.190625224137833,-10.667214992777796,-9.514623014149945,-9.567700447784858,2.70166722878229,-3.441726699532288,4.583958281254626,3.9622733485466872,-1.4330040536995368,-5.399171070264292,-12.040855056308493,-12.383386390499727,-14.816346695097034,-6.837875341278628,-16.699500775036423,0.06582727412689027,13.434939670486871,17.07431665709819,0.8897548257526747,-4.896463244633574,8.756342916520847,-3.6830871113763113,-1.623383737637163,-0.17425931903301323,-2.864533794265984,-7.019655384759836,-17.922000672631786,0.15374462314331863,-7.85942271326772,-3.5263451573117583,2.320667884683966,-1.1996116791872429,-1.173620449088491,-9.737791847276698,-5.855048840471104,-15.45453253862872,-3.8518887891584708,-13.222517253551688,-2.854905380125202,8.1362314317202,13.00900358263375,-2.5172054368477417,-10.001899882193655,1.3951756115259246,-0.5535666666732522,-3.6112811229905866,-4.794462908143222,-3.4694290027099446,-6.021301725442581,-12.908070948842267,1.5769305695103883,-13.21263900891491,-3.267652772575424,-0.0698139823854772,-0.021231747689149025,10.795993050466164]},{"bias_weight":12.537819691290576,"weights":[-0.1466633241422767,-4.757271623520714,-4.977588215137433,-6.2143903943075225,-7.558283978218372,-6.586491770929907,-6.195660493456354,-4.559425867958169,-2.080297553031974,3.142682865613485,-2.048557728238373,-3.3553431541302126,-2.1438437577930194,0.7775696386062524,1.0138255300899122,-0.9949197762037607,-1.7315173523044243,-1.0316290960411045,-1.3983101739080137,-5.536994816713345,-5.76639554620031,-8.036859831586927,-2.886396675451826,4.720119530514922,-0.6418631258997898,1.8066766066804603,-2.1977098929333505,-2.1542809585075693,-0.808335546020216,-3.1472896465528355,-2.643494521044706,-1.840082564944615,3.859465893171676,-0.20888846814130949,-2.3863931464532255,-0.7703470491468462,-0.28042569277892015,0.9450484746966629,1.6028957495800622,0.4322021173506204,1.4166043942188598,2.872259330480168,-2.5541925505873166,-1.6647708222802684,-4.321468800339177,0.3748148257165632,0.8881674315071819,4.827944784676456,-3.057360123105561,4.707847213396488,2.7747556901103647,5.8757014615090135,5.502168340221463,-0.31754382338627496,-0.5651053825157385,-3.3669659286806795,13.094045275223479,9.430241874256737,3.4080957494856605,-4.9898689803357605,-7.432983297117099,5.530254362848903,0.5388443426951353,-5.329243065716181,-11.344174024825996,-11.375152263829497,-16.911441876566386,-5.348757791754412,2.8622305268218886,0.6071739158262492,1.0763198173130748,-1.0050526069079098,5.843168532920546,5.9996729722511475,6.450072739277893,8.848885269032229,2.5566387400475508,5.61844017930996,-4.049540831587416,7.8925520361205646,8.35141500740004,-0.14601299051609817,-6.5281678783435115,-12.575173681238365,0.852243190002636,-2.258360680543398,-9.496610980358014,-11.833322759470576,-8.490734150160852,-14.122515427612715,-7.66557878927944,-1.057930307298999,0.0159829845999809,-5.805280150084429,2.809869593198562,-0.0698139823854772,-0.021231747689149025,2.2507390357101733]},{"bias_weight":-7.673340213337499,"weights":[3.447252290202488,4.052465520722816,1.1040637208284474,-3.2545237749152336,-5.9872928535308745,-6.2392251935780125,-6.04402131530774,-3.775355308590161,0.5695458882644208,4.419432411044586,8.32107645565992,7.0855182167503505,4.022827004046649,1.7044667154250526,2.374643960349175,1.0399263318195362,1.6578074552371256,3.1322695713712645,2.9945898016221224,3.673562329027084,2.3170656628683606,2.3874542737917133,2.00590228402082,4.2128635773855825,4.598625718153844,0.9258432225569153,-2.3156871683596165,-5.4955048377536695,-6.514567090391685,-5.447188519977249,-4.450390872308416,0.2087811295931606,5.066595494125216,7.869522152919187,6.131970326926348,2.924313084582653,1.6181149478662584,2.183321694059082,0.36871262929343446,0.27611315283846377,0.8657958805538984,0.21013462845230063,0.4112556647302814,-0.793971410601136,-0.06542078585282522,0.24391394054133964,-6.075932319424664,-1.3181071194573588,3.591436011711103,5.787538719000003,2.6332085226580615,5.598997653752576,6.89665773543867,4.392892754742406,4.318542206588838,4.436739153306367,7.540104818092171,1.0881124410146716,-1.7200024897025914,-2.483508598942956,-2.636382264780259,0.8720578380188718,2.8625691457604368,0.8546205072284577,3.399553342221723,2.0679009564646766,-0.35478050359302893,-2.4850934660192565,1.4181159926520504,-9.210414764327611,-3.0789139993161907,-2.9481705309182997,5.005436973282609,4.075059592323744,8.251230223110824,8.27236787365356,7.369558171238537,7.0856264414926065,6.606149292233638,9.974984064089222,3.260141224734783,1.853149688338476,3.53052912042648,5.047573706272906,6.7215802889902045,5.781315664211294,3.775105076174914,5.235196441012136,2.6077980732109793,0.7679615905873461,-1.2849795242106847,1.5775211788443069,2.147842620135736,12.094150614362924,-3.8049126259224635,-0.0698139823854772,-0.021231747689149025,3.434252467087848]},{"bias_weight":42.23681776739554,"weights":[-0.09356294100687441,-0.4361515304941653,0.39182614609039534,1.077757249318037,-0.9888279528922617,-0.36061017758219743,-0.95347930630638,-1.8605839153852897,-2.669957062097526,-2.689137447035711,-2.566461483982798,-3.1571785619672506,-4.051951171258259,-4.997532484281415,-5.091296577425867,-4.09735664534732,-3.0407937653166233,-1.8164974220046206,-1.0089805120633182,-0.7283100356336425,0.43847430103019597,-0.4939296264866709,0.027244546858000047,-2.337393653671667,-2.284105593947833,-2.110995714574854,-1.4306053343228753,-1.515709195821921,-1.0288952079127522,-0.6079505879354379,-0.8358806937313201,-3.3612047361049227,-3.3101095031220993,-1.3474790741432743,-0.4236078462363132,-0.45235884448266306,-1.2625124583716347,-1.0141613018506772,0.4550179091327394,0.5367281967347315,-0.046291450422456984,-0.9981028910485613,-0.9339711283519212,-0.3141828633344078,-1.2429425097345177,-2.245653597211144,-1.1819183066241805,-2.5912128245171324,-3.2992923157375325,-2.3960080724132147,0.6980932741789171,2.703984042297704,0.394664639416649,2.8484763587886506,2.9412400313099263,2.627686937147774,3.7720302809775217,4.360572033507899,4.595760766528519,-0.7025694284310922,5.656308848695028,3.2291736573957905,-0.5065662819726457,0.7709280788541188,1.46459325862836,-1.645232604402332,0.20039022096352613,0.8459729619695161,-1.1382808806878468,5.269347660505702,1.6814379953902172,3.1005657094864754,0.5274326909644795,2.5708197609881607,4.827448783712571,1.90799792959424,1.564868612401434,2.218651713409979,3.2350661040438475,3.0839258640091582,2.3122685635922,-0.2742586319031728,-0.8240973723286085,-2.4106513997464156,-2.3630901355574263,-5.221693437358469,-3.827475116612785,-3.2130644352058906,-3.816188389866689,0.9862489835905043,0.33135217387572125,-4.600745418895635,-0.4790606269843816,0.09219605917028509,7.253908403898143,-0.0698139823854772,-0.021231747689149025,3.3118502239793077]},{"bias_weight":14.264627226714047,"weights":[-1.6944239003778936,-2.683170786336803,-3.1005951096165365,-2.075141027877805,-1.2035627135035867,-2.9652689718380953,-2.3981167576885047,-0.5998671504618378,-0.08368996975764872,0.6849741020996211,-0.5443130300323054,-1.790711288440426,-1.9989297703123894,0.7689265462168312,0.7580571458317571,-0.11400552253708073,-2.2792737651898274,-3.0387731450318123,-2.552188840340599,-2.048265836103716,-1.249397294359886,-2.209541008128803,-0.5513936781103607,1.1422795916369752,-1.1523075128338298,-0.9044821237458933,-1.1995271839824362,0.17718760465000707,-0.08173584382181191,-0.8635134799233721,0.649058545670454,0.4805810460230895,0.05446392861853951,-0.4200480472911922,-1.8167212053695863,-0.9165737968968192,1.114683668651189,0.04999990856993537,-1.0456314072480728,-1.4796174464968077,-2.104729744601068,-1.7574839895419048,-1.4928229135753723,0.5637370444694739,1.1995212947660312,2.294070620411649,0.16954053011012904,-2.9059991885038214,4.659799301612435,5.411468497128706,3.103648003794162,-1.1011897377319628,-1.6814599192182955,-5.1693586536518765,-7.023135640222485,-4.568061548478934,-2.2327762787290855,-2.66791733018861,5.531995539914269,1.5268334391963627,-2.47042202846332,-0.410810822562814,2.9634184226183216,-1.2794000135415147,-3.752927333200382,-4.29861170570523,-7.84732657662132,-1.0177618582174235,-0.6672052867532593,1.4444887210999109,-2.233108341393715,7.833283257557599,5.019357928762413,0.7510452799123839,-0.941600888215972,-1.1152269973266065,-3.6503775551715547,-6.428944886504221,-5.919208337721853,-3.168082323139557,-4.690756070661602,2.3056650141937687,0.6697073418738549,-4.284946079674634,-3.1702580098530366,-1.3296014306997583,-4.0977454873999815,-6.35908293225809,-4.167024213868482,-5.523555639514983,-0.11792101649819584,-0.49823671049527957,-0.3523200336059656,3.1693601243691405,2.8314792186339774,-0.0698139823854772,-0.021231747689149025,15.41500220411579]},{"bias_weight":-38.38108164466125,"weights":[-1.313718271944476,0.27523326414432925,1.8378888571012668,2.3950194622634466,1.6785103994622175,-2.12288505220829,-5.288844072315152,-7.9195728024163285,-8.531427422109289,-6.9114268931174205,-5.453789496933174,-5.721189408301902,-5.192738482390805,-3.0446980484218016,-2.8600637949749665,-1.4429095277272261,-0.19057756374612947,0.5079495942849417,0.3503635510452923,-0.41488581850820117,-0.9038887004126223,-2.3523122608015443,-1.8626273293586153,2.2363463875621488,3.061457412875616,4.685563400956242,2.874587931406941,1.577972122895082,-2.5585745831551687,-4.68342583131313,-6.801415967440344,-7.859254681848666,-5.535300010428269,-1.9397064639847212,-2.519818867227263,-0.5206180121641972,1.3144719573202857,1.1690486625443073,1.074171891005023,2.5073388963291,2.3735164117809404,2.24030405279316,0.9968004971407374,0.12809265737316394,-0.018253369987721594,-0.1000251876603232,1.1664487434917934,-2.0822909839339903,-2.940174325364938,-6.563055297012927,-8.548451412990895,-9.039667313877262,-8.068767521233513,-4.702632187599801,-0.2634038421829837,-0.6143673172796057,1.8976061547614052,-0.39255179207401847,-1.0802458117720832,-2.8313542086101164,-0.022279636350172112,0.17064044429178257,-0.4326517792491154,-1.342973606542859,-1.9594552755907861,-0.05605245271515198,2.6661603181032416,-1.189146096955181,-4.410770917137954,-1.7873639376867203,-1.2985974871281127,0.9568941931444062,-5.442277494777311,-7.464548939776051,-7.710481977712724,-4.160946823745702,-4.13316307876515,1.0073399613026182,1.8928852010927582,3.554359879522807,-2.4437286671328393,-2.6312852125879003,-3.676065295194053,-2.6770223661216477,0.2683422443506048,0.3468277322186775,3.232433194908376,2.1698094598872877,3.1426986276315536,3.8649865229849607,-1.132032753711818,-4.972623807258344,-3.8037729451847198,10.35128306586397,39.255187836594025,-0.0698139823854772,-0.021231747689149025,-22.76012622830177]},{"bias_weight":33.71050849185978,"weights":[-0.7573420810736725,-0.7927147427702282,-0.4852835921401916,-0.224353513985186,-0.6148654993377144,-0.36539430270041967,-0.9549141928663832,-2.747652554030577,-1.3259020719045111,-1.7469651907504773,0.13380686975372333,1.7186474857557203,1.360009232742427,1.704148862173682,0.4490755076921002,0.9235587380535354,-0.8153357710896653,-1.2262501081928656,-1.9776972799948396,-1.3842018722765674,-0.7116689007542756,-1.3801633208216824,-1.2233485885433708,-0.08903033604999436,1.1637826441992236,1.8793672425783219,0.7844578387928083,1.2628817935502463,-0.5913011347492414,-2.152782903161343,-3.3948619050634723,-2.2642506812987153,-2.049290528182632,-0.21913367783469273,-0.6285814427442517,1.1119070348695943,0.45391567098238883,0.49226074932596403,-0.4696834495273115,-2.604154029188371,-2.819270777954033,-1.1133587899519266,-1.2225456629482607,-1.4577912039939065,-1.5752821136024286,-1.2060171007717126,3.939584353988349,1.7722368195351226,-0.2517592024521497,-4.530513648544211,-3.7498164620371672,-4.333111784467238,-4.507885861615524,-2.0433225437828915,-1.4513827993282544,1.9788627835782138,3.7288828802466987,4.136479327276782,7.204263065374998,6.766770982909527,6.69422354155991,-0.9655777679634014,0.17167141426944468,-4.71744128122572,-3.531948252171428,-4.180174343401109,-4.92713153721656,-0.23702481657663116,2.8137489892749965,-2.311263609844876,0.44303127468714143,2.167806209910865,-4.664289918356623,-2.5357308565670635,0.23259153321724527,-1.7084053022669545,-1.2779327740672646,-0.5843150803128347,1.1320673004254775,3.6743557987722277,6.103652028995708,7.203563312255548,6.238375321330292,3.3300636254462965,0.40465325571615784,1.681872887463743,-6.435173080571756,-4.179376371970026,-2.908117397013981,-6.481241087946577,-3.6754026887802826,0.1369000378382528,0.1701090747683172,-1.047605266100222,6.071877222733954,-0.0698139823854772,-0.021231747689149025,-2.4427328452370936]},{"bias_weight":-11.168769445353618,"weights":[-4.085065781062923,-3.183506134916028,-2.3163954252760592,-2.1448491955274114,-3.2448852713977,-2.7809886898260108,-0.5074953395472752,-0.8315855365864029,-2.990608255535275,-5.157772930087618,-5.584125536963598,-4.762866539987764,-3.8820689127207286,-4.532254400210975,-0.41609527008427094,-0.4823316812355566,-1.035523979192078,2.9183830018966117,5.125324973370614,5.331816452910553,6.16532432504006,1.0402114137004896,-0.9975254239915426,-1.2289737077740925,0.7903455751073538,0.6304154149666557,2.7083961754724304,1.398430238858571,-0.12637165703021447,1.1419397513739709,-0.36268157061552786,-2.1119741940082792,-3.4419064353624416,-4.542575457577594,-3.996950881612573,-3.5665203902347526,-4.801442912573741,-2.596207538318001,-2.561072480503716,-2.606931363075674,1.0831515024365796,1.9681921013636163,2.904094332204378,3.5665268621329935,-0.12429758788681881,-0.4445933147562975,-0.8589557811946746,2.1334680429103754,4.061502503187746,4.348207395312507,4.572558955400104,-0.6423420118356776,2.909586866704656,3.5255922490466083,6.496977950118941,-0.06225840422115703,2.7919380608098607,2.7404696079193687,1.744386741658359,0.8034251476539885,-4.375268775897342,-5.13862209659444,-3.2202579646074074,-3.0725312460017857,-3.4670761502558634,-0.5195152047477165,4.747481413062793,0.3424572510526808,-0.9621045478069796,-2.452156044720741,-2.3638142013706167,-5.8401063589159845,-2.8168382523381146,0.8091029836760282,-7.451999153724763,-3.6227363314231984,0.28620147854645034,3.4844516976568074,-0.7307630712478839,4.3840771317024965,2.328292345307079,0.15570373488711317,1.8357825478097558,-1.1952798178127084,-3.0921920610484133,-1.5173179086157957,-1.8954982946655936,-1.4434080859927871,-0.607270468305655,2.282613728790501,0.7760754420888072,-0.1256556545213648,1.5999765264152936,4.031420605746125,8.78974277990981,-0.0698139823854772,-0.021231747689149025,6.251067653627126]},{"bias_weight":41.873873634884696,"weights":[0.2808554356561324,0.5181872247491157,-0.7416988419648074,0.7450187798753682,0.8703733101399792,0.6506130678085257,-0.46185888689057164,-2.1105765039995052,-4.521237007062774,-8.517297536244662,-4.941772764738418,-3.321476625426358,-3.881763179927261,-1.5661400953678224,-2.4631480279948406,-2.831933560367319,-1.0225421546192912,1.3817225116951783,0.45874319109764466,1.5426192642302228,2.5076465935867693,1.6826419568743927,3.082726054163643,0.7401812265049609,0.25683599992388045,1.8800291652547203,1.475782593627669,0.9268604287939904,0.048028994456326975,-1.0553232288516716,-0.878472217572702,-3.392006925280148,-7.833254729235352,-2.8598044941594436,0.2532276089639279,-1.2420034888964668,0.8529777038718338,-0.8256427706454339,-1.5642554407461162,-1.7822128244255981,-1.2594409032494036,-0.4613045681169053,-0.0932143345407972,-0.2425910591869086,0.04795875222100383,-0.39842526808124185,-0.9429091937998031,-1.8437398035399466,-2.8833902191481746,-3.040538755653027,-4.458081989366714,-8.172829872614683,-3.327719639782067,0.341265537500188,8.410440039785916,11.433266236738902,7.372104672454179,2.398766316119031,3.6409814448821423,2.977435403007835,1.6576041931675771,-2.102105465400519,2.4534258933193005,5.780377730287803,7.444186151127662,2.5391485641140608,-0.868158950689801,1.618939436910163,3.252905215578355,-4.556009446927569,0.05696034225099572,2.3263173712571783,-2.659471750672079,-6.44640109248514,-7.850194891141784,-4.923975590117884,-6.181345219661091,1.635375723653347,5.064576990277857,4.499754425071202,1.322380487499253,0.6681173086168263,-1.4930141846202074,-2.45769735362762,-1.9203567782327884,1.1446918864248636,2.521652088065825,7.5198751716887475,4.355637930021889,4.120616055704042,0.7881682245164516,1.4293112951674662,-0.29167698011820764,8.580120363275054,-1.9507336582738375,-0.0698139823854772,-0.021231747689149025,-2.710238780063388]},{"bias_weight":-1.0536355348893185,"weights":[-1.5550999870113715,-1.5174786412587815,-1.4742677923722578,-2.705213640693595,-3.8031975470157784,-4.2903267227926385,-4.883649666347268,-4.801021262788473,-6.919557933345667,-6.454067515247286,-7.963105416732972,-6.658176586291829,-5.905094884957599,-6.772264152214037,-5.722773986567013,-5.521932280532304,-5.951543269845905,-0.9900338847484681,-1.1085379650989264,1.555289659533368,-1.8500844023890428,-4.867368030381018,-8.010675146452133,-0.20422253766315218,-1.0169136824724618,-0.3393789532820651,-0.6061507542022603,-1.2226465191760019,-0.9431486639047406,-2.7740000407447005,-3.77501426113615,-5.315600955767717,-2.827876092841483,-4.480002587257412,-5.608830517958415,-4.959020940793487,-5.418671862732372,-4.156292169187941,-4.871403948934177,-5.492011622903667,-2.519370122394297,-2.032298544080427,-0.329366932148393,-3.5457588536109728,-7.006874388959483,-10.046189650507674,-2.0149500905260607,-11.015372158818195,-3.345005990707661,1.324229806701983,-1.0957480920622549,-0.6401955368113315,1.5516893722811964,-3.698113207529108,-2.423381224535083,3.2661262166933778,6.208438212520536,2.8296231069025324,3.367710219235599,2.7636995455747853,-4.206316394772404,-3.0600456564220364,-1.9095718796341516,-1.9821342860082678,-3.063976110741806,-5.762013939310448,-7.7611777361721535,-5.2435729357903265,-2.163667740491826,2.3409232114281897,-5.12516491834236,-2.999500099045704,-0.7053310326898131,0.6731874336983097,-0.2586562715619325,2.940868235136582,-2.455577880813772,1.0516371346566042,2.3501772747877396,6.7719382799554895,4.207046764471448,3.3784349573104953,1.7450286700169966,-0.08629059718586124,1.1193487797024058,2.5095304919773036,-0.6266179691466943,-0.9591017297018672,-5.480192918148803,-8.077020509699745,-3.772769406314772,-2.7576474296227835,-0.4267300499311409,10.812232462120486,-8.425106737163786,-0.0698139823854772,-0.021231747689149025,-4.9293779249594145]},{"bias_weight":15.184638044867265,"weights":[-6.450370806582825,-6.901622249311541,-7.244690357073382,-5.7596396679347075,-5.616390413403013,-2.082085679093413,-3.9906899891530587,-2.874319015986401,-5.603777144784484,-6.884948902214767,-2.7515956267391632,0.953420168248181,-1.418999990294615,1.433700030204255,-0.7912870938497586,-3.4915582950112563,-0.5615585552321554,-0.40902504303847004,-0.8296553734671501,-0.6747401459900139,-0.18473523370045414,-2.7500745785306533,-0.18795022522222135,-4.627884810912706,-4.27075324944933,-2.9695996798627773,-3.4070326580455386,-4.329062800723278,-2.588887622228695,-7.455903313549121,-6.249938900004007,-8.708088901998144,-8.913653837632117,-4.324925424234317,1.5274456633394746,2.226981283511238,1.4516538026352415,0.27623930646148936,-4.0217621961638095,-1.4578419288457949,-1.017326318890156,0.4874905478756386,0.28303018078659614,0.17687559543729728,-1.498762622561329,2.5882492633983065,-4.655852520683998,3.4012667340126486,2.294155728418129,12.329033201066633,7.98836311436366,-3.493089663903557,2.6465822866448616,10.395529292178038,8.545866879683459,24.34817393881508,5.388912962331303,4.054956259965304,-3.206960440547379,5.1844419679041245,0.32691075243181933,-0.08067480046488493,-7.6849051787720235,3.371704999097328,-8.333733279534846,-12.293428768212955,-10.368533788227204,-5.517269148673358,-5.54308307633668,-6.065160373685129,-4.983178442526085,0.6656155393979097,5.099926680078493,-4.292604620466833,-9.432582161818242,-5.031814674248603,2.1895011588630897,1.0952352585269416,12.74514016623741,-0.1886579548463223,-5.746530450464918,-8.140107368996008,-4.341214095992775,-5.443908892443044,-1.3988912027194687,-7.022362900227519,6.49905560975506,-2.3374120544464736,-7.360701037893424,-2.464747313005194,-1.588989823898332,-4.945516111270465,1.3080601335180888,-0.6841811089409096,3.840234973710814,-0.0698139823854772,-0.021231747689149025,5.142002186215245]},{"bias_weight":6.0723523285785665,"weights":[-3.7174211147612954,-0.2705032722996128,2.5741238976785565,5.490101029566849,2.227489187424589,-0.7620944719465117,-5.640379741276527,-8.280540172958503,-9.181246834630898,-9.497081802883235,-8.670472070411563,-3.4229880528613963,-0.6337309926729082,2.2449019712462435,3.9353818267005405,1.9129322542715481,1.9953725934151967,3.3904168355184314,1.531727824938782,0.9033200956760999,0.5985934692940093,-0.720050135321685,0.9441215080603717,-4.505602649343345,-1.8179929494079632,2.215606117252354,7.529225134828719,3.946065501990511,-0.35762374925974144,-6.013840018529136,-9.874029250048597,-11.075595338178253,-9.98377191960027,-9.97861602057663,-3.8994873965001435,-2.57398059757029,-0.22813446374176896,2.5386241680739636,2.023795598877986,1.9681078052654004,2.156733219938547,1.3476957742427635,0.3682470079184639,-0.26896085894788513,-3.0009255404853903,-2.3027128331759954,-6.721458931855388,-4.483794581046842,0.5561838044066719,-6.859786092361623,-3.660756340474647,-5.445420149606475,-4.542598200865761,-3.6328038002020007,-2.6192298167035566,-4.316129452160609,-3.9176004540541056,0.0713712984854079,-1.7361965541815052,-6.452718133151513,-1.2553775982505462,2.625363847912709,1.6245183644740828,2.6410405400718644,2.5027240641768986,4.912691725778181,8.229069322678136,4.644359967710231,0.41665172470992684,-4.161475482917684,-4.396371229559332,-2.736841653005521,-7.077283447054975,-2.697823118260561,-5.046985369158882,-6.470305032384349,-3.451308846468507,-2.132621824668069,-4.6654508140713125,-2.73178007675896,3.9666087958987344,1.19993934544341,-2.869922179492805,2.76380871029165,2.189398756101952,3.665890345889202,0.040681452682851026,-0.40826765644339563,0.06564663386442583,4.495423720443438,2.3213064602222526,2.4366066990292574,-4.889122467876149,7.071779366912157,-28.198757577661162,-0.0698139823854772,-0.021231747689149025,5.858086579688325]},{"bias_weight":7.9007147527923856,"weights":[-6.916549709876996,-5.21363527586505,-0.48263126327059297,-0.6625087638401548,-0.4942553407868368,1.0618159322871672,1.2581675448035574,2.651003067413131,-1.7029105540292655,-2.9521298149705606,-6.321976105015881,-9.527252424888411,-8.201559894409995,-5.183566235650574,-3.373237413857954,-1.0121282647541778,-0.2516724774254889,0.5056487263795367,-0.08728171363542139,1.4840650173970609,-0.38134259873776966,-0.09044145070017919,-0.7610222080062277,-1.637225670920097,-2.370609690392313,1.9263467751499703,0.6190116376246478,0.6682933390913018,1.395809234375645,3.4982201685798424,2.091534931260367,-0.35254312709748375,-3.474057569150137,-6.976176858194056,-10.617205642550928,-11.20867945532203,-10.16295447748296,-6.282445336262628,-4.281002342275773,-3.2387839527174496,-1.332063553595774,-2.3840371529783333,-0.4991312731703576,-1.9596699854162527,-2.5048451923186636,-2.1432722827037103,-7.331032447957415,-9.63711596118801,-11.54075428794423,-5.718522588591442,-6.373905513981946,-12.436968564259134,-5.621661027188106,1.06484045319659,3.2426495765246512,-2.262000447971663,1.1288301008969681,-4.903627160574287,-0.9560690535168717,-1.4829930649760499,-7.67933026702838,-6.963745641072294,-6.944620131603926,-11.79159225643607,-2.5005840485447206,4.26077848734515,-0.7039050246198064,-10.157794996600142,-4.481872744449794,-9.725680048240058,-9.568633724772342,-13.031901558854996,-8.115976478157243,-4.509471323894457,-9.147998283839422,-4.946237662345533,1.0784633951327447,5.262040913570095,1.641939416992566,1.8813918816574673,0.7654067461240364,3.711826416001002,1.4939832346300719,-5.484482566459993,-3.530203523328743,-4.099814921871346,-10.765549711997425,-1.0248887656357764,1.2818228922104997,-1.4409760165884413,-9.410687635475599,-2.1010768130723028,-4.335769067320863,4.8620469553146055,-0.20463702869253478,-0.0698139823854772,-0.021231747689149025,-14.990039218392473]},{"bias_weight":25.683517548149972,"weights":[1.424005188426366,-0.25730865984607965,-0.12996144321608616,-2.4520866397541146,-1.5992970152316808,0.17681696293287572,-1.5207088304041236,-1.381131829482534,0.8061979034502543,1.0956136821021982,1.294661518157431,0.5778609524581481,3.4230853040004137,4.382305409009314,3.5762014217780327,-1.6964434049174941,-3.3711279605483484,-5.1506957258325805,-4.291020108159625,-1.1460405238928701,-1.6447824917586238,-3.092224048657919,-1.2763878773477961,0.3791456412677598,-0.25050739146706613,-0.7737754381588119,-1.311107600684825,-0.2961221038646243,0.38151176229322803,-1.9670322955018167,-0.44709853832284513,0.3569876774019795,1.2374037685005805,1.5730295161002268,1.8280465792285208,3.0932728050229192,3.6012962636810415,-1.3632908071058167,-7.214111136023117,-5.748685001450726,-5.370939186339475,-5.6802399835356665,-2.0155904202707218,-1.2507263805334066,-0.44093221786223885,1.0261209630963215,-6.002321080141836,-6.933693149221284,-4.757191687248288,-0.33510299580120856,2.3141624410624577,-8.723089452265684,-3.3841773563188378,-2.7037677312633606,-7.775196290953553,-5.702503966345257,1.1470727511835972,4.2905529302100485,12.353223587870232,16.694958230389098,12.187347869697431,13.688546481767574,11.479261181074794,5.5988854278919025,-2.9813955736653956,-3.4868388064883042,-1.9612175237937526,-1.1996270555323585,1.4580394495295839,-8.549924711250798,-11.21536685363967,-6.027276889544312,-2.5936132247453094,-1.905372174902152,-9.35577266658087,-5.310138264237147,-4.145980253576394,-10.094766931984752,-8.069905227050942,-1.4666496063913168,5.552313378737961,3.756993459534002,7.638060056864836,1.2670469839630065,5.774641063719765,4.043390430046292,-0.8961286408271892,-8.512548686758025,-7.8347283277003275,-2.266076241291312,-4.577713322506945,-1.2230563565457813,-0.1554432383424758,11.77195463317968,9.430364432505227,-0.0698139823854772,-0.021231747689149025,11.868589890632068]},{"bias_weight":13.411348072960129,"weights":[-2.3515197672592127,-1.755391342094644,-3.340565447096877,-3.851895194931292,-2.4828829184708434,-4.07992469602982,-1.1249222341566414,0.7476160044692064,-0.2960229428805391,-0.7602078453953804,-2.3688876571033712,-2.874187898567132,-1.0850349004225526,-0.6782607797290449,-1.1051133996045497,-3.1023693505807337,-4.164948020912353,-4.694501808893179,-4.8031970567906646,-2.585914098048454,-2.450832814568562,-1.5875016042557635,0.7631282350130894,-1.5388766854315516,-1.9795944140225934,-1.9691082252849363,-3.0171553168592586,-2.1436435041430553,-2.4296011119532572,-1.1590866590020934,0.3106244850149988,-2.317606299935172,-1.9705063851375237,-3.856600777154559,-4.1197342675649775,-2.9921360990918258,-2.189315027956496,-2.5487873916747934,-2.595786892846073,-4.927301593992321,-4.652753173439019,-4.819321095581628,-2.792146976577088,-3.2404683649529487,-2.478725950021585,-0.9888180795622806,-2.635065408308661,-3.6579939102670354,-4.1960073662089385,0.037746199906556484,-2.4463654292620265,-1.1552912703691598,-0.6635701559564142,-3.0742228781171597,-4.642921117302797,-2.756170773196136,1.9987946978089464,2.488053273643246,0.9476727050869143,2.117386720384995,-1.9257642690511125,-1.2721440090452558,-3.49037087616474,-1.6092345488653155,-0.364270031108594,1.62590605924115,-1.159894788890131,-1.9465647655308227,-3.887506586318083,0.1829301245264679,-4.652890914972058,-7.985434742928463,-5.458635163593381,-3.636170629318815,-3.6716400008939547,-5.328499130292935,-3.8577393637007646,-6.052516178501803,-6.655267314621106,0.8665816360486139,1.1678734424574269,3.5243717577970624,7.169774858710694,3.5141854377158532,-1.460648488115224,-1.5640610391673846,-1.2032689237941556,-0.7148771660674585,-2.9127268659936996,-5.331796351512638,-3.609033617817843,-6.52531868279073,2.22224083060345,-7.302041171054362,-13.006769834683368,-0.0698139823854772,-0.021231747689149025,-1.9747431358794612]},{"bias_weight":20.770137705754895,"weights":[-1.2287598276422789,-2.49966723639061,-1.4938850768727105,-0.7955661386846508,-2.492747518968941,-4.005829003484448,-3.2804307919204723,-3.815392244398616,-2.7158354164041554,-1.4788620177146279,-1.2146270559849552,-1.831152300645582,-3.9831127712880314,-2.5080738821657858,-3.72414020419465,-2.766829947001244,-5.024855754043228,-4.178442242799036,-3.717161399675777,-1.95572810792176,-1.4196147099556402,-1.8419859943079808,-3.342834201277053,1.9903370232552866,0.284619996186838,1.4172784949012094,1.1850727630250408,0.9422387257673988,0.07652874454719427,0.6451704175608329,0.026539000581557934,-0.6032455732413986,-0.5450711907706106,0.71844203790602,1.0229819358918881,-0.42065422246583817,-0.8513106206631705,-1.171014802774165,-0.10811383154029199,-1.869126684162044,-2.0066054934439355,-0.5115299770761731,0.5598559633254089,-0.04377319286736908,-0.4982035409847383,-1.3710907330138948,0.6706965714876505,2.6410294312480067,4.859944402272338,-0.10829146782919176,-1.9124599174434778,-0.04576040468346334,0.2270701945546459,2.3654476504723525,2.184636342824944,5.322080067199033,0.6938043797013721,-0.31019690689033397,0.054528893158392884,3.1739543579809397,0.19228564988029,0.4516312676027945,2.340726677661138,7.908071272038077,1.4761130113856606,0.02083917032049475,0.20683526770922298,-1.0521126136776782,2.812151660804553,-1.5945591558608854,-1.9850385397054913,4.01925816019928,-1.6109374238979621,-2.908860206171661,-1.3789844303517425,-1.1290755763170548,1.844021223740787,0.7038054908655644,1.6103008442436064,-0.734099412073333,-2.666993271592968,-2.76879421737392,-0.5063191526103449,-5.114223858248033,-1.5883097162449387,0.35813942163806234,3.035725406781271,1.0424483004968073,1.1372693238964788,2.1101683731343606,1.255669018102315,1.0678372003286307,0.42990950909600467,-2.9009610781069486,7.874625328344899,-0.0698139823854772,-0.021231747689149025,0.8253216523521721]},{"bias_weight":20.259355811375357,"weights":[-1.603304493444544,-0.758490911859427,-2.3019400844755316,-1.0897326375486824,0.5584653105635797,1.5327189617390704,0.5286936257197933,-1.806065918093064,-2.8374326098433875,-4.453619953922988,-6.315846975143752,-5.667501909288386,-8.660274433735767,-11.482914759162243,-10.688840535413966,-6.272217978375882,0.12051902487338131,5.367894034451037,6.970027444156759,7.120529638714585,6.509528704543621,1.441434201596522,-0.5055133721878092,-0.16068445925520417,-0.5060875698708492,-0.2669675132293872,3.4550774852895003,3.78306237855189,6.0985492711870855,2.7012760556414763,1.8775333859811836,-1.4155937591798091,-4.31088993608285,-6.382703817627238,-5.045762348177931,-9.21079038346802,-13.462439461967884,-12.19262360326602,-8.519452412322254,-3.7667834247707903,1.9057351167232022,3.934293241076582,4.707599382920009,4.530701202177826,0.53416499869802,-0.8589058790475292,-4.055023183552796,-7.432914212472972,-4.136829633160951,-0.19468681330560497,0.16858218152927543,-0.33926588369273947,-2.1641668546211386,0.81575669650916,0.28465337185552636,0.7697766300815235,1.6567015835470182,-2.6481215125154165,-4.659288574636755,-6.555744065088189,-7.7159624745367115,-6.900831650444889,-5.760022118664288,-1.896369726547771,-3.0562245065335367,-5.699952512927892,-8.075427565253374,-0.2868208670877182,4.3846319738333355,-3.6791167859355456,-5.38797553454397,-6.250873976314687,-4.919287976016366,-4.67837022930981,-3.7718529423689633,-3.8183614580081366,-0.7224658515155316,1.3425115006881163,-3.055692642075076,-0.014136429301377807,-2.7781662091365096,-1.362498333583266,-3.8539084929108176,-3.0624206429571172,-2.000938649887014,-1.4034941971022228,-1.0510659213994256,-0.017188754880705356,-5.677865129916196,-6.93743657019847,-1.1791135111543436,1.6211812314471497,3.3698661996351853,1.1775949258808633,-9.557964302126251,-0.0698139823854772,-0.021231747689149025,-9.49292985864553]},{"bias_weight":25.39218404351752,"weights":[3.2679680572665966,3.4113743433498076,3.278442475399645,2.2102048560598746,2.5760178738463715,3.889728489323123,3.164756108517302,1.425439079795518,1.6047659277908193,1.3365000906000752,1.442451241623733,1.6573838044082505,0.3850448474734179,-0.5451318386965627,-1.7014589315248883,-0.05813941155106904,-1.4777479298999572,-0.12186752513226813,0.6493010979531537,0.8917700716977616,2.606436676976729,1.924182206195492,3.6135762740862245,3.24568788688801,4.254265003555576,5.049835621470071,3.1782698257843776,3.71571654977204,2.9452204217721527,3.76475012571497,2.9675018326687894,3.1614416705236548,2.6738712566250236,3.7501819348288956,2.605738472652576,2.0571086846298914,0.7158495840099522,-0.039307084792125496,0.5689135845112381,0.6734173886844171,1.3198675226053564,0.466570364951759,0.5210227664441301,0.4768366534740447,1.2344206584835031,2.478403981516766,0.7798167296084626,5.446468301290577,3.0588113748464267,2.285343337969429,-0.8867838445549817,-5.283813875475866,-7.08302268628966,-1.3055736043861064,1.4652159909999458,1.4166784484606723,1.4615418086494691,4.255638274707799,4.500633573002767,1.726257794438902,0.7431557634212457,-2.5654321779650835,-4.642526801376038,-7.254628911928576,-6.985874976999053,-8.922449189955778,-3.699799442526448,-5.219730573833661,-7.4794030307195785,0.10851158724198973,2.4240980778667858,1.974900547706212,0.6136701021305776,-2.859539816711299,-4.3961261121423245,-7.2461583989896505,-2.365620307972448,-2.8148793309882247,-0.7159829082394386,-1.9829789331884784,0.15590025510950659,-0.5956094532506292,-2.6195177829742877,-4.957286046874187,-3.2037554793883993,-3.964952685305265,-3.5351722890407182,-2.5350275415596615,-6.961384684303401,-2.780863318621636,-4.387228801258157,-7.948579519678391,0.6535417447609433,14.46448640119978,1.2153456298488936,-0.0698139823854772,-0.021231747689149025,21.339944860406675]},{"bias_weight":38.87388824187761,"weights":[0.7786821278419549,-1.1540412477968016,-0.4449925524175813,-0.9098946307642182,-1.159073955803353,1.2147237049237791,1.149105480217826,1.6752659741166387,1.315831033617679,0.6768059916424933,2.370809961571173,0.17012120546797024,2.198947869444775,-0.7866968191977269,-2.3418037010588857,-8.461664184290974,-10.967209133747769,-5.728169911743652,-1.9408655311440097,0.18761969482640845,-0.21520623042000267,0.9751698995270092,-1.5949439929597382,0.09215636519275822,-0.18677253990796028,0.033978412789894635,-2.2085778110705605,0.004353579167713015,2.133987435567872,1.5624677775352673,0.8009849178631313,1.1915961697199402,1.3179506068924978,2.694537275674538,0.7583562627234646,1.4096583639023612,-2.3485872154692715,-4.716545464785994,-10.498989449139032,-8.772137658059956,-2.6268303708239356,0.09547865821734633,1.461988783041903,0.8735221964714198,1.7497131210723336,1.0740019432979047,-13.531102478681955,-8.840703377784129,-2.272956816443281,-0.6254511211963215,-1.5261796062134556,0.20651126102048198,2.9339991375541317,-0.8171467164126907,0.43718776215962524,1.4631173116761116,9.459457584906186,-2.8299460662012055,6.299894969303724,-0.7761777722679221,0.13811817290158535,-4.537673246684873,5.5587866154060634,0.7021848148621639,3.92334400866198,2.1452553374814434,-0.7360202749549365,-3.9441248612924915,0.21913092623409816,-13.4025293970263,-7.09016901370414,-2.525468867912903,1.0423746359782553,-2.167559689149815,0.5686842468445842,7.256433723879673,3.2757866099886734,2.362115074449868,-0.7476273714007358,4.372191621397784,-5.96933171503326,-5.819869227142036,-4.089105852071118,-5.493267361609623,-3.7608173849525395,5.507217619916551,1.6520938880060942,5.345925508699196,1.4652336158825536,-1.5715100294071938,-3.0845795590453977,-1.8831872741543452,0.06757044030071375,2.4911695700191405,2.646855022070126,-0.0698139823854772,-0.021231747689149025,-13.163122005570317]},{"bias_weight":9.819120016536116,"weights":[-0.25362714403251524,-0.29556226308748346,3.034126921628442,-0.648154982749604,-2.1246717139756752,0.3009357843200914,-0.3729199118273327,-1.4407281678454837,-3.8489932195140764,-1.6484484433094186,-1.3058898301657247,-2.1689551701859364,-3.382220383931006,-5.742810101771627,-1.6283342744895062,-2.5672046280270426,0.020776325449407294,-1.9304760764296507,-2.9802581681325178,-3.423690749940682,-5.179899251640958,-4.3975520269874195,-5.642088724448545,0.8775295012793766,1.6165032570677589,3.710347651347488,-0.46487169974416787,-0.1533305669237238,-0.1830094997373844,-0.2380064506342664,-2.173516658340068,-4.10901648878791,-1.8808483446966777,0.815946940306558,-1.5958294973128317,-1.2009972018769393,-3.595835146089282,-0.6395426108703498,-2.1741247586117836,1.5001700872906412,-0.12481552532760726,-0.3116994269562737,-2.271141849032238,-3.6213407958575456,-3.3226204692727572,-3.800953322025797,-8.433457916344276,-4.773353275453441,0.5772703759787593,1.4052570347253706,-1.9806388241432187,-1.9107168158937844,3.8060730113513443,8.707553996241609,7.368927196174083,8.657590941865356,4.569717970724072,4.409069546646857,4.724816686772435,2.8277311245173045,-3.246629584031356,-7.212645351698708,3.1544211945726337,-1.5562776286335638,1.3722995894728045,0.874544363335846,2.379352310072453,-0.7204514995069229,3.655297034203841,-5.181035298040919,-2.213243820313254,5.218707690998909,3.6811466884317006,-1.419934883639377,-0.7857715466240264,3.662572907673951,6.7423281135668,3.1215166368589573,6.995367970247197,3.5491103987143706,-0.7381505601619239,-0.36090053913939385,-0.5045882511416706,-7.385191490778332,-10.249185814086857,-3.0003422540209956,-5.823825375463589,-1.7191850239175084,-1.7761344679584643,0.28746475184388753,-2.9265405269075053,-0.8796505309038283,0.3966557349004655,26.466383404873383,0.21697822635531488,-0.0698139823854772,-0.021231747689149025,14.847336892801192]},{"bias_weight":55.06226644864032,"weights":[0.013692569686947372,2.5843493324019398,1.0007949191371295,-1.3750679843742837,-1.5574244815607607,-1.106345734389818,0.34053537678340057,1.0492819409317988,2.4826201951575184,3.890314039025174,2.9803161222056644,5.84128976312291,6.859136359157886,9.381030745047385,9.739688694292399,8.258840937154593,4.729120827272505,1.1328375390863712,-3.1885236790162104,-5.129052103156359,-2.661879046710714,-2.7017230312933007,-0.7766857923733577,0.2936509686368193,1.5932336377766567,0.27570661955462367,-0.3822314945508689,-0.8340262400563428,-1.3128505492053097,-0.9784527549118226,-1.040659910234711,-0.7596345406154926,0.23372422085328412,0.762848127320595,3.164752100210508,3.8573188660326823,6.2888753858364534,7.692246877918343,5.4784136442756095,3.8734239640535573,-0.45857841975870534,-4.444492535134043,-6.900183562710882,-4.877420813601862,-3.4502746670124806,-1.9443520413159456,7.448644544408496,4.507843541476619,-2.214032896477016,-0.4527623794832481,-0.9029490697305474,1.4733341801846278,1.1536577434009827,2.4631984249001224,5.27520641035062,5.243358662047415,5.686134120435792,3.7430621642584905,5.029221787682022,0.3006424438405284,1.1011579409581385,3.721372749286415,6.538702472993221,5.318012999050256,6.481495792933089,1.300327271645486,4.374991714691844,6.341011032869922,9.787738239188918,2.6775898905256703,2.529032515314255,-0.9971421679293516,1.2957898719629484,3.7618362620338512,6.233330445135381,8.92455405717973,7.271677645735599,7.902424564078915,6.255443101348746,7.722380759313399,2.9868654730896163,5.028166662745543,0.26061877676430445,-2.558715954010019,-0.3632839821833441,3.780251187204353,8.424524393111907,10.472656544060067,3.8698720594183826,5.604344854543428,6.794699598081948,7.944962294082845,-4.335624957087668,15.951645803905862,-25.13167920219353,-0.0698139823854772,-0.021231747689149025,22.113461249516053]},{"bias_weight":22.587322885585706,"weights":[3.161783218435216,1.1472490846785737,-1.1735082069834806,-2.646105065749142,-3.3098466797390165,-4.290997006497624,-4.396785266594156,-3.7982673682943546,-3.0395514139553224,-0.3693014121519589,3.8372488660327355,5.761926921196009,7.252986336876573,6.040992467692221,4.69537312988221,3.470207554734984,3.550920649166294,1.353911616485079,0.5041273402544497,-0.4075074090584395,-0.9132247203277642,-0.0994769640994094,1.6462368669064171,6.748312730868742,3.932575232268638,1.6349989377222796,-0.9446517500516816,-1.1426714785904097,-1.7231403553742708,-1.3315382980835262,-0.7499858120003932,-1.9366717634183144,0.2893322486630801,4.432177190914473,4.955400323707215,7.7297021027706965,5.781185023805876,4.968255071382934,3.5562011733007726,3.3807789022027266,1.3782245769375563,1.2696986418014513,0.17439537199743074,-0.43105525898859554,0.7441235216311994,1.3395475514186403,2.3366505655082683,3.0849044569962127,1.8030556724085693,-3.503732454954735,-0.6163222588762309,-0.8996627883747221,-0.06688684442199996,4.51772045667347,4.748513769376387,11.567886554982627,5.272240390713743,7.435473093224333,7.602813679649,5.876200934725282,5.82787859783419,1.0048640871823824,1.8641259790262152,0.6795255274349068,-2.337637319851106,-4.099140988845747,-4.3355222080723115,-3.4106126173536406,-2.165980121636627,-0.8545708043299813,1.2038365966554658,4.110991990448935,-2.2247048997944483,-2.84534520507982,-2.18472961985878,-2.306924406768454,1.2340343092988475,0.5350691529704042,5.075775592482967,0.020299186849925595,3.382608021523091,1.1754249911018304,0.37775461716217035,0.5444952187939924,-1.5893363841116277,-0.6458436763620713,0.16126651746361606,-1.7798230418779495,1.0488282328496878,1.0209340073908575,0.1281104917091494,-0.1835612803146618,1.9352025410486526,10.843689261237193,19.03821608608769,-0.0698139823854772,-0.021231747689149025,23.18524391082102]},{"bias_weight":13.457846136574457,"weights":[-2.209019081202094,-1.5896085944872835,-1.1564895687205976,-0.5017509886979796,-0.6334127903527422,-0.5609032962399261,0.060227003219404864,-1.2035834077146845,-1.249694722425233,-0.960005779733858,-1.0893172568581344,-2.879096550927077,-3.146331143430848,-2.35938343159993,-2.296418005353805,-4.500835933763331,-5.07644619907085,-3.5875537230620576,-3.2062504698585217,-4.882901026843267,-2.462710262625612,-4.213239504839906,-3.886217673431214,-2.136608997186953,-2.0117921634515357,-1.6423780210801608,-1.7005807837537192,-0.5208994361119268,-0.4524865004828065,0.45574125013815603,0.8104563707445553,0.013554298785567393,-0.3827847560754899,-0.033873686117064844,-0.9454060990092698,-0.11930409081146738,-0.7329054134638906,-2.2756037531079016,-3.600710367079648,-3.7996310544207663,-1.9498257375166799,-1.3876795733372176,-2.554660384030608,-0.514088476586822,-3.2073816749561606,-3.2025729279937,-3.3467686602668114,-2.156007841178602,-2.8950861206881062,-2.5372144419329783,0.7090106528164825,1.1958264365846853,1.3134952964198578,1.0264227124375795,4.915621264432725,8.374858614072377,8.979035086514818,8.103811041927973,6.584744367077123,7.542240784824847,7.7779392804077645,4.161744154258653,1.1819591695221345,-0.046642948727759925,-1.0240141253490016,0.2269348169822576,1.266415520099607,0.6048982231569652,-0.678153726684457,-2.149142189791363,0.7031645979212832,4.145920964534104,-0.7909362962922082,1.6701818689952868,2.2288146086465996,2.8807624711409336,0.2147743604927303,1.8203924223121426,4.1948956453982955,5.494175478262817,4.097721398083681,-0.8381616117241276,2.9213400250766877,-0.4639194690627594,-1.85876554638117,-3.970717503596033,-1.4957996151593114,-3.3947183582682987,0.7287887396608342,2.8538171893009525,0.7397809183103993,0.46867751346672504,0.624853739042092,-3.619263428854451,9.337528460505744,-0.0698139823854772,-0.021231747689149025,-8.049410778844944]},{"bias_weight":13.750355822687254,"weights":[0.6078234619097733,0.3603123060672199,0.3183663394172414,0.15549637962812923,-0.6460696412425382,-0.25709260381821325,-0.3632529063082763,-1.5127177686504842,-1.266547825061671,-1.2632929605871301,-2.4001001875887567,-2.1647306447269057,-4.030742468173995,-4.326853486058164,-4.418378450809827,-2.702271246846075,-2.3026619566697937,-0.45374703011577916,0.5985929309886157,-0.12758315418318278,-0.039536539714676425,-2.2031246032220695,-3.4460805626897484,0.3981143762382935,0.22073363861259004,1.1908648563803748,0.8202154231497447,1.7423468952838281,1.357069646094154,1.150261120703467,0.17136204632108587,0.652875238931506,0.26890517811286146,-0.4924955131702541,0.6000341445664775,-1.5675697391213843,-3.850346999420581,-3.7655545654023284,-0.9426339669495417,1.1904963648721574,1.9289874526115478,2.8217433087313726,3.1798551235846295,3.34110170689849,0.11179270279266894,-0.21862377252435725,0.40774892705296256,0.5773632672221316,-1.6221075037630615,1.5606112554165943,5.846754084359269,8.017526192502205,5.494998228173014,0.748776260460531,4.940253010215624,8.667966946981782,7.654786092241585,8.064498836642029,5.688453107272385,2.4519834418050643,4.630574470357598,4.472581044340384,2.8492611560798666,3.950709984112971,-5.878076865531029,-2.5543106526981805,-1.9305430183139134,-1.9639467603756733,0.42922605728464674,-0.041860223807134896,-1.0956416764791843,-1.4826764114071225,-0.8593016267115128,4.871466095671309,5.806696018467915,4.064309061632056,1.483486664057035,4.4838811787460156,7.303446583464586,6.81228387418009,4.612872459510783,2.1542374056603046,0.6729165027384633,-0.3531592527285322,2.170344037762457,1.270324179238569,1.0367335214550235,-5.1441533022730175,-3.54726879352021,-4.250088139144504,-3.269954002058135,-3.557868539474375,0.24631455013605863,5.05915690731602,-6.607781936517867,-0.0698139823854772,-0.021231747689149025,-1.4485033001899328]},{"bias_weight":-4.156358855549324,"weights":[-4.844829233854935,-1.3675328673805598,-0.06054864344325944,-0.8404575254142055,-4.370807632619092,-0.6580585254364081,-2.0727050877484032,-5.767017518172996,-5.750997200381433,-11.169364176775932,-11.702607999261168,-8.010549619378411,-7.459757557242049,-3.2986505727347795,1.9938600188182283,2.560812753131177,-2.926673005772732,2.346019074526556,2.205824362657992,1.658295739055561,0.5856427826721853,-1.271365797201006,-4.202881716271736,-3.7775221255784177,-1.6277559692512713,-1.1735165604790811,1.2483735786124113,-3.8772980570607922,-1.1797609471234711,0.027110631747486905,-4.6907130258499325,-5.907884992097446,-9.114307910187335,-9.510733134017354,-7.010432479532793,-6.872760989919351,-2.4976994431251773,-0.8053224258483774,-1.8580414307680346,-4.8647537306439,-3.427146148373753,-4.795359461292327,-2.951226337493677,-3.6649353278912087,-4.191573121322043,-5.5760259891264194,5.0149235496013524,-1.1448609053886745,-4.5981605613702055,-10.81216243136349,-7.36127653883879,-6.495555413956828,-4.408289726083167,-1.8124968809187685,-7.579647622970344,-6.279312362977757,-11.659422931457321,3.8459773995963378,7.394762481222051,3.8631005234824234,3.6721006101582985,-2.8423455682924597,7.802136440336719,12.664949200399292,11.00584009699911,-0.45816828984130786,6.36365132467366,3.3948569520584915,-10.131761635624308,10.258140990500397,3.350710261980801,-0.9514346595691173,-3.1691716705336783,-1.0106255589542341,-0.33361376061615866,-2.1402905017767826,3.996873763639765,-5.768550305913121,-1.7277414266279485,-2.3451303931595406,3.391338374433408,8.88465929848758,11.609543955182966,12.818588644347978,1.9842725669441128,8.937032740908997,20.351329083272272,12.043255429345518,-0.4160047888600038,1.9698509351223057,3.388356030825472,-8.66507846454134,4.778854130729747,-12.639872497842704,-11.646615444485352,-0.0698139823854772,-0.021231747689149025,10.572012809064935]},{"bias_weight":-11.721805155433074,"weights":[1.140226395094511,-1.1903765103867352,2.5784757865901784,4.603447084330924,3.281745877200987,-2.3383422000116947,-6.044706554823097,-4.11134353401723,-7.113873797429664,-12.347128494477301,-12.784848204144936,-13.599278372270623,-10.180629730762236,-10.634580805463578,-7.698564381683327,-9.313390813474527,-7.1528181512193925,-6.411841734035506,-9.919758759973663,-9.153306088383486,-0.2931735848783089,1.645663985576241,-0.06353402887488727,5.603023078932937,1.2323763211861654,4.561890422686777,6.313241123327583,3.719129394714972,-1.0225247131703474,-4.437293985928168,-1.9847806521827691,-5.074339117248695,-9.12793669751566,-10.314642430550744,-9.088526042268581,-5.786304245562325,-8.968473514282657,-7.563853191857294,-10.884404859000133,-9.844418426006271,-9.304462926663025,-12.248318989785556,-10.367430863116104,-4.858956990084211,-1.8728077208937375,-2.7348224692014624,1.873734734993012,0.22062308902558517,-2.1997447058075954,-8.822503650895568,-7.29816875405158,-0.25669753529551603,-6.5990572658484785,0.01848312661824054,-3.938148920368755,4.202102500101511,5.183538890565534,8.784770607665122,6.934483737054737,1.140934128495653,4.050242985794944,7.145092906271882,-8.065736181695273,-12.081612913011577,0.5829207679167847,-3.4113312626132024,-0.7667315407276268,-3.944725459790028,-8.764590809339573,3.180690527425604,-1.9334761992313316,-5.842037871862929,-11.265312277259524,-15.025420203199365,-5.560004962914334,-10.217447439977814,-2.6886448074826204,-0.413794956146093,6.242783235113511,1.8424760664381827,6.377716967661559,6.021878347887235,1.83331766229099,5.565596020730659,7.508467737865458,-5.727441747871572,-11.79325574311703,-4.979829045642337,-4.156557275586208,-1.463180883865079,-8.50476244110639,-7.706587065114719,1.6617878490552533,-21.73721066228733,1.1630558024350424,-0.0698139823854772,-0.021231747689149025,9.463962108983795]},{"bias_weight":-2.5586065122095367,"weights":[-8.62179306947876,-10.164998229144565,-10.38524614369189,-5.357268650761532,-2.9150892627089946,-1.7473719299152268,-0.01918758917640051,-2.07582425143099,-4.8471233291604525,-10.228764734414742,-12.723350557643597,-13.425399055821881,-6.990014280967461,-4.64214832242138,-5.984977312519486,-4.057268582158307,-0.2820324847844147,1.0292226904047002,0.7005409168586372,0.2522110601503338,0.1923237753950866,0.4652721789229586,1.3142079932596968,-5.593581060506485,-7.968163542447568,-7.778834353736701,-3.57395564978946,-1.1939599069611544,-0.2776293420487339,0.7278789520818957,-1.105576103467334,-5.099198691662642,-8.771557270211352,-12.167374537994382,-12.467467160567207,-6.997919876885776,-5.3670025478693315,-6.070018359895357,-3.624872633323428,-1.5750443067578968,0.39594664996802215,0.8767195774585481,-0.3973992955792611,-1.3903146168263318,-1.88150089977305,-2.0717631774419454,0.5896827755577542,-3.6745893796164406,-2.542814195813003,-0.5802428269118586,-4.406014791009139,-8.528516700222191,-3.890297803432863,-1.4104535932701148,4.239838682878797,0.9229424591328521,-3.4180590928101378,2.3851531018597942,-8.412278382997373,-8.269961202108988,-5.870688086493792,-9.936668089305105,-2.405779617893632,-4.217304807044591,-1.9467295564306846,-6.133821233771838,-1.7523860455771576,-0.698590677458281,-2.244501913559811,4.492260156270982,-3.784658653662466,-5.496952545208641,-4.840849497552958,-7.334321283625149,-12.894160556487716,-9.511431721461918,-2.1630287267628985,1.9256273577666578,-0.055673375686546456,-3.1109163243838376,2.109827049225565,-2.866753993212416,-10.17424486091345,-0.5697847085821303,-4.406453452019042,3.767999483442371,-1.0795657771789038,0.8176113423891472,-2.4886171412581093,-0.6150510356280551,-0.5843849007983969,3.5351729672294097,-2.448993642176728,4.911705832698707,-25.929891953632715,-0.0698139823854772,-0.021231747689149025,-1.7922749448175623]},{"bias_weight":-16.616356760969232,"weights":[-1.7035037293191995,-1.463598723358144,-0.7616342790855997,-1.1124475446387563,-4.326942574485227,-4.402192823927706,-5.314259189358279,-5.67700412604093,-8.203142987237202,-5.671920263749143,-4.2520740376718384,-8.383032506892995,-7.801856952200584,-9.749729944083338,-8.280405092646232,-7.981871299594198,-5.0388721142946835,-2.5272012204456615,-2.9795663935827794,-4.2570304191262185,-4.7195786792730265,-3.8284005302579924,-2.992689664153586,-1.9518388288036823,-1.3320088584871415,-1.2568595350760983,-0.41936022574759196,-3.8399137834437274,-4.381283092633703,-4.964137317168029,-6.016293634176136,-6.316988137711646,-2.372939273747482,-1.6454327527621344,-6.11979844284077,-6.594792359918769,-8.40884902592211,-9.295008292663178,-10.01504994757468,-6.966954761237839,-4.113247863709132,-5.440236631106601,-5.47503864335677,-6.83195939079761,-5.201302828202235,-3.3284547164147287,0.2676304975919246,-4.496660451151384,-6.620517747554337,-1.8366360569820732,0.8129449993470507,-0.2138886358267869,-3.739594107574098,-7.85702288424113,-11.798472465348242,-8.837050865066747,-4.305655259332123,-3.9906572537887337,-1.510382845241015,6.021886447515628,2.3706994520688887,7.338925036026272,14.156687153551774,8.538565678339697,8.201216306456708,2.4740532666232466,-0.7979087486200293,1.9703080395768449,0.05054702464517812,0.4748796556676781,-6.248339150800276,-11.47967823248618,-3.192995235427187,4.935599064862289,3.201282198681459,0.8964503970315176,-5.412910927241275,-6.951134392954128,-5.950257949832007,-2.533409493867341,-0.6344849009569233,1.8218235814392407,7.557739222642308,7.534127974887588,10.53724818044063,14.887973747165088,11.119394247866422,7.99212345248173,0.362699453970185,-3.5465507919539645,2.5068314076647886,3.284022309433663,1.2992137198719143,-37.53226125963634,4.349504745158267,-0.0698139823854772,-0.021231747689149025,2.05817215671747]},{"bias_weight":33.42055502131593,"weights":[-1.884072376175378,-0.5444791695008633,2.693226118899394,1.329511700115191,-0.8701806874851364,-0.8293522434993411,-4.503819979313023,-6.615140476180852,-6.411733854186379,-8.214763062590404,-8.217224219032543,-2.2222766307862325,0.806581668406377,1.1620677547141027,1.0650886297957536,1.8345856705450958,2.571865643026701,1.6461603771904558,2.3667791499956903,1.6926659289759551,2.9008256992438444,-0.24301424159749913,-0.7727359924889226,1.2350042725974553,0.9551367343785104,3.8121671487278044,2.9144263769515653,0.7842824596476997,1.79953398039568,-1.4341874475465937,-4.682684472453175,-6.934987910019836,-8.218190187628762,-6.745079615094063,-2.4206993075437095,0.9560009607493688,1.3248700783466438,2.1601122916364006,3.0053100236491366,3.2057325569203394,0.5680754272637197,2.0492873593456924,0.9459458825012668,2.121884856323438,0.561090748855988,-1.0848620734924175,-1.8786728705915936,-2.438750225404734,-4.532287388406812,-3.1333395788141005,0.8871633945094693,4.696881440006791,5.653118651928711,13.619847162723168,16.98277793446969,14.644891638669465,12.395260269321161,10.978046557833888,9.063553993313535,9.875981541675728,11.209167208179835,2.401402289265322,6.595440145258351,0.06345115968260277,0.5383482615115377,-0.18699669326321386,2.698877196372325,-3.007547202364711,-1.685700715864683,2.038170577193654,4.038988211191044,3.6746589930250924,0.7880577615318021,-0.7414492499755779,2.4323967279216245,1.1864915040117845,4.8132807904515875,9.411438274279094,9.495335723836831,7.16428749246993,3.8047261786134348,