{"learning_rate":0.001,"layers":[{"function":"SELU","size":98,"inputSize":98,"neurons":[{"bias_weight":13.590102785183136,"weights":[0.44388010361322294,0.3981215382684773,0.5594716707126834,0.8513262277480589,-0.039721876721880094,1.1667629755907052,0.7665147375442685,-0.2015104651901057,-0.708801133772842,-1.7453347384964522,-3.6281676317431524,-2.576011908732289,-2.4151165450017795,1.1719188738604807,1.144170040356658,-0.4087449953340695,-3.180880955396849,-2.8514336693560627,-2.910544277325981,-1.848972174073945,0.18399141715934403,0.4979583172634386,1.2555160788969708,1.9098758675222325,1.735729770040443,1.287508731900744,1.996021670297836,1.2144869386719102,2.8447768593799894,3.13674940721972,1.9993479642538594,1.9950961502242988,1.4153295798128824,-0.6868794483392082,-0.5724405888924078,-0.5288670800120764,0.32884376785748826,-0.6274230853475448,-0.5144378478781216,-2.630413607241593,-3.482952185025512,-3.8609388572025045,-4.095233729849231,-2.617859659169215,-2.03741507285672,-0.9623944174266365,-0.21661592762911083,2.0517698224818774,0.5626535579538359,1.700807062434883,0.5775444225342831,-1.4050076747779838,-2.5227596038238693,2.1937911346219074,2.9790147868770744,4.1066244628713395,2.716942611105211,4.032437700139731,4.889247829079685,4.320891380075243,3.2030480805307624,4.33357833893232,-0.4361924060583284,0.9593045388484664,0.6925769737217695,-1.7727360156041276,-0.5820155672948877,0.9108485293844718,-2.367394052764333,2.1919464222712977,-0.14895658958518618,-1.398580360898419,-1.8591201229175114,-2.7831580721796816,-1.9128212120409402,-1.7094102751946902,0.05739344328073555,-0.3389478081588516,-2.3244268688314214,-4.863148501850902,-4.2305464588607,-0.39507229688197326,-4.429978927636602,-3.899007491844687,2.1356303440022146,-0.9688961643244657,-1.6712958939865445,-2.724005852776076,-2.2385596504654024,-0.12388338151075685,-0.040693144494842605,-1.5060006150459646,1.0687838073345381,21.785755299932497,8.275514274678704,-0.0698139823854772,-0.021231747689149025,12.097645995340999]},{"bias_weight":-3.2146092732629676,"weights":[1.2622426179725408,1.7743936597586547,1.7419941279128597,0.48949495735934256,-0.4059253496473866,0.4559427175350252,-0.1743617693544992,-0.13745697088474937,1.0195056284412574,0.8627126198048929,1.4285181776985045,0.7884254137363776,0.6368782642003543,0.6063140459760376,1.670565384245221,2.1191274424938067,2.1284508143890837,1.8826285296178786,2.584769510200949,1.470570647515116,1.7999168911509869,2.7841367308625036,2.417073921151218,2.7757138341874446,2.6835894235932343,2.2718348274698483,1.1186978648007138,0.5388428028642103,0.9102337701175875,0.3498314496057282,0.40088505648202255,0.7860066264787348,0.6355876833981171,1.3269675129266714,0.1541325890878755,-0.03441616512028335,0.28235528709119734,1.0536155748256586,1.5247899308507984,1.903503368897596,1.732022118107353,1.6353706668643992,1.3774141973924765,1.7135359396351877,2.8118455508202036,2.022694977254868,0.257789368795488,0.64771784082528,-0.2725404287658797,-0.47326149107977544,-2.190159689013594,0.578349455636476,1.2443061473462311,-0.9874288851090276,-1.0209525599342961,-0.7654794317548332,-0.3453540887743523,-0.19497990297177892,0.13562985428433758,-2.0791778903651235,-3.693831675749322,-3.6027377590543317,-2.4498870131240382,-1.572217575643227,-1.7803505458693383,0.6223824822435418,-0.5270668463356469,-0.9209956878258321,-0.7050360490311129,-2.5008501147495914,-0.6044698042479599,-0.3257486788985867,-1.0960517474185738,-1.4448229295237296,-0.7598385160363631,0.30650319238971124,-0.24425490943388298,1.4923760676882427,2.7088025404544145,3.711402581556392,3.221429083749633,2.673439497776146,5.275490844200962,2.1527929323502297,-1.4428976668946942,-2.0214568712226355,-0.19617845212479423,0.7534793320478189,0.3201117481375554,-1.2782800897172606,-0.6769184370879031,-1.201833496401174,-0.8143301551500883,12.278463441425414,-4.5550089264999265,-0.0698139823854772,-0.021231747689149025,-6.726536959230861]},{"bias_weight":-6.079688628987923,"weights":[1.4859765386352655,-0.38320491671957896,-1.416051953456083,-1.8912092648095742,0.17509095744771536,1.5018663609590988,0.8318173643314959,1.4921433119675909,0.7868739687052554,1.4680505567007722,0.34945060718106474,-0.5857454871014109,-0.2387213159309969,0.39419086067726866,1.1292535539797435,1.9265458358702061,3.1023111577514797,1.843919490681789,-0.052247824231204915,0.5303159084907522,-0.04968239260682631,-0.003940455745428584,0.5038417059586104,2.0397809956194166,-1.1428057661763975,-1.2471926554019377,-0.8180032959860716,0.36844075826733114,1.2758193531854405,1.7731475924677138,2.4441577636281564,1.0791903807432512,2.429614223226584,2.0117020394786533,0.6325001634803831,1.214198985923403,1.251856106147626,1.709086928572553,1.846273337120635,2.784159388704451,1.2160290694691196,0.13505016820932553,1.2024847934353284,-0.5207047566086971,-0.27475187729544376,-0.08895726465919691,4.172050349537493,4.030257838681101,2.516182442619663,2.658353570215689,-0.6422340806703511,-0.02203045957057217,-0.8430838515548333,-1.0478051583751316,-4.876469671549034,-4.39575754301647,-7.635518450249853,-6.951814900733316,-2.992761820876953,-0.5570740461328244,-3.977455781947323,-2.227738711200617,-1.8132234567763839,-1.2036907144662679,-2.1375962965521498,0.2070431311830351,1.2508658444454588,0.6833058681963725,-1.9564891956742603,3.804016727004718,3.2368651477922703,3.937315123426414,3.3146499133686222,-0.6582296017165586,0.08203610144429724,-0.4777503848632743,0.8234079296915308,-0.22732763067599204,2.085682199594185,-1.4736941171615097,-3.770579911472492,0.8302686765703984,3.8610497583557377,-0.32376471513521893,-1.4386220861850263,-2.561618820052381,1.4681291562620618,-1.2910346676322024,-0.654890480496455,0.02835867142371422,-2.2874007914712853,-3.3362971773843277,0.8650881584259075,2.413920631358621,-11.642875772084329,-0.0698139823854772,-0.021231747689149025,2.4776910053016463]},{"bias_weight":10.27716541143588,"weights":[0.26201904730008374,0.9529879209148541,0.8374087269504162,-0.08584484548307861,0.9803771659946865,1.7355944476888352,1.2383729619240424,-0.76557203182792,-1.5235623235749194,-4.383872907375364,-6.139756134550089,-6.022118958155513,-6.110435091293336,-4.828570062111964,-4.051539760337555,-1.165262700366766,2.1197326918269503,2.883954869267129,3.652263996930372,3.2209505352259433,2.386807615812195,1.7803806127037662,1.1684231731869665,0.8988519451877117,2.0123730047010238,2.2460167390645913,2.124789869334648,3.087618248925636,3.8012085542659237,2.2778071212972275,-0.17156268635691202,-0.3292440309974913,-2.460329205671907,-5.453578971777786,-5.24445325230323,-4.463138823026258,-3.7290044897549426,-2.9633055826937036,-0.6123022998077732,1.9749762163057492,2.534017321358752,2.4210028946586273,2.063365305564458,0.24480768644950765,-0.05004360606484876,-0.663945125946204,-0.9194579740408171,-1.1162997570805182,-0.331174967817337,1.6834393537765369,-2.4940014093735874,-1.0235588746621904,1.1325423040744373,4.096761110978047,4.522666661619233,5.999153227131626,7.659249636621351,9.314995965819937,7.378993275287311,4.956685319725961,3.626222532049099,-1.3415706856537513,-1.2649602194887326,-0.04013197614659068,2.143298582435373,-2.245495657711535,-2.0831027582991704,-3.2671299735183057,-5.450874187291166,0.7542206204843734,-2.1676250466359424,-2.2872886294404196,-0.8307329619281395,-3.6225262674853,-2.051120162670756,-0.016401432742544755,1.873833337170513,0.4395988231642246,-0.9109833689467821,0.30683372917814145,3.9864702565950734,2.7871221463097373,-1.790938130073948,-0.8613256235560566,-1.1045397231874083,-0.33588527909823335,-1.8436203251590602,-0.7084416507611799,-1.8990012918234114,-0.9285408847335092,-2.1097116171140424,-2.1770845965600634,1.735534042510623,-2.7460181214559536,13.491799198628,-0.0698139823854772,-0.021231747689149025,9.74900951836425]},{"bias_weight":6.475866014072892,"weights":[-0.7833523171660505,-2.4411576255775533,-2.9680150083045307,-3.1130939051705857,-5.186067920236551,-6.019569144988181,-8.317335631539361,-8.38455979920551,-6.516660843037296,-4.888336802989302,-3.4570616088649655,-1.7941026627169516,-1.703736605685022,-0.6132332024059474,-0.22660101502726174,-1.1299304317826668,-0.36633240920067445,-0.0016071415462042538,-0.20533869946154526,1.1656335501982371,0.7832738696682706,-0.6945154739568671,-2.2825192234104636,0.8776922806119956,-0.8911397597903934,-0.33875571295693235,0.42866236814963826,-2.4198268568150465,-2.938312194655585,-5.041070402706377,-5.701312268832911,-3.9701801438812327,-2.161284338080245,-1.4420267258240749,-0.7554209623666079,-0.3858316046474541,-0.7213248092371897,-0.43179052114767685,-0.8124189711394263,-0.7179652908268711,-0.378976782476237,-0.014135691518770149,1.1376710091756066,1.0189787329091702,0.6866817797039947,-1.4371674156128367,-3.1687793072313397,1.5402899525860154,3.0481245417118794,0.7218523059190541,1.1655829227562435,-0.5337309608656698,0.5502837732825848,2.322400670277803,1.5083984287380945,6.189966342618546,4.192456200405467,0.4813715876479516,3.3067279915549666,3.330416966979236,3.3718617892720055,1.0680413834529292,2.902205667473581,5.112286542142842,1.0374461354984847,0.015260962755901006,-1.1479077512013025,3.1357485223751924,1.4363280804939589,2.0198462753729736,1.3142324437217852,1.8490338719741393,-1.64881185634493,-0.6928877921456489,0.2767637706728606,-0.25997484595744974,0.2273210135659495,-2.1193188807895194,-0.5891591236638681,-1.8692479068141374,-3.3227355088813204,0.4908465420857398,-3.0437733192798015,-1.9794014100853816,0.5178727318092166,3.453049396114301,3.349491163866719,-2.1819391321315478,-0.18014588298616385,-0.4032777413332233,2.355107245774435,1.3987721229674341,1.266328478364674,-10.662191242573028,2.1942321187098957,-0.0698139823854772,-0.021231747689149025,-10.33865495521241]},{"bias_weight":18.935991348874904,"weights":[-0.9553180756587261,-1.2869499932159159,0.38378449213902915,0.21726574615639152,-0.1992894649997129,-0.34123009673292537,-1.0906965066874683,-2.0122513124305517,-1.571293435806855,-1.3346989116474952,-1.4672773747448498,0.369288869548097,1.3713217879499204,3.610291029533908,4.0600427085805535,2.9416391000333317,3.319597402376387,3.9077459431818014,3.3170407132323936,4.148327211040492,4.039311923227722,3.5164574834120916,3.176924373244511,-0.5198618602905818,-0.7878925416013685,0.9613305770860738,0.4399279032500672,-0.3344342599805704,0.046786639228502555,-0.3625689612554748,-0.4081055086260714,0.13921400516505691,-0.4313085536564217,-0.8113120500328748,0.9125355811602733,2.185018936775197,2.8457750622679074,4.001832372741746,3.510869431774938,3.5822889121364705,3.9480288578643723,4.2531585564952605,4.180969478133268,3.8610667940877303,3.2960542805449755,2.75558653996129,3.8368502026865263,2.3665972005939544,-0.7985674279121433,-2.0580445513657497,-3.5739570054092153,1.1802669882457604,3.0734688937700225,1.433839059492599,0.8970855441669139,5.14346117250247,6.525067184069817,7.957951417135829,5.830997688460532,6.031071051924748,4.851975149414947,0.9331699630570931,-2.00833569356272,-1.5572784509538602,3.9648113986158915,4.073812137862063,1.633010189441454,1.88692082325869,0.25280956754735956,6.912564280712983,1.2703749597700553,-1.2803357404355598,-1.4143324454909993,-1.8692282497404593,2.758161301361361,3.552142992919137,0.34926427849074754,-2.7100419656822714,-2.15583409338496,-0.5189378387109623,2.4396043063127504,2.1554587365374647,-1.5943549912098232,-0.9256209996812792,0.6351999966972435,-1.504666658472729,-3.621538612750968,0.8861417953862711,1.8134781790143508,0.30177254791831615,1.5612126705045388,-0.12558101442673705,4.1150490180839165,-24.927510770944505,-1.172745355384169,-0.0698139823854772,-0.021231747689149025,4.569485441330262]},{"bias_weight":4.850316551427195,"weights":[1.581065902411894,2.665589975561879,1.2786278673483713,0.5648285716295594,0.7575359680319658,-1.5209704521698537,-3.1774035326287646,-4.600960202489929,-6.896679077244466,-10.184028432703474,-9.428402485800909,-7.962300144174676,-5.9085591953720105,-3.8523752717381936,-3.269425951419089,-2.60245245092508,-1.1025455904307024,-0.4822278404017335,0.8258505515825043,0.7509870933039607,3.0254794752159855,2.2465867216062847,1.6590484637896843,1.4253595680313376,2.314441401371088,1.0232343630272733,2.12954262116913,2.2829991282348727,0.4770059909730909,-0.9147338885836246,-2.2193055104480237,-4.601893324325873,-6.841161216562444,-7.762921543245117,-5.7980125204975765,-2.607975435369288,-1.9286245871406664,-1.284647603551876,-1.5466837625630736,0.21556300944034495,-0.6440833056969941,0.26796882609252604,-0.32313892089859764,1.951623636205111,1.4895106411361232,1.1155393638005624,-3.8150653066591134,-5.914858309156801,-2.9432977883601468,2.713069703703531,-0.33773585408621787,0.8197700351216535,1.8726500235240053,6.484032157589903,8.886946470821217,8.317756795720499,7.628776631977974,9.31215666522394,9.419841515219257,9.576659431709615,6.725229944507275,3.1022108668354162,-0.7583358962713443,0.04862202540279255,-2.163215626448825,-2.887618866656423,-5.44180485067464,-4.143569634975668,-7.529853804358391,-0.8719781876830026,-3.0854059436564407,-2.0342658790092125,3.5052765987532046,-1.225759178785508,4.175995546785153,3.5324427991176477,4.705836406892764,4.475564829219841,1.8609943683450394,2.6478285029511386,2.727408851810287,3.731551212060939,1.2947148751780653,-0.3127519158398933,0.35843409374632906,-2.3794758051172344,-2.7676108800765244,-4.469836330960174,-3.0873470544444555,-2.4573576774072388,-3.7020387559263295,-4.2333322271262315,0.09976538632823428,18.95373016161386,16.046423039164623,-0.0698139823854772,-0.021231747689149025,-4.038162078477811]},{"bias_weight":1.2871015627717337,"weights":[-2.183842121294727,-3.08453703867882,-3.623357263858394,-2.063872352504443,0.3614969254674026,1.60848799835853,0.5440084986358468,-0.9686517643557077,-1.140955306390459,-2.8054931208315192,-5.252857515242717,-5.12684306390294,-3.693159731893515,-1.584162987966112,0.10968872873970938,1.8583445115624508,2.673279554558928,2.631188245495651,1.4223800122914712,1.4086035780647086,1.5881937872745586,0.4166485024760333,1.1151922948947424,-0.5142856996576609,-1.8318140270306142,-2.0203341546380003,-0.66416175203047,1.0482083771157813,1.8123733369930535,0.43977425512734963,-1.0990930202346323,-2.2371074669262345,-4.187062940695093,-5.661668087620958,-6.33404230143463,-6.15916602245144,-3.471118823126718,-1.1643812503340567,0.6999219453198033,1.254466353424337,0.8801421404412303,0.008355765866143262,0.8207757774091433,0.707959428157719,0.3866159839350651,0.5134146843144424,2.7503246068866782,0.18723475407345333,-0.7205121684867624,-0.01225616630544504,-0.7492257682469978,0.406819622855917,-0.08375434305067418,-2.620607151503368,-1.983597584007732,-3.8171156733628933,-7.782046987613706,-5.425262651630622,-3.115616307616392,-4.404930037495438,-0.7190737201567313,0.5422784263249939,0.016441728660669917,0.9926890395202768,-0.02941154915891027,-0.4978366863652092,-1.1332017475810892,-0.8708673264053285,-0.17496845779868095,0.5326999308906423,-1.6270793525794618,-1.59873178777029,-0.8791750038913375,-0.4284731052124788,-1.0993288322565107,-1.4139777869509165,-1.5637624481147394,2.568993078628083,0.7679704452284508,-3.878497571217417,-1.9376349947384677,0.5278274834813198,2.2545314669204304,5.893658045522356,4.161050402461941,1.4666145907541515,3.0794528572981386,3.2150737111526144,0.04959491240897674,-2.162787976946675,-0.47784386081277563,-0.21205109440124112,-3.055031137871839,5.529161872586676,-20.554147993209472,-0.0698139823854772,-0.021231747689149025,5.816372710884389]},{"bias_weight":-0.3711385889983122,"weights":[-3.045733189962331,-1.393487086612352,-0.6192857843910132,-0.3638415234481447,0.6029790119497889,0.9144157261173147,-1.930933798158502,-4.0442027359770805,-4.708130733832799,-5.107942017009614,-6.234772552624205,-6.807435670486225,-6.540750183986712,-3.6356093415969473,-0.5813084608790378,0.45552148201385134,-0.016438917134346216,0.31267616026690825,-0.12028808663066352,0.17759353362338054,1.9172574973635708,2.195601467437418,3.0997816975477828,-2.1600794659504308,-1.2985436045577368,-0.1986092792055458,0.4535244357878994,1.041347180624756,0.8818987172674799,-1.8150350745127297,-4.086207940360285,-6.2340225242805465,-7.334998947380485,-6.815194613896432,-7.847791034337893,-8.85321296089771,-5.633714215840159,-2.5396707040383575,-1.4511474151617256,-1.8329244601719012,-1.5177271453723127,-2.083722203148262,-0.5326822944991231,1.4073397374045202,2.096290762550346,2.830502621687878,-2.1167597542251793,-5.420644188751993,-4.125161916620139,-1.6245588340593866,-1.6902384732001963,-0.7810755037745363,0.519797191336987,-0.7135433968331456,0.08860924143724197,-2.0100346251216763,-4.415363766607145,-1.5546496319289218,-1.959847891604351,-3.2936611390262183,-2.469448118818656,1.902681507791924,1.6164584568158038,-0.10368399197970786,-1.8265770156843155,-0.05874371710400553,1.7401585564677173,-0.08620348574382303,-0.9508036586637091,-4.669477936446432,-6.082486218004383,-4.152981811625646,-2.130427950335491,-1.8987335837105022,-2.4692758445036045,-1.3191541582253763,0.7631929044286084,4.834906580881505,3.632325117953168,0.5723927702902555,2.1930313414128157,1.1953989472925495,3.2153797154408963,3.3377601954910494,3.9209490606973523,2.119122697555266,1.1249671142897921,0.4025873302970309,-0.5185471003005633,-0.11432317188546512,-0.458542406070026,-0.7353993931475923,-2.6797349626952593,4.194177593192433,-16.82834681187551,-0.0698139823854772,-0.021231747689149025,5.6090561260347895]},{"bias_weight":-4.551351267475127,"weights":[1.1131223187950088,1.4034671745915768,0.642976229753185,-0.937939952563229,-1.9037223315843528,-3.5001820575030758,-4.087957452216491,-2.7716116912830597,-0.4308310653460242,1.7676932188798358,2.777176469570909,3.2099170198698728,1.8755803787358172,0.20284437245765066,0.4050173685656475,0.24057801222552658,1.408741587111562,1.2723615841640659,0.27096103379540964,0.7134505836716086,0.03158565524001527,-0.3502343809249703,-0.5066182194410831,1.4102227380300505,0.776514220111474,0.7935900757724946,0.38947808527312805,-1.0242402561025532,-3.3941125669357346,-2.7173289298738545,-1.4225179266714174,0.29023385104496363,2.954986663182857,4.238224091261556,4.1089616252047785,3.0652764573969287,1.6921975197093886,1.4463671227760484,0.26759406102018657,1.3373799016293253,0.7702557464311477,-0.2767663064866598,0.8940418976821505,-0.6229634337240392,-0.5955594715802551,-0.7996156222282562,0.3925021084743455,1.4163949573697412,0.501915189785108,1.3826273159033828,2.793634719383219,4.016878718196437,1.1549087169062544,-1.3981233259057717,-6.991138003836986,-6.084947263672679,-9.739644369113375,-5.203468553392248,-3.989035647378407,0.15382891283522646,-2.9557989656616352,-3.3306420683265427,-1.1088701319193004,-0.19390427514804418,-0.9850828004565652,1.3844257306439824,2.913298615623946,1.3265791643428875,-0.7547539642465543,0.07703201089887501,0.5215459956181893,0.5756244313615646,0.1948109205764378,1.8833308959505577,4.17995643347304,1.4747038531399306,-0.10457324167751045,-4.227549759223224,-1.8539153431948472,-4.462300771892444,-2.6225381858644923,-2.6790509588841918,4.034331343446932,0.03129720621018332,-1.968945028867885,-2.66767280180807,1.2386344658333714,-0.257523459334588,1.1711485949064069,1.964863790250613,-0.1371049721754217,-1.1277574891861892,0.2834451082104292,9.926580516055761,-9.243111127002322,-0.0698139823854772,-0.021231747689149025,6.653734512081151]},{"bias_weight":-8.746251497578685,"weights":[-0.38709181698874023,-0.6856146564020088,0.4719723878532919,0.0935904239219252,-1.200848949122301,0.2203873044372193,-2.036349692089614,-2.792690809745187,-0.5548853171503433,-0.2602514242952263,-0.5201665155517615,-1.2306105033655395,-2.963027643188246,-1.9413013322198567,0.2379478192192654,-0.8788244661108935,-0.20364840758398267,1.0316227374908764,-0.7618046632526793,-0.3943830762865873,0.26404694564982817,1.6943788247043257,1.8574349427271057,1.8145397289500318,0.6389437889613652,0.7967699428358349,0.30662903638778594,-1.3486634503812571,-0.48885173874530957,-2.412458330418555,-2.984754063519538,-0.5674942623105647,-0.14623252034476364,-0.5604025503113411,-1.8463496462522095,-3.8854934695910166,-2.456522281501596,-0.49419027917206654,-0.780190322077912,0.5986915577765389,1.7623295329777136,-0.7500423712158023,0.7125601034374986,1.1316581305045508,3.035523016338133,2.9202810493900646,1.7273848105819085,0.8982703034116001,1.9444224746256606,2.7025779569707864,2.992925827631353,6.667850793525203,6.26254711013398,1.7260910240560365,-3.0535164369482777,3.827774159006489,3.53645546562034,2.7009735401321033,-1.2624852072348247,-9.826700505566649,-2.832919303169223,-0.6782741980094917,0.13576657449234286,2.5104250360817937,2.5216637561792026,5.980608276111636,2.7186245260634645,4.392880186303151,1.4036582960773871,0.13634210382709838,-0.9353107266739054,1.3495629240617772,2.9009383433858673,5.275625960582012,6.962609828623768,6.512997861096113,2.9255271402253595,-1.9762096286999205,3.952484340541622,5.489833828225,5.512651199372208,0.5670515483338866,-1.5986764086554908,0.826586364561029,-0.4456964444198192,0.771507236796262,2.2650299719342786,4.640630729660767,4.792947980298444,0.6374518834976594,1.9826846153219122,-2.403328779895502,-1.6783865221165148,6.6598521895166956,-5.713488190953975,-0.0698139823854772,-0.021231747689149025,-3.7894791561580283]},{"bias_weight":-3.2498408436118544,"weights":[-0.702642532591149,1.441014372963774,2.497390738150471,1.1164108406652242,0.9999100947455781,-1.8647765321376242,-4.896091517475705,-6.22704846539836,-5.976816161299395,-5.276333879379848,-4.581068455188847,-0.15791877762607176,2.0959101103414266,3.080535161171892,3.087788500564569,2.034861014865628,1.6794691671154116,2.0289419450055064,0.878493498969069,0.18252882732119782,-0.3922711211556206,0.5984302643868953,-0.29453540764154806,1.488750146676849,1.7225702196445924,3.6531242041040204,2.7872311758334227,1.51188386886348,-1.4955052823246637,-4.3008707344523645,-5.4767548076606305,-4.983257528380603,-4.361684530707247,-4.175468610527113,-1.8181434950931015,-0.3376709034159911,1.338743892506366,1.8685505215003007,1.353789093548323,0.9883917219671908,0.522205412352594,-0.3833053269446932,-0.20750263494884724,-0.5995847156201664,0.6912291995713123,0.31623826057935045,-3.367734052928946,-2.0202141949639287,-1.8819673945239757,-3.6690469759416913,-2.712687688285468,0.17465081502197977,0.35279498224840766,-0.33948279962685785,-2.011907836345372,-0.7555791954305178,-3.1013855860700454,-3.584355123997447,-5.493637729073019,-8.273082082487809,-6.1618792151506865,-2.103843777760248,-1.206297972715759,-2.2330112472500607,-4.155320998463211,-0.8231705826332297,-0.041262530857636315,-1.0791659297774656,1.779966980441957,-4.869842779841656,-2.4329597414734074,-1.4093933969304637,-3.1892376120792743,-1.8108375512358483,-0.6793629277238932,-0.8981901932678654,1.6319261095484021,2.9341316640289516,5.148019644508506,2.910254766245398,0.8073411148943873,-2.0561759779096778,-0.5557707593715859,0.0709224947460939,0.13147619790364495,-0.5402177741069647,-1.4308656537316087,-2.665585701681013,-3.493217263081464,-3.7348393623564196,-1.3362154668018167,1.2800601700163659,-2.1086019035711105,17.329920971491077,-18.763081358940777,-0.0698139823854772,-0.021231747689149025,13.654857986406011]},{"bias_weight":9.989770366438455,"weights":[1.3873075831015222,0.49426056138571733,-0.03562445220512456,-1.3853225898650177,-1.8509969047499908,-2.306148057712873,-2.6278207420113464,-1.7410763173460935,-1.8279077090244937,-1.9736145671281555,-0.395103090149281,0.06808268424625881,0.8957770162352809,1.4402983618543836,1.7299676513336042,1.137631568578753,1.9239906584400621,1.6573778006403868,0.5361906086629368,1.3195273095899225,1.216557982308829,0.09472956727376063,0.3848135869553431,1.5701641089839542,1.0926579205578502,0.754941942391921,-0.27178094182917295,-0.7046860799165238,-1.1910891136896375,-1.1841632909254873,-0.6539270115576354,-0.6081796420823133,-0.31169995926083743,0.4585945263367148,0.5736363662814863,1.6869887017218201,1.104178728491707,1.3095841995246114,1.2221856362007124,2.2422369175201506,1.5661512792850116,0.6934644648578323,0.7455294502622815,0.3131864006244284,-0.4252370183525945,0.22273340700475652,-0.09487686613169413,0.1759792759791859,2.3207694180063805,0.4871488112897724,0.02178457241742464,0.4814732893479575,0.6852585283292195,2.057253445445918,6.16339935243984,6.1691202552466216,4.7124805111448005,4.923675836723563,1.7028894108855153,1.2147967297260212,3.145806518030594,2.2081650303690923,1.1361300911602759,-0.29970124939181914,1.8738274255911793,-0.2356017146162913,-0.7423127623751392,1.2029998884998894,0.10133180543974414,2.159275943856676,0.00406506839002251,1.7007404598655624,-0.4938757930739196,-1.4088445845235102,0.7917228668514754,0.029338548384657923,-0.12263813112233292,1.6706637573861665,0.3724591764502827,-1.1688729958035984,-0.7440155795422441,-1.8109035576667853,-4.68666112766686,-2.030808930804109,0.7993987975886305,0.9598402063140599,-1.8948134247417636,-0.3427726167443399,-0.6247319758964491,-0.6581525678657508,0.26468422463879004,0.638745309378594,0.09178925758024536,21.265588869301403,6.701075987797464,-0.0698139823854772,-0.021231747689149025,6.461499383052581]},{"bias_weight":-3.8389087476468817,"weights":[3.3442746237512755,4.104607296315501,2.3824937906766563,1.917640232118215,1.099809767073116,2.1113539745223555,2.25612583972115,1.4486622633237394,1.6573885814549087,0.8309857660256635,0.5724234252191573,0.06875028138656315,0.465549654577351,0.255860701850328,0.12598758869214552,0.7305222487195658,0.48472327868834203,-0.13522520270424238,-0.4541519811240198,-1.4800581679653946,-1.4371899163789468,-2.103357957103753,-0.6968745872654365,4.49488018530013,4.403375157430143,3.020861717315327,2.696518744113761,2.185562945844731,2.282748666033185,2.015396391636287,1.2612993333406974,0.7753194813187231,0.14137139089724848,0.24521694451948087,-0.6841373419303134,0.19115032776426644,0.777680685127537,0.17011768526206325,0.33716972708697285,0.30570678162444104,-0.3881138095761361,-0.8121665785986901,-1.0770336762559154,-0.8563514845695827,-1.7950102087022755,-0.5688370135437929,2.5373370768006063,2.2914574527351887,-0.3769550524621187,0.17132704284959543,-2.5855885440791857,-2.9708012910617008,-3.0848543971100404,2.0091414335864783,1.6938261258257312,0.20319844633708556,-4.310340252328593,-0.3444341790031689,-0.2503767183498796,-3.0097481919012106,-2.6744963307359706,-2.3985242865009933,0.41006070384730975,-1.6134045778356192,-1.4227755889522076,0.4908075545916966,1.3654425006333328,1.3047803347014575,0.4845990182839439,-1.2838642728756984,0.6938065758909823,-0.4540968843360701,-0.04003609211804997,-2.0639731423861543,-2.8326134669136245,-2.2984452558848214,3.656782496898699,4.50990454206083,3.9671662249916055,0.0379840926081505,2.4832944031758792,2.4624017509056544,2.5472873664784332,2.407365303514802,-1.4399730858329434,-0.29567767549783724,-0.5319479787750886,0.26475544951162705,0.12300009009040254,0.9379987937433734,0.9959657763957039,-1.0929470975359685,0.5968542248096521,-3.971401869325532,-5.25113177709593,-0.0698139823854772,-0.021231747689149025,-2.258920068844181]},{"bias_weight":7.666561664696845,"weights":[0.5702481689259119,2.1775946113381015,2.3504973306408043,-1.5645712209360727,-2.8958876431090568,-4.618836396610466,-6.822301261415484,-8.377382565997191,-6.448766838561912,-5.453392318616576,-6.754165414698515,-5.175886260843117,-1.9614659482327845,-2.2755580872637116,-0.7997742029638432,-1.519654525353339,0.3795054914403255,-0.8054409499693409,1.6662750910778281,1.2362378500256235,0.2773069845868508,1.6494290302648529,1.9927466664615685,2.3315756945259776,3.419420796028563,3.5527632153725723,1.2512066989593131,-1.427274180530998,-1.1056851177316216,-2.453354193647796,-3.9759770488340433,-2.4513112481558554,0.12733730175569477,-2.460264727765348,-2.2334039428045567,1.0444525864555803,-1.8872078477181853,-1.261017379519729,-1.2644731536700156,0.9729003073582185,-0.16388850187393783,2.174064639492726,1.2789126219832105,-0.14653754994402693,2.059303291513176,2.4490706839918843,-3.9861197906672805,1.0953022592001174,1.4602787534810349,4.025006127036507,5.098775590825718,2.267587641596821,3.2403670640819353,7.8839627517326285,8.279289188069816,6.8319210889241635,2.22423234886616,0.16567638092071202,1.7052846063138523,5.115642233572022,1.3795747372343083,2.60858143140596,-0.9671256043727549,2.4751257592703944,0.1909767785728282,-2.404724881587513,-2.790955042549575,1.7341240106164677,-1.1176652219788399,0.8402644378543376,0.4201535620874123,-0.4384569278403868,-0.19914694688537773,0.8242532410226476,2.329676590825967,1.532301202103756,4.970232721368578,3.454519192521884,1.1980159873866536,-2.8940748156393044,-5.501616708424223,-1.4298616611459467,-2.029324807750151,-4.3479396713871115,1.7849855913238835,0.8838878522327572,0.8142375443138093,-2.3107766623054227,-2.756568177610114,-2.3585062110789243,1.4588693819127911,0.39027066605261024,0.6388036411026256,-8.676431294040592,6.8371256516536985,-0.0698139823854772,-0.021231747689149025,-4.536966887120536]},{"bias_weight":20.67320216200824,"weights":[1.2006209086539774,1.4521227261990186,0.26317144212077254,-1.2781968577182867,-1.5613301432971523,-1.312324529284792,-0.6311933757564575,1.0822365419444182,2.8184388637600386,3.1905410287498195,3.291669488837151,2.6620546748131058,1.9221342104523578,1.7830212230223743,-0.7124181263116212,0.36545114625219477,-0.4971413625990829,0.08974039234678498,-1.502213445848614,0.6592675982331918,2.2214846488705158,0.6104801077693086,0.4136917759623145,0.3930006866412267,1.2537899464636453,0.1903367809656016,-0.3358153020143868,-0.07000235683383171,-0.373123901705823,-0.41520160244175985,1.0343656934770011,2.205200784133843,3.2037115233751,2.4592782945393337,2.6149338439615235,1.7552927015945166,0.569398068818908,-0.11108009078093248,-0.11293941339131275,-0.6030764990778527,-0.9950833344204256,-1.7594346309743134,-0.8227147148143539,0.6696762759345133,-0.32490869671085293,-0.06255119492530693,-1.3898243651946756,-4.097828677571748,-5.654384671723303,-2.302114406803207,-2.0887117531946204,-2.163874206453516,0.9976773287041627,4.418877689850928,1.0398497613603177,2.218991379533317,1.4067864862688932,2.574675315276086,7.148402330830776,2.475066481682927,2.5609358903341635,2.1883575491700027,1.9574967461776662,-1.0308052686137754,-1.0347077542735217,-3.1207269321975373,-1.5320077721731733,-2.8059339875846816,0.5681324436984592,-0.7315163881952684,-2.9204855705670396,-4.208865025432522,-2.236422592179887,-2.7551859599125184,-0.9439049043319899,1.645326042119763,3.1989198628705724,-2.0964840709607206,-1.164023645298924,-1.2692323460879569,-1.6680290289773605,4.015975644315051,-2.307552721319784,-3.01683623669994,-0.7070081546938853,0.8272285685383501,-2.885408476531037,-3.3089346981027354,-3.1597189940278856,-0.3838012309471819,-3.358563795410562,0.31850197199269153,-3.0347596792183658,11.816756715915929,-1.3737716024259934,-0.0698139823854772,-0.021231747689149025,13.368582866679263]},{"bias_weight":10.85855393044853,"weights":[0.9699080517191196,0.33138867673055283,0.5101396048244659,-0.1683623664129004,-0.6282627459957798,-1.337385927918801,-1.31273842946221,-0.8995698353209401,-0.3948734097303398,-0.5961686246213698,0.8463268000372315,0.9630018815502511,0.7233710678664542,0.6988003709040954,0.8002510355440917,0.781813415235036,1.722563535767638,1.7983253517173894,0.7526714152928147,1.3530018387795457,1.346347984772162,0.0777677319793447,-0.3343826383984922,1.2961041662779826,1.042689576401949,1.1799765412618781,0.9927323573201045,0.5123940857522294,-0.41796493441684757,-0.07055660462034999,0.03093683330544448,0.5113464445310771,0.6509080924304609,1.0743196500064742,1.162800816523619,1.3108759094473974,0.1209297138088857,0.5103492372453865,0.6846716883111971,1.9249745405302092,1.323781744152046,0.7448060287435185,0.46114086914086083,0.17806307298397087,-0.4758331853188454,-0.5629301430801859,0.06421806318155136,0.024513240909818858,2.0082514997818057,1.1022352666036497,0.8082878648812354,1.216436370027837,1.4283895129541992,3.18896797783212,4.520051367714942,5.906303849931224,5.344096420430043,5.213593377219104,3.705555674012388,3.439161817703692,3.9158883890162883,2.3849476477856073,0.9646628000801759,1.2179630121676763,2.2842313338870257,0.30131772722377664,0.0002695046232927952,0.29216037991072985,-0.7448882280629545,1.7562556295965188,-0.08337639477848341,1.1560666466249203,-0.0701571563589114,-0.8611899898027923,1.52312596014718,0.979866754797251,1.3220761613800414,-0.8957853147589022,-0.6886319134146676,-0.8907273015753613,-1.1508648318569579,-0.6533423356107196,-3.6579662905251817,-2.1971715930484574,0.37800384035074613,0.015621830855721516,-1.5587082295609336,-0.632147862593006,-0.44930715507512037,0.29695840224866094,-0.4136281950513807,-0.3111887922426331,-0.35060552968098635,18.930822495120186,4.760235389012481,-0.0698139823854772,-0.021231747689149025,7.188923105158213]},{"bias_weight":16.546705535171473,"weights":[3.8401702663895514,3.0372607801998024,3.0443791274122587,2.3521608116353647,2.017911144845511,0.590913526536782,-0.5199711375870585,-0.6444507734377006,-1.713069949394464,-0.0414464249746547,0.7482086557491108,2.487486316174083,1.8529510638337816,1.308704806927043,-0.9841334961014847,0.1929032214650421,0.5309583144014243,1.1468457677492534,2.320837821165732,2.474823198913647,1.5997009568952483,0.7000397028442049,1.5269037162625487,3.866891640638919,3.314680362319486,2.660567484967896,1.6386395382689445,1.8352439906159095,0.5730436097416297,-0.4097037039098907,-0.5020861218223874,-1.1675509229113425,0.28179831718072706,0.6624556643085493,2.3935896909374463,2.1904118015261735,0.7533278830774003,-0.35853015099966,0.9621428824169329,1.1543218489547484,1.382249574156687,2.5222962545429035,1.7577469417499871,1.3916443225706183,0.8757098130355896,1.6158071359335582,-3.8254356559697063,-3.6161584914349767,-2.220168436605781,-2.746708276336642,-3.2961812151987266,-5.5611533369220885,-5.12587728224757,-4.904440707060065,-0.37915050102856346,3.9012947368026265,5.969821097003901,4.990472570649493,5.814186565851094,4.014547181345223,4.376273014876245,1.485757398151676,0.16622933575522866,1.6567981469952093,3.6616857218832632,0.6484686726048855,-0.18046322636809564,-0.17400907081327877,0.5225033924575946,-1.1686423317418355,-1.6114898878994615,-2.173247859974667,-2.5121696162660667,-3.434840743858586,-4.530393928481183,-5.251209752480117,-7.1736850389092375,-4.6697456895420535,-2.4718219040635994,0.3873247701986567,-0.18069973653301943,-0.11838144376026456,-4.209124664404543,-1.4702245801631875,-0.4419820515987685,0.7808668807007747,-0.7495833425084565,1.0918052490073076,0.6979634538227651,0.7917798395906638,-0.04450123417224331,1.5581312447171687,0.3814905264858848,-14.673183520239224,6.490995291602677,-0.0698139823854772,-0.021231747689149025,13.841011992884315]},{"bias_weight":-4.610860306753835,"weights":[-0.4362334676279522,0.3164538025719212,1.3142632996143118,0.7408441158179295,0.903270004674513,0.447293457759061,0.6887019209692988,0.17127015625290165,0.39521830780863065,0.036154318059941286,0.21594058535526361,0.8503920441728614,0.9507857575060354,0.365487838362198,1.705865126057347,1.1834096084740668,0.9425847508213151,0.5901632651749152,0.8329665670590785,0.596170027201583,0.5750971512017187,1.4738628377341634,3.2464159444110106,2.3619876222549037,2.1180271529653494,2.576875167647123,1.0905649112920044,0.9873976802172504,0.9388689513172441,0.8971257376737554,0.21464115422444388,-0.26200076887493967,-0.19758490340540544,0.49509443475467385,0.46011998569043494,0.5667819797009672,1.286590637515069,1.7077989876580053,1.783200444266767,1.1149970524688526,1.1162218107536657,0.04454157086876601,0.4431103175941022,0.4670576557985514,1.027954153226658,2.6210321801451033,2.471956301863047,2.416822257751219,1.797343941681111,3.4304693232197994,0.6021949502595724,2.478883896856125,1.0767558850631767,0.8992199853439674,1.3335603594667758,-1.4606137946588071,-4.211112688734543,-1.60376180169679,-3.00155210196289,-3.748456269552815,-6.989991829677225,-1.5243359170543567,2.6351775826633452,-0.15937491749022173,0.8615036476364434,0.2587866905310778,-0.7597249816241632,-1.545662313376484,-0.044480611710335294,1.8221357685698822,2.247486371282221,1.7320249996599268,3.4665931758472186,2.1127817553482595,1.8889813102432156,1.0074610942996143,3.61539376805705,4.564641222691814,3.3664580776884305,-0.33470781303648484,2.058060341491091,0.024354545272237987,2.5082836029699016,-1.1756261201314973,0.08298979019719797,2.3762671504847614,1.0044408254317216,3.390663252117018,0.7209696068067022,-0.48365587508225366,-0.6906867913097281,-0.10013125488512964,-0.7272233665350891,14.50194211368452,-4.89130208117007,-0.0698139823854772,-0.021231747689149025,-5.049841965026525]},{"bias_weight":19.79787139763817,"weights":[0.6503824769976723,0.6121541364948673,0.24724938373074354,0.24443661374299883,1.4127664892015326,3.2606608168726248,4.036595775445839,4.302824477824536,4.614502702439649,3.719348362805168,4.052949201620653,1.743270823226327,-1.6474282839885825,-3.891477668244684,-4.813877434461285,-5.964056850880913,-5.790154964282066,-5.08774003223579,-4.5183533282387085,-3.734133578402536,-2.6518431848914994,-2.631347230528816,-2.9901769209844624,2.706950421019269,1.1928221507740078,0.7914760165667699,1.1260789178975417,1.4827114897552192,3.741732624873411,4.673689297170292,6.160402721984502,7.0255288093360235,6.0866929424681,5.233503959602485,2.6413957073740635,-1.9990883093025016,-5.224403858001107,-4.581556942676747,-5.071535220768243,-5.160366942385278,-5.810236971014654,-4.553284288049598,-4.3267388439305385,-3.5777525768373257,-2.676057035179422,-2.6953051268037878,1.138023266212286,1.3719092071959713,2.0676932462593136,1.2237866743361823,1.4590888007993685,1.9879271411051036,2.006102225283889,-0.7054720660131285,-0.8831182159047584,-0.7689346134787176,1.1690708961104552,2.902151328284263,0.09446117876947485,1.0998219620132954,-1.0592675583188536,-4.801991863687557,-3.7659733893515908,-0.10228748477086921,1.422931883296206,0.7330027340687513,0.2781422519942375,2.308061985552915,-0.4601669541527902,2.704749341187526,-1.32889555935355,0.9334030386912744,0.6791764405281492,1.4933941880428785,3.179302069016071,1.4176724515419592,-1.1669050827191252,-5.010947100128407,-8.69625847606288,-6.074171321987969,-2.938733306831953,-4.2068211954852375,-6.414842421752107,-6.316122451126509,-4.7670369639838395,-3.6716743710006217,-2.20303762756528,-1.7130066211364967,-1.4974286988954455,-1.362334862149202,1.5655257910965357,-0.6144677308927236,1.8846443760725127,-27.94239510572392,4.2292743663139705,-0.0698139823854772,-0.021231747689149025,-8.838416232845779]},{"bias_weight":-2.347707720365244,"weights":[0.6936178791010507,1.3719550343976419,0.8326699348199812,1.187567775442338,0.818658672127174,1.2492781654825393,0.22435966818963926,0.4048427788781407,-0.7931825785695976,-1.6313639880263138,-1.253687878751682,-2.0843131161170114,-1.5541789320728574,-2.818126639123541,-2.1784985149923264,-0.6884634996466268,0.2548779598154756,0.3253192227579078,-0.09752267648753885,-0.037354026520733205,0.4474368422350474,0.6006702446100461,-0.03565268255515169,2.150421217336479,2.425687421316581,1.8340720846626977,2.050211527773878,2.0052708057964255,1.4327848023252219,0.03545655818057569,-0.47273095263969006,-2.3412084410962546,-2.9240975702345535,-2.246199841956312,-3.0978710549032753,-2.0205884784130443,-1.8434048257831743,-1.1740204251674748,-1.0653255738425247,0.25828736687505144,-0.022135043127254363,-0.8055850064757324,-0.034940367553495603,0.4540073594292726,0.5690019729024001,0.15701905289286877,3.967373875446166,2.3352159149701643,1.0606413306377338,1.7675675239514543,-4.9132119585921545,-2.3278503856062978,0.9212730836796383,2.5930755599205164,4.072149750596175,2.1061334831005025,-3.6695064730958267,-2.8357437112465593,1.3466828885604352,0.390376416224859,-1.6609241289254164,1.562672504267929,2.6221286874098433,-2.956524754828561,-2.7559192476965597,0.0026605517440021586,3.172145457035575,-0.044211037415576686,1.6635219542415287,1.3106741370027308,1.9889994655391217,2.1073059796772458,1.187708191793259,-3.738325244175221,-3.282696856226085,1.3337715880736327,4.608286980634728,7.6669666715083205,7.106900240281301,2.0319604981607116,1.3570531942638313,3.2286667900465877,6.257480362743226,2.865981529084265,2.0593814950051827,1.7887183337864603,-1.4803989845560848,0.2859450944410986,0.5885605456656737,3.3136455577529853,-0.7648213778826326,1.050787888996204,0.5812343348865169,0.9811879825891672,-2.9970577750688445,-0.0698139823854772,-0.021231747689149025,-5.132735092151353]},{"bias_weight":5.429880156921474,"weights":[-2.9381260710667045,-3.5075244432020187,-4.025355900867569,-4.973276487616485,-7.107123376739394,-6.409320432632966,-3.9448527804882945,-3.409445675558762,-2.033217194228472,-1.819706477912904,0.22364283714991842,-1.0970788326497278,-0.7108830275498924,-1.30004323123132,1.6248602019312486,1.1912015019673758,1.7353247340954907,-1.0333782716734181,-2.1846804638014463,0.565594592624066,0.3939756956556147,0.2374314226961918,-0.40224242304654256,0.598577934824507,-0.9896086465808324,-2.28650688861361,-3.052355573867701,-4.493580576940621,-3.9238553946392254,-2.606722473625991,-2.5191366584955523,-1.761741872335523,0.1319148824592775,0.6089202873466353,-0.6416019367583007,0.7583810266637304,-0.9986460203354266,1.2732112816871965,0.6523240077524156,0.2972916318188779,-1.3515655483668707,-2.2964051502621134,-0.7206828646542571,-1.1346906939691006,-0.9257195207063371,-1.007242419858666,-0.09449768781713701,2.96682253916604,2.680540246438624,5.181056707407901,3.2260794192304028,2.5873917574172096,4.569575049091908,3.982839795200864,5.827386388110301,6.8157159598284185,0.5143536396669657,7.002969405954309,7.679215937340059,3.970453992700835,2.4992740980554085,-2.2047003255720896,-4.9784517032411095,-3.713040653393632,-0.6675671402586894,-1.687226425950596,0.18972093664522072,-1.439056838647248,-6.424148099262207,2.62726565596918,2.9724115774732085,1.9446564663699712,3.9455440048345807,1.0470654659610352,2.8600810151481992,4.295235062627149,3.92947078971771,2.0737299485373453,1.6871608657229187,-5.221279724696422,1.2533508146528927,3.8844752333449195,-2.503780672952176,-2.7955280096333275,-2.626005646442796,-4.256034853193437,-5.41751960580783,-2.8096973703004795,-0.9880806591022108,2.7034268166933573,-0.005686662408282096,-3.9461731205589707,-1.406099798770779,-1.9820606549298265,11.393656242470547,-0.0698139823854772,-0.021231747689149025,-3.429185387312947]},{"bias_weight":18.306936955200065,"weights":[-1.3176748786836696,-0.39648836641120516,0.3105591016890319,0.6161551740150397,0.1144097688649825,-1.3947074959304644,-0.2892176681055707,-0.28551559055720777,-0.04280230987369264,-1.4447814111674666,-1.655603918349362,-1.4441395863172466,0.24625029545828017,-0.786565176670831,-4.451340101359306,-7.948834983885622,-6.882329972179563,-3.462956573136447,-1.629472254701276,-0.59129983191849,1.6118041981078393,0.0981827452035366,-1.5986264807624035,-0.3241999879962796,0.14196715233056628,-0.24507611666690204,0.522785530338718,-0.3860627632082668,-0.5495531650555826,1.212891623260704,1.0096404555930893,1.9812551728160934,1.4573964796046053,1.0045454724614702,0.5294407005572833,1.9148006616742599,-1.2951211974973174,-3.712556972050703,-4.693226437910399,-4.624356957530949,-2.55159260338111,-1.495350903417334,-2.0437329066173437,0.3503635844092292,-0.4804891543434105,-1.5078555440817565,-7.99108710146337,-2.094191260580384,-1.6327194964822764,0.7626288358339539,2.915628256940646,0.016349624539142918,-3.3665310936121835,-1.7449937435821608,-0.27553287835338885,1.615201086222421,5.572875489350752,3.6281197576203192,-2.2024962590000468,1.264681921175017,5.337274604006203,5.280464965348796,4.220304125024352,7.975435721551805,3.3056739442090834,3.158020679698292,2.6502912369123197,2.9075769017535116,-0.07922397506332646,-5.300075203219033,-2.97753926499915,-2.489507578436955,-1.4955569325577143,-0.496091336888728,0.4601766855112944,-3.8968784144634356,-3.5762247181262254,-3.886439152238521,-5.325089473620521,-4.128078341165661,-5.935882823784343,-5.428891240060622,-5.561633297423015,-0.03731888063031923,1.4709237266005293,2.995146647669907,4.060357155966546,0.045930878095699006,3.098708358130253,3.3872559645787854,2.2283798190332167,-0.5465999023113414,0.9806906293089778,3.9781260893006487,16.012825682910254,-0.0698139823854772,-0.021231747689149025,-0.4316719812045827]},{"bias_weight":-4.157019528853496,"weights":[-3.236733566385698,-2.0318338884554774,-1.4715792083863994,-0.5831958631916683,0.24180290722238434,-0.3738267688290027,-2.7145820362000617,-4.934145675659506,-5.465511727917531,-3.089603651202706,-1.0192345711008302,3.517227954140273,5.675487086603401,2.7669320060634734,1.8875953878752818,0.30495122043254735,0.34479660826046454,-0.2003021161898977,1.080421097005301,1.2519800603772566,0.6749240072577014,0.3245577983903049,0.2497642695059879,-1.7072880439644766,-1.8269668689858956,-1.185570166671867,-0.1321569498771703,1.0436383774613023,0.06633241062237635,-2.082659691263534,-4.417992397795713,-5.963831101067146,-3.1540138871008496,-0.7901911174131748,3.363700420482926,5.440460761282529,3.6308107713253,2.824449711642525,0.6579453309726818,0.36685707761919734,-0.36943026861392336,0.021802667084169957,0.762968536005041,0.12259544935353134,-0.5289871484662401,-0.4098738912201306,5.537792708240123,3.7624678661587048,0.6322151500390195,3.002669612814211,5.064276497914759,1.246034000734394,2.833469997698069,3.2557454980787557,1.283051012958369,-1.7509978551329046,-5.545205618755852,-3.5653095722392236,-0.010456034448242793,0.3985388439035668,-2.425868497060781,-0.7459492924596994,1.325327410625515,1.562424074209328,-2.0995855551823848,-1.0315373346368517,-1.024641618353689,-1.6816493918647173,1.5470748032238746,1.401715108442218,3.570609622663267,0.5307867703151126,1.4305102544994917,3.91493887871769,-1.5703425966285856,1.0287579221520422,4.100545958744911,3.1399854590497087,1.0832663497086192,-0.8241587360187943,-0.08764100359197559,1.3375563640113872,6.141590916750268,2.9201656162416714,1.0955116763543642,1.961065401442491,4.584768801841608,2.343813998734757,0.1840779422511239,0.22512626650578785,-0.7085242642410006,1.2171690882923916,0.5154010918308556,12.034798084141352,-2.3922029407536263,-0.0698139823854772,-0.021231747689149025,4.844402878833415]},{"bias_weight":1.3013103412963571,"weights":[-2.7130989634076528,-3.98242725787513,-4.778773247894267,-4.357471199428798,-3.90794477622631,-5.885159428467099,-7.593121843360105,-7.043772307530828,-5.228058213278206,-2.010076804784549,-2.4153871024327986,-0.6660411456585752,-0.4671632598915034,0.007937642973437634,1.1963846348728902,1.2515153482785393,-0.32323428047227637,-0.3054766182619887,-0.3752947624392241,-0.9098010372389711,-0.7575659689724096,-0.42479673029308873,0.20924350841610084,0.9405951598248599,-0.7608985313931986,-0.9702201573607497,-0.7790449316561903,-1.597427647741474,-3.4469376137785384,-5.395930157847061,-4.785308654442725,-3.595697373963695,0.19691840953586806,-0.15733700484072277,0.8794358937611307,1.5356653923543901,0.9366211131875476,0.5170000836279082,1.855227484349051,-0.646120257210433,-0.3578202283123175,-0.23241023308333666,-0.5873474414224341,-0.7090879375880285,0.591742962987844,0.9690987418050938,-3.3773596456904627,-0.9650353349556429,-1.4348378076929644,-1.0080741227079526,-2.3976749151404824,0.4396879711622416,4.6155187725749744,4.772659672853211,3.234400012673648,7.3678696573340625,10.956125476669577,6.942633379937697,6.133864007378612,3.6347368890799774,5.136302289094463,2.328205383270308,2.4780146072406075,0.7398690485647399,-0.7629562699786734,-2.3004234801600956,-4.868112557145476,-1.6396531474713847,-5.296633426390165,0.574652606679752,-1.3928208728981388,-3.7969037978957205,-2.632365334869384,-2.1135882124092764,1.9979437426775752,4.792558301451912,4.085130668689686,0.6071860900785229,0.9736822033908117,2.4914349422066366,0.014760706037188587,-0.19176524566754177,-5.071327763987455,-0.5017226558527179,1.8173923692813188,3.863644616142151,-0.7150156993246823,-2.6663373245330653,-2.221442017614396,-3.6418920253813782,-2.5404217190455745,-4.986845447676652,0.891873585413663,7.5030582351324355,9.539339244928659,-0.0698139823854772,-0.021231747689149025,4.23197639003149]},{"bias_weight":-0.7598940208338625,"weights":[-1.3004896448173662,-1.2116934227014704,-0.6881659419096834,-2.004614183657555,-1.6051292107255726,-1.0374908774796132,-0.9947883647048388,-1.2171718133946767,0.36925785030379055,1.121355043353816,2.548116225262377,3.8110730586731307,3.1553529123673667,2.2339554108607027,1.8486239969612726,1.7162672049365275,0.9875430296931006,1.2894031546648976,2.2919536808431866,1.9204832391369553,0.941798604657314,0.8587823807525896,1.5102255148290462,-0.722999514435628,-1.1394494887124271,-0.7590627690995602,-1.6249060864104967,-0.7775977609188458,-1.0028097279208388,-1.3012384151447371,-2.0957187998640463,-1.1756178837836373,-0.38663756689057704,1.2653944738577372,2.528874904429036,2.1494188301251,2.2821953575376024,2.426603791572776,1.482728291001434,0.812313638312427,1.06310766276653,1.0139908927976822,0.9151494860103443,0.48350448577204563,0.0019218204815858156,0.41021907927681106,5.255871827808203,3.511741197886909,0.8762888780569421,1.886299515081442,1.8140654809398045,0.8051548576852073,1.2768239048338232,-0.1596799378248322,0.10331479682857155,-1.7227195302270728,-1.439647124491231,-2.851120104105662,-2.1949944592270185,-3.864362055714999,-1.5276114375253638,-0.5396938744935882,-0.09059528855553178,-1.408605826094933,-1.4832244491742654,-0.966497962146203,-1.8457052816672417,-3.627870905468087,1.7471281030403163,1.8980685758828464,4.4831915405238965,1.43750037921162,3.7263798882775028,4.31851239764288,1.0088776564677013,2.2002740451891856,2.4914582700392187,3.6763648085591965,2.436042996477636,4.173453143690438,1.7324361775571677,0.513094906864651,4.367924358337181,4.776151697960585,1.8026210110938008,0.4167651191093686,1.0111915591037224,2.3095870055634307,0.284007821533162,-0.7448095187100432,-2.711194434032283,0.5046447761256003,1.3951624821049182,8.751555789150549,-5.6699744687430655,-0.0698139823854772,-0.021231747689149025,2.235573321254105]},{"bias_weight":19.796783701909934,"weights":[0.7085254342042643,-0.4519777638745937,0.5694142097375904,0.7141583072423036,-0.17911211509727587,-1.8179814580046578,-1.263767923039397,-0.5379844199704152,-0.81013591080322,-1.7877412993714175,-1.336830667335094,-2.9784239575358775,-5.966515643097344,-6.0643402966980755,-5.901038015503594,-3.0911046096402313,0.2728889231145662,1.694616251017507,1.5354669919797532,2.5559740965906372,3.233690071894063,1.401499950601822,1.5938908134223417,0.28144408131858634,-0.34874506028951924,-0.1721911591306309,0.8310992587938054,0.45007165722801445,-0.1730301578931023,0.8206491835499359,1.5114647239397812,1.3533542753325234,0.9852435626229709,0.5145016708425495,-1.8071338047931553,-3.9159540761037404,-6.14623816249897,-5.038981852873119,-1.9467390153046318,0.9614589268281423,1.3684181053136828,1.1820880799092806,1.139721576204819,1.4848670475037826,-0.10372261829428527,0.24088572784078816,2.860131144013812,4.40430480952009,5.9120707865115465,5.56795529106743,4.8201034576475434,4.306200803511562,2.7389074008216974,4.289257049655585,5.048622705013336,6.912511192122801,5.5854707366282925,9.967028990170167,8.047732257963487,5.348208140053692,6.265779994083585,1.012451065540552,0.7029575871100718,5.2374835053152875,3.944366757151535,1.2476324605072886,1.3209759860024841,2.8013939004639856,-0.3826672279582476,5.14635147921747,4.622169327479132,4.6328119566440344,3.7067670473191923,1.9139164712773216,4.061596355019016,1.2617406174107713,1.7318251943418028,0.5919585206240289,1.2356612364961874,-1.099927295830289,3.0312715167990154,2.5734888634547874,-1.6314507042860091,0.9584241866807542,-0.8358968666595037,-0.012942572305779151,2.139240667958403,0.9481474507458124,-0.7068268924969942,1.074448096352793,1.5224262837443894,-0.01572158842223132,1.0802545036366713,-2.3588817014555103,15.96278111686465,-0.0698139823854772,-0.021231747689149025,9.172995762769155]},{"bias_weight":6.963487567777822,"weights":[-2.889012444664466,-3.7007168456513275,-3.7851222152837947,-4.525979763363601,-3.1487954572168166,-3.412934084497334,-5.7733692501508065,-4.023718602359085,-2.4050352688353254,-1.5391340595151488,-1.5102951584658995,0.07225618564412437,2.036631115178749,4.417424286008113,2.7936323287963956,0.5790404976157537,-1.2015779752885944,-1.3339668272265146,-1.9766686500975363,-2.1693512195076776,-2.4659593065744287,-1.7564028417521562,-0.12320889235785629,-0.9499153736468856,-2.105136561229287,-1.3003609397480893,-1.0236817049497489,-0.5077007912999028,-0.8055538872802736,-3.5698273549670856,-1.4448089203476349,0.1878070937250011,1.824006609890824,0.4341345517579351,1.0789805422224878,3.081561571021835,4.508483479856469,2.827851148502318,-0.0490443128308003,-1.3018741046991855,-1.5382696159450044,-1.8449103605265398,-2.3238833587990877,-2.976148595660172,-1.2103283331854173,0.6035616045137293,0.7988098725202537,-0.4666889730977164,1.9743700514032245,0.254350944545202,-0.5448404819226118,-2.328050648388856,-1.2475024533157202,-1.3254057104480097,-2.2342427263516695,0.5807077211249253,2.719856691652139,1.9902796659206785,2.1656888251275044,3.3837214700518086,4.969565823184473,3.5618027547304467,2.931187529184913,4.371931013116129,3.303298831178278,1.6893390138949798,-0.30968874346628356,2.2865234573435367,1.018188005693475,3.5894589424114605,0.3547640314087189,1.3342778359085967,-1.612159959518114,-2.6893932673174907,-0.5897230893854278,-1.0848789210585665,-2.668315617298457,-5.626608748738415,-6.491204007565768,-3.2648850734895163,-2.435075219081294,0.24158340117955088,-3.0890868750514846,-0.8779394762853648,2.6213998345727627,1.8917320461489293,1.960837390397016,0.2532568855118119,0.9589543322816476,-0.40697808948097597,1.4049789473465615,0.8103215748800412,1.0961117770843176,15.448060007745054,6.5638974221161615,-0.0698139823854772,-0.021231747689149025,7.887520507492216]},{"bias_weight":-9.221189076359696,"weights":[0.044119530414247085,0.5529561298313318,1.9952473213729869,0.561714600855548,-2.0391025156331013,-4.681983389888736,-6.775594751480016,-7.77033168667259,-8.939175173145815,-8.402071820140467,-6.180072322195539,-6.496715542980586,-4.469863299717772,-1.2255613753429608,0.4390480751304447,2.1315813284830076,2.0161975165313435,2.6722844481150734,1.431326543486486,0.7239379887549997,0.7105334699288292,0.3532067503155377,1.1878009982231588,0.38592294770789537,1.432555372894544,2.635626028215899,2.0104008314345596,0.07525309856536944,-3.2330150010789556,-4.754293769968514,-6.200169636508393,-8.22404059272338,-7.1804836016221465,-5.967831884998185,-5.078659120032912,-1.7878177884719284,0.3079730161403636,2.3918874940763195,2.896965850878657,3.4724291707797197,3.214389864305374,2.249367417194481,0.8709227140645358,0.6684359944882383,0.05608787803988185,0.9765717346699277,-1.8555761510033248,-3.3535496271310206,-2.6612109063377805,-0.2594889956055249,-1.1521792815776926,-3.004388892208312,-3.495145905650182,0.7703143121231789,3.036989057945128,1.750044497809763,5.337391828331476,3.4752007158917273,4.058214496698408,3.1779755175945863,1.9382324208283987,-1.0422318327024258,-2.634751658708635,0.29880942248003395,1.979695534292727,-0.6940459502684807,0.7901541202343014,1.5823328067394022,0.3534802155298043,-0.4342743683194787,-1.7784786713639975,-2.547869696775398,-0.3515966223075615,-1.3263939076369615,-1.90655196411492,-2.441036628201095,-0.5412488682875243,-0.9640420055295054,-2.921538431676342,1.3681545792087149,-0.5444434767986944,0.6038802437555404,-3.148529447534979,-3.586035616832551,-2.86059146103477,-2.382136228332815,0.4647812319975436,1.0272822406894047,0.3870783526267407,4.092623140486009,2.752999257550709,2.5486727008884142,-3.7986261105295256,25.558485757460588,24.436957271204133,-0.0698139823854772,-0.021231747689149025,-12.777085876654557]},{"bias_weight":11.233582290010306,"weights":[-1.071219143184905,-1.3189483103797104,-1.8358416723123339,-4.159281680210677,-2.905373266064233,-2.5003508381733397,-3.9185016873287757,-6.622662240853748,-4.272316384170794,-7.772821293389869,-5.424300748050496,-2.715617673003434,-1.1439373199034955,-0.816128048769229,-0.14952902697460452,1.697397377639435,0.5788924267909185,-0.5442064998058074,0.36560740095029437,0.2736472551650099,0.6139147906122479,2.211036645609699,1.58097504238568,0.6256695758462452,0.6545907708023362,0.46924901770211713,-0.8323497760916997,1.2159988438942306,0.8015016700088413,-1.4583704137841853,-3.4567131199447583,-1.618303738397897,-4.8127752373405865,-4.053568169080843,-1.6301789803106892,0.8868074494410889,-0.32482317476832845,1.1296150155365132,1.6676908779454247,0.442549212300139,-1.4469779115798571,0.0573450161288492,-0.3882721480149074,0.09269583072617588,2.172526914702326,1.740623285184096,-4.635155445000754,-1.1621456597026183,2.1267075968688327,3.112333286656074,0.2810233020214877,2.9648552008881457,7.04585373340451,10.609404452604744,10.45706518782872,10.953452706063434,12.427412529658856,11.667909279069768,9.071807398233835,9.47149012163452,10.36737099555834,0.733299463099502,1.3489238990188297,2.9976737491017897,1.7453104460921811,-4.1736793470161055,-6.125103994328422,-6.511643780488742,-4.124404105704937,-4.7716309160465435,0.5217442189277103,1.9110465075806609,2.035435226754148,-1.4074898606301838,3.099883905182904,5.57671312926831,8.813347301599144,5.838887096164376,3.4246090020945426,5.95019899375627,4.756089688673516,3.578526593066643,1.7153642246072676,4.364155595256557,1.238703647963931,1.109486764589466,-0.05669606957612464,-1.1719505685946074,-4.267185963215386,-5.437028359747089,-6.309508270124575,-4.850691946771524,-0.5440452884538383,7.2841475991950535,6.375087017274125,-0.0698139823854772,-0.021231747689149025,-9.234840630243378]},{"bias_weight":-2.8865610550072245,"weights":[-1.6993798380447345,-0.09410078837773894,1.1907485742462078,2.424662539114815,1.6844138323558548,0.8023851618920139,-0.8951711205517192,-1.982224686998362,-1.1008667568605024,-1.3619490033549293,-1.8345484787128346,-1.3645206343822383,-1.4498080838823564,-1.6472137345266327,0.6838057738500101,0.37804730114563767,0.8022709775113016,1.9755554924797414,2.06431534975656,3.1347367663746084,3.367577319736598,2.808477182786349,1.9351469491381224,0.18317287748408906,0.9392104314232873,2.315897234935603,3.544204212102175,1.8108111426927893,0.7357800501441888,-0.8618369262619155,-2.3105149245449796,-1.4787669127340457,-1.7723641567235562,-1.2109613455769443,-1.245987872551446,-1.0623098051269475,0.09663807539936158,1.1230756349438942,0.2699175378397693,0.7336253263925263,1.0308633678201282,0.8300183046398427,2.6132884547620634,2.9966974354693567,2.3302352393439496,1.1450616480713158,3.3755946859416914,1.1817442083263097,0.9043790041331248,0.504396579092655,-0.5646064948163971,-2.0350940296476234,0.9988339958280407,5.293129750925584,4.37519118479064,1.9067506170766644,-3.180798637812813,-3.88583402141148,-2.7045883614792743,-2.202111202527945,-4.466790207931428,-2.159617415641002,-1.5493736174601567,-3.832956576438974,-4.786674213221507,0.6473556019004248,4.446168818291911,0.8149774432481661,3.4432855802859557,1.7130941821011083,1.1757235755031816,0.7554648837341003,0.10256554502297428,-0.810746299291563,-2.7871235089198474,1.06151786598401,5.836730171181911,5.309599749894482,3.9798631273831147,-0.28867500179631816,-1.7820786469567338,-2.1282220338403812,2.1338804495061066,-0.8000606901114198,-3.1543930439200776,-3.9374005288862537,-3.289213242267941,-2.5572020230411785,1.0785903539377415,4.311831598686217,0.9348614297463339,3.0348477337396815,-0.10653823748805988,-0.23348204489456936,-1.8156041569688364,-0.0698139823854772,-0.021231747689149025,-1.436731760814472]},{"bias_weight":11.687769957710268,"weights":[-2.714537814149753,-2.4003847412058454,-2.0956254937283467,-2.5147068861560524,-1.4523461425557973,-4.621058950514335,-3.6306878748044906,-4.872209035292451,-5.894365041224342,-6.522974938416912,-1.3400927949827415,-1.4857575539260317,-0.9316782165437524,-0.16088416652928889,0.9167548751240373,3.3531835114104775,0.9461713912713957,2.321504041375928,2.7175328244751387,0.876905323489044,0.8671947366666629,2.0632936052971917,1.3434415438557734,-1.1903450110453342,-0.558180647817437,0.5399427737430242,0.5524434055355644,1.612374337335111,-1.9917113650801541,-1.7961459151816812,-3.0694677045141425,-3.9838406414851772,-4.990201785592027,-1.5923449941474916,-1.1485071160295255,1.0264797586957721,0.4201984783163351,1.941302461946707,2.982501623545597,0.6780516801593182,1.0215490876029276,1.98412964680648,-0.44620512504701787,-1.0081752579791452,0.8464554814130486,1.0724164205883577,-1.5698182056490537,-0.5673865173499264,3.083538957278894,2.6464838017027867,-1.4628818082572088,1.4445010383017798,3.7843998794868967,6.206921273293034,9.889962279768406,6.797265289628234,8.923719785064984,7.09517311957619,2.875102332400293,5.607711615985814,7.671399103799258,-3.020322582977672,0.8038876826913065,-0.4923112028630327,0.31453259423087565,-6.389170019687814,-6.362528463660677,-6.9466263200585985,-3.5496809098555424,-1.3687676863695415,1.040991025362184,3.6586817352481087,1.6649108433399973,-2.3786983202650354,1.746723787602126,3.2050208370242808,3.3270472816067316,5.7321580310388995,1.0148454016395658,3.678423389598416,0.058556960673949304,-2.5436341440918304,-0.7424248361521955,3.513073826438932,-2.2399870239115685,-0.01207889988364749,-2.7601892143250177,-1.3916169704132944,-5.81973021591363,-4.251812174749997,-7.5514635785469295,-2.9294693255865782,-0.8189632648516812,6.7798294944563455,6.956364091646534,-0.0698139823854772,-0.021231747689149025,-4.284534721486033]},{"bias_weight":-2.171847003920439,"weights":[2.139969028733426,2.283148465617739,2.2581939365676407,0.8328881303893582,0.43015858265547424,0.05265575063526654,-1.631935106174659,-0.9261196985175949,-0.9607191896845569,-0.6381322738796644,0.07528597010197809,1.0612746877797863,-0.3612599216672049,-1.6202923304886034,-0.9168610426425091,-1.1386098525397466,-1.4149358571782995,-0.8122256222595611,-0.6396518249963693,0.17378688117417937,-0.7222603348973112,-1.4291514931275235,-1.1231339322703588,2.5204899547907176,2.1464990257954106,2.4320041895891533,1.0618418170988768,1.4245078574892818,0.613024147603577,-0.4531197358495374,-0.6804461423184265,-1.7930692888794963,-1.0068443611915225,-0.11563814149864832,0.4613982119250195,-0.13923216159250185,-0.33112944284986345,-0.06388459261083203,-0.475668845956732,-0.9378010541476918,-0.749268696568657,-1.392770768236328,-0.27544344347395266,-1.019423995287066,-2.043481716429523,-2.340793207800763,1.420069736402247,-0.8632840419398755,3.2638777904666036,1.476360863860377,-0.7218239029552421,-1.2338612583452975,-0.6724350680572914,-0.8386716924575793,0.3471098530165382,-1.0966444903125705,-3.526834612592405,-4.126307326355799,-0.49004039550858747,-0.28443714278258114,-4.1022979820791745,-2.576043417579816,-2.756771059617295,-2.6125344248440636,-5.413703747728002,-4.5068842869395365,-2.7750174124059157,-5.742791019227304,-0.23460384430690648,-0.6292239960501023,-0.44741131543119517,2.924010331107759,0.1614276282798339,0.10478094228703011,-1.1519592963072718,-0.481830732295519,1.031354274078834,4.081338820448288,4.147360704345804,2.858001898379806,1.9178305742119006,2.5076989204940827,6.922525190533671,1.8621739457300928,-0.6323897440638668,-1.4398329119218625,-0.7636644885986692,-1.0594018885634482,-2.6150469244325656,-1.5494975467847616,-3.9703649488433523,0.3433364939197126,0.8663131613131809,-4.670351390699595,-7.675428419028341,-0.0698139823854772,-0.021231747689149025,-1.5088024235332402]},{"bias_weight":8.728115478533354,"weights":[0.4039044977351997,0.22083365266093494,0.23480686052433616,0.10450437729121105,0.770913958051269,0.3103170037962593,-1.3468969827094517,-1.4809688352592691,-1.007270991676588,-0.6107187973968891,-0.36059688202523926,0.9198465637317078,0.7090525154620226,0.7098124453327288,0.6438210602115689,-0.8533995982198865,1.1817268615385916,1.6237994075700455,0.5690912103177826,1.3277468781584307,1.6006556071234659,-0.12858718396453597,0.11510970045746954,1.2825402121476182,0.8765899198488221,1.0377533152806553,1.3182219803697899,1.3065321992717338,0.7861756282234632,-0.2415775423917181,-0.5221610377447551,0.33295004195994077,1.1162335098491454,1.0871197607874294,2.112220810113388,2.000543023272516,0.4235546581428956,0.23281340226355746,-0.616116501508989,1.7744360256773268,1.3874072140544838,1.138392385713151,0.8872757206073116,1.2112347572994604,-0.2101326177053366,0.563408692973872,-2.4915791440796444,-1.5784284342064454,0.9821795245791048,0.23679731074968538,0.7893548175372075,-0.5965291534502003,-0.5901300400604337,1.6797479233167503,3.277572119997623,6.980680121498317,6.379683160259276,3.034837420315483,3.3419037262995666,1.6406137055269363,2.4639981017010277,2.8405942824356334,-0.1834227789335508,-0.7424624196048873,-2.0277101428252973,-3.5449157153971576,-5.1126149818386715,-2.5985184073674654,-2.1648244271527113,0.7227656100932962,-1.368361098439244,-0.04908473654574949,-0.4936351218543625,-0.5912187885538112,1.3918447322936809,0.13371604137673898,-0.21754470067269133,-1.3622330844401227,0.15655883575461946,-0.18142936310745952,-3.098908702982682,-0.7930711307884739,-5.5628920320369115,-3.936822905439549,0.048503446369203194,-1.5051508624111414,-3.369604983922607,-4.812609564848088,-4.593420354344681,-4.535913541040038,-3.6378259850027694,-2.282990493691561,-0.2218313766610862,15.75243801122968,7.076831210461901,-0.0698139823854772,-0.021231747689149025,10.142292264902327]},{"bias_weight":-3.326101070945084,"weights":[-4.089198748605359,0.12022179738290599,2.6372709850716185,3.9534462527682876,3.637896277155213,2.0672824128953753,-1.057648195830509,-4.539016786762912,-4.366551409821086,-3.6788440934599875,-3.428862202771984,-2.4032789628436158,-2.164885897385613,-2.113171855863321,-1.128677426332026,-1.3822961398891458,-0.03017306047299713,2.3099071968877527,0.815135786059754,-0.04224691665217706,1.13429292623484,-0.4997290371254784,-0.07477902923097425,-1.951760638287368,1.2343641546333082,4.516006918332889,5.829237541515062,4.4121515802261175,2.0584236679021473,-1.2803803635712654,-5.003182887168129,-5.747510894347279,-5.737373558205697,-3.9562698084264363,-3.876761382380995,-4.858821271261019,-3.239873910348103,-2.3533389431870213,-2.1687846282253593,-0.9865327672834369,0.6489345982652818,-0.5171242500625064,-0.33914704000626344,1.2886166378265385,0.37423901567452866,0.20546619826972706,3.281699006155631,1.04935764778463,-1.7116051803756789,-1.8147119329787356,-1.856234816669727,-2.9860922984497686,-2.191661746342298,-2.4541511906525066,-2.2664742365228685,-0.9447326372220259,-3.8465949822884964,-3.598817616139919,-3.8188583567118646,-4.805564196177155,0.07132500531498892,3.544135579694992,3.4072586951284816,2.4946407606414165,0.9812239827395253,2.5797435325345917,4.512983967809797,3.981631113171421,6.027857344434875,1.7201663401048286,-0.005970422209563529,-2.591499599824568,-2.231869626990613,-1.035169672796945,-4.206111092926308,-3.079781860480904,-1.2978877722523554,1.5817719025817698,3.9746363177276303,1.385966157193794,1.602871007389914,0.971925922972256,2.162544076066381,5.793597791237812,4.588619491813152,2.5891571993341493,2.749965827750884,2.047012453254768,0.642748286567604,0.8506523088269768,2.7767451835529333,4.36813869576408,-2.205644125857711,1.7386273024918621,-20.51460744433273,-0.0698139823854772,-0.021231747689149025,5.028270255042773]},{"bias_weight":-1.3628535140490043,"weights":[-0.7909377832862116,0.12050258382047116,-0.03532458117382828,-0.03417487561829934,-0.6241250918112247,0.9099546301166228,2.2789742001653788,3.0034691695455575,2.1841722758563322,0.8594201870582897,0.8009859980714646,-1.6857275588697742,-2.8067403298411295,-4.4497707144368475,-3.430639364258114,-2.167922139960873,0.4301008223146308,1.3490488395034652,1.2052643807745786,1.8172017871146446,1.0038376981778176,0.03507626961180097,0.13541415078623198,0.5936240984175836,0.5725498979542222,0.7101534741988517,0.5973865175725002,-0.7458185611307748,-0.074837179099893,1.0203783103443727,1.4789874425375011,0.41096827348334874,-1.8227409687666007,-2.073015310162474,-4.285985427547463,-4.891143399514462,-5.655169576272661,-4.159785016787781,-3.8386836338335475,-0.8546852590985023,-0.3146822546684952,-0.027457104151463112,1.0274264439771228,0.7723534685189389,0.16078286682418536,0.6192267692771259,2.727189945334189,-1.4493323780269056,-4.185462409869628,-4.103857888502067,-4.842369129896402,-4.302775195553821,-4.31248716642717,-4.458799179049461,-3.7874244747871315,-5.342938129568667,-3.665566454416983,-0.3995425617053375,-0.00819941717235156,-1.8505430148831918,-2.3761072160410106,-2.585527980694292,-4.391237882200482,-3.0825600330766725,-2.110479762068211,0.7780087984702208,0.9004793977093882,-1.8446488631215032,0.28750890247816335,-0.6663802384128192,-2.6456778958069274,-2.6950246697136975,-0.9925122465809613,-1.6393490298778512,-4.327421052937169,-3.9200338064381044,-2.206069848971048,0.419526564581718,1.5834993292642108,3.6570199322088714,3.5577114648769523,3.2571883418654886,5.496824890514126,3.0736774340774766,-1.0307546581831262,-4.786113404019677,-1.2481980460551683,0.048475997325143294,0.18360089362824286,-0.2127332606764694,-2.3834625072387636,-1.2729980968615155,1.2644281799118657,-0.6627740408230541,-6.307544505436499,-0.0698139823854772,-0.021231747689149025,-0.8739475318259621]},{"bias_weight":9.165359574725038,"weights":[1.4780232327601273,1.7777453503624983,1.8993842050020322,0.6691530311825494,1.3717964084740277,0.8672849382797395,-0.09445652055734975,-0.5266300496069843,-1.0922611288406736,-1.1245044939000994,-1.1359798460536183,-0.46384567594665593,1.1236856634502068,1.4109225675563901,0.3604685902541201,-1.606250526061473,-1.3117576748179263,-1.3192571368579613,-1.691720609046721,-0.29136001015091745,-0.35510474694938027,-0.9839461593059068,1.0853515008482515,2.237526526717569,2.581708627723927,2.880036926538184,2.183168007763948,2.5543081038393494,1.9344727411510672,1.5682559286647062,1.2118406639408426,0.48120075700708387,1.0878100534005113,0.2308594890166996,0.7329181680689646,1.580758713216119,1.4100392211888253,0.14162923441691846,-1.6200303481788225,-1.1412701500765303,-2.0127472238178985,-1.3605437511671536,-0.9680174335226924,-0.8885357479329256,-1.0646935203207382,1.4529030313334692,-1.7350013633542742,1.36058934814902,3.035196722066376,1.216506957637941,2.7090006966781344,-1.435083174401397,-0.1484826713791302,2.496100695168701,1.3709031801566327,1.9254578598319656,1.6869495206602225,3.6300659996852924,4.898787952737519,3.764643669810709,2.3904271848359535,3.3185020457787373,2.398197155187851,1.5650763333779372,0.5918152636105959,-1.864329419530998,-1.3189720390955273,0.8877304866755148,-0.5824330074197279,0.2763503287504674,0.23416545484368506,1.491039631825385,-0.7709248272968767,0.435525447610352,-0.37106676876123534,-0.2226181671571126,0.771396547219612,-2.413701467536223,-3.751290559311181,-3.913787924343643,-0.9008326552679525,1.4221495359156506,-3.3209559644803197,-3.0241394845948526,1.8284468775841773,1.4279971226160086,-0.8586391593618293,-2.5754591832370326,-3.0098374994148105,-0.834061560848151,-1.4875853720933887,-1.4626333625213508,-0.41949942463807327,20.06759983814288,7.501307846843861,-0.0698139823854772,-0.021231747689149025,10.877100668651027]},{"bias_weight":-3.4073652566592867,"weights":[0.1272816253545236,0.8717486333709388,1.084584861946248,1.1594775615717903,2.006699359923255,1.8245428500347078,1.8671395871236054,2.151020763852041,2.2511281771363723,1.8817737368806515,1.0570225777011004,1.3894319917276698,0.9893949568197378,0.2175237024566291,-0.0507188746442036,0.3903396146428926,-0.32249291241302463,-0.49063546526129626,-1.493077571962195,-1.5189757893120215,-1.648041914909457,-1.0647866322513857,0.8478641494700003,0.37709501739819185,0.3883911820252078,1.1136738385936034,1.4850758579994416,2.2930404747957196,1.7172201004080134,1.2949229926087225,1.3161620423516602,0.6076033579982725,0.6161133637489017,0.6174193526282101,0.8918164004571233,1.1958915504800443,0.8375089281372533,0.429641828724498,0.7896249478292984,-0.05434968986384894,-0.27222445506519516,-1.8053943499294236,-1.1934304993110747,-1.2688448785231417,-0.9492264163468906,0.4282522884414999,3.2596161113659874,1.7248674596630271,0.719799359994008,2.1739969100025696,0.4469848343004335,0.5621025881489586,1.6543995952193982,0.7324401785335248,2.0033985844946396,2.062422354093162,-0.5877414070438588,-1.6336908250589655,-1.4325688738547493,-2.4655406073086987,-4.085229180431362,-2.2884183314527364,-2.2861483785855694,-0.704413885411684,-0.29079883650138616,1.305522243412578,0.6876650244567619,-0.05678557945221918,2.445029662374083,2.6568668063633685,3.667918185900859,1.4912847874029767,2.836598977400884,2.5726418378461244,2.1343766002411866,3.2708083113995383,3.2242756854415218,5.53438321468939,5.747767571776679,3.4883143902164355,1.4877294213219725,0.7861009089119626,3.898124419504948,0.7749804628442926,-1.650684530727321,-3.449999452178749,-0.0669735338847947,1.2106723819061687,0.29365318104586374,0.5476180260822008,-1.0675464655259284,-0.06522079950860625,0.46612496104673523,-14.136061223945035,-9.135384693756166,-0.0698139823854772,-0.021231747689149025,-8.167322353939765]},{"bias_weight":9.764595794256293,"weights":[-1.2907458182801752,-1.7930916744750185,-2.7762433483107567,-3.101126532396824,-3.1025925415973097,-3.335274713415064,-4.410029840479212,-3.953634925863292,-2.91857737960855,-1.7256855496178942,-3.8952047765414854,-3.457318097115568,-4.5132552329235205,-2.127384934167495,-0.4008390323950918,-0.7750473347562684,-2.439937025275175,-1.8727272500043652,-2.2317184577306506,-2.2268040432806178,-2.5047529867456575,-2.7559466976794926,-1.6848029232172996,-0.4228049910399736,-1.1686600565014895,-2.342178925306878,-2.1210722359504395,-1.5297472099718874,-1.3400542581917094,-2.1620422259389804,-1.5881936188010821,-0.42338189608347293,0.8098851116059195,-2.021820118867569,-1.9324855297902865,-2.7037398183033945,-1.7246695802765637,0.7194197367730018,0.8536001500367869,-0.6347166322322203,-1.419976780102866,-1.3716883953805996,-2.21335772577701,-2.56166142887291,-2.1007661824043735,-0.7452011875088184,-2.1072939805820066,3.2976500154368558,2.3891198483772746,2.537186680485219,1.5029161677438323,0.6345488741323064,1.946013568728268,1.5921950293866305,0.5448976741153188,2.5150708433111424,2.967082383982777,2.907969536497281,-0.11459616989914477,2.62317150153661,2.425420454076116,1.928211804636827,1.994528053629119,6.174630485489031,5.3713197195442826,2.6051521730263096,0.8992129738928178,1.932238013028553,-0.5592474411086557,1.5568932249715308,3.33590821924054,1.4128785513582516,0.9445009363464136,-0.2750374574448857,2.035230499369432,1.5998799861779476,-0.35546697641163455,-3.682615689715998,-4.5414154271011284,-3.6791383365377794,-3.3125332347668524,-3.3515101484077885,-3.8298885490969234,-2.5602541832228187,0.8687113251862053,2.366134214395197,3.4585889779834686,2.3060824685541776,1.728254097543674,1.2782676408807536,1.7020868959737985,-0.16616802443728515,0.027190853011527193,1.0170153999493021,8.31529841519971,-0.0698139823854772,-0.021231747689149025,5.40056362276549]},{"bias_weight":6.5123112743396545,"weights":[-1.3696064391109315,-1.1161472865142368,-0.7071790753315699,-0.18189095464356306,0.810600237952275,1.0122083710683476,1.5254221658389837,-0.3827533714704073,-2.5331279830540128,-2.855392216767987,-4.437762854011963,-6.600676079030087,-6.472213968520555,-6.784515114512212,-3.8967658320497147,-0.2667186098832645,2.333367928966897,2.356251134611868,2.1130291505560828,3.21187351226936,1.9196870420943866,0.7595197248958915,0.39384060035313645,-0.05678973409395308,-1.3185484792104545,0.05316975654122463,0.45967933890925516,1.6226014640141595,0.7934384563774454,0.15686329452431888,-1.4383800341881727,-4.411457662660364,-5.348798988352607,-6.431911912191429,-8.388415217932483,-8.685158033322779,-7.933189312188591,-4.537133650187529,-1.7516151656750212,1.2857632815504103,1.5683104042208558,1.0918309878491947,2.758144311353585,2.2690289277441114,1.0653592724707055,0.31081567436578705,3.8336463634029307,-0.4888869733270257,-0.6817128912845096,-1.2142592182520593,-0.5459381513195745,-1.3324597890119902,-3.1923234579317543,-2.902314738908993,-0.35893621113911106,-7.35857651420256,-9.582940707131597,-9.184099862561812,-6.7442985240459885,-10.379751410171501,-8.614518366651131,-5.46149340089019,-4.218859801471323,-1.4718699934304025,-3.560076257002879,-0.965050985349441,-1.455757050836381,-0.05926452363931228,3.057142181722369,-0.2792656091973442,-0.2899493338709938,0.049784224200807345,0.27459685609234846,0.3565369090118783,-0.9456170126820833,-1.9421446876959787,-1.4448105465860506,2.699452996761303,-2.449703284402948,-2.5861776343346192,-4.782011371734615,-3.384595407447573,-1.8407405785413022,-3.3607142765236753,-4.05219992340699,-4.196980586542592,0.2996023348898719,0.42794998208696183,0.4184240949602419,-0.9550857155692045,0.9282660170891887,0.38908561651149653,2.7522783003001736,-1.0168694552082813,-7.52392213997838,-0.0698139823854772,-0.021231747689149025,14.567865342749451]},{"bias_weight":9.990560364345633,"weights":[-0.8543440798159343,-1.279228950102109,-1.0843342098944055,-1.4117838614559803,-0.7481866363674171,-1.8117197123915396,-2.5006348355623684,-2.454916071576632,-2.9026282080931516,-1.7517172493183457,-1.6924809178492146,-1.4074728652376565,-0.8845195737706135,0.6150040042869588,0.2061911846890801,-1.3935421655328304,0.05309838893479795,0.11931928680962667,-0.1643127114108764,1.4083017542158376,3.070198044578523,2.4143354834096185,3.3847819827717505,-0.4135107753213552,-0.6542676645946535,-0.15225897025187696,0.12130712685612456,0.6384195988428291,-0.7582986994910772,-0.6125094697801893,-0.9726405712763379,-1.427212235782181,-0.276065464268214,-0.8852324108348858,-0.6513344152002223,0.11215245853080381,-0.14830044713803178,-0.4479637240614806,-0.8371354856294478,0.6887028519967394,-0.2773934679323909,-0.028349622355416614,0.47055087634316267,1.677307344786281,1.6891291480405708,2.8627961335052476,-0.7634066183362502,3.7903886010005947,3.526188336397188,2.9451456612912805,1.7159589428789324,-2.098083100090541,-2.67957133522201,1.501833521787226,0.38858512906024056,1.0377587382025952,5.257438937729939,7.389860028219416,6.07802590691177,3.2152755363504473,1.218136276208968,-0.31136558863427544,-3.118492223364895,-4.322094876927404,-4.986583682053254,-6.528356583463258,-6.011526427864045,-7.548617288534218,-9.001094875496396,1.0826547097281782,2.6805296405147625,1.4648064077572132,0.6850196636327249,-0.3259837619453682,-0.3415345962699829,-2.791059644786192,-0.6565177054758102,-3.8859864351271116,-5.317210149259737,-0.8221239679692512,1.9608297989369,2.481534778500768,-4.317574300502803,-5.49464162965294,-1.0447628776470372,-3.2081838811452132,-6.078433890971879,-6.748292875663525,-7.068982453504204,-4.8669544512541405,-7.4118707078411665,-7.871370448364537,-0.6380645519466006,17.235799439856763,5.40505458264192,-0.0698139823854772,-0.021231747689149025,16.557404805979754]},{"bias_weight":24.197990393360357,"weights":[-1.377166090053313,-1.5982236332417579,-2.8659412536072653,-4.028342555933305,-3.9112894255349806,-1.8963958800444878,0.09969142336784044,-0.21923630876052316,0.7559286542548957,1.9306434241491606,5.294771223617281,5.331845715647017,4.0899856920207185,3.6097846792592563,2.5648188759256154,-1.3311681128082653,-3.6720932135652307,-3.021021527786053,-3.992040896501865,-2.5557099455552112,-0.18096801934727705,0.9850432859542838,-0.5612295279101641,0.49640698260323235,-0.04635581234465692,-1.9475043115302046,-3.930510324010142,-3.9185629955380596,-1.1681102555031224,1.1485996502427758,0.7927006786979445,2.1513006430714854,3.3225739159208736,5.914317693988501,5.089632905973267,2.3820607571014203,1.3862780539110449,1.4696872837037036,-2.2112324850510303,-4.831665412827479,-4.72337399568321,-4.0122154916626,-4.116266350362584,-1.4027633170211578,1.4149233031238835,0.9077531804755183,-4.779032469847617,1.0602872660069962,3.792099617453698,1.9121084957160221,3.092932674229845,2.0306896763607494,3.6790445724972924,2.685025798022383,3.887448226024379,2.5753706853948555,1.897633989981809,-3.0706488115490087,3.7616486634688546,6.820525979262322,5.615495858448898,0.6796605218870773,-0.43867389555712216,2.052235274769389,2.8823124231677943,-0.3146266996795828,-0.543667633875989,-3.1220644193479585,-0.31961152163007517,-4.339140996234535,0.028325120451064573,1.574662638859793,0.4009633972852688,0.3754543819867616,2.516062164253164,2.7364527051470744,0.39190900836467485,0.1007706514177609,-5.34471045980976,-4.365079070198859,-6.425894338469914,0.8804395645904799,1.4494870334433647,2.0985028542264677,2.1758377605311607,2.7809183201265126,3.3599748700007046,2.12966105048803,0.32344223799997407,1.0527189402068544,-0.6825037486505147,1.9192929161335428,-0.7990689338475859,-1.6972835789934853,3.573843522829883,-0.0698139823854772,-0.021231747689149025,-6.013327381783086]},{"bias_weight":10.607369796517858,"weights":[1.37815743850983,0.24261985079413537,0.18067856966647183,-1.5213868763123892,-2.7804629658154822,-2.59067456941754,-2.160571728128786,-1.4259497810188586,-1.3749582501628512,-1.2837449897330389,-0.41900535033267217,0.5629817202372323,1.5737455918784904,1.7640236957489996,1.3944362300169342,1.5042234131744645,2.0100372793282837,0.9415619350128916,0.1361472700858325,0.9264373511233097,1.2852338394845713,1.1443215460455871,0.5241821598228437,1.8293563322577382,0.841515686330029,0.8954033768293024,-0.32951095593037055,-1.297443434687512,-1.2481312403732006,-0.8481296407701919,-0.24181237870745803,-0.4615589207689052,0.3094359900312349,0.23790069029088534,0.9729950042817287,1.9523473559231712,1.0213849824423942,1.336930010781162,1.6391159127823964,2.2803990803304552,0.5768562357714521,0.17286873812774023,0.01724055526098349,0.18165269040083373,0.5490327583833988,0.283892827002484,-0.5764792241149416,2.238407896348206,3.3167975341433062,1.669572193380661,1.3417729692963094,2.2998121036656434,3.983618627320368,4.5598602444806104,5.266743819996974,4.387138694300529,4.717449921218287,5.6710193874428185,4.386425284358632,5.306991231716819,4.741367632713731,2.9647816703220697,2.058536193187825,2.223458737127653,3.1928219599764085,0.0608941371635099,0.5066712054114886,0.4062713560773481,-0.7296107662916995,1.4129356412023684,2.062901714265295,2.4174044547482962,-0.038043295306049656,-0.6111029496888131,2.2207693655669565,3.0426611663617322,2.0056626031633895,0.20386628543255805,-1.7253003679712182,-1.5410143104280258,-0.6651318935466157,-0.15020333354574342,-1.9977733348618274,-1.0530974516384992,1.6156419363587913,2.0651943261528327,-0.17250709716440185,0.605424084110695,-0.16703646712585152,0.8502765706871976,-0.3084758593896445,-0.31407764817426315,0.08568678442600385,20.40390090415715,5.320747244943648,-0.0698139823854772,-0.021231747689149025,9.820561625616465]},{"bias_weight":21.905009115966653,"weights":[-0.7266846167072444,-0.12301230405256502,-1.318014506805675,-2.8198190408042847,-2.184361243001519,-1.9724355475277746,-1.9493741185626565,0.3141281502028458,1.5736264216507843,2.1868794635314983,2.0670797310931137,3.1216733590051318,2.3664692827199207,2.9567419929430976,0.24907724477088514,-1.4555120099222085,-1.4983091195046323,-0.9664520046040126,-3.1258383994222094,-1.7411108830043667,-0.2518271343248056,-0.6260376485425339,-0.846144649322183,-0.336709296681885,0.08084896518704833,-1.058534769999773,-1.5111207415229313,-0.8666064088551001,-1.6044129353077305,-2.4020089759216865,-0.228932473825325,0.7494302751641874,1.6245151112930167,1.234261824190757,3.0056826901099787,1.812844919359962,1.5572649372583318,0.48233484469602506,-1.5097247897189747,-1.2051103904112515,-1.91253794527265,-3.206780118020278,-2.8370038513339124,-1.774884098488167,-1.1247977153776982,-0.8007161467603613,1.26954921246643,-1.3214359322346023,-4.65161452615262,-2.498515045612038,1.0579555560472005,0.8997622858706127,2.391497154134558,6.7129515018408465,6.3114811093069765,8.169050813091715,6.1994853885232155,1.6279599674972682,6.40246469881213,5.658333943263511,4.218047038595639,1.126043709287511,0.12713544387256207,1.9771396520198814,3.5192451288210034,-0.09022843647168943,0.4531149979976389,1.7895782439817347,4.987026581800394,3.000981788021154,0.5761589488892596,-3.7662061363541586,-2.2128595083286284,1.569169151421092,3.4551481626108886,5.999194045354233,7.529760136169105,4.486124675273676,3.451910573890667,3.94365561952291,-0.7273639710456482,3.685976305353236,0.6077919428468025,-2.3681256093043688,-2.4845475724023562,-1.0688234137114214,-0.464222497938229,2.093955780613241,0.8827290760163636,2.6918049981725805,2.476540553884228,4.059078001072433,-2.2371056739858806,15.173364148948236,-6.509301325131057,-0.0698139823854772,-0.021231747689149025,12.078248751774243]},{"bias_weight":7.976953099411046,"weights":[1.2588700371803085,0.5599895705163161,-0.2540541112435039,-1.2503295120171987,-3.438735683169702,-4.19424099295637,-3.590646642273256,-3.368894421776969,-4.197670156627039,-2.6574405005566075,0.2525533338973513,1.3049254329215185,2.969043611947117,2.779221355662712,4.054238526194246,2.8870500258557517,2.650177398878628,1.5737329872817925,0.23473766853367667,2.006473061797623,0.8457505677554948,0.6225712614517271,1.1453956230844236,3.2431107170558278,2.1755263900671165,1.2779110538003657,0.79811428424952,-1.480525708234416,-2.260811304445984,-1.696428916588644,-1.2054647943209122,-2.128292162952617,-0.1653173769057397,1.7017407228688706,2.196113530684008,4.2402267523591854,3.3065659566114967,4.130335263704894,2.8260075719875615,2.0933380470985417,0.9413588466918581,0.2327985586331989,1.6900616022715231,0.34572042287987603,0.7570070999411943,1.2929960009668613,-2.32269176359269,-1.6957807253224129,0.2659006922781135,-2.0963111732252826,-0.8792773060029313,-1.1074279499219895,1.1170552823377033,2.6208386277161986,4.948302761006848,7.414746129472551,7.097455647051779,8.291917253527167,7.174165145342827,5.62551253607723,4.925515139519806,1.9737612516115135,0.8414161044157108,2.12040876106128,1.1232967098097835,0.6106605161225308,0.20687178731745295,2.5260164316128084,0.24161870366193064,-0.34520779235991816,-1.6372472537397758,-0.6062710292712792,-2.8540285978876927,-1.8674001676375185,-0.9770050550600827,0.2907756509391154,-0.23063197493360663,-0.5844282543285707,-0.30419645340499696,-0.5927992456256665,1.203102842320971,1.2121873661741436,-1.3296998876171806,-1.1761994113741205,0.4610926805416873,0.33547202508263496,-1.0458131154788655,-2.139837143762878,-0.18950360648167625,-0.04589583803725558,1.0953736340976854,0.1370951212521875,0.22266982649663675,14.736324011100006,10.990486121997169,-0.0698139823854772,-0.021231747689149025,8.978517366972456]},{"bias_weight":11.068525382168021,"weights":[-4.019228425857569,-4.3432479534646165,-4.016522685174338,-3.090754807892419,-2.6690027901584297,-2.920146047242461,-2.624628035133763,-2.502991122702395,-1.5130812304448809,-1.3634555693291084,-1.956460102087829,-3.342376047138806,-1.1249838816365278,1.5454257410513568,0.5482060771259535,-2.710267557611738,-3.716462676206162,-3.694983458500451,-4.418042506527459,-4.535990405203082,-2.147639262639102,-1.9189231108416993,-0.8516013327944635,-2.4018734936449824,-2.9620426167566656,-2.713070776591602,-2.125605606079767,-1.8830295609496117,-1.5536345953728532,-0.8108981447638081,-0.3623754648196704,0.8727513799467074,1.0188397037055525,0.11296067764198493,-1.4169226775320556,0.7724983934582549,1.612934498893731,0.6031070360216139,-2.0899841318164043,-3.469716988604152,-4.149221188197356,-4.297424121018983,-5.453973926515058,-3.083792305298983,-2.9917523873595355,-1.3435451703580115,3.3802120804638354,4.891395191854368,2.03132695752118,2.7950823766616137,2.3649996233902923,-0.8075868000731796,-1.426725097212271,2.1708940634784177,5.262200540044233,8.646159344439779,5.948578606400424,5.637966654126996,4.717103007505895,3.402451808286972,3.717977469095149,-0.22456605416665265,-2.339857116951131,-0.7303486812168165,0.598926224164225,0.4869630793431141,2.2298935971154337,3.3871587583248424,-0.01949794659390866,6.05876542285293,5.668501313337403,2.3397693737094567,1.863391327626198,0.6952158614760798,0.4141332691728497,-1.0222915326859612,0.2174585170379469,0.635658299339981,1.9733381652657158,-0.7781488077860809,-1.9360325643013565,-0.6312629522219217,-5.405270146374572,-3.5072521126380796,-3.289708417122086,-3.033863913386101,-2.945929546127063,-2.9213936331372024,-1.5273066935116661,2.4816823498384246,2.604797485204978,0.8574386562847398,-0.49249863415360395,-2.3187459916733095,14.552549803356824,-0.0698139823854772,-0.021231747689149025,4.794052897079542]},{"bias_weight":8.744719082288318,"weights":[-1.7258857936230767,-1.4283057186439512,-1.7517025932954844,-1.2105631700062265,-0.23448462448943316,-1.15265836098908,-2.6986800209803357,-2.8693829240241717,-2.637481746371981,-1.7113878264193223,-3.603010399041415,-3.503826419583475,-4.718430865302434,-2.4822730341943666,-0.8470445084994692,-1.4712972513435836,-2.5767298249777686,-2.195801791919837,-2.88172333111502,-2.961123433799491,-3.37847716839126,-4.215299871950729,-2.8398206565027886,-0.3051398657754052,-0.5899077650497709,-1.4710472014532452,-0.45048946702945875,0.5640979529411877,0.186344860119424,-1.0522626694306696,-0.8827468997021726,-0.4503235766792146,0.6713570062582622,-2.0335308675815775,-1.843192286786452,-3.020330989244661,-2.4669186034795603,-0.20065786060068258,-0.2180819494815088,-1.1965360556931761,-2.2094894627508848,-2.001315712130113,-2.7709023229763714,-3.278040767754342,-3.384509077291766,-1.72921340941796,-1.0946667106607986,1.382392421063959,0.4681024407925243,1.638553462459006,2.209313257336457,1.3654120419060745,0.8400697205761107,0.6495694351865509,0.10166818312957143,2.8137216076454816,3.3922706195385306,2.317722401685221,-0.8917679916232748,1.4157959165853236,1.8720879886543118,2.6542641388877564,0.3065290652337175,5.19342622977872,4.084001279227331,2.5906890696212836,0.40309113350232,2.4411600485650826,-0.7329033530960878,0.9592679376051736,1.523518873683091,-0.6518945375484446,1.014882838436234,0.871425915252728,3.154981973841749,0.9844598923345478,-0.9848899406401362,-3.8377642950995536,-3.8592637953927023,-2.9425924761341147,-3.934359240257967,-4.080158364934267,-4.785531026210266,-3.3398249124736705,1.1409907619862787,0.5450127370466776,2.260336522500877,0.9183222967794546,1.103700440739064,0.3590320440807296,1.7706769045336788,-0.6595495530686206,0.40426192557217877,-4.846069577225498,8.390980930691482,-0.0698139823854772,-0.021231747689149025,3.064927754729149]},{"bias_weight":-0.6489695183577268,"weights":[-0.8218720292958271,-1.2422485645911232,-1.8795520568371331,-1.663982184044608,-0.7160249157394324,1.0352143408895147,1.7216915098463677,1.554432991018702,1.8315760225466236,-0.3462690379754899,-2.848024985295957,-3.5305149462632808,-2.7031566566526624,-1.4699548394974313,0.11174103548163479,0.8899731169341417,0.9104021447860721,1.2855936005291688,1.2244148734320313,0.21169694480503498,0.5684298795336906,1.1676484569372827,2.327075856650276,0.8129897743970206,-0.9002491845172306,-1.122072363745366,-0.291024664953506,-0.04898346102327294,0.8714955103114614,1.5128758688419188,1.3406336689752323,0.5456090885081062,-1.210961664240498,-3.2156697262153253,-3.345507760258128,-2.737591932483483,-1.5145424741012885,0.21189351192113104,0.24398386035810538,0.6992175778806665,0.29103919952429513,0.2500588261298454,-0.19409239211035376,0.34803617657362745,1.178957927424323,2.6420846673232083,-0.7789851188162942,1.8376858481655378,1.0744778193680584,-0.49193338615697735,1.9845348012989048,1.5200206534851028,3.7478020779842494,2.7928288834270036,-1.5718014603815902,-3.132395050838173,-4.096780586352264,-3.9879890754855962,-3.895869336183549,-0.8031214277993958,-5.420983774505977,-2.194199814083483,-4.214248479486451,-1.7490052786070776,-2.700168517701589,-1.4672291668634674,-0.22046893387853583,-0.26124485546404813,2.6679399684379907,-3.3855789080190277,1.3142308637092057,2.5491702702672856,0.5849048425679305,3.539637807402643,2.3981775800588085,3.3888444809794014,4.748567291092467,3.029814207415786,2.451083070311511,2.833718752864113,-0.6913491890480706,-1.4908330747265737,6.625267041273931,0.15906339978641632,-0.47749581153543963,-4.657667734664788,-0.47484076562139405,-0.5761568631262993,-1.3285966973605101,-1.3679925957528574,-1.9890051531687705,0.44085270641453156,1.5914767487865795,-9.072651901807886,-6.484594428618238,-0.0698139823854772,-0.021231747689149025,-5.7951134454888855]},{"bias_weight":-11.917075819321942,"weights":[-1.7087867553059668,-0.9427051438415784,0.05528502404143938,1.9985762197759807,1.7143980705939188,0.3695034274051926,-1.6924789524606565,-2.205983724813374,-5.821697602994983,-6.322188514733126,-5.576605974227972,-5.669039799572036,-4.333747755210616,-5.017639467509068,-3.942140044021687,-5.563488711068462,-2.1641537692883,-1.9763431489763073,-3.4837888780346153,-2.5151122745295766,-1.5050543539094625,-2.2466181313203224,-1.9257903115941863,1.0817967855558088,0.16371777339415897,1.129264564653129,2.603894484310089,2.217962934452517,0.26225467182151024,-1.8486401513836628,-2.3383712831146646,-6.25046155863993,-5.827341048299276,-4.594868875477863,-4.429268825923404,-3.5886136308871914,-4.331590705860323,-4.256192928267487,-5.948237073423017,-2.7525796711748582,-2.239403009206613,-3.601959097796205,-1.1924546426227467,-1.2806125754563553,-1.491902911464709,-2.1810941865184517,5.608321491482105,2.1231153408316867,-2.368398527304253,-2.3167715631652603,-5.280636375213848,1.9711038464984936,-1.4194285293893896,0.5099988775046548,-2.7270900560414653,2.0211655646431863,-0.5675125660462277,2.9404202660197463,2.0885248614837493,-3.077647026295233,-6.942388645274739,-0.6884567946676726,-3.52850742767341,-3.5677637306955687,-2.1457020514281644,1.4331081699277661,3.432390420477625,0.2998137637957927,-1.6500063571140806,3.827882850769674,-0.5697916982278447,-1.950852547357528,-1.1476141282164256,-5.460980796958029,0.7971552951555176,-0.9353452978423782,1.9289261495061498,1.4683310826050096,7.842454837162527,3.3053409855385807,4.849477469713562,4.109204732873407,1.0768898299107388,-4.366552391545671,-1.8732233413921024,-5.925573317832668,-3.1628708960610066,-1.949916101406622,0.0948447422715806,2.423366187136021,-1.4690640205009535,-4.537808732204564,1.3177149415674771,-5.65083991104701,-10.045385019042977,-0.0698139823854772,-0.021231747689149025,5.746092128984124]},{"bias_weight":-3.3933631975907605,"weights":[-0.1436315922973347,-0.10651948641819506,-2.795031115778858,-1.9854402905311404,-1.8442933722998582,0.5065735317756792,2.8147598560394655,1.6443927526098783,-0.25507154882034255,-0.37549328638377133,-3.4658314465224156,-3.4065117128510383,0.12165032339544271,-0.8584711228531614,-0.243420042353185,0.9008467847421614,0.6202773656410671,-0.6802591998821156,1.6081453127098508,-1.2725711245007993,-2.7813281194276565,-2.8668879490830674,-2.175902810979881,1.3673713913497123,0.9358939439411676,-0.06943958702971163,-0.4721975453960929,-1.2722063115932285,0.8309309204243899,2.307601062047537,1.6288176070262077,-0.8175431578803659,-0.9484406461124708,-3.0872305534603117,-3.9158596874078686,-0.1643614673121261,-0.0663870954745673,-0.578476082396923,1.462686833824713,-0.028457943076720674,-1.1684804770381745,0.6943990689938383,-1.5752189778899182,-3.1583370833083446,-3.3454282238646167,-2.574697000566183,4.3064783184837765,-1.2749955715640233,0.39647806768456356,1.180470635216237,-0.338830951409077,-2.229086839908198,-0.9985231604425856,-0.662002789001206,3.1709419007083204,-0.026469090015691223,-1.0123097806930983,-1.7366527694676523,-5.024433767398768,-4.436098819292055,-2.681539032774238,-3.6707553080149307,2.2976128682888586,-4.326240138090752,-4.052960707166473,-3.836392052476773,-0.3838410645509273,1.7829721735296238,4.508243320105414,4.914493064920894,-1.1206393308535032,0.6391426942619053,0.2821336614068317,-0.44042757881078526,-3.9362436244560537,-1.6890304030915886,-0.6923553303547233,4.44151469614992,2.979918270742041,2.1073510558119075,1.8947507849078071,-1.2705642427472756,0.5201783381439337,2.9434195854909713,-1.4687802126679703,2.4072735861522725,-2.109610589422571,-2.116493606329206,-3.2817786557170194,-1.501468793176313,1.0577592177706439,5.3663885734034515,-2.272128562555545,0.6086426184727577,-10.741998484839272,-0.0698139823854772,-0.021231747689149025,7.609756330817214]},{"bias_weight":-10.875457528288646,"weights":[-2.435743928349387,0.507676656486774,0.14357652593362577,0.08487485265637616,0.5707373433963928,1.1044780132255334,2.2827192747757117,3.300477595924386,3.6619566493162004,4.4356601192674585,5.479079555480096,1.8892498125333135,-0.5439746048520951,-2.5751805789603246,-3.2366064294876815,-2.1669409341330064,-0.9370040069856218,-0.19098423375866266,0.12664201273660586,-0.6422828156863775,0.05491478103227156,-0.34017897319384793,-1.15031460443865,-2.4836266970870735,0.07554930740389368,0.4787214687631825,0.2291842187994842,-0.09820738101239544,0.305982382902681,2.264432632741851,3.1610131387483924,3.4800115039468005,3.632611343203024,5.353177210805959,1.2380157160535497,-1.4283255573510467,-2.697616616088784,-4.697362093168961,-3.1068130684493664,-2.0310976422908955,-0.2050826470462065,-0.36857527098196596,0.2075456192439023,0.6380425124869126,0.5192458374324466,-0.4872200712738194,-0.8379818396195388,-4.7025600162441155,-4.923076746281056,-1.9189972256186998,-4.817532048496509,-2.9994141557926537,-4.275938722984211,-3.011588746037963,-4.622777410502289,-3.4865204418196933,-5.271046027363204,-4.263348425783467,-1.2045393934072748,1.0145610225916968,3.106818429568956,5.526209591283526,7.589941800371161,3.1856197276391223,-0.5177894513759956,-1.7553171153102123,-1.559393408629034,0.39989405834752384,2.448381766559157,-1.6346510139531911,-4.552151748243237,-3.538673634340487,-0.9541191817597215,-2.5330351997179483,-3.215144280580666,-3.3788043524534075,-0.6863721154049813,2.8982776820887968,5.057500340809835,1.2271938345251687,2.060153243114907,4.039528578063374,8.423832543615035,10.089557096445594,8.696489347084734,9.095129277517527,6.648994749375417,3.384208230414577,-1.278100858690526,-2.237360263653597,1.1754382189967874,1.9009169663543966,-0.8799551793821079,-12.033091639890102,-1.5528115329081824,-0.0698139823854772,-0.021231747689149025,-1.2440516459568642]},{"bias_weight":11.87267233905154,"weights":[1.4803121596766098,0.6819760367712998,0.38553511752492875,-1.1564338988948482,-2.190207131941582,-1.884113128114749,-1.1681536528980496,-0.2557528978814733,0.38314846275693537,0.40160998277469045,0.7904746970805975,0.6128698607811993,1.059023311457485,1.5373647497189393,1.6425731742946563,2.1582030846679845,2.4242602485046927,1.866547721488523,1.1834841736793167,1.9890982048720507,1.9439140339818872,2.0758862916132808,1.2801799699615921,2.158660095854988,1.5606845933619895,0.9221679065060325,0.020274781309338887,-0.6521019294912868,-0.6160203515156445,-0.01770986678893792,0.5727385143917859,0.9264698550116598,1.4494599642168606,0.6907479421909904,0.5716503565708513,0.9988642722103304,0.42202749019951363,1.51832078841221,2.081212557706212,2.5203960142262862,1.4560635576809722,1.186939668223711,1.0979772331144084,0.850199531560564,1.7228889290620786,1.302116118742499,-0.269438032218001,1.8381106055468115,2.70964944880437,1.3330592898423155,0.12865413598584166,1.7310636533894006,3.0269952703306293,4.4454142305245625,4.755428617321323,4.169423249177813,5.141456203929322,6.386425432955708,5.443555378693945,6.05795746432424,4.726702463673873,