{"learning_rate":0.001,"layers":[{"function":"SELU","size":98,"inputSize":98,"neurons":[{"bias_weight":19.809879120990335,"weights":[-1.5074064313337676,-1.9454169298277162,-2.4363590867857137,-1.8316148167742876,-1.382591020425884,-0.9810274076642949,-0.24975792920613646,-0.051318930001472175,1.2212845655881661,1.6068960608849114,0.7469427388675005,-0.22670095981389354,-0.8723017315541605,0.3561868523998418,-0.3330699221224344,-2.8662885879492284,-4.3382945101536405,-4.393633279117793,-2.4686215827678653,-1.9400160986647308,0.5386698433813876,0.9191333533634404,0.9603205304005782,1.8595397934678761,-0.020852218845486246,-1.5112019774788188,-0.4237939011145302,0.42547301339623617,0.7561831946235537,1.5692015205572987,1.7646214348801201,2.425684936827746,1.604953036637354,0.9061023117650235,-0.09272911390398954,-1.5943520482464526,-1.2011077610067145,-2.9670880514098714,-3.6047238897080023,-3.1611918430377046,-3.2994472146627207,-2.9497659215898833,-2.048642224651194,-0.06220834893663942,0.38096163823043677,0.5369657263583603,1.132235302209461,3.0157703223723593,2.2109373898032736,3.180630876843998,3.1346922347946427,0.8618159287187848,0.5007649120401073,1.6418989788472689,0.47318187017110164,-1.5151968236178626,-3.7130862038473125,-0.9622186280958244,-2.541828277985327,-1.2864943858111582,2.5145628030290705,4.220685582599459,1.4962827497400792,1.9313040186271837,-4.371754201862038,-5.739149659677144,-3.5705763290405645,0.8238718047697483,0.6387605556500637,-1.868117447208787,-1.4040357132484675,-0.25101121682130956,-0.6193353205044512,-0.2766686380178347,-2.1030841750738527,0.4313973463700195,1.2431347106912172,1.9149099220969774,-2.604455947096787,-2.2974250482583476,-4.0467413091544735,-1.4421095143086307,-3.605294773079563,-1.9023067004396814,-2.2396247104105855,-4.307339261023953,-3.861925330517526,-7.656318499529045,-8.201014803401394,-4.287960874597494,-1.0622663179561618,-1.1177311537966526,2.1141387661718185,-0.32427381586565623,4.914750316464095,-0.0698139823854772,-0.021231747689149025,7.191274935065649]},{"bias_weight":-5.623758827213059,"weights":[1.900144745067036,2.685204713678164,1.254547395789658,0.510089751277843,0.11576873187358183,0.5860263653650324,-1.6589731421798763,-1.4442795782907756,-0.95269641410087,0.03485890847297586,0.8650718726708194,1.5352871997349016,-0.5795127178001533,-0.030438605847335643,0.051101928572610915,1.3571918063904338,2.095882952716071,2.534659308536841,3.779609034952788,3.4325263157240924,3.3161722208083932,3.6381421908237375,0.6031576409608009,2.1033659974415193,3.7115074377685593,1.5769049132839912,0.696897700332402,0.28975093302916044,0.8441575249401797,-0.921788833086787,-1.4272034678239875,-0.9767373531338351,1.4381961314977396,1.9259812842087576,2.841670316244531,1.092416585307147,-0.7750938399572412,-1.1158427686342713,0.7088551332296777,1.4374267473667361,1.7318057405219154,2.7080110811896883,2.2555862982187667,1.7574342315044327,2.3263775763287593,-0.30376106487780086,-3.1615369280514587,-1.4572858373319395,-1.0874064752833807,0.5185471186373587,-0.944276359910056,1.5191470751337808,2.1504765762991895,0.48776745940169064,1.0120257804769675,2.432343125196138,4.57959268950703,3.3515191621926745,5.791425946298148,4.073257382109387,-1.9587115967846367,-4.693509620896448,-3.7738552048355287,-1.0626612365900132,-3.376712870021607,-4.5475426708396745,-5.715496799435904,-2.7817763274044633,-4.106244769388572,0.3005783556968668,-0.08769137624124966,1.5837577887030676,1.1738719704011593,-0.8124250503476524,1.6588813184502738,0.4411454501166085,-1.2549307508945178,-1.158304332789787,-0.15061274192329324,0.9344222478659209,0.6359320785348098,3.81334737017975,4.784930369872246,1.704936833243975,0.9422735031331003,-0.18356874632951942,-1.0630942505092915,-0.4933523948120191,-4.295677999221176,-7.230060969698323,-5.662605550714462,-2.9984240410155434,-0.5815589175120232,22.38042712916199,-0.07110045317785843,-0.0698139823854772,-0.021231747689149025,-8.172675475761647]},{"bias_weight":-8.656083703969692,"weights":[3.4852626206773145,1.2272099269714043,0.6623985895365656,-0.6428774077337828,0.6752146856362109,1.046943470763861,1.5837114339402525,1.7911378087169059,1.6371509878814139,-0.19639370409574916,-0.061293916989729615,0.005350767242487364,-0.018352496414956267,0.5634531594569975,0.20691573478388917,0.39596017521458515,0.5438946200317585,0.7620417607477383,-0.9239670878782344,-0.10764121918491323,-0.005207180695077122,1.1042655755680746,1.6558542301452475,1.8271365238414519,-1.0289154661341635,0.5491647629749195,0.8065400445546288,0.7037760576321617,0.9337539455522342,1.7593894440269287,2.2896822406498876,2.5676635648672774,2.1631983329769646,2.637972562373908,1.809278613707195,2.6754467685840004,1.8438063334378743,1.5842865130722166,0.3522752128967572,0.23500523585522254,-0.4584472572031668,-1.0039013252437106,-0.02862114806397783,-1.5171765092145904,-0.0662927447463525,1.4638584223137912,5.86451670046742,5.126779653206922,2.938237389129749,2.4659943008316456,-0.7502600986097198,1.1241286862072921,0.21455690732928268,4.30608041012939,2.659433395509261,3.5603679200253397,0.683179668922338,0.9543738669660146,2.1669593835735403,2.7023309943796705,0.7206470610308678,-1.4562614065932071,0.5366612933352485,0.9534541262264972,-2.034053590326345,-2.0947385273043593,-0.2757307713545164,0.15917905420667475,-3.1176533915280547,6.904904146220601,3.430549229078519,3.2533277889405134,1.443936845758491,-0.6343813213396543,1.0735952794550523,-1.1911945705629994,1.162580498340249,-1.3964512411363679,3.344004171136402,-0.024414975660385706,-0.10635103791116335,3.1379817563273953,1.711866390562919,-0.08590027151319608,2.2236418543472056,0.23193452955348412,3.4558250375556145,-1.0326218742762303,-0.6904693197200024,1.0202462639738226,-2.8226588823942516,-0.41612588066514755,-0.021268358143078276,-0.3451487739373721,-20.77684655772876,-0.0698139823854772,-0.021231747689149025,1.6676355053460024]},{"bias_weight":19.104224371016972,"weights":[-1.2418656564464672,-1.1673117601556309,-1.372244251599543,-1.4437841247528485,-0.4659108304633435,-0.4434687618129159,-0.0801341609603658,-1.1355354894673142,-1.2817344138552222,-3.036965506391252,-4.258465000548888,-4.344352379164384,-5.026532229719264,-5.168399955999744,-2.8218153368860284,-0.7458922514569156,0.9455831739586615,1.5156876351457034,2.913244450808116,2.139598125932761,2.2447752148665443,1.9217163104257329,1.5780197003524605,1.9907929704868887,1.843862501461499,1.5448653335454552,0.5589085394184489,2.4018005162379157,1.8794346452501214,0.6925244906151073,-1.5127061077727446,-1.6062556147544937,-2.8751343953103983,-5.013240485369849,-4.368239124102973,-5.228269375001316,-4.464663474667487,-2.284769626960127,-0.6242768282795752,0.15611729925245554,1.8153927819340419,2.123088994792915,1.7774055639280615,1.3075399149921243,0.6168025296234437,0.06782786644994611,4.455606682395261,-1.1761417915226466,-2.2704428702234423,0.8345888487123597,0.692724269890429,1.3260513530104276,3.8103023693775886,1.872773205324912,0.6597466233069701,-1.5020742844190742,2.7954533877264227,1.8370105283602507,2.3061847039789147,1.6440194453696746,2.517315128448536,0.39620655060888876,2.337180855672895,1.8659859350029073,2.4414055210665855,0.3475207858139138,0.25235628708303337,-1.9655329188400583,0.26848465614983946,1.4115271067636395,-4.204725736942118,-2.2275821811713596,-0.043812238997443985,-0.2715483815247396,-1.26081849620133,3.41094144581906,3.15809274604941,3.8338534329933136,-0.44441591834795874,4.174006699255587,2.6483391016772324,5.089113916719903,0.7347275046641935,0.6270475015408822,-2.364281179380741,1.3691039863867782,-3.1374090981819784,-1.9971210972423583,-1.6200969758558308,0.12164452920517141,-0.6160013263043923,1.559195069685139,2.6907776255671383,-8.14364700985013,16.044108871770742,-0.0698139823854772,-0.021231747689149025,7.696344299108438]},{"bias_weight":18.783895861572635,"weights":[-0.6571453938548775,0.35397761649974885,-0.7781107428281447,-1.3537691290498957,-5.5067417244889105,-7.718989411042719,-6.6212566726234625,-7.233324545822451,-6.908033747285829,-3.3344397710425175,-0.8630854978322395,0.41975931612468725,-0.12556235625992335,-1.9538431869182018,-1.9421518847521144,-2.3249970814239056,-0.005937724228555433,3.132467888239909,2.6218727974354366,2.5708963547952153,2.074160048772185,1.2652486553227182,0.834916691654594,0.9859440647381563,0.7911391881799502,1.0747339625396575,1.0111620491207984,-4.54850972174576,-6.096993929089618,-5.1947212955086695,-5.671713163598931,-6.853316858440988,-4.1490858532974055,-2.4698156049525513,-1.8414321357941739,-1.446599528789102,-2.2909033874858555,-1.8241968578095287,-1.1584564082688307,-0.9153400905149734,1.7560344965439332,2.513982154310405,4.1026628783939705,4.3955222255654585,4.153269697107151,1.8643972438285592,5.039830298920676,2.2547263740299486,-1.213096483526459,-1.4243233154192236,-0.0606191671745555,1.9427887666617956,-0.06893088160192734,0.6446220562470019,-1.1711263808859804,4.155412664960412,3.179979654974236,0.1720884941250151,-2.5744404343011955,-1.5493664403324878,-0.9318734939051013,-0.04609992540270699,2.8860692761548123,5.785140617128033,2.6709093223000853,4.443292907928059,-0.3941720889889846,3.394821044866468,2.619164568562834,7.9508625699038635,3.0680551109592855,1.4679316732386127,0.6635220370175189,1.345363143668848,4.711951902889073,1.0273847885710512,2.5705981648397165,1.9045496036692153,4.933698639729349,6.596101393892536,2.7504355419827315,-0.9915272882684788,-1.6912012773574325,-2.114552947422427,-2.715719390187779,1.135002957296209,3.555336305649053,-0.8921488882580677,2.738806325992988,0.1148306965400451,4.803569889553694,-0.44266871264312074,-0.7918262018035678,-4.872570944627545,-0.29651586217209636,-0.0698139823854772,-0.021231747689149025,-10.398848307111285]},{"bias_weight":32.39889858109189,"weights":[-0.3954397440460934,-0.8376394040139286,-0.1282602668260895,0.6912877613363538,1.5637447084037894,2.0472605185873034,2.805531033814091,1.5344512828561583,2.929488386179797,3.6323875582449747,3.0142935807144857,2.70668666028466,2.519545861959874,3.1796124138279276,4.37556748454845,2.857948063952958,1.3874893562515593,1.2675595248354274,2.086529226960733,1.4508226721161643,-0.02348479139288151,0.5679613173163808,1.5229144051054255,1.5639298881767927,0.9077790335217536,1.246445436366335,1.5722984054580245,2.6599625129438658,3.793554994261125,3.9214513586231132,3.6072202889997445,3.5104729121947824,1.8329544032663527,1.460000274911709,1.281889746934242,1.0822197393730655,1.1897762302805734,2.738964074620832,2.3167882437617475,1.555535893499825,2.1765724370183634,3.0300216931638713,2.24229251419355,1.7538542002751691,1.443250110232164,1.3085080194639884,5.044960407226107,2.6888849319269332,2.542272211049258,1.7377347433543409,0.8930746762140281,5.906261769383483,5.853413324216828,-0.9679121156933559,-2.8283722451674853,1.8531802836708138,1.389999988485114,2.5867237744961353,1.4475871597347092,3.7052932677115056,2.9356609459263945,1.5080809270762567,1.7973627319830736,2.8556828422575533,2.384691466166225,4.677162729292724,2.7882063829217714,1.0052990518144105,2.4971168946676565,3.0607531881838907,-1.2531830362655558,1.4032670963185254,1.0746732198576125,1.3885531539140634,4.7543698791605555,5.5800158487929625,1.840428827351141,-1.6057338951367517,0.06039215165390138,3.9335808453631143,3.580523397768089,4.166377022721584,1.7588578209126537,0.12859091126982555,-2.6592419170032207,-0.828355940213575,-2.5433511641074045,-0.6436671145584076,0.08803767829135103,-0.14159597807810195,0.887089591318932,-0.7341260589469889,3.827022902718248,-34.767970347295254,-6.7647898173411685,-0.0698139823854772,-0.021231747689149025,10.077939198452436]},{"bias_weight":15.017981848152479,"weights":[-0.05500771683318152,0.7051904595427476,1.6928517785515502,0.20948448254386565,-1.4432402553626853,-1.9528163043432167,0.19765545124821374,1.4326668058321974,1.3510233261688724,-2.204764167146686,-2.1841071257843803,-3.3962710111830363,-2.610531862390143,-4.561394832429805,-4.253341375089956,-4.4910125332361766,-3.2015886468260346,-1.7023360337329578,-2.2861499720687712,-3.3697380255890286,-0.09866343339538902,-0.35618365940070973,1.7100915002654224,0.3729119168738147,-0.8295801480241133,0.899817761820386,0.17561484877548447,-0.7647503768335632,-0.17903518247264444,1.9026368784511742,3.232281522938008,1.463902877956482,-2.537169068255264,-3.554730096539974,-3.7950592087055193,-2.196867998365661,-2.59868118225159,-2.155860126252745,-3.84933482279843,-2.1793604817204386,-1.9166519213732454,-2.384613096683143,-3.731528266140164,-0.26922526107911515,-0.018917526383939082,1.8227376326589286,3.220530140910058,-5.423837073860254,-8.643981774691802,0.695118584378444,1.1246984562309528,2.021656278679937,4.267894286828791,6.790006303168091,6.25638985740477,2.2940957304373244,2.889206950776321,4.562016630150579,7.679666300689812,10.683931212571313,9.854323367755246,11.046508772062023,2.8364317755260493,1.2678504652655354,2.523461469951738,1.7202279299620777,-4.240207408930301,-3.2794710746733617,-6.479701435274871,1.1326105015861443,-4.693490644159726,-6.385732593154768,0.7424658051730554,1.1062363473560926,4.846335742561704,6.254382507335786,7.627168152718766,7.417834278161472,2.3011764936470818,3.584919219651331,4.368057705283518,3.364071144577148,5.107657463661703,2.341562901859735,2.729802346210705,-2.4654790638423463,-2.743746070201136,-2.6417311610742407,-0.8701619465361361,-1.3041182243589773,-2.2332215021470008,-7.269802698861889,0.03962078754687061,11.796083131425153,10.065761833404869,-0.0698139823854772,-0.021231747689149025,-16.341439729980983]},{"bias_weight":-4.346576896466531,"weights":[-2.286922909598629,-3.459376314386154,-6.178276764298689,-3.5324288036906597,-0.7853216259624313,-0.4494972727772087,-2.62761884565809,-5.806071993117455,-5.390813637875878,-8.196611024590055,-11.568031179413474,-12.188387966896975,-10.030135914065058,-5.93961981530438,-2.9302393634099637,-0.02265856999168784,0.4341017453909214,1.6796468681823347,-0.9772789802838423,0.00986452353654614,-0.17982629468420644,-1.5741848100487381,0.10090646776163671,-0.8469924293790911,-1.634487417266022,-3.941658131018057,-1.0937720231112458,0.25415602682844973,0.3745768267091359,-2.4191205908555378,-5.680311131423886,-5.993981399975481,-7.921836617153922,-11.288011811145973,-11.719337644690565,-9.775152884561766,-6.564169651150493,-2.740426257887863,0.7309374093391433,0.4695887621525831,0.16187967260670347,-2.027844872268762,-1.8269017883333072,-3.230908721940574,-3.9265833194778073,-2.748001635149796,-1.789109645962533,2.550824727523538,2.6985207180014092,2.3903162163482805,-3.172623494514671,-4.614656486291409,-2.3275656841869705,-4.02094981752166,-3.498221383399137,-2.7285085175672013,-6.313405593979719,-1.2456586079058696,-0.759713561673916,-2.469741879323362,-1.3124812410693212,-3.8580640512767808,-1.2275676542679401,1.6580526585118456,0.21081111775400402,0.1592750722993608,0.999254669277786,0.8839626595711888,0.17581866272131472,-0.9506325330169868,-0.10779326809999085,-0.4845680629405207,1.0843876874976779,-2.2683790749152934,-6.612675246190473,-5.520068542491337,-6.23064597599441,-5.349829245952022,-5.807376444895687,-9.350562393873597,-4.709627093558658,-0.3221001811113677,-0.6328765744918267,4.057775778352881,3.6799289416800005,3.880185095380119,4.277134096127662,4.462924466365268,2.1331481280817,-0.5370634414361496,-1.0513247197270712,3.223948757803999,-1.458791030528956,4.028556410227585,-23.900410988125945,-0.0698139823854772,-0.021231747689149025,8.129380816736166]},{"bias_weight":-7.917898923111528,"weights":[-4.080948363080364,-2.3066584917558375,-0.5398947096682171,-2.677778798481487,-3.586225703490284,-2.945915873463058,-5.691265610316863,-9.191817134802266,-8.911057267585084,-7.591967766160474,-7.634990518411919,-8.825662587125361,-9.432241696547807,-6.720175592681513,-4.569340470256994,-0.8729888093631958,-0.7202993557231497,-0.37270519987756623,-3.124775935533964,-0.6018972256925548,1.3428893585338602,1.3281778360955196,3.45114614202515,-5.02505528929903,-3.678376998375797,-1.155812138650434,-2.4811202888727872,-4.117979467888367,-3.578932708746384,-5.91039617848137,-8.849637091719753,-9.870449183289468,-8.757619875177344,-8.062390614949356,-8.636751439191004,-9.493181945108043,-6.81258895700763,-4.659142132263355,-1.2632363703518064,-0.8213984903469228,-1.8505620497755302,-4.678836932015953,-2.761635552139086,-1.4468881916859573,-0.9435101705663781,1.8121877308263876,-7.475895493634485,-5.564987716178597,-4.429959169913708,-5.327668041874321,-7.5173163287319955,-4.1086916596136716,1.227601916859715,2.390795199835368,3.148225444685953,1.6748466424319355,-3.419926838974835,1.2853088693200052,1.4451892123289771,-0.5785215031885573,0.2543865146353855,-0.451541735963194,2.0586618176481095,3.3006237417421973,-0.25931698954568877,-0.8896565195542903,2.6273305379117557,-2.1426195517206446,-7.3496375089761825,-5.640964606917973,-5.894432292389211,-5.118076257200982,-4.947072011104864,-5.190838354039046,-3.5731183127367125,-3.0146802568814817,-1.4306836190715213,-0.44255975654626845,0.3652410842090927,-5.493668188945825,-1.0262198939904403,-1.0418682051228312,-1.540007179199316,1.6032300179613443,2.5078172496436473,3.2157356914464876,4.477135248524715,1.2527429190301382,0.46579320494422044,2.2180840717140544,-3.313975949910247,-2.7886569777108625,-3.834116095391462,5.223618135967672,-16.55042064380074,-0.0698139823854772,-0.021231747689149025,8.6960961534033]},{"bias_weight":-10.0076798431757,"weights":[0.02543167685574263,-0.23245243392784445,-0.7205229756030529,-3.8857994311244295,-5.954455336655663,-9.122223038532592,-9.045066525903604,-8.102383031718068,-6.862619589832844,-3.260382449886623,0.7509926386372496,0.47286952361351686,-3.4725110862658464,-4.994096135615088,-2.9656365026177327,-1.5186762938488696,-0.6519268638411189,0.36996017233277095,-1.0008243646223403,0.030030657941471743,0.04604601908773851,0.3082206495465258,0.6996566132391888,-0.4494143388614739,-0.7877694289727147,-0.5686930826885144,-2.1284811548204603,-5.392867432861056,-8.886716538615028,-7.928902373539338,-6.5597017792141,-4.7997685505782055,-0.1322391987518379,3.0926167650875622,3.6550422620781062,0.7326650196125609,-2.926988190606976,-1.0337670910298786,-0.08671441428409862,0.47014972444399583,0.6087019762539513,-0.8967884930587849,-0.9100442529006267,-2.034706922219488,-1.8982980601054567,-0.3213181188879132,-4.047157932280759,-1.9416953180211716,-1.6542505858227294,1.1381733685446684,1.4290675997704265,1.5388026652512823,0.8573483249182614,1.5094314126872326,0.25291607682226147,0.4701095163624546,-5.0672137149403556,-4.278300191092491,0.14487076843818733,4.938046388870246,1.5652104424924116,-0.5899210704891978,-1.2652784893120164,0.11350316272516826,-0.10307408481821974,-3.1783403808629833,2.1521805910250063,2.228797359423921,-1.8141619312029968,-1.9774282458658057,-3.0015578828108924,-0.6396112180839553,-0.10513711088644477,0.7915152876046088,0.7742587987618137,-3.1680717452332225,-3.736954733069257,-5.019030668927572,-3.838577916332734,-6.493457366428402,-7.72581742556102,-2.0257737626594174,4.889011652555853,3.2341762542398813,3.4862646379546525,-0.19228100669177567,2.222028406413192,-0.5262689553268416,-2.133183444393105,1.4777269195179974,-1.2372920025178742,1.1015544433202673,-2.4117006228152635,15.280906028477949,-15.583816995668908,-0.0698139823854772,-0.021231747689149025,8.574088146516955]},{"bias_weight":-14.12681504595351,"weights":[-5.07892069125764,-4.125480093639593,-11.394918778827977,-6.9063500503706345,-8.215914870730884,0.6789646308405738,-1.5398264850365342,-3.0020301820108948,-2.4367277809256596,0.2651617775913028,2.1132732204814597,2.4855105944695204,-2.262607173003488,-1.2139721677842295,-1.8877934094531283,0.07741906660400642,0.054829899899305055,-0.31659762673018577,-1.9766180620396931,-3.6993674749290975,-6.635063457509932,-4.177826227587349,-5.134880928963991,-3.8433383294609413,-2.736045873054021,-11.562312425749473,-6.536879753261557,-7.365906228541852,-0.3005333324095905,-1.5959168262392607,-4.354896309613856,-4.016066260804753,-0.42932632302402846,1.1144972651917462,-0.06149147124602256,-5.332578093286076,-3.8119598284609295,-2.7476948361013918,-0.8721146322415612,0.6086052270443335,0.4040651571889994,-2.473361198795718,-1.7334659473591938,-3.8272477413867576,-1.0481460436667178,-2.951343251486704,-13.634852748737444,2.8202652545733864,9.62177059139931,2.2153969524681343,-1.8591583310421835,3.8427206358716246,4.221312297590801,2.777003736704646,5.1554863327193035,14.525006472622929,-5.890367953655036,-5.072063994109964,-4.694843175190439,-12.811067232792094,-7.340125787499496,-5.039033862922598,10.691913767126962,15.631264279932909,-1.2423650939523254,5.1552466808316275,2.935912610990634,3.2598492444596237,2.130143001628043,-8.427496034653174,3.393043392684812,10.185658336244451,2.6294078778587586,-2.966261452887201,1.3370046787674823,-0.13664233835875486,5.90017026926846,4.773298631290178,14.02873472447578,-4.233406130486465,-3.4669429537921976,0.8150348277417588,-2.9472433835355716,1.5803863643820946,-3.666503227352821,9.056919960465798,12.895757573129002,3.3516203956786295,-0.506902355157616,-1.7123086462640937,1.492827063610588,-3.803943093195033,0.40827937283002536,16.56112832103776,-4.286260751083182,-0.0698139823854772,-0.021231747689149025,-2.00189695444984]},{"bias_weight":-8.33520757036608,"weights":[-0.5912857767650168,2.8718849834635622,5.126403399032958,2.715816467898795,0.28495789212004896,-3.7623290322652805,-6.2756425077800335,-8.361382176229013,-6.888285400522475,-7.7764942807499375,-5.007984068482136,-0.17467344015937597,2.2230070096307943,3.383174814691656,4.212403814057927,2.360695960751652,1.2765899601242428,1.6757584258812739,-0.0034940572929211358,-0.6079365328576452,-1.5174879764733142,-0.3187153340494394,-0.5793932017063474,0.6543570897263934,2.6470752692132407,6.024580385504738,4.501197740762799,1.7143942306908317,-3.0023692272115388,-5.886416786238789,-7.413973294089088,-5.168714822127207,-5.975056660822267,-5.290843905574898,-1.9071682705001836,0.7305907862239606,1.6038847701980559,2.754760598136274,1.949557348441651,1.7475721853953308,0.8477216217950118,-0.6271921333183706,-1.8329124471475187,-2.834819789511678,-1.588092167175806,-0.7882772613124018,-5.540163529775379,-2.0532480062778413,0.6256228358275643,-4.361677665819055,-5.201866378233901,-1.347248538097923,0.2604732411598376,-0.07281483634718935,2.272623249309552,5.349964959807909,1.9662692592505924,-2.693152622899412,-4.93522820399029,-7.3425397955773395,-5.618873297243077,-2.510727314296633,-1.32970864686569,-3.0384025787076294,-3.6404944485682105,-2.76205725594225,-5.572653051113109,-5.542613681409953,-6.293165128918735,-2.848363149675114,-2.9535492889399193,0.701765670910376,-4.351184897724055,-4.08376463236576,-2.9171363668681956,-3.8865665666097637,-2.8000305866366997,0.5565876003879168,5.754150628539567,2.722851266631696,-2.094247723257482,-5.269805526220215,-3.332542582669091,-1.1248895724631913,1.7228783525686888,2.7333683806131956,-1.7429602851506099,-2.5231355856650404,-3.6810241683850973,-6.448842922661742,-6.52428346924373,-1.8855068602040508,-2.280987147389928,14.326364595538047,-25.298620998778443,-0.0698139823854772,-0.021231747689149025,13.126252281392372]},{"bias_weight":19.140454830363957,"weights":[2.0729309471716184,1.7827233692147666,-0.7654377818828092,-3.435617067794007,-1.4899780915265317,-1.9963887684504302,-2.9135298200498756,-0.4051534161142445,0.35961797608951607,2.1633861246048083,2.3346172467131345,3.044155848908619,2.91124233964173,2.441654001195719,2.92220941595242,-0.5079464757244873,-0.2419418896622994,-0.31386669292828234,0.49417600464876804,1.6242413933222022,0.8551256943338038,0.980207921467073,0.9702217183846172,4.858913982374783,4.981329060744432,1.85530201161855,-1.4621643808825124,-0.16044623231516025,-1.3678267890862552,-2.0746241338105724,-0.8999368550760845,0.33283057386232145,3.0166571119485175,3.3012718197936683,4.406500034942368,4.693606642069851,2.450052266410156,2.3713875067837957,0.4725184471589818,-0.21160634306584772,-0.13293200414692202,0.8696226763948521,1.1480190538385664,1.0375441790926836,0.6706526272202641,-0.21905769348071188,4.463034173230733,0.17134065694350642,3.0423619052768087,5.32583021525596,4.262864768338748,2.123897807421131,-0.3368517529982156,0.7772357805677261,3.909833126716394,-1.1337320522275456,5.030005590687332,2.3478320815438782,-5.2452791651239075,-1.480481731228261,-0.9617669934743955,3.129275301632983,-3.2423359659192528,-4.716136239620904,-2.4404320509873187,-2.8943782729056,0.5763197827327774,-0.07312135429241381,2.6651590207805103,0.6331515946076741,-3.1824787041539495,2.098132128309733,1.5104227679884814,0.8425092156895079,0.5864456653214871,-0.9013060057757079,-0.1256242925171007,8.628207836363696,1.1152985272831935,6.112416614418687,0.8975579532018767,-4.777085686192025,-1.154550062044855,-1.5019962707069283,1.1960139412363322,1.7293026481228337,-5.062421390907328,-1.696647681801836,-0.21555033907000895,-1.8602763150572448,-1.4042520446393991,1.7099212116586855,-0.20247970372241647,17.16790680739336,9.742130988057633,-0.0698139823854772,-0.021231747689149025,15.312284939107798]},{"bias_weight":-7.054789851142997,"weights":[1.897500374102101,3.6068674343769658,2.6036827529857005,3.535481568292705,2.6193446765822643,3.101240315952297,2.8517866598233113,1.4587982227602574,1.2679437017942667,-0.21504595066366444,0.06084978588661801,-0.17209756552221553,-0.447465688396025,0.7029708215369777,1.2101835245352361,0.9984655674969597,0.7593437104199521,-0.2315354563787352,-0.992233549882322,-1.7095547895920686,-0.5210064375183369,-1.3184392440202486,-0.4117835214476341,2.033085076964601,4.067915599213752,2.880328130221971,3.71704380828579,2.4986331132591473,2.4480924255008114,1.8234693204115853,1.2524074399712848,1.2319367785005213,1.2904732610754868,1.8709541126656974,1.1432295167856388,1.4387515116893719,0.9543903158317134,1.4666693922450884,1.1633850117669886,0.5372915517082837,0.24146688715940223,0.1442666059946022,-1.3655549723571023,-0.6084332133371566,-1.901651413198773,-0.43257372444684294,-1.3799966840499023,0.2594588322777358,-1.524957350828053,-1.961396600402573,-3.5070865482784734,-4.438465599984136,-5.079957039714451,2.0165596044121212,3.8507556706254302,3.163867440041547,-0.8063568155287366,1.088587138903708,0.6124819402227977,-4.893624569587063,-1.8471222867278525,-2.02612238094663,-0.37184106837243835,-1.1705484153765608,1.1449351714410578,0.3440339481129338,3.2979106747618974,2.916931519894197,-1.5149769643173232,-2.3400464366407667,0.07382368513197655,-1.0429705525040158,-4.777756058355792,-4.639750893955867,-5.237796013749298,-7.312500634027711,-0.9187801722620274,-1.8170264292332534,-3.088237707526585,-5.9866305700961435,-2.7142831160838052,-1.242584025850119,-4.318879476148421,1.0091116501021669,1.5267413476840679,1.025594675466524,-0.22722214744840452,1.8051344668834959,1.0428342814438913,2.4756432863520574,-0.08495782162393783,-0.9564123516809923,-1.3560139704100385,-1.1777982115139207,-1.9315314697784494,-0.0698139823854772,-0.021231747689149025,-0.3952522450543172]},{"bias_weight":21.913017505752347,"weights":[-0.38802813962465726,0.24882667926568683,-0.9910931091858429,-3.2415781289465313,-4.751626572068546,-4.017143594029869,-3.7130613346522994,-4.303301774388347,-2.140695466544223,-1.329556738697777,-2.8406988365069834,-1.1351821510598565,0.8143610218143593,-0.5244332228308619,-0.12041820833156505,-0.11530300137272377,0.5864164159798436,-0.2048298274021914,1.141107436791756,0.18667080205685402,-2.035383328685122,-1.2151701081717083,-1.4016582021082646,2.3629116638523557,2.5934006895984716,0.7563899645083373,-0.6175834103683431,-2.9314060103894457,0.862099994674691,1.9106007108514336,0.5719935103835386,0.9955679252377917,2.1475164914742098,0.016247342657449936,-0.2009825867566104,1.0554231239925458,-1.6395029800411767,-1.4621099818970558,-0.5738377551558691,0.816829423791451,0.4163272332744018,1.6958280267019448,0.9912422664287596,-0.9441770917235266,0.021454431023627735,-1.0828844485879685,3.5790913163363665,6.565354420595755,3.7081183690702817,2.422694411693697,4.8158273131675955,1.5893756056911859,0.8153263638860904,5.260870168152852,4.599419426773562,3.022888530066867,-3.3703292558689917,-1.7222480566626999,-0.2890092221578305,1.4379082179406997,-1.076806849630243,1.5169130112429383,1.2420206899418529,2.2547798683056692,-0.5403847945035413,-1.2968014367975187,-3.144168691386239,0.9193845046269732,4.65246550082248,3.750397053671165,4.146697365937518,2.421423102268129,-0.6908841586886628,0.5102990965578661,0.2138265335761033,-1.1627901151811402,4.722624359022151,5.146410508502738,3.3366603540712942,-1.7302947705684109,-1.6845855706183757,-0.5694517797766573,-0.31097633162506133,-3.657190832863021,-1.8024883092356783,0.7578503572025774,-0.6915512177562162,-2.558751756392983,-3.5161492569236663,-3.9435478576387077,2.3905102892888426,2.348161750294349,-0.1967071528819884,-13.624720381502918,2.5935532731839537,-0.0698139823854772,-0.021231747689149025,-0.8312609425806192]},{"bias_weight":32.84518898436554,"weights":[1.0174500494219145,1.9555416338716596,0.912095863361683,0.6340287091663087,0.26090847789564836,0.7592608712601673,2.209099808397329,2.8748881929262944,5.188322373765427,5.032715329680398,4.9404223225274375,4.143015421232266,3.70556669223111,3.2818060690988937,1.374420401648772,3.670769435464214,1.7483177027342212,3.3229177041718296,1.2877437852642817,1.5203249427486336,1.9914138940818271,1.721560057665608,3.941890380078935,1.7999859913121734,2.5609336773936167,1.539560316949994,1.775906486456447,1.859001315318739,2.129453072064157,3.2115512569503224,3.766578530825709,4.806212325453215,3.801427651122332,3.374473165593953,2.52171162129734,1.1862458627834955,1.9266945064756125,1.8198874849770834,2.465577684676262,1.2103668503172,2.001847008123182,0.30366506402045274,0.3124597416015591,1.4121955845548173,1.7021004377668905,4.133090742135375,1.746880319661476,-2.0834470495496116,-4.688268409042159,-4.100755794074315,-4.16517176377149,-1.7073015513819456,1.4279390060922108,4.03691482740319,-1.3181455655740857,2.247917745913564,0.35388178383000174,0.8236935520291194,6.232546562110938,5.156661267040746,5.13886812309792,2.9812057725107444,3.3836292344414067,-0.5869995285207812,-1.9102637884224556,-3.551129102991476,-0.951896182231224,-5.220420782171963,2.7367215197455903,-1.308745064760807,-0.4897748022679035,-2.7863207324220225,-1.1476362801378808,-1.729131902284092,2.232223951458068,6.488970462180061,8.555757763315237,3.084320208919492,6.2146544840782,3.4014975672242924,3.8308873890845954,7.5509675134393675,4.439474009451539,2.3554314889099377,-1.8130315899131229,-0.4314618947054409,-2.987278116514102,-2.6493809050388544,-3.8034604199635353,1.207177186531816,-2.5695825357339044,-0.2632064564830335,-1.3794184833974945,14.876345939618117,0.003614575782107358,-0.0698139823854772,-0.021231747689149025,16.598738998089036]},{"bias_weight":7.721872514239854,"weights":[0.24111443439476318,-0.5996192169637499,1.89207386242515,-0.867656786811811,-0.013071308512601769,-3.3636836547603393,-5.579460945361525,-3.9451782170816023,-4.517726937646344,-5.006105826413113,-3.4365987045927673,-2.376239798004775,-2.283737396475566,-1.4154898735760035,0.2912713710006406,-0.8521219289299394,0.25169293141170035,2.02730153999128,0.8592827643058544,1.9936112435153774,1.544062316618397,1.4165496623729645,4.1956432574050195,2.548848746745281,0.7617689143524826,2.8593099285593784,0.6308920118147937,1.1597397072274434,-2.6780484956767974,-4.506179603523892,-4.6554265655752936,-4.944405546815397,-3.980267143931339,-2.6623172622204434,-1.7614318671038456,-1.798015884105869,-1.7475040569832025,-0.12145112368420259,-0.7702590202507347,1.298771074257473,3.063462095666815,2.023548174738449,2.3574591234068545,2.0016092826175425,2.402676871773466,4.690591605149007,-2.834698322514353,-5.328815179254873,-2.943230050801175,-1.0529730799650836,2.0766753672940617,-2.455083716377153,1.7601000707665262,-0.9598825684877909,0.7741990849801742,2.906603060196414,7.758936655348707,2.731350702826514,-2.295707385666704,-0.8128554786991785,-4.823997982089781,5.15733523783499,-4.6588989384084485,-9.69315404646387,-8.171809286542178,-9.406672385229996,-7.121441132600397,-1.9119194586156514,-4.651731776985415,-5.1689719671664704,-8.194943500297954,-4.049257312210155,-2.938657822373306,-0.25898179241367136,0.6378588674925572,3.1248923190057205,3.049621117944153,7.642512906770994,5.321226184949238,6.755525368538269,4.6002278112182875,0.7210951496840793,0.4780844198388276,-3.581311492911872,0.2444271659789399,-2.6160367438400365,-11.911086886044432,-9.353722374675328,-5.0659914981230765,-8.088296057530835,-4.839150136196569,-5.635813323693334,-2.382985091950716,6.4355581576158505,6.55621826267103,-0.0698139823854772,-0.021231747689149025,10.769743847836635]},{"bias_weight":16.117197293981047,"weights":[2.4882678555551125,0.9675830746874856,0.29863350931722404,-1.0585972417156844,-1.8238832538552927,0.28471653157168175,1.6319204818467188,-0.8668898622965869,-1.1187236266852376,-3.2981857575406135,-0.02435002855222774,1.575773177478822,-0.28010155031875106,-1.8308837096390926,-1.8316918105676792,1.0471970482659245,1.6739180701420453,0.29750768790025583,1.5377320241692807,0.6450171899775631,-1.4211516945444675,-1.136448801566311,2.9494216880588953,0.883383114690361,-1.7019647377253724,-2.8065370750189502,-3.906580668224727,-2.908489448631581,-1.4290918824147014,0.7403803074147776,-2.5544392082950207,-3.1789521151072053,-7.34122732132207,-4.188695780460183,-2.1072675759547193,-3.52011071178254,-2.3612731824845556,-1.5945741474133608,1.203959369239051,1.955272866737806,0.481930746168242,0.42121325653862396,-0.4319308259158391,-0.5779472352506232,-0.6193345277163211,3.2546101967604537,-1.3941945230201431,-5.429399699973834,-5.409009045035397,-3.4090638363104855,-17.094125198852733,-12.886383152618057,-9.537478314180571,-10.276641888355035,-5.339106736159173,3.348895192445763,-1.2467157341538824,2.7829929530694373,4.428584242639194,13.736920087887123,7.812320165179963,2.3040363563316233,-5.245591560594047,1.9216698535881367,6.05425441224602,1.2165703421480805,-1.4742005297855354,-4.267948887467996,-6.952407878601156,2.2684195646084033,0.18818117353983238,2.205291140720153,3.963168847339911,-10.679321892389668,-5.612192779646059,-3.391705077237223,-4.913960945225769,-5.400347588681333,5.052356921219479,-0.1090839958949493,0.7377904331573176,1.5269284040803919,5.165075655696497,3.0100478485338042,-1.8302887947120068,-9.253929966248112,2.778663695586107,4.558870825243193,1.097170835193382,-0.6856832538467266,0.9833899908230451,-6.797974205156461,1.6697160882457007,-19.69817871682414,-2.4510820591959317,-0.0698139823854772,-0.021231747689149025,5.365090746838344]},{"bias_weight":-10.168646399368166,"weights":[1.8765710919164238,-0.14493922736241047,-1.3295573601791288,-3.2363862651718702,-5.216585493780478,-4.465982838659833,-5.650924143207987,-5.915677681996596,-7.626970641693262,-7.472399541347242,-5.520235671982597,-2.79414275490969,1.9411961201232508,2.0013163016873303,1.649140637965039,-0.1075902635969698,0.7788347093599741,1.1346382321152475,3.091332859096908,4.54228421953164,6.773262554956451,7.063416581936179,6.1590186012047505,4.362690423452829,2.7287032723861437,-0.07739905077110712,-3.0348028203032555,-4.034064613778197,-3.1434372157333903,-3.494178094972228,-4.897662061987609,-5.824981070973661,-5.372027351055444,-3.691731891793124,-0.7618865899320953,4.975243993762702,4.777132917765823,2.805439897390252,1.5704562808847295,2.407196716974431,2.4650236114282293,2.8065167595596514,3.3115813006341503,5.055607948247983,6.461187133119714,5.821729306844114,-1.949038901498074,1.6790945502164796,-0.8299501971450373,-1.4316437752783897,-1.6632903493467095,0.4202271221494504,3.9694510214418357,4.986207949314975,5.0101120975583155,3.6336714675320265,3.183548337232679,1.999144476795074,-0.8220636608886823,-3.8107414748284736,-10.910264677507135,-3.682371516571854,-0.19759069831603815,-3.699230868364058,-4.296893483751723,-6.257202610214619,-11.753718462782661,-8.104510424455912,-5.9316514873346975,3.1381538548923946,-0.041753011393775526,-1.9473837523184936,-0.8563731951770958,-1.0180389107477217,-0.47764298175432074,2.645412731123323,5.727782824103923,1.4696239983273043,0.7905580648504957,0.6409998429193767,1.4466992590478938,-0.48782670142043355,-2.1679033142638575,-4.963828554745296,0.9708037344492065,2.293408619537641,-2.977472604578583,-3.5318890892533523,-6.3879267004514775,-12.15255089636866,-10.202993349974674,-5.984683957188586,0.7111194918405527,7.494273740150316,0.5082016757842058,-0.0698139823854772,-0.021231747689149025,-5.60977909861619]},{"bias_weight":32.98030636261875,"weights":[-6.985291845723626,-4.69140065673351,-3.2236574731762175,-3.155408934721226,-3.4988669007286353,-1.7648481225012618,1.4513842071396417,3.1194155607435383,2.818672336271337,4.202068276142185,5.795086204509336,4.178505574740044,3.123607208121518,0.4249855679377825,-4.66433206536057,-4.572199830266426,-5.290952562002211,-4.4496916373321085,-5.19664459603864,-6.803330943374453,-5.509994317027537,-6.558805335437549,-4.642854323158922,-4.5066402426231225,-3.2777762978137064,-2.518511693593136,-1.8926968339216896,-2.5390059617182796,-0.4862946501202613,3.0022672315850643,5.212367289232986,4.548489178352724,4.237778395072289,5.44655149180657,4.881815286537003,2.08833290293199,0.11078616627821329,-4.474686502279666,-4.425940755702247,-5.296927200270453,-5.464332503137472,-7.069535162507736,-6.8804154791481915,-5.565445517724446,-6.072571888869134,-3.533116190111712,5.810458228284566,2.8902047809941864,5.291446454818368,2.851205351765334,2.5422202204001265,4.3559333708578,2.5851930770223057,-0.8869902974476495,-4.304447780216246,0.4234049466400567,-0.14900316731248275,-2.39873102350815,-9.456738108328395,-11.426642280638932,-9.289610855913386,-3.8374431495479207,4.2400871579691435,6.797680732784477,6.803605752419903,5.481584890434564,4.34294131666447,3.3194610677033225,5.086536265876079,4.3120277354522925,0.4717798425131068,5.3715756775867325,3.835587940699451,5.479574303386932,6.377529993226485,2.8023767565624818,1.8950612852488047,-4.480324262013737,-1.4427751491366845,0.5083117737095894,-4.788611135204869,-10.822143050594594,-13.614243502155558,-11.19598999369214,-8.283191027857136,-1.286648430632309,-0.001513921009248352,0.5913473652783103,-1.2290220809689234,-0.7151757479685759,0.6718840643375111,-1.3575489484974526,-1.0572320824073513,-30.950249367819882,-1.8208429844504428,-0.0698139823854772,-0.021231747689149025,-19.28239954624454]},{"bias_weight":-1.4549922897502692,"weights":[-0.4269142578774292,-1.0809651425216613,-6.335567657963794,-4.019175081259735,-2.1628092910955403,-2.7686390536046486,-3.5243067242704647,-0.2452824945034469,-2.959164321994565,-5.20455223943466,-7.0649138444716035,-3.3644599974004494,-4.428078156103965,-6.651595216313281,-1.9635352829547195,0.8292275759876583,0.6069400518191823,1.7854170458775123,-0.42773752101785795,1.1883815220410265,0.5413705842304204,1.9368150674117675,1.9452258665459181,3.2676979779230257,3.201835279414003,-3.0545599136248236,-1.186933572537629,0.17809928032246738,-1.0752935253637834,-1.7702740058814497,-1.2348833047245626,-3.169574094594489,-3.770186206163882,-5.131168547743518,-0.9594545768374373,-1.5212421260863263,-5.701633647452856,-0.7256999871783865,0.9041139672171358,-1.0667868758977201,-0.2648476607269383,-2.7129470564476406,-1.3966867008456687,-1.2994241734758725,-0.08342228381122761,0.7434201004861732,6.354009663749964,11.87272930535801,13.22422276001096,11.649467799029654,2.2195147399199713,7.652576893791256,4.522255167505785,8.252617189564356,13.883648295587726,12.46762350931253,3.2983315081832973,-0.8379699408676264,-3.449643304656728,-0.9788989674977936,-13.310356918343956,-10.617760186344658,-5.539890378701065,0.8658590152539367,-3.384389300635155,-4.866786163521168,0.8642965962801821,2.0144983668593937,-0.8894906820976063,7.282542512814047,11.265316846976715,10.330287130005889,9.722131521586041,0.5742475461643449,5.082202971477163,1.414597991689438,9.4578947310024,16.936748802683454,14.296485292244894,5.592894089837245,-0.17838152263972215,-4.117081746342098,3.056552318890204,-2.4814022954370705,-4.914202306559728,0.9372189654013642,4.7434001868943,6.157680650665332,-0.9724180419548223,-2.2610123767793233,-2.176003488207651,0.024956686038153958,-0.6534881426816164,19.228331243964593,4.397052442684017,-0.0698139823854772,-0.021231747689149025,-3.80095412159444]},{"bias_weight":10.305291023525303,"weights":[-4.00384594794582,-1.7611683599573038,-2.2502085832415757,-3.050853867998655,-5.132290990022555,-4.372129696114832,-2.5213519352171874,-0.5813086877685127,0.3384864198728706,-0.6874204860805374,-1.272372638216608,-0.6954987532206209,-0.291190274864759,-0.00814420132989379,2.4037485461455916,1.8276302400321076,2.4466315937278353,0.6381983010183275,0.3876066666574849,1.2733580764321355,0.23125920609671405,-0.29095620195460975,-2.090021480747139,-0.2576048739740429,0.4498621715049548,-0.6821571107394194,-0.6327208074967683,-1.4388376864091839,-1.2574745773588978,-0.7711833519120372,0.5771474965978026,-1.202784669703017,-0.5812811580397502,-1.1549594398889946,-1.8908971479201857,-1.85393028212576,-1.645901270702352,0.3603095032873785,-0.5490220841983248,-0.021591495094054898,1.5139261848928227,1.5347053519149363,2.261492115512579,1.7315940038080893,0.8460690082086887,-0.46924172213857496,0.2644230438579887,-1.2612255428573556,-0.3958688921234635,5.063463121140018,6.160191568848192,3.695441766615548,9.993994824126796,5.253022431560171,7.589707703152992,9.21978011604012,6.382626345675905,11.52993716056856,7.590994307031188,5.9588623573067245,3.656363476323448,0.30775510271972534,-3.3470250822930314,-3.085572413008861,0.2665876577777448,-3.9298076096049894,-2.770224489689319,-3.3931101505304317,-5.593005697503777,-1.986640838296282,-0.946319662191722,-0.9454364505313805,1.9551701451034351,3.7475787317445968,2.8346862139901248,8.668332149714107,7.667633347849631,7.309695144198888,9.158150055587683,5.582810737114438,10.294662590745135,7.456789637544393,4.344205994564932,0.7975344935909653,-2.9036483170942873,-4.823876624785093,-5.586958515975394,-2.4530555885981076,-4.056406647279751,-1.2830082339301379,-1.7714827602106886,-6.360504740672854,-0.11165046379073407,-4.521079018009486,6.638189664761505,-0.0698139823854772,-0.021231747689149025,-13.75470528710312]},{"bias_weight":36.984618377242015,"weights":[-1.952341329104872,-1.243141431522896,-1.4520906069310757,-0.6596768513854392,-0.9175181359440427,-2.984402815773425,-1.9971500802699316,-1.8730990372091043,-2.2290461973740525,-2.324433465414946,-2.2492910448723626,0.48146222153168394,1.7633707921593142,1.608113819534664,-1.1227422577769397,-6.079102830452796,-5.278030466456008,-2.8810241506815153,0.14435524877564607,0.2089577070388217,0.5955513585398783,0.26754261681501185,-0.013788903706782882,0.9626829788988989,0.6101685554295144,-1.3911266789209136,-0.38140195980418834,-0.48111593037743045,-1.3614944434560163,-0.8978370249011712,-0.646420682742996,-0.8665002326963749,-1.9039343752102056,-0.6393447868977584,1.8942779415032285,2.3365277357788377,0.0010730815886406645,-1.960269272694407,-4.381046370148831,-3.5675788443646907,-1.7856370716149341,0.37412382767222846,-0.21373763213224842,0.21161392338942978,0.5564257066153698,0.37396465076657526,-5.30783853069259,-1.483207122922615,-1.142683369877997,0.19278049023496216,-0.4191589917158245,-2.8914288650950137,-1.956756731577788,-2.3736069237962876,-1.3797682151791602,3.2071276049103505,5.978422947887407,2.4340620441923404,-0.30690763965054296,0.18354277487883006,6.424979827775791,7.081850287786805,6.806779037956267,8.66157390602256,1.6550779602195007,5.588749347952377,3.891795910938462,4.421531338490384,10.34067565076473,-5.917790252444992,-5.286796253588469,-4.410169807715462,-4.094642440648926,-4.154943082359003,-6.178036888934812,-3.7015220938666267,-2.5003666360226524,-0.2378994219996122,1.294612403920862,1.9995610605397114,-4.525314435487417,-1.7476649369971222,-2.6375361372267565,2.542228316181673,0.6616536133816059,3.101872718382959,2.754744138511725,-0.8012642576411453,3.6666188467115273,4.016016834653064,4.450952684051833,4.102934305193236,0.7604414725338675,8.372143826083988,9.97343775331923,-0.0698139823854772,-0.021231747689149025,-6.469859330150601]},{"bias_weight":-9.703022589033418,"weights":[-1.563326629077433,1.0507017009519009,0.45598159520939846,-0.07421065745928228,-0.19586865451487342,-0.7060295228303176,-0.8319183857684688,-4.649583914294465,-5.3480232951571995,-7.983374744825365,-6.861097489968492,-4.382028297065997,-3.330038436403359,-2.014544089642596,-3.985553058876151,-1.4554365510860432,-0.9051450562671248,-3.3852758199567115,-3.77692912503238,-2.054487758594444,-1.2701747073918306,-2.339698158774881,-1.9069424135294666,-3.259204149367681,-1.200518102609294,-1.4823518694165418,0.036654716048579485,-0.25199106518173725,-2.086827448570747,-1.3010963605890298,-3.1191283780984653,-4.980404467991999,-6.401225861773028,-5.826613470823715,-3.5946896446266265,-2.1351305342472244,-0.48466835486013193,-2.5842822539180874,-1.3535371320764256,-0.030670303720439565,-3.161376319148973,-4.804769047486795,-2.3597973840834903,-2.826627312980412,-3.4594508437264655,-2.2343494171916864,3.162366088546379,3.6608788070146154,2.1891473870449736,-2.311136676258923,-5.268401417950532,-6.578400395656437,-3.3087165415942494,-1.8191042628200922,-1.8852224591863214,2.334098133725268,-8.745199924208338,-1.1302929605931133,8.45322828582689,4.1797126021009845,-0.6433085097787532,-3.3375310380000776,1.7098804819990199,1.6346261692411317,-1.5244486590069923,-5.118338271412178,-1.724607060429318,-0.8322252935789677,-0.6850109963430809,5.695782237040115,5.505579653619901,3.7569546838933556,-1.350909966498842,-3.4954456415069823,-2.900598190508859,-2.95193411230645,-0.46969282576617705,-6.547941984806365,1.465089736612382,-9.562128617014208,-1.8726660131097554,5.3093358041412895,1.469673311225443,-0.44904370554141776,-1.3737425623309432,-1.4200333750362066,6.791960346273972,0.18272610021985325,-5.215411310460874,2.763075993152158,1.4226734330690474,1.4698595237713472,2.733665025904658,-0.9645631484629517,0.3945721248586987,-0.0698139823854772,-0.021231747689149025,8.24580283749199]},{"bias_weight":14.193938056744555,"weights":[-0.25031510506980986,-2.7100733923310543,-4.693811451290297,-3.5538455741796353,-2.9366435211958817,-5.025246274743724,-6.301092605362706,-3.580966697038705,-2.6196341715990763,2.2947346729202183,-2.2198424781664796,-0.9810097946529619,-0.06975229819571624,-1.0234736330321026,0.8379624459422311,-0.8248633048739136,-2.6595724464112678,-1.989842847260674,-1.5996681480663018,-4.515614917642339,-4.064171113666803,-2.3649938272589996,-0.5203067597341865,6.396700275929847,2.752759045259882,0.6703624255919873,-0.4000572715250509,-0.03427705478175254,-1.3269831267613261,-3.120861740073108,-1.5452817424447571,-1.321989047152749,3.257358731231749,0.3929670612816156,0.8130412287482038,1.8992622322260342,-0.4892452585353483,-0.6136316793060785,0.3924049943336773,-2.16937757228376,-1.4777586409826715,-0.08868490339968137,-3.2182353909644092,-2.1137317515559753,-0.6579382299918614,0.6595983553476612,3.4529994987096733,0.11003031142944585,0.012065138202527312,3.3907673535971634,4.334216741022408,7.391645777636041,7.203238268945655,5.920768268368887,0.04357541513482325,-2.557978857322607,6.686009036009148,1.9835405087974425,-1.5715769829450121,-0.4706030531613607,-2.7500075032735514,4.365842726340264,0.0711637807006351,-6.383572674580415,-6.768677288854612,-6.691317016315891,-6.860687631217485,-4.384232994665137,0.22357257890316432,1.5606233160372731,-2.1595027474699484,-2.7100304225955694,4.325214352706067,6.185728098135802,8.840606818009462,8.999043932771968,9.145016416783879,6.980873164414125,-2.2517256672708315,5.1533053753324,1.5475639246273456,-2.9807262605425997,-1.055785815520687,-2.2567008276424487,2.5154838952732024,2.285452130992812,-9.947377974282082,-8.844837566896256,-6.063660098901444,-8.490456267170842,-6.712723305917651,-4.655482277142167,0.8065140710782069,-4.981157707603817,9.539968161100765,-0.0698139823854772,-0.021231747689149025,6.531217165020375]},{"bias_weight":-6.086117662310204,"weights":[1.3114612448909968,1.8374584079504392,0.7305779401462921,-2.2569133351438913,-4.743336928964061,-4.659191463080512,-4.700076438307749,-3.515499795300481,0.18829786280256736,2.6296734318667263,4.8971815278667865,5.750289813081633,4.095175235809929,3.1703348806633813,1.7637047893961446,0.5031076464189799,0.8555252867811105,1.8285063732960756,2.9362500369217313,2.6986018203380633,2.5627650718189234,1.8399499138255695,1.822850014252927,1.3808093828903625,2.2498149298988515,1.0122735653909536,-1.7928885647113622,-4.5943280603288486,-5.24490190842887,-4.522404845246765,-4.105570376058795,0.3658284751243415,3.997962561322808,6.401083456173476,6.5719847047466775,5.078698562777751,3.5513385466772234,2.5020573774656527,0.274474955257294,0.028417371530756717,0.35420381522452543,0.8024303505909347,-0.1358441462252345,-0.7119737857873365,-1.1110250625283464,-0.18760209678611084,3.452784566186524,2.4423263088868854,4.247483923471237,4.099165220309569,5.5233421070038675,3.4933506521721815,3.735685856708528,3.3166649182298036,3.896786212238511,4.4717305097171485,7.131100074476252,1.6935215391197753,0.7188644849903231,-2.56473855560635,-3.320512184381222,-4.027021003017913,-3.0743566110879077,-4.4292135523531915,-1.660900022549917,-3.9485612212437746,-5.677145886102588,-4.219712147666984,-0.7683047683081476,1.1928321539873363,1.5558313400199815,2.3694941572836785,5.828259188696467,6.412846047996051,4.658210391961458,3.6865758578662517,1.9097703199823157,0.5952179083848835,2.0652180295338303,2.642410082041652,-0.4250943524397213,-2.101874065523879,-0.5599948465968095,0.4698070728244832,2.4856213819043105,-0.6856071221804346,-0.11407508679411273,1.9924538174304673,-1.4953485368429618,-3.378233400616176,-3.6304212172433385,0.287556389777458,1.4027826478228815,2.5753301751765885,-3.7076951697668337,-0.0698139823854772,-0.021231747689149025,0.702872204420937]},{"bias_weight":38.580935892465426,"weights":[0.2724672022733239,0.4581672525111304,1.8481822931912735,1.3181162516521734,0.7629407976290825,0.7451316080636412,0.7498018367286426,0.3513181957531676,0.7131062644640931,0.3329881479239271,-1.0719693860371289,-2.2104324179297907,-3.9652760356676615,-4.326442382653936,-3.8924977199280324,-1.5304348531457308,-0.8892683384397799,-0.709645382442329,-0.20318068957858626,-0.43644402305473895,-0.11160328756023745,-0.04956126754639789,0.0732631917300086,0.4912449959084865,-0.26330401351783433,-0.20825606796361046,-0.5652664943673328,0.8584712598962053,1.2840549042658838,0.8365848674322692,0.13071629888520722,-0.5932672678035071,-1.3534401495162958,-1.9842854993961874,-3.0308576045170437,-4.377609871361044,-4.464645361597393,-2.1978053297657443,-0.11543023562001317,0.457672268054181,0.26100428637594186,0.5144921811649088,0.4488880102902459,0.19787216622321613,-0.16727157353502412,-0.46570355074659,3.2043108346690232,1.7008709219712148,0.20659029119245786,0.8379093863739531,2.0195783819177864,3.7764416906597407,2.294269457414775,2.924811549429168,2.3788510578454223,4.189533783042435,2.648570472812242,3.91272911312111,5.648358269815711,2.371268981150094,6.091197449398003,3.066842115091485,0.8752347671659928,1.3631699709678196,1.6630009204984413,-0.550811062446916,-0.9663534340919941,0.4648002851381756,3.674344251204201,4.733344301626496,3.10870890801999,2.882108077888295,2.8459957672965768,3.562418972279812,6.48403059368087,3.635523895329554,3.3690868078349316,4.910782478150366,5.826969569125978,2.58227476515875,2.1405834085077093,2.211183396777858,-1.2789246876346974,-0.04897668880171852,-3.289220180157346,-3.4415929387622373,-2.4738610580579703,-2.902164755302596,-4.620428024832313,0.07854141008864447,2.255256806301076,-1.0458227224213856,-0.4783560680729505,-4.827447696245861,9.233118776287533,-0.0698139823854772,-0.021231747689149025,6.033957294886186]},{"bias_weight":17.914550894072534,"weights":[-2.76114467890365,-2.830781792158202,-2.3218510037546216,-3.13984631052967,-1.1495878621237208,-3.2485968971554597,-3.5191677885628394,-1.9822971308421546,-1.1298328137742626,0.8706326916361113,0.5294950380568221,-0.5066763824224225,-0.5078351050694232,0.16182387533703219,0.35475438739363596,-0.07542482935346705,-1.8385440640256874,-2.6622340257379857,-3.32250614306425,-3.5706167897206242,-3.53690416591802,-2.667479131174937,-2.0759655921697378,0.07911231046791686,-1.9249436310765102,-1.252526769594101,-1.903332362570961,0.9110909548717165,0.4058447865599015,-0.5286893541484478,0.8990880487755323,0.6695388666925779,1.1646176268600237,0.5611500518386382,-1.2953365138075967,-2.2110601150085007,-1.041462065479557,-1.573747906462785,-1.2660805006261644,-1.579376276678415,-2.5021137552598023,-3.0453199229950534,-3.1813659657423132,-1.603856339643933,0.8808534256888758,0.5662633883604506,0.6801163189807229,-3.7094814256517394,4.195070845496423,4.779056145708204,5.495726998321619,2.9933574294431886,3.757931206879616,-1.2515496886667001,-6.327265999940761,-4.648357480540043,-1.8928365859186567,-3.92288536698997,0.18311275290382065,0.4444231860575228,-0.8014298250132345,2.174233684546599,4.644160431786989,1.7828426060149227,0.38964475880053795,0.5342914947277889,-2.878394372025635,2.6990679036768848,4.813257002084781,1.8740792655145382,-2.0330413272536925,5.998051409393985,5.066184482087337,3.8773562819325598,2.2871959867932525,3.8929396882028167,-0.013384259647601168,-2.659139779108834,-4.49834009932447,-0.49879367921825457,-3.8315206964617983,1.454292467809366,-0.07687194765349184,-1.2315887648156365,-1.8636551502780252,0.778641289557135,-1.6981391307281262,-3.7746220114303353,-2.2632960522099896,-2.9009346198414003,2.998052063441004,1.3584151855836577,-0.06520813227154684,9.953088839331032,4.748993941610303,-0.0698139823854772,-0.021231747689149025,14.903274928402588]},{"bias_weight":-14.435490415269143,"weights":[-2.445539573819945,0.5899835977704985,2.6451206275007073,1.2934068412182793,0.8621096415551609,-2.7065438966782125,-5.871421946466749,-6.636851923577752,-8.138220343616785,-7.485455699548955,-5.763107275605366,-5.467348824370093,-4.166627274743377,-2.427674372542719,-1.6076350423451249,-0.6594362326794947,0.3739758589475482,1.6920096006712604,0.5229539711007987,-0.45611891324516535,-0.8240157348960877,-1.6390888414144953,-1.562184032905414,-0.15010429264019265,2.268849561774195,4.0313049102375995,1.7657413754965703,1.8046062929008202,-2.6985396672346695,-5.012373951437831,-6.031564442195397,-7.516956331605655,-6.297195108814835,-4.284468604304041,-4.10394808962784,-2.1464102366580025,-0.3276030284313301,1.4047578633036675,0.5992481393695911,1.7906379569637065,2.1792807046956817,1.4871439859588669,0.6356247148471393,0.2613518013479583,-0.28977214960445624,-0.37682336303309294,1.7546922116351078,-3.2116885550736374,-2.3239250151618136,-3.621295663827704,-3.704244193660995,-4.954777862863656,-6.746742446887749,-2.235366530080045,1.0347982520752588,-0.03307287706711467,-0.4909960403949838,-1.069005139068983,-2.6415570653476097,-2.15956487045345,2.185785165008256,3.9107909800917224,1.916001969470142,1.0698783311288012,1.7690660873360091,1.2796783306859107,3.2073968961094104,-0.19367573911930885,0.4369763232708404,-2.5064248648865877,-2.8505901040564057,-1.7424755235727583,-2.3141122531184664,-3.184936801681091,-3.5798119816732545,-2.254521033003857,0.7418186205496361,4.379583147435014,3.2527158950795156,2.899791909171282,-0.04765825840968408,-1.1185982108735946,-3.1794160852339193,0.4391391377947891,1.0229418827840884,0.5924935682887686,2.317460923698808,2.4532552435736936,1.5552752931231992,5.180718399219459,4.197589516715011,-0.6816921740260742,-4.5103916359780865,20.37690636852403,33.67206576553622,-0.0698139823854772,-0.021231747689149025,-13.854430434053123]},{"bias_weight":26.438926028120243,"weights":[-2.4054776668002904,-1.0424402935107857,-1.140383902843307,-2.6391767521382645,-1.3402989442438613,-1.5266382410073926,-2.18205154789727,-3.5858395431366996,-1.638274717000593,-3.0561292522797148,-1.8624305536198464,0.08303905190027158,0.19744167340313992,-1.229703394338291,0.6141433339345338,0.723270879850263,-1.8604175598495616,-2.9048013602446385,-2.130465992402149,-3.2626404413325933,-1.81588137614696,0.4394332513434195,-0.36811782009215366,0.1686689578544791,1.3003918046765544,0.7289496882179253,-1.4797722923086474,1.0192512768912132,-1.4066837302239108,-2.4859109498515446,-3.101091967847888,-1.7323572538131489,-2.4187351751309634,-2.2484279847107085,-1.5593336223701904,-0.3434463430964749,-2.0773892795874014,0.5228563482267226,0.11550660848833194,-2.1689997443829,-3.229684859283641,-1.7923859717281194,-2.972555971766398,-1.2689118674362907,0.6625323955608212,0.4661282392363105,-3.669602978998046,-5.184435586439012,-2.920555395658641,-3.535143059558564,-1.9883467979863279,-2.707070799212462,-1.4708706638671074,0.4731342737277431,2.3115337164871446,5.493895940219191,7.356007809351961,7.107664264858999,5.891544518045239,7.187051950437263,8.586055347745106,0.46009713686804105,0.8244275975101439,0.5011468238993135,-0.894602718800313,-4.743922333410018,-5.1828490457431995,-3.530589757874383,2.093941433791031,-7.7114939183188325,-2.8712261271399226,-1.8135034003889399,-3.01489263070764,-0.7732302697274811,0.6221011568490806,3.4901731410538637,5.077802013411787,5.769265902246722,5.694695643109046,8.265624769886735,7.663445301290376,7.596704770530386,6.351676502709376,5.949092877032757,-0.28694877143215236,0.6624450168401586,-3.504561067115242,-3.5225212035103843,-5.144556467978021,-6.688542369886579,-4.082963521466487,-3.0035947795644624,0.5697507779561061,-3.138450755725668,7.313642414078385,-0.0698139823854772,-0.021231747689149025,-6.410473883117318]},{"bias_weight":-9.50388806309333,"weights":[-1.3844401536443214,-2.525599586176424,-1.8882317492775713,0.10262339595981168,0.35458170300961733,0.551791893287272,1.3561647029909465,-0.5764522635950601,-4.374643983083954,-7.031013529906203,-6.283594522966697,-4.86037705514996,-4.040294153090657,-3.934194009979599,-2.041134885748319,-0.6097358857500015,0.15610118430646983,1.6325617964286574,3.753598884333355,5.6584381138961435,6.555296440656795,5.15307634711693,1.4896107082413046,0.6847311731253086,-0.08087321083638237,0.6451694454113128,3.0066718759532196,2.0419389537679824,1.0164864503669593,1.8869567895018964,-0.005487518220227818,-2.739484355711652,-3.786447135501805,-2.572859862404491,-0.4194530714796339,0.19891987299824876,-0.7589844620862336,-0.8788855091080162,-0.35981037255215587,0.6201872348428246,0.820690585626091,2.4108028091254425,4.154458866387428,4.905105441125331,3.8126424431936803,0.8497045228301101,-2.5655369231722776,-2.4410876650988103,-0.4309465070437049,0.3213140875340912,-1.8695837461787157,-6.6562320567626125,-1.8886832225154186,3.2970977562079513,6.401458237574563,8.026865584865972,3.4824429536542993,1.7261626767476603,-0.11599290169462187,0.25023697301783154,-1.2000213016353058,0.7780778703781199,-1.6284867813299686,-2.8395300738651943,-2.5001442363541977,-2.9338231907316135,1.299365997697039,-0.25997295967047007,-1.9122644417414316,-2.162248047305586,-4.8494980218374115,-4.154466274132577,-3.033822072325362,-2.2355379749210362,-8.772750104806631,-4.988821783968584,-0.13684600700176489,1.2584288794373912,2.4636352199952993,-0.4199410013233147,-1.9562890928524364,-6.5954397297714555,-1.2076618648910837,-2.446794852355437,1.1945236660029448,-3.954042975172546,-4.902016611043954,-1.3386550102005517,-1.2137874874901764,1.7504194423189816,-0.8649819684453905,0.07029075664771783,-0.15148815423155643,1.7052491118398327,3.3240533410778608,-0.0698139823854772,-0.021231747689149025,2.0892563260314776]},{"bias_weight":32.52897429465376,"weights":[-1.3880034397291627,-0.7294093147142392,-0.38984310027517777,-0.4926244260387982,0.9652668197296248,-2.8754211525573266,-3.749636706950375,-5.347734678609195,-6.864567151763772,-9.16025172380788,-2.809444240294589,-0.9152825946428618,-0.22277628013131223,0.518181695117932,0.8444118986041107,1.8381602008585007,0.30275622051646733,2.6176480265184714,2.3042971967946353,0.7079041247831385,1.0730876398583966,0.9303997697122568,1.4383305576586727,1.3284093665610288,1.1485171266368248,2.2746906188288247,1.3599830203078176,2.7342145724044737,-0.890399955384314,-2.010265434273712,-2.7828886393386596,-4.770819499797668,-8.878271674274188,-3.3241736460657516,-1.6129027545153862,-0.37047961498675136,0.09786997337451372,0.9328741555812716,0.7431406222541196,-0.7248117187201056,0.11978811079168673,0.709592407117647,-0.7960837061604832,-0.9578781148506416,-0.7995558767586328,-0.19325865647729448,5.61243525312124,0.8261010806680992,-1.7370835807739207,-2.3161623692866615,-1.461378219908117,-0.33225210996595705,2.2860537549813618,4.003003411478739,6.165442847679435,5.058544468486538,7.9803076346767146,1.375833623285902,1.4439914455128144,5.254638005901195,3.960515549179101,-2.0067127887973375,1.768502309957889,2.3852150899237388,3.171631721944279,-0.39815141751005667,0.4239682436072477,-2.4572060679680905,1.246425892223124,-0.16839762271064548,1.7276210007493706,-0.9299878941661895,-3.205014145658936,-3.5613365595873834,-1.7368350151027807,0.709907946161412,1.455909843933504,5.656218836401129,4.091244061801722,8.56576130401679,-0.02186875288465769,0.48933734969631837,3.930426990546596,3.744359749583143,-3.7860794160737683,0.6757452277210011,-0.7648324782400906,1.7848586424578794,-1.5773025722634686,1.4678642720537396,-2.8466405468207903,-2.906583428655329,-0.47287107407401274,2.4983793576292173,-1.1923288463398825,-0.0698139823854772,-0.021231747689149025,8.358723474926661]},{"bias_weight":-1.4765442715506403,"weights":[2.875774049241372,1.3650236459660934,0.9290092769565028,-0.15683717862375068,-0.5442852761798176,-1.8159003871009378,-2.9972974106678016,-1.7649726954946268,-3.635246965505976,-2.8723074138812796,-4.0704767654945195,-2.0403191807271877,-4.280855271550561,-5.520323386669271,-3.265573909529602,-4.177657174167612,-4.230313175547824,-1.7909534312899529,0.3700166050867262,3.837718188343819,2.631157118142699,-1.6570443484460478,-4.631320741980352,2.2346307847496716,0.7211614545961053,1.0613544448652659,0.6173173485829301,0.13803917633368387,-0.9875476231044797,-1.664043871831356,-1.6839030730790046,-2.801235575298674,0.06503745617735733,-1.0637318393404127,-0.19033028936120255,-0.5642349167958689,-2.360646039114992,-1.2224773276853131,-2.3377990095435055,-3.304184279675317,-3.11919033884237,-0.4190847525314458,1.4935219166248657,0.9107088705846569,-3.7280497219796693,-7.061586448872253,1.48700812409697,-3.3929751889003197,3.062420965984516,4.234180499700615,1.407323941563512,3.2134954658653254,-0.3258363524340221,-2.566773315294403,2.6316290950219994,3.5908274843163106,3.54012422234313,1.5747393082044003,2.6279813815447897,2.3650018720628543,-3.9589383099525004,-4.4923813865361915,-6.340624487507168,-7.943751592229855,-8.022640605893097,-8.475770295651406,-3.421246783214543,-3.731032853192621,-2.35012907453074,5.429527669900586,0.9683654887633448,2.5663236807916334,1.6549067470827252,0.3241114541822837,3.8168311092449314,1.3282091794546476,-1.3083386066513956,1.999265974278887,1.4445709173756391,1.4722301133386562,1.5436432322764995,-0.9187652204533657,2.1519657286851483,-0.2054540161112653,1.7436680822800534,-0.621991259369579,-4.785652793966071,-3.412317683522497,-5.082910353712474,-3.3729225385187074,-4.103154060330924,-0.7274993157826188,1.8326817615011939,3.6409588666163617,-5.585472218557153,-0.0698139823854772,-0.021231747689149025,9.52817068921444]},{"bias_weight":17.26878564671575,"weights":[-4.7964005284476015,-5.874996214006152,-8.765366791498666,-6.852441101129679,-6.171289227868549,-3.0071605582559444,-5.055836401146231,-4.411895152168645,-4.25780031285078,-4.00251827495264,1.4099173526392077,6.0815017232108115,2.413667854842982,1.4796205690890505,0.6154419502943965,-1.9835203242627428,-0.15922579940896642,-0.3299488705964316,-1.4240494957410548,-1.419986198117471,-3.482673245781441,-2.3346011510759905,0.30500794610367404,-3.5967223680968496,-4.739364613778106,-7.59975757139862,-5.392794497106076,-4.83511941265154,-2.9240130076050836,-6.0008784579025845,-6.670648486470002,-6.444699853443708,-4.930601493783193,-0.3167875704662727,6.572537921102074,3.544865525769915,1.604661749426547,0.495799166592878,-2.942748260474885,-0.23678886108495165,-2.0339543625043466,-1.95000929946764,-1.4451943260740732,-3.3952762870162547,-2.1572671758327813,1.7528792104290212,-2.3901696857183667,2.478967514083001,2.9051916199036505,6.022730867938758,8.845592200975199,3.59799851448315,4.878248376758895,10.43853799517915,8.137573126347132,10.418370653049937,-0.04946067123360772,-4.271490622536374,-7.8518653313712425,5.321252756587881,0.1814995202350889,-2.939957327376059,-9.747288061633283,2.5150767392457407,-6.921210569226454,-8.54495608899661,-4.300914791919032,-0.3915235862378641,-2.920794040262694,-3.8725382281949177,-2.2059013538078456,-1.246001940349671,2.878041270751673,1.8404048554646928,3.8198926984193107,5.607014046268464,12.88401725935192,11.05417739847496,10.628171084331727,1.381430652207041,-7.357711350792159,-8.4564740664144,1.3217460968538532,-2.542371277281778,-5.592157945179692,-7.127168110925089,4.265213889604807,-2.6250526878015346,-8.202577884281412,-1.4689281740796953,0.9455320533358857,-3.606132296020016,-0.1621054660694834,4.7133561500658265,9.93309429979366,-0.0698139823854772,-0.021231747689149025,16.904757373786044]},{"bias_weight":-6.985093571135476,"weights":[-3.7860078855527997,-1.090666680168239,3.089537131095155,5.821586476096373,3.486491640764808,1.4822973102220818,-1.9501878625979512,-5.698680436479303,-7.008456750826568,-5.325905772201665,-5.030160791601751,-1.950079082749466,-3.678565228649025,-2.2544221908952227,0.18761693890367548,-0.09061922450773068,0.6135741048741649,3.12815814274607,1.3837802754408346,1.5716671159653506,2.181578478215289,1.2046949498499238,2.2516017796381345,-3.6419977762665012,-1.5095127904211838,3.963418805032965,6.811809414907578,3.3662973996230696,1.039469271454336,-3.150073897545013,-6.912440612340737,-8.61990344335365,-6.907712040104255,-6.1229672358559,-2.435783616924915,-4.474878868103958,-3.0441041856480697,-0.47234858037315014,0.4587219774229062,1.3221107464929494,2.7634021019210477,1.554175836389048,1.490296730104389,1.8629274672349296,0.39056012700898535,0.3229171218749786,-1.649063429154655,0.1908519861856637,-2.9265024053719895,-5.050868270709758,-4.386231170126827,-5.286331681903568,-3.385138416956703,-1.7131905597305097,-1.2514226551858516,-2.3954663564798757,-2.123695712634402,-0.6377834991694227,0.2583541376055585,-3.0457363555819663,1.5302240369676254,1.6337522862094709,4.355020610005218,3.40559024967057,2.9137635633538803,4.42008120153809,5.950492716212833,4.939788895885586,3.5208918369279707,0.3339923991987823,-0.11607336209297332,-3.716010105904262,-4.990220244224027,-3.7139779758451894,-6.893563426260001,-6.861035345225395,-4.238542976338468,-3.7890984010237925,-5.019715395193276,-3.6523473325687883,-0.38566986627040273,0.8881830784023785,-0.575145656811036,3.4670414216769116,3.6003562034838255,5.311426627183577,2.6199746951879543,2.785361744790627,3.0559003932457816,2.6516290535639673,0.4208355070077742,6.386415568104414,-3.6971668712608183,-5.1653791025409825,-23.82737668353222,-0.0698139823854772,-0.021231747689149025,7.407837783055873]},{"bias_weight":-0.4214355806728306,"weights":[-2.8382186950298722,-2.883271495850525,-0.3000727433837558,2.8666258637345923,2.48886664298636,4.187744872833159,3.377330080176526,5.748773762565599,4.826599124155059,1.451502176494628,-2.3874837981911736,-6.0392906581741,-7.597993489906914,-5.852187591505228,-2.785633527723432,-2.55933851993166,-3.5142000341477857,-2.472488081617986,-1.7143485679895265,1.1504466215880407,0.7748241005035063,0.08550036790323605,0.10864030129670227,-1.2403091474300705,-2.1600796880618685,0.44041441378194396,3.726434863809,3.0006404972863527,4.466890622209971,4.354817343209172,5.0016071129412,5.006219474554478,0.7227687303565863,-3.3648867541836913,-7.038479804950729,-8.577717096705612,-9.22002736995359,-6.263753249514281,-5.5047473162424225,-4.804567735828194,-3.6088512748325576,-2.7539514173738886,-0.8907697953474452,-1.0030070792637422,-1.2151043778014483,-0.7932433566854394,-5.930420725010762,-3.551069372836546,-3.0150485111143848,0.7981375814883286,-1.04893097215868,-9.253249286662184,-4.9141249313501625,-5.570207561897908,-1.50541120811279,-4.057343266862568,1.5078539877758421,0.5854516156675337,7.5727994904473706,3.7121283406198566,-1.1530335306573285,-0.8932447693872091,0.10517562629537348,-5.224070342718352,0.788965094793497,6.917044007212011,6.564323333905218,-2.1986580047373416,-5.229106350742647,-6.543318646850341,-3.2104516150974924,-2.7440990078435137,-1.8394088425389883,-0.008313469260203937,-8.186988826476204,-5.041342375615055,-6.134933416088012,-2.3867298090221647,-2.345302410271466,-0.26463955559850816,2.0726544459694307,8.647449300945755,8.859297580698296,1.107975445056895,2.2475046078325978,0.9547885930553365,-4.195818409833086,0.8255300743945347,4.5229616121894605,4.771653616907374,-6.351514706038928,-1.841978691480838,-2.700615996922542,2.970342983318657,-2.3482686531575805,-0.0698139823854772,-0.021231747689149025,-8.226270284680513]},{"bias_weight":16.58975443436479,"weights":[-4.233899305866964,-3.5427298101098876,-1.0990245832312182,-2.3548527348550135,-0.44008133044766606,1.1544056219805192,-0.3140741447658254,0.0260659428770588,1.6267232829090483,2.7791617107179585,3.08480463551714,0.028321268373308065,1.5918725284992912,1.8975224740627359,-0.6359689826230269,-3.6537605411023093,-4.186855712293833,-4.9424553268345495,-5.337193093954732,0.448595149692856,-0.3202136568368156,-3.2553192487456895,-1.5249741107829085,-3.9684524283167866,-3.865323908090642,-1.95263365331324,-1.741448809344966,1.7184912870651563,2.7912669866313133,0.11142153730130056,1.3492851594055773,1.188942792315883,1.4692001889513973,1.8261806443711825,-0.8265206672359878,-1.0089211194305552,0.21613745205128934,-3.5636442146832965,-6.874774026477923,-6.193798064184102,-5.329986499690538,-6.199303185372244,1.2360704769652604,0.7231115210365142,-0.40897332661032776,1.0267623715024958,-3.132445319466845,-1.5398338300093768,0.8581925284876643,2.7360346707949628,4.913139346697985,-5.155873970015698,8.460963638492695,2.59047180571747,-3.482232565548533,0.548130944568503,2.1480650913320396,3.459968394565077,8.119958250632799,9.837213800071268,5.37166435564316,8.16352349818104,7.74678435001828,1.8908457715319742,1.2399323021338848,1.2272501242701013,0.502605247883014,2.6228809083580167,8.796792000473628,-7.116474667797809,-6.915797479409963,-3.286381105638702,-3.0659824673944724,-0.40603447072530563,-7.42975632123602,4.010533479539089,-0.5115195968206582,-5.6447566204718616,-1.9719608633082673,1.1594843186736654,2.7923267631598434,4.966288279805819,4.429176766991379,-1.2001095981676553,1.7836766430106301,0.7372125890669585,-2.9922552079706835,-4.3503855399807305,-3.4807005237772937,-0.703243075759425,-0.23857074367812175,3.2817155758645478,0.25112338993762656,26.471096163731886,6.888895153060289,-0.0698139823854772,-0.021231747689149025,1.7422545126180589]},{"bias_weight":4.222657628880476,"weights":[-1.6791650556991387,-1.19116256895618,-1.35728933588254,-0.31144535143702096,0.6706596039458089,-0.2748167527208033,0.30300086311383034,1.2510797357426984,1.4501676337912681,0.12778423676122858,-0.8321308329881678,-0.00001339814986143714,0.22519816677331084,1.7013667164379764,1.3103980919001441,1.3075580283208528,0.9960683459770627,1.0326838804084137,-1.7944192074182095,-0.033717425855462564,-0.025742228573149867,0.5362037093429173,0.8094615717653677,-2.4013550072469103,-2.086012526643662,-1.3908517396646851,-0.416828376805989,0.33504084054124583,-0.01864597473741254,0.700900191979678,1.453983753270077,1.8898223335407844,2.341318324360839,1.5010035877039491,2.219387346367139,3.376284483192949,3.174533821362437,2.915141000251187,3.35700555649648,1.6479094266284469,1.2323838282539037,-1.0892711570598208,-0.0839872941283488,-1.0523044727834743,-1.1847119222014602,-1.1306767119616907,2.120129407092306,-0.16560612060048086,-0.4188292207814936,2.5187878616170725,1.823547035355368,3.251494717450686,1.8722266158755174,3.2288971551514454,1.7599511062849131,2.8128328840123427,3.865839173259035,1.5881225629242863,2.061880486242139,1.484280933586874,0.052821792898581646,0.9316978169334504,-0.28665929184643874,1.354210700263055,2.6376778112773844,4.070992543792709,3.1970112852084616,3.604540301003456,1.9420964559270895,4.674989117587134,1.7297731072122458,-0.5310597383992625,0.47163332832124255,-0.17921495444902819,0.2854198687846473,-3.739460229053976,-1.5656545678414344,-3.8898137744085965,-3.5898756401129557,-2.831606667808891,-2.8561830988683723,-2.2801556760968955,1.760400908639848,3.103103663780516,3.4779871673625253,3.173384859775063,2.5600432289944046,4.778862098244561,3.221363933359139,0.986511017885176,1.169900988477295,1.3251092108534477,0.42573528692406143,-7.385486689328486,-16.900574738108222,-0.0698139823854772,-0.021231747689149025,0.5004435413105338]},{"bias_weight":22.318312149389204,"weights":[1.161228031091427,-0.2780912376722218,-3.0999664083209537,-3.1943347509903104,-4.080181381785814,-4.248421119105854,-3.9050847450639248,-3.2791243239913657,-1.1851961056908185,0.3590797881016349,-0.3624572824413665,-0.33152559623162925,-2.186440849820569,-2.006948719393895,-1.1388726801552453,-0.34253205625611166,-3.0194303014399217,-1.4222830729715916,-3.166525867585467,-2.706393898433886,-5.925953741922278,-5.210858518030461,-5.172442670895347,3.261982858456832,0.9195650388463915,-1.7241059085705606,-2.11233468079304,-0.6095200921500632,-0.2593194798959761,-0.38000101107849876,-0.4006936209244588,-0.11485219341981516,-0.26971368884108626,-0.7009780085455223,-1.081504519111168,-2.7117725315437973,-2.0834840219555604,-0.1494880779181828,1.2032749512805363,-0.465127399118692,0.11837725971509201,-1.4524624552883856,-0.4584347074023856,-3.4274552332121417,-2.578778851621972,-2.7939915807081417,2.828687336902685,4.844518712205916,5.0568183344282724,1.6026630748424913,-2.1864195771392487,1.883585310376237,3.764623350895607,0.7534140982859618,-3.251485038469545,-0.5306927169166582,-2.4408081559678836,-1.8640493463094001,-2.2497679031068785,1.6972846006928888,1.7169217949718725,1.6763971372683086,6.0699188424743795,9.916492831938262,2.3538672547533994,1.6801646381743636,-2.390007866648728,-3.9971854755479463,2.2645436484654553,2.8855941424818097,2.497800721462451,2.632480883650912,-0.5908479022721299,-3.2166756174225766,0.7132568494779661,2.608327803137826,1.623093287664042,-0.8179598342702623,-0.9526315670282363,-0.9895256396045371,-3.228481532363541,-0.3718102909259806,-0.1330192375127276,-0.9143224949159034,-0.9363129892218924,4.0915261785887775,5.320963925776057,1.3076696182352867,-0.687108299720276,-2.5899909122487488,-1.5648101329836452,-1.5109985342729517,0.1725041804181421,1.3987803707987119,5.849128151245012,-0.0698139823854772,-0.021231747689149025,9.966057439126661]},{"bias_weight":4.261194906856997,"weights":[-3.1175573632770464,-2.668293897279063,-0.9066063582030025,-0.10741824603253727,1.430140800667928,1.4195008152058834,1.151468190424157,1.122035415869332,-1.8452703537422412,-3.2589353024879038,-6.37506973805645,-7.677053576800144,-12.362075899889124,-13.974685632058117,-9.350639960766557,-2.619873613966467,1.3051793135101368,5.483651222684555,6.548482073227869,8.194937482327317,4.6666892830919275,1.4590222282565908,-0.5561089709784509,-2.950879812630394,-2.816192497606966,-0.1630276616470153,1.4458159332752574,1.6410824012317293,2.11891456179935,1.3433680755358919,1.2125216106864387,-1.2254101719103656,-1.821030238350331,-4.630119726350817,-6.566988436491945,-10.893807277862365,-14.117261424596988,-10.271363358183109,-3.962895809958063,-0.7901460607024818,2.7063805528769853,4.108179880447016,5.3172691856936165,2.382912845850578,0.5549036597642257,-1.3154815991089264,0.03498199772456967,-5.513511966374498,0.44642410101171043,1.9657100216360621,2.3318548985835172,1.3563911702592006,-1.5100734796756978,-0.014234074982635434,2.7753029641975386,0.24888965468492746,2.5157543716609436,-1.2963171637133248,-1.882932076371367,-4.310426543930444,-9.07979282222359,-7.658400085963289,-6.63743558640905,-3.5617543729188093,-6.092948979760348,-8.944034967737096,-8.582259891853358,-4.4998180048695415,-3.736383368342482,1.6014001293392874,-2.2324345510287054,0.9371114813932216,2.440396187140645,2.3348050177056088,2.5528467623495157,0.6055846734901258,1.0899253669687434,2.6529924321795044,-2.1290991250844615,0.8551440733669708,-0.6173102733478001,-3.100614856259075,-1.112325267334622,-5.007662151660488,-0.7773371939277961,-1.9467858794961443,-1.0956872373460393,-2.2549189606970366,-5.989344652380952,-6.999052199962603,-5.439103360263203,-3.847571644433669,3.3882449905968093,-2.1271520411554414,-8.745641606446892,-0.0698139823854772,-0.021231747689149025,8.735977555228624]},{"bias_weight":27.071660177878694,"weights":[1.2705673428174729,0.833844569764426,0.5460038129647252,-0.8716192987825915,-0.5999959155348255,0.8158012659557451,-0.7529953688708042,-2.1936322941237294,-2.5603471616739,-2.9184830651233646,-1.8241025692500954,-1.4394594095080824,-1.516073833791537,-1.206006563094339,-2.659777363784382,-2.3216866145279416,-0.6154393889968293,0.13546137160082927,-1.0607049460813058,-0.2149080487263691,1.0445329418206701,0.5112950387091263,2.2395776841494954,1.404820054368601,1.1459915569510823,1.4700444339376122,0.1558743296680324,0.22646518978304836,-0.3439803280999397,-0.8968568503590529,-1.6964395868530084,-2.692828421882252,-4.051463050094761,-3.40188107666929,-3.0367386560084157,-2.8427520929631442,-1.732611813560349,-1.7570300758447484,-1.6035752281330646,0.28857605849311874,-0.09665453074313293,-1.5677388752644537,-0.5206738558488488,-1.1564396735176024,-0.791118588665834,0.34243437378118785,-0.220363288850144,2.8288400677038417,2.048245255579575,-0.7928203109621,-1.1664044123661153,-2.0233832116196995,-4.546278401247539,0.45283608529521296,-0.9432482675349003,0.19195434305154577,0.027452393001493467,4.0140520082091005,4.611108505159634,2.536369484882462,3.1654861909092475,0.15148871398025088,-2.0897092323536848,-2.1783617032488136,-4.863533874717647,-7.374893447308456,-2.256616949123782,-4.317322315725844,-3.7047702322950546,-0.15374309324629357,0.8285962462318566,-0.8862337970861814,-2.0497209174370967,-2.5293097790066557,-1.3090788188670046,-4.158062063922439,0.25637915399466343,-0.5070165113573851,0.5456253176928832,0.46139434110977884,1.7736340948971334,4.051814280236924,-1.02337493399445,-1.0704474952076728,-2.495892580888943,-2.523550441076188,-1.4330982887789656,-5.298232320850901,-9.424986650952418,-2.3329869896532536,-1.7888949817661508,-6.237586770692918,-0.5431601147053441,18.48771894221659,2.370669430498246,-0.0698139823854772,-0.021231747689149025,24.817134219618037]},{"bias_weight":36.84452099521701,"weights":[-1.6556354772867092,-0.23856491888790182,-1.9037830087039223,-3.0780649666739612,-3.2865602350706933,-2.787122859058081,-2.5091935049982883,-2.018437704306316,1.0118084922820842,2.4294931172442156,2.4814857460701205,2.53344493914107,4.683118734951523,2.9767925729769615,1.6599241049898599,-2.515802530629443,-5.9528814282478795,-4.340237234647825,-2.9881158198391433,-1.2828750596998928,-1.4397710088162294,0.38380832015019634,-2.2512866937386375,1.1966819757877523,0.9778865740614039,-1.4935919151241082,-2.642222657902356,-1.7614870378574,-0.01816124704524095,-0.4921390669117216,-1.3494191401256732,1.3469230282989244,0.9756102623262871,1.3075680351455585,0.005123267461738637,-0.45871011511142945,-0.9458962569446075,-1.32505387947432,-4.7546780192431655,-6.316654977970211,-4.178708168461951,-2.2046506748749013,-1.0690430772796589,-0.22431559910393284,3.116175124758014,1.5629978760838277,-6.771227215364651,1.7586533940790425,9.69470817623132,9.014636569404777,3.6164434975122233,5.1492110608481765,6.201152397144975,1.3252064876559064,2.240686258945704,3.3264018862071554,3.310136624817212,-1.5262270142498375,3.4256864345475453,2.272095276948664,3.7507015936918555,0.37924584892350355,4.990482709413461,3.0158633265870463,4.653907227225578,3.388256269144262,2.9334925941248793,-2.7346704393317207,4.612582320577032,-10.589885899208962,0.6101238722421376,5.557583060026935,5.927745411424044,0.5602733115181416,3.540557252288856,5.571378364921285,2.5717765875166356,2.4263123016202477,0.5577968925541942,1.5490754316095612,-0.9375172729665894,0.9719463295829216,2.359918952304347,0.6047201473365608,-1.0413659968209226,4.534433084506629,0.055927767935080606,2.570926026322131,0.28806811795369436,1.9263382991901974,-0.1451819908387587,0.5597527271086977,0.6059982490507596,0.2738269095058504,5.167061274149913,-0.0698139823854772,-0.021231747689149025,-2.4200472673287488]},{"bias_weight":16.035287557616073,"weights":[-2.6650912106458975,-3.796906257972668,-4.660849344870899,-5.5614815419601245,-5.524152111001023,-4.064926201778121,-5.573213914311147,-5.321725892953448,-3.9379263439674537,-1.967594951082402,-3.3331821828632378,-2.451781849469352,-1.7898935855010556,-1.1479821694419603,-0.5303845298294608,-0.5873379418936235,1.3074432476925046,-0.09544210431516748,-0.5211292244000698,-0.8206743987772126,-2.14742235911328,-1.50865255915383,-3.271849048546668,-1.2063632759830567,-2.6119632250592257,-3.925893740736779,-4.286985877336839,-2.8705914290903434,-2.7348202252462595,-3.6353403305422143,-4.153384583855186,-3.164523611924785,-1.8185770038631734,-2.8725584791982106,-3.775778351962502,-3.7128658550745417,-2.259234398792892,-0.6068581816408493,-0.3895525048932957,1.8232418192937916,0.4696296735070697,0.6862159406677042,-0.6924087272974251,-1.4236377820559079,-0.9143887142303165,-2.188524351576705,-2.5864269937561364,1.9122310193099599,3.8221392066770528,4.311172524617975,-1.4216467120966678,1.7113245892805726,6.137961536310564,8.4584874580356,5.372756918709175,3.629168721037516,-0.5167082215888391,1.8827124322767852,2.18919938970484,1.7617123335692584,-2.571819198077187,-6.011077136673613,1.694765715722819,0.028178330698803055,4.554636879523802,4.74653244051862,2.1378667468511754,3.032715082637327,8.790225981472101,0.8057657096929929,4.471924959044367,5.433055778989511,5.673812714915207,-0.16416392997316487,3.8072616981017644,6.817128810443755,7.9413914432531465,5.143496260131804,3.0348670749063125,0.029581988249277744,-0.9214016911616909,1.2001991769023739,-1.0113566555495155,-5.068347866079592,-7.9291780012786734,-2.8026448014330514,-5.426687140305181,0.5380209079621345,-0.0033828274573416022,0.9519977874708395,2.153060486092224,2.4064808638951063,-0.08987754582496045,23.16989745545399,0.3763878067912693,-0.0698139823854772,-0.021231747689149025,14.2063379039485]},{"bias_weight":36.66905403983521,"weights":[-1.9616409320286676,0.1922403132132897,-0.6728194272900183,-2.4351594393697513,-0.5397891999391645,-0.4632766728603914,-0.8815616475714818,0.30280038808289167,1.6197360678700095,2.874317550790965,2.5886431015637665,4.103315521308792,5.070824169744359,6.273459527748216,5.578386599020544,4.4961971837103745,2.1986090189837975,1.375683388813529,-1.7144165383064984,-2.3871406898322,-1.6150433114677263,-1.8279809178566835,-2.015207512742558,-0.5805740197460282,0.34391511342954206,-0.8179182871137592,-1.543409977122511,0.22855504193682286,-0.679794105365181,-1.8178320723427286,-0.44881618392635914,0.10959842155633273,0.4197528867484055,0.6492428235248321,1.9547873510893636,2.0420808130912262,4.262603326042787,5.360992594817144,3.3991487921251817,1.6336912457980746,-0.6069910771482487,-2.464369886894614,-3.6376340243894476,-2.7843610464899906,-1.6359492624201084,-1.867688363602867,2.8937292681785247,-1.3456846036483316,-4.760065290084593,-4.308399037147976,-1.844339061876117,0.9521461129641919,0.14019510010827957,4.619196809811526,5.493193513142202,8.492737059318165,6.644254764235352,1.8751416428857064,3.4199878181060135,2.682042187076276,0.3326300915832341,-0.4483059206766843,1.3055538541390466,3.178790420329588,4.484101192232978,1.9544766279926156,2.401043106094339,0.3477151407650489,6.956780642754518,0.6246323833271951,-1.0760651470522546,-4.822363913790371,-1.2344831307542863,3.0605901918195753,6.122759710007696,7.980698956946304,9.405847460660842,9.980444040086102,10.084640510161536,10.9040012216002,4.950894097151196,5.5275475567554455,2.768991253375551,-2.5284285771000583,-6.068325223300003,-3.0971292527925876,1.5101065709808865,4.0925197274993605,1.2639304699704905,3.5752247640699593,3.448573238207534,2.3822376247743096,-3.0640931666691897,14.496603327267163,-13.978661628508569,-0.0698139823854772,-0.021231747689149025,19.25028844252712]},{"bias_weight":19.250705230571413,"weights":[1.9760848977969148,1.5330950442330769,-0.6990639039199168,-1.1477181498091689,-1.9276203012479847,-3.3038810193649324,-3.079366564519213,-3.480798807675251,-4.478609569803624,-2.580301343104959,1.2100680463650917,4.1007375293993515,5.859407845426577,4.903041610073818,6.409897245653291,4.956961232771888,3.3568483829384683,1.7777766367338468,-0.25354888555779753,0.7085223801119371,0.05101808399480147,1.8504584804291646,3.7190868726840813,5.522749314233889,3.5092868577937435,1.088350940900463,0.6437830153889563,0.02559419407530639,-1.4707810810801856,-1.7555326114519874,-2.086123572267965,-3.9927351900508925,-2.2534814807714425,0.7435971031429224,2.769974071703971,4.805288812963048,4.498851526335781,5.847952178940197,4.254698860185059,2.696716564806421,1.427082640062454,-0.03305261646543558,1.08055700945686,1.128225035096794,3.2222963080601126,4.6223264661333845,2.734014670762616,2.6335691855845664,3.713891861120127,0.09403064484213039,2.569522458802552,3.481366123003506,3.1964117500561664,1.1211326740589345,2.4942436541406505,4.990871899950078,2.365351874958137,3.753753327717633,2.164463533048862,2.5144639699992295,2.6541081130409596,2.9495088302026717,2.900429585052455,3.790568763417831,1.0249511105510105,-0.06361500236075868,-0.8859642711419525,-0.3565731950034147,-0.2590565673009376,-0.36097306826849457,1.0416441794160642,3.271930815905795,-0.07647320373888701,1.5619470938537505,3.07211031041912,3.6929684039635253,3.383244500525456,4.612470379810858,5.081361941152541,3.235948045717555,3.824651086531637,1.3795207512630814,1.552347535184976,-0.3655321085204793,-2.049418741579589,-0.2023357501827739,0.33555073617163733,-2.07500916281015,-0.6745455611893068,-0.21187043994784024,0.749794269765238,-2.000513989017067,1.8687653280241352,18.794851070986027,13.682554591707941,-0.0698139823854772,-0.021231747689149025,15.841691671688222]},{"bias_weight":13.609151322707712,"weights":[-2.628339020622601,-2.0338095685732545,-2.9060577108912446,-3.2727155173841305,-3.8483084328826997,-3.8798645373450036,-2.8303334890483587,-3.242587714950073,-0.8966927957952885,-0.7141025392475918,0.15111529847692526,-0.7813111784896362,1.444167016594674,1.7411723359199842,0.35009685691312004,-2.1984077583186634,-2.2708978888072537,-2.1988192607032144,-3.5425753863272766,-5.6222972725707185,-4.489876833432666,-4.544936970934572,-3.5729323707187617,-0.9811404595387754,-1.795980928120102,-2.176275520298383,-2.157819276528534,-1.4635824190410724,-1.6206190704807961,-1.2752116439355181,-0.3333250348993017,0.5597806052689417,-1.3066927950446332,-0.33935632965034834,-1.2589979674497307,0.523018651260629,0.8858489810099704,-0.029017710427370825,-2.0784541504793075,-1.297446580084517,-0.8172586822255897,-1.9073535056851907,-3.490979946090197,-2.2315488382281496,-3.063280414336518,-2.1583708689909074,3.3368413719142387,2.0075408049482157,-0.3396391743885259,0.0004218630332993843,1.9350613547407256,2.2279802416160486,2.8202865203162863,5.3542447275643825,6.12476274413541,6.353965666279736,1.632092783544742,3.836598006784157,3.457191328674226,2.070954932343595,4.2059279666902745,1.342793338084772,-0.6567669418096111,0.2370456843761322,0.8053415363605845,1.356974642394521,2.8846661491967023,2.8697822714347456,4.360381925966542,1.1956903441311055,0.6933876363354383,0.14027825803107383,-2.2332048416394064,0.6777226860055625,1.4335305324220136,1.5673441972766147,3.5803963428377568,4.962816014046402,5.331093730424967,1.3248235372824877,1.646232344989658,0.48079179594723653,-2.5839649156688442,-2.588737780425453,-5.647866369306754,-5.907023082768842,-3.0372648962611684,-2.7108220098914235,-1.932635579043112,3.002641845205431,3.7442961968105033,1.9793342163017706,0.13851150870659296,-0.5921928259109248,8.170397085352093,-0.0698139823854772,-0.021231747689149025,-0.2857368496263147]},{"bias_weight":20.841946415124003,"weights":[-0.04061539820926488,-0.16994263414985267,-3.2466375441688364,-3.6286857774960612,-2.631550140270048,-1.614560356535652,-2.164725460382475,-1.451272804275198,0.12901008064062966,1.5687882914125875,-0.21994527257917884,0.09549889627294025,-1.872201701626863,-2.568659878046763,-0.7987128677368607,-0.09669112137382667,-2.2029802276715222,-1.260233921743425,-0.37782020804941585,-1.0647350012587802,-2.435673874657361,-4.324979851765735,-2.6919593373898727,1.410174057270912,0.3245489710430804,-2.529985983917703,-1.549939229445817,0.7258207245997798,1.7333574053655862,-0.07155256322726598,0.5220981408148537,1.2016308634133077,1.1461519409144207,-0.8648283443039066,-0.5121208172930773,-3.2478096937083696,-3.8145024829251764,-1.2542703309689798,0.1509307891413415,-0.5235933820639872,-0.5834179104234093,0.7103997823568926,0.4790479990447133,-0.48521055946479585,-2.5518036078624173,-0.5952544900272883,2.9764796014962487,2.9293009527103107,2.099180608233044,0.9110746768051113,2.2227100501472163,6.088170845830826,4.696734855696455,0.46584986025768393,-0.329119178454775,1.918742825684471,-0.48288490700314013,-0.0542590035401331,-1.218560247656187,-1.8841387126484705,1.5583927114896832,4.0464426759460865,3.7613352607499815,7.392755156977374,-0.10894996849672402,0.5388923031018328,-1.095256441176705,-0.990680594188056,3.0155391128238787,1.077322702523609,0.9056925469636256,-0.16635781356038998,-1.1812222301081066,1.050260490545718,4.591226123801519,4.2777539110534475,3.073501429004248,2.88107959521929,2.464013624640376,1.468014908290322,-1.3832036796673746,-0.08346995298501927,-2.4782592900836082,-1.6857478654535831,0.6192484312079232,1.3584615932200488,2.4920140670932476,-0.9518101327408327,-2.6158653973266186,-3.1892399827359754,-1.0244731290195175,-2.7600060546630614,0.19353089357967546,-0.7788403584417957,2.0426074295256926,-0.0698139823854772,-0.021231747689149025,8.258675661312164]},{"bias_weight":-4.06475502881354,"weights":[-1.2650204420272722,0.061551135594822864,0.49287592736323294,-2.718759575520593,-5.663365401467125,-1.7883435306242177,0.373180634518898,-1.923254537714272,-0.9560792845507612,-4.4020935777360926,-4.467936631407222,-6.206958754813196,-6.744858631378368,-6.713732834118205,-6.975676628710985,-2.626400588014129,-0.19883889956071749,3.340564478157002,2.6854405690610963,3.4129147460498976,2.129834530011902,4.08641446922064,5.066571608138073,-2.1479775436894952,-2.778590696943813,-0.5579794777560673,-0.906653852271014,-4.313477570264088,-0.9260794126489198,1.1498804518121046,-0.15211946563034737,-2.3578909086732636,-4.653296381031508,-5.535868268063146,-6.8127858906109235,-6.804026017757897,-5.424841738420421,-4.970387432297468,-3.0125763974877846,-1.2922509504291713,-0.27461073522925156,-0.8692384733089581,0.6303058510990727,-0.37147922334647865,3.1072632516187224,5.759190075533484,-4.991015583561856,-1.0358965264680209,-5.366857339792912,-4.22902393727959,-0.5217991291680878,2.586509342003724,4.452663417108389,4.138058467654513,-0.09698928058157592,2.9942316405269858,-2.926614654645595,2.9087499894397166,1.7901521260075364,3.13754611976999,0.8837689996727845,0.06570651715860285,-3.956032211132426,7.097785327895593,3.307257869458785,-3.433586647173914,-3.3424799383869592,-0.4213610532480092,-8.258988200779648,1.9438766800864251,2.9035619225270217,0.4069313118924384,0.20185060209757785,0.8079606425337581,4.671411599664583,2.1262337467842745,2.846683635529647,-6.400075925878735,0.4260156675581818,-3.2301761068332073,-0.15884888259411922,-1.6655962413541399,3.8691107231999537,3.0755859826920706,0.7260198211159918,-7.980639037722658,9.809816565218592,4.747334278076265,-2.3482638356570993,-2.8959304469419993,0.9012482235326372,-7.741859425826377,0.7879273812566375,-14.432460928509455,-9.38605723062176,-0.0698139823854772,-0.021231747689149025,10.127876765893154]},{"bias_weight":-14.851553868705116,"weights":[1.5943627042448645,-0.05214733339995131,3.1471454741856064,4.763745726178579,3.150635154432976,-0.18751594607168384,-5.161817485097592,-5.705683078797568,-9.72602002928991,-10.484854970771389,-7.981938991799136,-9.233517499796985,-7.5507316765081764,-8.779993058245784,-8.29960997440764,-10.07632225169279,-5.160340716369633,-4.226798204980955,-6.094322102581532,-5.796434132662136,-0.67084582991119,-0.3916759296515502,0.025653724832574838,4.970632122903926,2.173808690321637,6.259692972993071,7.41792675517464,4.134145265764881,1.5157701797399383,-4.1548784975200626,-5.541706001562504,-8.604528647886873,-6.598207806915641,-4.971556448777086,-5.75340202900881,-4.225250623102799,-6.675613810002392,-7.225344003926661,-9.827186458545082,-5.3678460164031385,-5.4704722449988346,-7.990676646852611,-7.38201234643707,-4.08198771983565,-1.7016348221404045,-1.5182986169182089,3.5848706095687732,4.501747681981518,-3.16469157438216,-2.8832747292231304,0.6241640504230727,2.741591631552591,0.6040867214271711,0.31492395893850145,1.6449604322873104,0.3868992559686048,2.0431899725149414,7.773710600181836,8.986920264533717,2.8585515019630963,0.8685625554286336,6.450577446086839,-6.459403291159476,-7.595253219889446,-2.3690105507655494,-0.035125142614543726,1.238744509125392,0.9162315224985648,-6.444406869934067,2.968926554809059,1.656486557773214,-5.1517002131361265,-4.658176119670793,-3.396552221374518,-0.46600976263978117,-1.4381803120776884,-1.4380574782994524,1.2802279421229519,-0.04865360455249334,-1.7035006104289356,7.404040628088961,6.730356443516071,2.3700904626442565,1.2756408522224456,6.132018671113247,-5.689118456673392,-5.612094972367079,-4.134250189197817,1.320741864257655,2.108091403441237,-3.3789669888419036,-4.705269319684178,2.3874392329139837,-13.889112893298337,-2.7583784124260764,-0.0698139823854772,-0.021231747689149025,13.364312843155988]},{"bias_weight":-7.214815516531472,"weights":[-0.7459568810145476,-1.9610905211731502,-1.7595185035607104,0.5099709513736324,2.2861372162939957,4.284896381409326,6.81145449869629,3.397376452401921,1.15061616755427,-4.310267269572609,-6.100680173636927,-6.747221848020015,-5.400613455725098,-5.774197376467732,-1.343176108176765,-0.2875176735398848,0.3657896500799891,-0.28117293938703997,0.5250755133350228,1.0095163614881681,0.9474701420526562,1.7523814619942057,3.0716387790422655,-0.500189652069983,-1.5565763620766007,0.34167124067098426,1.7819020273607609,2.1814376854969697,3.6938874604885923,4.720145469231041,2.5535595151949306,-0.6001971016951859,-3.9110567302473678,-6.471816959270866,-6.6059163240577385,-3.8823335169271593,-4.759127635280649,-1.2520570823967327,0.7380095120588228,0.9028221535689108,0.3612401349757736,0.4848350904282078,0.4937314723359655,-0.08012041921838826,0.23138040978502708,0.5948722266284688,2.1829336964706862,0.5861934215260267,-0.1796301747109444,2.511394131622562,-1.3044415941660814,-5.400860654933934,-1.8978351182791935,0.8375347295817297,7.062182050165893,2.9647097435875542,2.517227486442508,3.305203283633364,-6.4744870033419035,-3.2006407245456376,-4.852534133982502,-9.976206376645495,-0.6363193890691681,0.5921509871277998,1.4673150862944466,-1.7584638525124838,0.6892456421198158,3.578179935348323,-1.579022465769928,4.174817811441219,-1.4625759766334276,-2.3584142125950702,-2.047873004428487,-3.6063327070588778,-9.189101032983586,-7.25538638201281,-2.178663517621912,2.6559403275238,-1.0388982395052904,1.6235789899421,1.9166206960276613,-3.5633642922526527,-1.9585884342556512,-1.2459976195668292,-3.9708375843484363,4.167389675440838,3.7104863904872545,4.255837063157075,0.9733162036145521,0.19614404404656935,-0.1702639137796756,5.291960205417989,-2.3843047345005455,3.0731754956467707,-20.643149344587965,-0.0698139823854772,-0.021231747689149025,8.4494425482693]},{"bias_weight":-18.096962958043022,"weights":[-1.526350665470743,0.30578871020518816,-1.0956217156670467,-2.767461977480418,-5.058166979070832,-3.959359540849294,-4.443490176489011,-3.7478306815229177,-3.4760970768892925,-1.363155272985553,-0.4930455995431452,-4.56567531598715,-6.525376442934892,-9.04607551570616,-10.392272067584877,-8.571153676601833,-5.184953509957284,-2.8812957318704457,-2.4998209704745675,-2.154752507112824,0.04248384808653471,1.0024430565250626,2.308938782106049,-2.980810520032071,-0.9035072819880965,-1.2195363727697188,-2.2806555917507634,-5.92836068432424,-5.0549238090349755,-4.137089971585663,-3.604711746882358,-2.5883586860932173,0.5318988278837706,1.7305650359683846,-2.7226603847259847,-4.1746989742095915,-7.538026164734039,-9.96548984656878,-8.66011351033318,-5.89442254663223,-3.46856405657181,-3.411945264209232,-2.689700135552186,-1.926007674797961,-0.7037550315152308,1.0791273142959428,0.5743326534729228,-2.4169883859098795,-4.543432329401851,-2.4737484982920344,-2.8433183792338155,-2.669922647356913,-4.847125802508267,-3.5706984475869477,-5.151964890871928,-4.883652505353291,-4.065163366997937,-3.3953475226027785,0.1711666515423393,4.750625515952005,2.8086089217680033,4.764640799752476,7.709193245793216,3.421118982322166,2.73265551619226,0.36537777959582735,4.35991449667681,6.337099335241437,2.767616001523534,3.7032558988326274,-2.0084290959952673,-3.619264014372803,-1.665671920799063,-0.17954764921734329,-0.48990723701843075,-2.3684936361997617,-3.9687712213605613,-4.362503514732324,-3.8316527345340563,-6.577910734697862,-1.9540616931014454,0.16969630666688643,5.433333010998869,7.249005566869911,10.059940189397139,9.70151460267664,7.307640383248935,4.543765064668032,0.8422110566658964,2.0835375225764055,4.284891903964391,5.527604867874009,0.18182395911570892,-23.6685279040712,1.2190246311783421,-0.0698139823854772,-0.021231747689149025,6.560035066089926]},{"bias_weight":21.888548422728718,"weights":[-0.7779934862103807,-0.5115072224758188,0.19035481583914113,-2.957844532999181,-5.073565650001108,-5.777807337128556,-5.958009557132201,-3.6951898927611118,-1.3736280816892368,0.13320596685109873,-1.8574506012242216,-0.35508660594429775,0.14130815677557224,0.560082287145456,0.36816658701791566,1.824046010515029,0.29198718893047426,0.16952387501673746,2.2316246545169105,1.8252248282370385,1.6175057899237237,2.729192170636365,-0.15226566242614029,0.857475693672508,-0.1208039288713813,0.032771221914838854,-2.3343901051344966,-3.614324908649393,-2.599927592808583,-2.842526972224548,-1.9894996963928326,-1.4682211371988612,-0.4997660469017799,-2.13248221723262,-2.653940652591296,-2.3295549148755814,-0.8417884540920724,0.6739422940393917,2.513053383218844,1.392184291755137,0.5326228751105015,2.6540018087743538,1.8287767114742322,2.1879115724972427,3.371298694988215,0.36608040577275197,4.390607147479398,4.162071140255959,7.600205380137813,8.876137444695495,2.730130762368256,4.141130005743234,6.741297119101268,13.604504489646128,11.68719651333613,9.508188567338308,8.79658877104446,4.495012813398754,2.8337926568053873,5.7799993537243255,2.940891264382414,-0.1413584796221737,4.604957815880741,3.5349404713176282,3.8853015440998027,4.143088808136783,4.5078622560300605,-1.4725410303928157,0.5090222598110719,6.427203475551778,8.383131473935878,11.043053070413812,11.561977702122759,4.527663125388011,