{"learning_rate":0.001,"layers":[{"function":"SELU","size":98,"inputSize":98,"neurons":[{"bias_weight":18.580437315724282,"weights":[0.4448612015164117,0.11614533950056886,-1.0234192222459921,-0.08383365126458457,0.018957828274532008,1.197965560714465,0.8712754593335668,0.32876269552913157,0.1379142219492418,0.07031677826594657,-0.628116003563727,-0.27201236179414806,-0.9193248855115419,1.2799502491692152,0.42843766705599795,-1.7230111222880347,-2.9700854475511274,-1.8489422538665956,-1.145801451972576,-0.7954500338043656,1.2483305706580912,2.4402760811609263,2.595280770886255,3.1059220718075142,2.3652598079411793,0.4684995049175834,1.7865245310854219,1.1686308958443012,2.187601644495086,1.8936065681280312,0.8475091113035021,0.6622549394947519,1.0309764869038027,0.174074985564117,0.4856902018201232,-0.29491114325305207,0.6152711783795414,-1.651495071026724,-1.9415868579394775,-2.1070122447449835,-1.7551015026031425,-2.4395293630066477,-2.245998216344116,-0.9470627711060761,0.2482764594321235,0.8978106687829596,1.9444457025522082,5.728382355297656,3.6713437284656423,6.498403131346655,5.027628492918234,1.3448427862584982,1.1477613060742926,3.8883286474015923,3.702754853949402,0.8491719797404536,-1.3957464977940353,2.6526648725250057,3.1153493371067094,1.5187194316335892,3.193244027277747,4.949937019719618,0.3783205411052083,1.3749305617263206,-4.348766313733126,-3.963519491244066,-1.8228765354298389,0.18180883005530443,-1.1773845783223722,-2.5845982004184553,-0.05064386174022351,-1.796649273567868,-0.3444640919981727,0.4401943513064916,-2.4004908789919743,0.6422336071059442,2.649635768694739,4.727708035780131,1.3902558970751417,-0.5286225791568931,-1.2813921318418346,3.943225626360326,-1.1746889062103727,-0.8711632327088117,2.5472593202390867,0.19821498931251397,-1.6218402694688738,-5.941222371120005,-5.6108682714634925,-3.642713759900757,-2.4325437331177078,-3.0739538360518344,1.9177889907849317,8.24916182830363,0.6034318550191557,-0.0698139823854772,-0.021231747689149025,15.629526310220413]},{"bias_weight":-8.342038758081939,"weights":[1.7150535795330497,2.47799205930294,1.7405436167562116,0.5607835116683738,0.0045731101702391015,0.2932708412725666,-1.1370322788295169,-0.8881826282585821,-0.14002497580909903,0.27909368396777723,0.6653118249826655,0.32585879079226865,-1.380202128308836,-0.017884778240424108,-0.7591457527024399,-0.4026808991015696,0.5265192388001715,1.4337413326927526,2.0100677596953416,1.1444347880462962,1.4074284319089914,2.552936543557211,1.550847021524982,2.9032951956790236,3.7262704374649975,2.1166230117796325,1.037531623756273,1.1002833873495486,1.448349074440479,0.18992927726488085,0.7782538429956012,0.8672318403324791,1.443705768729845,1.6951333601608922,0.4759204087012186,-0.9911936836718729,-0.4429243910978513,-1.016771882817672,-0.9169921369189835,0.5168251494476521,1.0324420441438633,1.2051746826886673,0.6409299900642382,0.763566801824193,2.555573132707017,1.010667018150706,-2.855107903958293,-0.05808271083627061,-0.18367481347683895,-3.221338954367724,-2.2000044187144363,1.5817407376658885,2.641239521977747,1.2906510547989318,-0.12950722352172006,0.994015467235226,-0.846126272887778,-1.3537145403875377,3.442901276375158,0.19150016965750474,-2.960661713278261,-3.329955368616781,-2.772014286491112,-1.810242203326895,-2.72690661593893,-3.9233136084105826,-4.934449177649078,-2.8281294471097636,-4.722973901637004,2.20633464672748,1.6836740307653992,2.864436955531069,-1.5406313414941697,-3.715948247693133,0.24961548890589905,-0.590300126234912,-1.735622345867673,-3.8819294119412926,-2.936279103725693,-4.195200680703835,-1.2494074299590874,1.6726267773848797,1.8062689383481405,1.2415019436450494,-1.9104378668743178,-2.844886332507994,-1.1224855465765375,-1.7679578344038311,-3.3258152762858324,-3.320174374683294,-2.9023136915831427,-2.834799866746622,-0.7956558787854743,17.108140595990882,1.599763781842426,-0.0698139823854772,-0.021231747689149025,-8.974107391259485]},{"bias_weight":-8.727039890096094,"weights":[2.43470895203882,0.14502102084401003,-2.1240044681387267,-3.1603797308928177,-1.2028383603905757,-0.731070695188705,0.22510389485834387,-0.013556313418964776,0.30846247701264745,-1.0079554192321836,-1.427269900239727,-0.8533150339916378,-0.2972390550579713,-0.5118632164431365,0.5253766623834072,0.7023667574806505,0.995550034973969,0.20291636525194148,-1.4425473831849618,-1.296112176430692,-0.41564401466524176,0.16457826843819065,1.8693165969394931,2.3275345488101276,-0.8168935672690302,-1.5866505272084528,-0.8939844584504969,-0.5604444915757374,-0.18325037465994504,0.7950720426486424,2.039631128690547,1.8617176222224938,1.4645607939752698,1.3708188345163896,1.5104297064876984,2.7519216364133428,0.8328140437015713,2.113012670578781,0.8764937038756768,0.5813119893883957,-0.7336483693727877,-1.2364500821840803,-1.3372059582464386,-1.7393528956301616,-0.7798776399295139,0.6858731875795854,2.9896870649047833,1.8385357284276365,0.37931698427396315,0.7050031512138712,0.5901921343792146,2.1258821694808128,1.156257572213345,5.395271023843566,1.6395114812964249,1.754495759295725,-1.9962999806608794,-0.812435210367487,1.0947662035189096,-1.3382512997227898,-1.258680599679487,2.2199490547938674,0.9473191172335996,-0.2886397889050647,-2.184186750760936,-2.2270766765847716,-3.733378220871123,-1.8484582980188347,-4.0231493669139144,4.147247682856876,0.26518980389109903,0.8531812309755741,-0.3875639482680195,-0.9615178086775371,-0.19264567221646264,-0.7312987928981006,1.7842796441167306,-0.6345380966358162,0.7140641265553234,-1.2167356379662475,-0.6063503891589345,2.739200315212435,0.38742195511551153,0.884256397514491,3.4056418808616926,0.5833186567361324,2.714176417510885,-1.4945318925946514,-0.04695304560651317,-1.030018568324366,-3.229383927956488,-1.1949912601586106,0.5994911613317052,2.0369722110516197,-16.3635841473677,-0.0698139823854772,-0.021231747689149025,0.4750234614868322]},{"bias_weight":14.744749609733102,"weights":[-1.4889084583078687,0.4996620243242856,1.767670622552669,1.0421173076464842,0.8986287418475523,1.7698134143751934,1.5259114731058743,0.036580927192744264,-1.1055162963480485,-4.2413517932301925,-6.974080297412275,-7.579437871778878,-8.033301031444584,-6.627523463224504,-4.213256269966082,-0.6226422652147418,1.7629834520864172,2.9522663067369157,3.9335762843117417,3.684389764604111,2.5632649171524537,1.236856258037184,0.7550485349865819,0.20095179294491222,2.3120956200132174,3.429714427994536,2.354956643756794,2.7982899809675867,3.6890043696077766,2.415733301820722,-0.7597464895067763,-1.1054544490669502,-3.177210992440472,-6.981291034366818,-7.239132002163514,-7.3654526652120476,-5.051833200482824,-3.1392863356006644,-0.3882645017616823,1.0539278714876317,2.407226090246375,1.9265236455001276,1.9781170193211262,0.21955994741024065,-1.4812789995368612,-1.7233510556912626,6.132678083457569,0.2846776939553605,-2.068401625977747,0.5678639751227422,-3.6457726396418715,-2.6409284993351303,2.49865199014071,3.929636714560429,2.4405535396981444,2.9386659125246952,7.571822223469944,7.71224077672499,7.079226423061008,5.59331789440681,1.668895133927124,-2.365216259871787,-0.01420478128544105,0.39562465377953754,0.6087393112138033,-0.269130521613149,0.8944491051832122,-4.019271448187301,-3.7732718961930147,2.1511567024477802,-2.992989037161065,-4.670072959250646,-2.843676017146704,-4.920287611000931,-4.341440015000415,0.7820833953436451,2.997170601154819,2.4884286233412958,2.6199331825353127,7.660824720850954,6.201063163899345,8.180230277803146,3.153190285228591,-0.998833241979461,-3.033343224295966,1.0212956837367768,-1.084414193915976,-1.1011371364141944,-2.615099355550198,-0.7995372132545951,-3.2201577960987096,-3.37960964785179,1.6381557085863494,-5.576775176426508,9.270213586892362,-0.0698139823854772,-0.021231747689149025,10.42300944927123]},{"bias_weight":12.603906433109868,"weights":[-0.042497422124639625,-1.3449701514569152,-2.6199584294184706,-2.2594641548033385,-6.452114303604615,-6.631068921078366,-7.418207413604686,-6.88030995118641,-6.178432603036771,-4.5918745289452225,-1.8408497811712023,0.609294551378633,0.3114127373358967,-1.3619216527527276,0.285440619105154,-0.8578744811098268,0.3207043277852979,1.7907435407744983,0.7817350162017177,0.7197653883701448,-0.31566818198933183,-1.8979921026120001,-2.4836267607087366,0.8489738415963457,-0.9634308738405997,-0.1940030544054258,0.18513533591735595,-5.118515909622215,-6.210692837735023,-6.657327606475334,-6.737690152493964,-6.432465446296757,-4.7804121387283605,-2.5086697198116696,-0.49313387827462146,-0.15311663028115727,-1.663475969354247,-0.5506874686560403,-0.5516345838752577,-1.212778495649728,-0.04862767672820891,0.22449446744967577,1.490794071595314,1.538526109478652,0.8325103803073316,-0.55678670484183,4.904006372621941,4.228985404867438,3.6956923828729114,1.1158825806904862,0.9121136740228329,2.2438578006172487,1.3955871980001415,-0.4812560217934905,1.22456852691641,4.5913508975058726,4.937786814185866,0.9230543406763136,-1.3075088541259972,0.5520621795761492,1.755001219893125,-3.010248979464388,2.6412503630329955,5.075638912072798,0.07952902982820939,2.2034921434373897,0.6827330887882237,4.43965827929653,4.095802240046906,6.464060111235216,2.8164896025537134,3.601689995074865,1.5806869937641121,2.544659809810701,6.146078446674557,4.330830362039693,3.784598480157411,5.363265913830314,7.060907370809975,7.757765209389237,1.4359218836738252,-0.21098497473553107,-0.6817601410966908,-0.9367024146846944,-2.4262915055756347,3.716599762222327,3.755988243881369,-2.0034934082215106,0.3299518980740704,-1.4409619790287869,3.3504637329998412,0.9455566590383874,-0.3726594517165086,-17.748877653963877,-0.5474238300335045,-0.0698139823854772,-0.021231747689149025,-11.176713292577983]},{"bias_weight":27.376275838686496,"weights":[-1.240813962159914,-1.7049648569775089,-0.9529861095636677,-0.8925754680265628,-0.5897992607117611,0.14251816341291756,-0.2820131027495698,-0.6881637495597039,-0.21243875693251565,0.4629498658764712,0.14804825149369535,1.3626511384060254,0.7958330679561241,2.188739083604908,3.3558065496045724,2.128304908918608,1.965843364087495,2.3372121007564792,2.2392076016925158,2.6270157079572236,1.495496766416892,1.0467703162041033,0.5202470158849172,-0.1875775725994421,-0.5470387621544981,0.2327767713658205,-0.5622276548059563,-0.4277765797458323,0.8415882634056986,0.5490456614441467,-0.15650037995247595,-0.1651258907799342,-0.4761409711090731,-0.9651705352971425,0.4723875783046945,-0.030376559084336487,0.5904016769209951,1.8281427114548254,1.914688266228974,1.876720435149808,2.3911455453545924,2.498849123822929,2.8962327340242693,2.10808292421263,1.2685140822574643,0.6588108603844396,8.276481892269718,7.117296200676798,4.574813119537153,4.541412792700342,0.33027359520416066,3.9588302775545934,2.9300805259219764,-2.7345545911306424,-1.1342283063228282,2.9100280457424432,5.962751534697136,4.452017527287411,3.8823786036656127,5.4824286836680285,2.787219077845491,-0.4764453775558696,-1.7438087452479136,0.13575692099496248,1.377234976385115,5.02079824322039,3.7206554928016553,1.5327071347113577,1.914867078195675,5.437447167657633,3.321100349323049,2.7552902178578567,3.9550816425951796,2.138255329637869,4.455310944548044,3.807563383167364,0.1488285495669401,0.6737219962722012,3.122006012869489,7.392434588005517,3.6116697686425336,5.832263822728387,3.0639895363181355,0.023437624127932485,-1.4780714122436707,-1.5747710963510162,-3.203578983233514,-0.7886329742894727,0.2905077172074831,-0.9692891190849372,-0.14345142919621726,-2.1664298849982835,4.986018144817003,-31.696995491236933,-9.478726433411893,-0.0698139823854772,-0.021231747689149025,13.36634418773294]},{"bias_weight":9.707441638743953,"weights":[2.0168288863350536,2.4332650095730797,1.1882990222928014,1.2750525644335626,0.19919415737720061,-0.5880510281859744,-0.06938762402077904,-0.9384485064749,-2.3816039353953826,-7.903924715673131,-8.622239974500795,-7.317565976123845,-4.978626992431149,-4.01477571152395,-2.2839726591811136,-2.4658050731309125,-0.9527196946314541,-0.4392614654999735,-0.7376789761445408,-0.1864936023101846,2.0626584617222186,0.29070487106089593,1.790258680719572,0.9168278408942241,0.31195544268629766,-0.022563534110574594,1.5426238294489758,0.58014143942831,-0.4177258432711055,0.688964293981039,-0.18763675760091467,-1.2936554652854635,-5.859233605119503,-8.044586698813701,-5.9348735019755665,-2.40292769196556,-1.8192860813139067,-0.5264158799597886,-2.0476567807095116,-0.27369581783853575,-0.9044581786038715,-0.8615456063323716,-0.9248660468920215,1.5113383733137657,-0.8602699589356775,0.9687684886939706,-0.050268430402708966,-9.033405218818169,-8.776596505056665,1.7545794195331152,0.21201180076170187,0.528848766909388,1.4777283298484785,6.699475484699525,9.403801234634134,7.713856340523332,9.45209652471522,10.654749657139499,8.328054754344313,10.981484495169616,7.327566371456574,6.026010422384685,-1.3689754083663979,-0.795571422359073,-0.642511659271686,0.3535114025751236,-3.0023008199618104,-5.548021481763649,-6.650648925094145,-1.4054667778887329,-6.592726025568432,-6.029025387349191,2.225574438729779,1.3070872141354684,5.194123866826762,5.838493698255223,8.36049154080423,10.045992277042778,8.519124395507843,10.20540204998711,7.448382407995074,5.5935339174414365,6.2638854928888135,0.03217955336767592,2.75118621480141,-2.3422583062335027,-3.0119621453560885,-2.92438171267302,-1.7817992531861926,-2.8341384001864673,-6.3903524618761605,-7.567104819584443,-1.2171456767517257,19.635166004196098,10.460913388448335,-0.0698139823854772,-0.021231747689149025,-12.698991625883469]},{"bias_weight":-4.266583692485745,"weights":[-3.0135034936208362,-3.5523819904414458,-3.4189943850092317,-1.9152259931024065,1.770513284565838,2.4108869504681483,1.2962680889722535,-1.1781885715761056,-1.1057514147527172,-3.966687468496056,-6.5395949809325895,-8.251920029645767,-6.062524981510128,-1.8662528044342044,-0.8737282022259726,1.7894628149753593,3.288436798093546,3.2386833573670284,1.4463179813691887,1.8188007257196337,1.817337916328031,-0.3484324306224011,1.073042149771346,-0.860480235542201,-1.6556374959756435,-1.3078639504024174,0.2187789990695819,3.2851053259817946,4.328011375755036,2.227173987690735,0.009036388575685455,-1.538986505334143,-4.409591326324586,-6.645540369944879,-8.692452384912905,-6.932396425861811,-2.7353980867402234,-0.5739093611230834,2.500321170033615,3.8541073207939243,2.474137858492746,1.0333995123510504,0.9412034889363503,-0.0776856464718124,-1.2036757316582276,-1.2106434939348663,-2.4748524713183926,-0.07376773139595048,-0.7037579965397439,-1.5055183852644451,-3.3908124877093755,-4.444437560972718,-2.9932839974059693,-4.263714040861205,-5.7412407803420615,-6.052833363800985,-11.236159648928783,-6.425644255871507,-2.140051046387344,-4.962958968455501,-1.4799029518052689,-0.1999639722596447,-0.3183965751242038,2.378272810923585,2.419089054520484,1.4146429482018679,-0.013387032064533391,2.417173693697329,-0.008737786430965904,-0.7352186362322066,-2.160219600803683,-2.21531684600511,-1.3918079196348947,-3.42085196036895,-6.97885292180822,-7.0093608173430475,-7.349581036076038,-7.828055770169499,-10.088441879770322,-13.423172071362144,-6.820451442235443,-1.3314997692953259,-2.480344254860544,4.383878675845843,2.953740169811085,1.019723289208183,3.625661278411268,3.6078122942887707,2.920849075025691,0.90681258762397,2.582576237447851,3.6590364854224555,-3.1292051570616697,-0.30134527065160693,-20.526599827904832,-0.0698139823854772,-0.021231747689149025,6.975061519254323]},{"bias_weight":-6.80970909611219,"weights":[-4.4673233681443785,-3.4693109434810863,-0.9157593672297483,-2.7103608321481825,-1.4674853838087043,-1.2539614524574008,-3.767241530835833,-7.448331685436499,-8.084569265144928,-8.23167596442567,-8.81674776757238,-8.771082624433216,-8.934349020721395,-5.628380160749525,-2.7555108432486706,-0.5587083541023752,-0.06216268340458468,0.4695016791136123,0.005673881628171639,0.6447521331636921,2.2262761552760297,1.2423646861261513,3.272457178956845,-4.116286292308225,-3.5433646579698244,-0.8479014028486205,-2.1138759349612344,-0.9396608488525913,-0.3967127333345823,-3.7195302285069123,-6.612236162208469,-8.78464881938227,-9.269669617172067,-8.548874140499782,-8.231603351401157,-8.756043000640176,-5.797733895759875,-2.622452835931518,-0.6393686524788595,-0.1902175998572747,-0.614221497243114,-0.9393590751399401,-0.573748525722193,0.275694175477467,0.2238151564507547,1.5356563666042404,-8.435331375992774,-7.9094892420591085,-7.368230728151748,-7.688469360748332,-6.245937041146176,-5.120359185001994,-2.25778246126596,-0.9573687042507987,-1.5212608605443652,-3.7509800141497256,-6.735513769646626,-1.4026163023350875,-0.42716806207226793,-3.311950952805014,-1.2144707559814454,2.5526165069374076,0.1836393548786418,-0.02113055740944411,-2.0154781989482253,-1.9470006663947304,-1.206357132375005,-0.793139534117459,-5.2114646839684955,-7.067159607381867,-9.287951494621208,-8.536419150392339,-8.316419994556224,-7.426628194626774,-7.639163392092389,-6.893642599109481,-4.695791736664816,-3.870359006196969,-6.716008929576913,-8.124252524084858,-2.088923452446941,-1.8231687198600361,-2.4379074855854856,1.7730269289069747,3.504204947063245,0.36534499589545727,0.7342813995424501,-1.5281715479740106,-0.3745944680624037,-0.1470549501291284,-0.22776518661297188,-1.0348185957964027,-2.678409040229703,1.774928057644592,-14.392484254329068,-0.0698139823854772,-0.021231747689149025,5.664326061359319]},{"bias_weight":-8.318859904420881,"weights":[1.719268412447867,1.235824839152703,-0.2117705915260994,-2.027170588729604,-3.0939278908851673,-6.64031074066169,-6.864671028622607,-6.347915746819953,-3.954645447839011,-1.1116883353948182,1.9095557140254749,2.104657268211388,-0.14745784913428125,-1.3157695111255168,0.008314969670814614,0.5331598096816474,1.184936546602292,0.7750982841070393,-0.6918660931101395,0.6947402552450613,0.310550432527266,0.12338377201772309,0.4190099727713613,1.818374192161778,1.294570486314463,0.2724850566740746,0.11476325126019786,-1.7037412699139471,-5.029226229414162,-5.15681724542354,-3.7203854515742716,-1.664838697015169,1.3542958618231737,4.052032119106559,4.087269221016634,2.9415298468319264,0.8403341372783171,2.3146975416423805,1.3533857051299127,1.835188447674174,0.27178675198171076,-0.6932633470369229,0.3767701032056215,-0.8091777754177395,-0.6566014523543379,-0.7599937830955927,-2.1337878945690303,2.4478083900698033,0.4589670834994226,2.4129149125374956,2.2643600212111514,3.8669300336618586,3.7604399334406966,5.433518272321509,0.24390795470511062,-1.745134364528358,-8.248619949959098,-4.786108211793217,-2.2095588131039854,1.9270546709458312,-1.5942332380612134,0.45506815754348184,-2.1467311885833347,-1.004592513791236,-0.9816924302205063,-1.6793169182581484,-0.9184682040535499,-0.5632789146230979,-2.222760272486307,-0.04945404820133819,0.426483810676195,1.3974418494383414,0.9442498713721809,-0.4502659935995468,1.6606002261565753,-0.03330595007691348,1.0115942465718597,-3.623900150940617,-6.137710364976117,-8.655640116501766,-6.2121137395790615,-2.891768592546872,2.8775258772855548,1.5922289445756685,1.8071070300571495,-2.787539641814563,1.8789797785265812,-1.2282387513150084,0.5447149738825119,1.7921663183876502,-1.2609837421050396,0.7669690616302584,-1.0670312665092883,6.250050845685035,-11.614048928820816,-0.0698139823854772,-0.021231747689149025,7.006604437462854]},{"bias_weight":-12.44908630922831,"weights":[-4.411590682798254,-4.3876187234529755,-5.856217772978808,-3.30272046676917,-5.302666327034643,-0.07984336089025913,-4.772554029089656,-4.443309464793647,-3.7493662080048353,-1.0992639184903776,1.89636397239227,0.35533743009358765,-2.7273907361668104,-1.8092969332169173,-2.4442008494197944,-3.062305118958566,-0.5242974728388554,-0.3773377475249654,-1.5757127510110744,-3.6763023633601613,-4.063692439525128,-1.7451672431727536,-3.6450002935354937,-2.537423122705663,-2.8075100729725104,-5.521738455234828,-3.3921992328323785,-5.498737667969291,-1.5810091738358922,-4.933268663432183,-6.851485185617354,-6.010662450134633,-1.9908560698009132,-0.005142016440848575,-2.6098391459367147,-6.1209861981869285,-4.59106619068088,-4.07034499398154,-3.6951488101934014,-0.019778076395360892,0.7487082500799479,-1.7418500276658313,-1.6531409163989337,-1.6793539419676196,1.636187670746629,-0.06859300504040328,-6.8565429810278795,7.441261283626187,10.6228456216133,4.771081596958903,6.896457169231032,7.6700012750178175,7.507407815030404,4.6853143232253425,5.827596261378367,9.841022733372338,-0.34699453567511285,-4.960799779608954,-0.04057916097080308,-9.901182289681437,0.10456683460806347,4.82300508466072,13.14253754328931,14.93413304938277,-0.49617818519472595,2.5201856811654655,1.2071703130928748,5.828977345242409,2.7231580144756697,-2.453916916138576,9.39503761948308,10.583129598641818,4.077611192764112,5.753308379006335,4.985796454259993,3.856748948988495,6.716783367120971,7.101415364524035,10.663858641292553,1.7218175902229533,-0.2170732350945156,4.389233466587941,0.3165032010765925,7.767094917923918,5.1137140469268685,13.14493615817117,10.322115460959914,1.3920890013420792,-4.5082060106037405,-7.007117453265974,0.1972873930601532,-4.919266274298751,-0.5217233238773451,12.039097826887522,-4.091738482450714,-0.0698139823854772,-0.021231747689149025,9.7535484815322]},{"bias_weight":-8.161244761847646,"weights":[-0.642662533273529,1.5702117168850542,2.5835282674790094,0.8876716033350928,1.354676046347591,-2.895147139693331,-5.655402579663596,-8.004647306819853,-8.342171634121751,-8.165241902510383,-5.868904034307173,-1.342747060877977,2.5239706258632904,3.0368681063998055,3.8598986707716367,3.026597362952252,2.2665670734182464,2.580831669028878,0.8372316544529841,-0.11070153048285565,-1.42338803609834,-0.17772925022110148,0.22638545237527982,1.8227182016515946,2.4364853924415173,4.361498250003419,3.5467066630640742,3.2721180751081294,-0.6140018796980286,-4.458599437480035,-5.579589505914523,-6.122836761344725,-6.6597693944983485,-5.57220473391091,-3.137345620085459,0.437186278980318,1.4735526794289353,3.074265172165336,2.7321517993062105,2.761129248242413,1.4079545890161502,-0.04375265447043051,-1.0860139903157935,-2.753074521083351,-0.9511947870489051,-0.6373555786135179,-7.064134838756789,-1.7656780420604072,0.07336768874719583,-3.9871379866403056,-3.8773820315306136,1.1052594152340576,2.4083097978319534,3.268174879016723,2.131185060634039,2.4487787362696416,-1.804604408272156,-5.401281458121235,-7.724257244459912,-10.04177467936932,-7.19767958850149,-2.9017451481586605,-3.008248789878547,-2.018617724681641,-2.7424740659947413,-1.3229712383908583,-3.6586488088320834,-2.555783039415162,-1.644239650254707,-4.4008590335455064,-3.0153839884792637,0.5729309907053663,-3.1208280679872327,-4.0108538604275,-1.8266857100910754,-2.4993471449168494,0.7627792807091632,1.0172246665378157,1.3135157588094624,-0.2112164504438624,-3.268944370072337,-6.129117224895413,-5.311613937512457,-0.9169496799009618,-0.6349720830249147,-1.080052663741108,-0.4992804259805811,-1.8484376206991668,-1.386949375757871,-2.703850347170342,-1.5763039160726577,1.8946047418174097,-2.015721940214496,18.803421288366955,-20.025081005330385,-0.0698139823854772,-0.021231747689149025,12.847496284640062]},{"bias_weight":15.23134335918322,"weights":[0.6310891139946034,0.15066203877781753,-0.014605874761898084,-2.205523835144057,-2.2833905149460314,-1.3295101693927027,-2.149980045662643,-0.13537792475706284,0.5255965605662303,1.8436120706784,2.0611106555925214,1.3688140211366953,1.746188940825429,2.2087711687482043,2.435410648837618,1.1270467301556075,1.829954076810114,1.6405409455925068,0.6073798453806685,1.4552598865366537,0.23796044836407665,-0.30679883643372985,-0.17605389897729865,1.6090969544352018,0.5661188450706306,0.5318478418548268,-2.2492186401509455,-1.9952400855535621,-1.608766497724493,-1.1287466976472524,-0.9831459592250349,-0.0247033232163927,1.6647437146707078,1.4894421925061954,0.6937623946586062,0.9649419132780392,1.537613860609798,1.2869444844901219,0.8513450033596991,1.6884285646324195,1.3103468665885543,0.5091271464804329,1.5381406528589279,0.5134257931902388,-0.05709703911339729,0.7375933017118325,2.8680095650303117,2.1152571994604656,5.7120134386123835,6.7030785049622805,1.3786529451122638,0.44836795540833935,1.209705862535522,0.9642756734813237,5.187554788537548,6.189615755651971,6.3467317491059125,3.8829841234137343,-2.530368014167598,2.7096556704808283,0.4627511780092819,-1.9126524774668494,-1.068755136700893,-1.3258443115632468,2.538458086548879,1.6590444911868902,5.060553759125525,3.588288223056599,2.665614370046146,2.0944506077553435,1.5286211875740692,5.941408996343923,6.288497488211684,1.4895780809136194,3.366121891701317,2.007717005593675,3.329064516707354,6.665409095052507,7.973203658858883,6.527159633846801,0.8724886646338125,-3.2622826546404626,-0.3794843555511035,-3.199768904920378,-3.755036819493117,-1.7858126961297724,-2.778789733274694,0.11056137969714423,-2.421701757865861,0.6612055908543076,0.3543965141259403,-1.030775315583834,-0.29149785210019474,21.50281218961328,7.9095751273211015,-0.0698139823854772,-0.021231747689149025,11.085087023091036]},{"bias_weight":-8.326211598311145,"weights":[2.967168181168449,3.3548788438053125,1.446233835976336,1.1239088265019908,0.4224638124885762,1.3826768015379594,1.572417304292797,0.6346376780535604,0.19375350702259894,-0.7009115991797279,-0.35844913744147855,-0.5779247865935679,0.05729117518331895,0.7291949935910526,-0.32323784318851145,0.3871548509317733,-0.06852742145091996,0.021890800072303655,-0.7167454560127017,-0.8815759767046233,-0.6946875832654896,-1.922219179277448,0.08767693436734267,3.6236958500298457,3.9969167644224326,2.0847643420227504,2.1763116136011815,1.6122872391050223,2.1135910678169942,1.8414069811533336,1.974364506976256,0.8965488186529641,0.3777708849650502,1.023106862053362,-0.34935007418653546,0.8289571425721615,1.4255029261368972,0.6104735406443559,0.48467802140381727,0.36453571721551903,0.27487250940135255,0.14848735536452215,-0.30070986530829563,-0.27057378388422487,-1.5483714008336438,-0.3400536671710357,-2.147664439021837,0.6824334767166591,-2.0390944512966604,-3.797571684542405,-3.1211165384167328,-1.9091411609362032,-2.789311372469071,4.9141985689641645,3.7278554364943246,2.5384417905661567,-4.309780838234665,-1.0147840014754483,0.18554705882544273,-5.386368655101998,-2.552443930602072,0.9553400483468241,2.395852644165453,-0.4926489519260535,2.005728338564776,0.2581501667240149,-0.03459216109355782,1.9297126374427096,-2.199432227565664,-2.171450762666234,-0.2902734235653225,-1.4041468747665136,-4.890370453930628,-5.564462070837274,-4.339568652302338,-6.007563766106875,1.2639562961841886,-1.3140574294750473,-3.076735199774189,-7.7026872361329195,-1.8204833515354963,-0.4013347149360176,-3.7085978461580282,1.0859588788418228,0.375305470974026,0.854753209554282,-0.24095375194413465,1.300482142368969,0.8474543442181726,1.4184285246276707,1.7987000955812653,-1.6321877765797932,-1.1203807193131625,-5.861089517911492,-1.1481205833641321,-0.0698139823854772,-0.021231747689149025,0.10765820846549067]},{"bias_weight":16.901539627237845,"weights":[-0.3310194588895015,0.845407776757942,-0.09730447511800439,-3.296492171142406,-6.493052572970274,-6.028317686503235,-7.371150596425808,-7.4777726952171175,-5.784867460017328,-3.5043445148927486,-4.669360604480569,-2.688406024930062,-0.6020773321724425,-2.0065555032597437,-1.3287288875532053,-0.7161004009128356,0.18724817239423716,-0.9922185112107638,0.43898788475574546,-0.08890584811927814,-1.4300345267448953,0.08593595154259334,0.13608337988177857,2.1473579080974927,2.706272675707249,1.5802838908638819,-0.9874313321882314,-5.626263992975321,-3.6138146379676024,-2.9621185362322766,-4.610589944366939,-3.608191013940805,0.2217220228033134,-1.9593806523016264,-1.6995135541012787,-0.0011873412916331124,-3.1507797622667844,-3.3218929754997193,-1.6433289057799292,-0.22909754542077734,-0.9156975482907337,0.41628865651845043,0.6598029466320092,-0.5731207690043545,1.4386890980918805,1.6375010390527929,2.3111034628808316,6.635095971764184,4.275523553652537,4.341774467387959,6.713366692562244,1.8332517408777933,0.39282616658403785,3.2965025306091755,5.842692923436629,4.063883865241575,0.7899969961096185,0.48204753510060794,0.3946332779657622,3.6121104420665127,-0.6888477682057532,-0.3348701439762743,-0.024460374167574878,2.358676065632715,-1.1768601229831293,-2.223548702607123,-0.3333537389745779,2.048348712609866,2.95546056929844,1.8876691871079119,5.148507182129716,2.481137581207036,1.4727848397928975,3.873394061385601,3.455837346818019,1.2190269960556597,5.226251739486673,7.479278329721701,6.743837206748352,2.5713373975397595,-0.2727376806548793,1.1125615487099818,1.5018536774009283,-4.018992363963847,-0.8156610993810698,1.7144556610453408,0.5688918097403172,-1.7021337324178447,-4.533699256510734,-3.2798694222115747,0.8067848130178645,0.4431535121482895,-0.4357268523850827,-8.41521832304657,3.764126667210954,-0.0698139823854772,-0.021231747689149025,0.8401260081707322]},{"bias_weight":30.475229816215524,"weights":[0.7485656321409542,2.2385713191365624,1.5782330708969134,0.9668467778865665,0.5492930308552232,0.5711190248764789,0.3746643202324335,1.7826486560183092,3.5225735235899807,3.754606787295279,3.833627351555059,3.443591019872029,2.2461875910152362,2.1867035822283603,0.08024589210506741,2.115114037770515,0.7840074156904353,2.275795165864627,0.697957118491466,1.4346345570589718,2.6567039146277023,1.057086912970425,0.7300313739198558,0.6434079132350702,2.3021587520212443,1.8096603439753716,1.385212875443154,1.2520386121018399,0.7781527545928111,0.5147685211382352,0.7542857036284005,2.2539023110217618,2.8788373775334235,2.31681519016965,2.5087102571079685,0.5901638608111272,-0.0741048190645968,-0.6934126614343116,0.6827052031361016,-0.26185691570426456,0.9142903873392315,-0.352509818381374,-0.1743843342125447,1.3615857884270994,0.10605832511479281,1.102012956577331,2.4417313480523566,-1.6730346790854345,-2.7421904965277912,0.49184351949917343,-0.7521647756950122,-1.3256211659668387,1.061780328262125,3.291774907024554,1.8321061977683424,3.527914570055895,5.150618163531316,3.670192122509425,7.926992582023393,4.3509558092991805,4.408822796826794,0.24179711106707463,1.2294166161834754,-3.1222455696683364,-3.95866751948506,-4.061753003373526,-0.9071693912100989,-4.114092899534159,2.514091026315,-1.6340899695530955,-0.6536151538125319,-2.5447795349445252,0.9425264850776887,1.9103750294791098,3.05527593081738,6.095221158108611,7.38059289877956,5.4491389331356475,7.841243521062913,7.220609462659465,3.827090921942632,8.000487864793616,3.564088931856282,0.6536590331691129,-0.7957067642755802,0.7263928861556594,-4.985400067798964,-3.553811977949994,-5.048394888799689,-2.4449259860706776,-5.300298144475374,-1.7308608959300746,-3.3952705403866292,12.47440020299855,-3.3358916327481083,-0.0698139823854772,-0.021231747689149025,15.96100826410715]},{"bias_weight":13.815867051876953,"weights":[1.462194195730013,0.0040732942465476285,1.991302610341908,0.9057385670455296,-0.2888471437388675,-1.1552011165448404,-2.800617138187425,-1.2799189515067837,-2.0050602785711225,-1.825421400154794,-0.6657698581036163,-0.8240809456879817,-0.030301473956444516,1.0683175859806069,0.9001527998863454,-0.4631709296687538,-0.3644415746814113,-0.03243496924820849,-0.2527499552795404,1.4449465999907405,2.0852503707565484,2.2509085709036714,2.0083797397938596,0.9769842745870431,-1.1938402725922659,0.8793797943757503,0.43683777499986165,-0.34008354397820206,-1.8568556184859117,-3.123822117750661,-2.9801292899673304,-2.9107098170480876,-2.3919975723712508,-1.8978597315316892,-1.6651823052547503,-1.1767539364886215,-0.3689875643999507,-0.9804283698766895,-1.438050157028207,-0.49452980962438087,0.3320976274113433,0.19525321865366105,1.9084741971050656,2.1336519378461856,2.4962488285740876,2.818782280539366,-0.6915421751574667,-0.37233595912934897,2.7793135824797233,5.2586857701658145,2.0438980259085895,-3.000847837423562,3.423921444173708,2.497733666604245,4.225156219800152,7.304827606025823,6.856858442561278,4.102796847716063,-0.46074807816863855,5.505337408937011,-0.834675584952911,-2.4387980749146103,-2.727653930191039,-3.6283429913794527,-1.0972388575775545,0.20460538452998386,5.765979908680746,2.9634207945299247,0.5297101813015912,0.5687406790808909,0.9073282976189716,4.3135600785089405,6.312948475443878,3.3873586871710066,2.2162537723357234,4.88909986035237,5.083556544180725,5.465773224943153,7.900262023450719,5.072275732822918,1.9770450026222244,-1.6181923248645191,0.7017926223094745,-5.110872494776943,-6.2226493096863,-5.0935298245195195,-6.220428679332015,-4.153791360526367,-4.15901963276635,0.8989960310914753,-2.001651793076796,-4.343041116297011,-0.5912488940032684,14.599027802627381,6.85291925523458,-0.0698139823854772,-0.021231747689149025,9.066756322014715]},{"bias_weight":20.67169974568797,"weights":[4.317390709744299,2.6837831420592244,3.051134033853586,2.6828827149605714,2.5926462023446084,1.4538839507939685,1.5185484243125735,0.40541039039886556,-3.042331030360416,-3.2908260610337727,-0.7995815987140336,2.863646227534524,3.760954440021016,1.6743310651358208,0.44241577652297176,1.0981170341147202,2.1344779330524477,0.6127378717359283,1.8386029608021415,1.5486998001368604,0.3379878289554535,-0.39063956376302916,0.5508903586180618,2.3905208598520593,0.9711034324555669,1.6205770060570932,1.038035637784784,1.5396021908657531,0.024014955168776927,-0.3671821481455674,-1.2026193936600644,-4.552627452171458,-5.101408639349413,-3.0443974031665615,1.3587608132250628,2.8708774658993597,1.064122499361016,0.4935636404072634,1.4438203736710709,2.046624201192576,0.9334357694771291,1.8624112663741428,1.0892736207387406,1.200986917372169,-0.053735766603272464,0.932067010059525,-0.9975641960549133,-4.931927607755986,-6.047258811080346,-5.721049661532683,-6.206292030648737,-4.604203738186132,-6.150322828554442,-9.709998438299577,-3.262114721597394,1.2001259286960042,3.927177480443099,3.3730837418505017,2.529108896868805,3.3871565530121717,6.181890521162059,2.914100331289845,-2.9790865410599117,-3.174682079348348,1.0428393096592818,-0.13246643944924955,-3.3529992089915166,-2.746732445407888,2.2506300733117106,-1.3724786668737456,-2.2475571994722765,-2.8875511006620576,-0.8506728567330086,-2.653286754313197,0.6305109064730272,-1.6641672129691467,-5.3897255231346035,0.2508903773520596,4.0462309788642035,6.74071970621617,3.396489754248256,-0.13598052053335438,-2.34651350877213,0.5982255445024706,0.4174011034250209,-2.6785427079620483,-2.80658152079006,0.27424552691868953,2.1006608297764346,-1.3232352165032526,0.13203662071495473,1.8769474420251722,0.5816357600049701,-14.85524956713628,-3.2097409147392506,-0.0698139823854772,-0.021231747689149025,11.328149532548222]},{"bias_weight":-9.053760580298892,"weights":[-0.9044010510319936,0.2279703774052403,0.8672615503455035,-1.0059625044234322,-2.2676412996362885,-3.36199766928491,-3.9260776774565085,-3.986105347134338,-3.918570875986926,-4.480979834693517,-3.490704965673648,-1.767168291217228,0.7741735013486737,1.5398615173017376,2.621409161425257,2.8696080936236976,2.117579992226497,1.5454853406392686,1.260015288413823,1.2934653552797075,1.704559445467865,2.035957936805024,3.894217438794657,1.206904839607842,2.0737777522823793,1.4248723487078128,-1.4431867535705984,-1.8980190936033805,-1.8868595553787018,-2.8688861703529374,-2.8446336983173435,-3.721222398176388,-4.403643313724431,-3.1369823230431892,-1.7679575405452013,1.7765916308365322,3.43059137948437,3.8713230075954583,4.553763825992443,4.041434794897683,3.2572116768018393,1.5909147574159048,1.2204764578000873,1.398814206758478,1.6953626270143474,2.770686820566117,-0.9949433139041165,1.509220979501029,0.3201461402456192,1.9973641275551726,-0.7640244718595638,2.3587755991211,2.9497670724642546,5.703834996475071,5.236936542039776,4.41054854402084,-1.9483655542568201,-0.08074209211250016,-0.9327223458562978,-1.613598707964617,-10.704169691710817,-4.7757322401418385,-0.8857730651810536,-3.3692089257950952,-1.2716144875082793,-5.180698329315678,-7.37665878137605,-6.72283775122682,-4.636406718294387,6.040989861082762,3.0787523452248733,2.409921796129487,4.439793885364144,0.30307687757899293,0.884107794349516,-0.3496148522485956,4.492573329430852,1.5883550434481517,0.6729114899281203,-3.809669851017329,0.20498626967091385,-0.8599804907321497,-0.7239468324671984,-4.592699985654581,-1.8473680634399632,-0.7423742522526198,-1.9753259581067575,-0.8282439091047793,-2.973620410172593,-4.582513929881463,-6.599651042153366,-3.844204067317872,0.8535046564417276,10.76315606620965,-1.2244395441812344,-0.0698139823854772,-0.021231747689149025,-5.984143898213932]},{"bias_weight":27.35725502855018,"weights":[-3.1312208067932135,-1.420314177667442,-1.0176023606156475,-1.3106488317328508,0.058289321566615954,3.224170916696397,4.276668468837283,5.933327633637297,4.8174319792772184,3.449920566628403,4.890969174041789,2.7202776213013244,0.3769195633732535,-1.5586127946090833,-3.9291392598552912,-5.583148327415059,-6.466797984830797,-6.091230268454765,-3.8215779475472855,-4.170081494606468,-2.8552697421900453,-2.3634966205098977,-3.6553450111171073,-0.33115540672561705,-0.15204250919428575,-0.26506875265101626,-0.9432341976868946,-0.6256501053774951,2.519348554561523,3.8860839440472446,5.527363171928893,5.071338211039213,2.810290547678945,3.6888713374529747,2.4242645206729097,-1.2225941858435951,-2.490735528740121,-4.452521403641891,-4.979118254249262,-6.407757883715425,-6.395132036785994,-5.303543594818329,-4.328830027561426,-3.3640836464595587,-2.5164610794429074,-2.852788502147574,3.945590790284319,3.0403133921614356,6.473501135651372,5.884138948371955,1.2196617376483478,-0.3585531296207857,-1.8367339281103272,-3.2925252807403447,0.35038235430465653,-1.9487306443433012,-0.4831566693879866,0.042556803901528356,-3.3485676136289277,-3.112124730633845,-7.227019757059531,-6.032587863015849,-1.0750265553721348,2.4516108623755857,1.1428645138609457,1.4134973552018422,1.7381667026465617,1.0596945171425571,3.63302577034746,3.866726217585744,1.8532266874795893,6.796937988794162,7.748833960927172,5.681296263354706,3.7468524508277095,0.598023082876758,-0.19236547558343142,1.8349328642526659,-1.620033960761549,1.8653560885821936,-0.7254779061362734,-2.43925844529067,-4.581132407785099,-8.586654500990855,-6.218263043658465,-1.4931017151292958,-0.7665229105302657,-1.850926228653474,-3.4188668683434953,-3.193195934426259,-1.0901997292144519,-0.7485433704620331,0.9917444152567776,-28.82524673791502,-0.10069331750088326,-0.0698139823854772,-0.021231747689149025,-15.128077990242902]},{"bias_weight":-2.5660024237400343,"weights":[-0.44575158945579507,-1.082031971549266,-1.1432894129577666,-1.5502401561310557,-0.7017155902200441,-0.6871121891358971,-3.9772845874670786,-1.4491509337092952,-3.70012014079467,-4.962812840257929,-5.326153350612745,-5.009577045994102,-3.559059356375128,-4.1427014807848925,-2.878643744737048,-0.41300521361421766,-0.21058036029219154,1.066612431105966,-1.6331308965922315,-0.5312485646331035,-0.799841892642707,1.6045986953977962,0.15742870130176098,1.1701031788406575,0.07656193524130062,-0.9077304428139775,-1.7984658399265383,-0.283138301450895,-0.22310594773174436,-2.999244601699215,-2.967879375863297,-5.241837479688052,-6.303891264881848,-6.406144799521731,-6.626735519864396,-4.844761282838978,-3.338319484132331,-1.5938489939440046,-0.37472068401524106,-0.8566976422871743,-0.23302788720712564,-2.7879193838798537,-1.4246792027497375,-0.01892873173579428,2.2263741982731946,1.196615153819812,2.5513887862692477,10.590754239366163,10.125467451347301,4.1400716393709525,-3.1457341343897784,-0.5702949169988594,2.210680908357943,2.849641120206275,8.706274433024777,8.828136761147281,-2.9655003520694048,-4.7467681367819745,-0.9173654830110055,0.9641396307010915,-9.232783531679805,-8.779113345797377,-0.23560930645939704,-1.2084226299723078,-0.6728506186958318,-2.9578382397615703,4.004638892606559,4.692939853844524,3.8984821188326686,7.662818856565377,13.349129780488635,11.924804493371918,8.121957168764013,-2.3807031766956332,0.8902373365579797,0.184181750735356,5.361949580223151,10.161482667470414,9.419763963625453,-0.24263346254183055,-1.8325921705266641,-2.0382161937094905,2.9934587760366784,-0.06324044775425745,-7.596164223352203,1.4332478113599234,1.3946968005220257,1.2383037203436977,-5.60790228196899,1.8325430870315413,0.6655361234265447,2.320892283517181,0.46010669463629844,4.901100740135353,6.186494827946678,-0.0698139823854772,-0.021231747689149025,2.6800875934970247]},{"bias_weight":7.4517964710809546,"weights":[-4.232361529146973,-4.07053998166519,-3.7233239980167037,-6.346695821151224,-7.926415708633517,-5.225472746038703,-3.13454801944433,-1.1339706156996867,0.1414167555040943,-0.13377153253988658,0.5225578984962436,0.05917631183458139,0.30933853573862924,0.00447953051824023,2.814889714503315,1.7251662993859023,0.42633485481236066,-2.5400279537040222,-3.3103024512867507,-0.426820906641635,-0.0016852933659377693,0.04273864817436934,-1.849576271802101,-0.42531031796259317,-1.6784685625027607,-1.9791582528291494,-4.2778374645572885,-4.979741641115947,-3.2343710085644166,-0.9590800990925589,-1.0361109276452436,-0.7710112174824914,0.7353456997144873,0.516623990503262,-0.5299667317961487,-0.7109420146980743,-1.6872279704540734,-0.18502879599889704,-1.0615218793070147,-2.3645273797018693,-2.539744071618266,-3.1055579314485526,0.1980754814559265,0.6972916438956906,0.4165566673246882,-0.17373560607530894,-0.8578423614228645,0.5857468322151457,-0.29510769773776496,5.111261600270152,2.7424043544990013,0.03628079410351247,4.6543962341848575,0.9356257661421067,6.141176800361629,10.539917823966487,8.397492504207689,12.048774679603191,8.046457224547078,6.548773212868647,4.477891829067642,-2.1884629464940253,-6.056941879817132,-6.181107137977307,-2.4385835241301663,-1.6115577408931607,1.6344961641698794,-1.093438538808294,-3.607589566550822,-3.314545275490399,0.2013968669790186,-0.8853186348169183,2.6971836181604063,1.6250713540443669,1.5696110061079591,6.154754183478806,5.376740675688261,7.2928646070909044,12.142361638661965,6.704527344146189,10.249867823501033,7.730849189859748,3.9923419974750143,-0.19855794437018237,-3.8235357271442383,-6.007074589607349,-7.598937783117807,-3.7363341086851505,-2.9751058666253143,0.7989945209910394,-1.038006519269861,-5.276617699117816,-0.6306519765157512,0.29736938569625115,8.284705117068993,-0.0698139823854772,-0.021231747689149025,-9.829708328424632]},{"bias_weight":27.993038629655082,"weights":[-2.1108522822695868,-0.5901950400871838,-0.3861281341872037,-0.2951604465048071,-0.22958726985016809,-1.355671845734813,-0.7578229269224659,-0.7657257480807296,-0.5438443983238189,-2.5123642146364085,-2.1455232031746516,-1.4233675144604143,-0.7352566279889309,-1.390395521313796,-4.547033172775399,-9.19887050694605,-6.814245994931928,-4.164113618330684,-0.7384568299810318,-0.4869942651985684,0.2626897210521944,-0.4536812699233774,-0.9588324408152575,-0.1555384734561039,0.8445123792792308,-0.3082580221491914,-0.26505241035971056,-1.026071765193791,-1.4422595847270887,-0.4782772234179921,-1.011891297384628,0.41956594569809946,-1.3578743789416439,-0.7519112364681207,0.03332729269838634,0.14543857378623692,-2.2360769126319493,-4.9521669144750415,-6.450830061525271,-5.039322014517078,-3.5314368168829193,-0.9865206959071195,-1.591190402371143,-0.8823076146893273,-1.526383193366095,-1.0468285780264728,-4.538437075666662,-0.5880926689287355,-1.3610595048374778,2.3259598870916003,1.9934112517096583,-3.542148135690646,-5.895322380506143,-3.0087935699369175,-0.806946211781543,0.2502435913517389,5.7240037333438725,0.864717133515146,-3.607939836488886,-0.5737454086907966,3.585794360471996,4.042947042977884,4.608830022127358,8.767134358003085,2.2328912556482328,3.8448733410519256,3.8689461821405207,3.8779411200659055,6.6200462430349996,-4.991243443068143,-2.511066349232929,-3.912038044494343,-1.81865677564148,-0.5833284196343191,-3.8141834494211415,-5.448139160979117,-2.3265734035209498,1.5326507051612492,1.6389139503488785,3.599459672497887,-4.647695775662123,-2.3334661301550184,-1.4219733767090539,1.2346284577308444,1.250768300882181,4.330519763441694,4.829739452521861,0.95643835700659,2.28458969835018,2.2769638937598597,2.4258946784168542,1.6553934347782928,-0.15486456738779789,3.331142200808696,9.787539035605786,-0.0698139823854772,-0.021231747689149025,-0.061213858888380886]},{"bias_weight":-4.627472742255231,"weights":[-3.1106952632112344,-1.2985816355177042,-1.6771886632275104,-1.839079667134111,-0.3580232884595719,-1.1719740616961458,-2.525462609330419,-5.8666813778380975,-7.13416952347885,-6.941676500579131,-4.538743886603172,-0.024408102301854313,3.2417315258302013,2.349190589284395,-0.09695025469079359,-2.908751107168479,-2.264992793742603,-1.6555035337502246,-1.1205846066462264,-0.261400493133876,0.585408140860112,-0.03479898061733428,-0.16398077469904876,-2.5551087899205487,-1.250810580338433,-0.9625183847583054,-0.2076724542142964,1.002607817024857,-0.15691777625716477,-2.235727566627724,-4.03490015180865,-6.877930599588875,-5.53204046616089,-3.66746193847014,1.0638405598648064,4.964260174917483,3.2491103439254005,0.6672715509462498,-2.134950378381979,-1.9047748977587253,-1.6780538908641662,-1.882594492317068,-0.9127484050056646,-1.402482832470307,-1.7582038061702778,-2.042463944821924,1.874365527325693,2.980531393020087,1.0424759142605868,-1.7283453499168135,-0.3480459905544532,-1.6994925971811856,-1.129625609693753,1.1308985980408603,-2.726447611706823,-4.0138472642511855,-11.34725441750172,-3.82907349102662,7.700729985433226,2.521978662325686,0.4434506945750457,3.109082538738927,0.11674451045148859,-1.2877298591448358,-5.641212031512228,-7.922830843169935,-8.796926711445087,-5.757065855176207,-1.548816851104306,1.7308664311610094,2.078232930938028,0.48836858887658235,-3.1107233686766325,-0.6085031577233292,-3.9105591724020807,-2.4366197777345016,-0.7755834494248327,-4.700721793604585,-7.666239122720988,-11.90912618709776,-2.5655549215684816,3.8224537579796856,2.56049105701438,3.6093674584812008,5.386803866967848,0.9027055689144541,2.4320497825743304,-1.22433924605491,-3.3185077410495234,-4.167791566407719,-3.548630247716409,1.2423885213345587,0.7918053370952196,5.184813928907519,3.5933415351363105,-0.0698139823854772,-0.021231747689149025,4.714796667904532]},{"bias_weight":9.151384606779681,"weights":[-3.447649071139238,-4.204817666668276,-5.744433716053438,-4.49217910130757,-5.1444858478011115,-6.256506016530953,-7.196934063115655,-5.835048192987572,-4.546303332969994,1.136956496893252,-0.5011893791338052,-0.018178178085765346,-0.9418898527583301,-1.3201298482252786,-0.9875263247608246,1.1695755295372445,-1.0533964043263737,-0.6081091910458362,-0.6996881990481351,-1.7576928457703727,-1.217736147401938,-0.2036798185432593,1.2919245217545097,1.48882515861176,-0.4798829918205148,-1.89714267391698,-2.088902810893351,-3.223313237236211,-4.447106147762065,-4.41396238331425,-4.773382046617605,-3.532327388414169,2.223912150309873,1.2085809814852644,1.083665515274596,0.23496294237515247,-0.24833422883240483,-2.184097157019273,1.88847364108826,-1.0059604265619495,-0.38110135474157075,-0.16526725694015917,-0.6593967784145348,0.12812044116704824,1.6537614453047804,3.061441646859161,1.720648705455076,-0.22905259814717954,1.220827534069396,4.300458694866933,2.1925726704324027,6.118901626839834,6.746902404294961,6.5812208276263355,3.1895358659463127,7.098288949075877,12.497200994178547,6.67942878694698,3.600963212293887,5.6414047869998996,0.8046697566940835,-0.42076834095140214,-0.8442384260288522,-3.003176361004423,-0.44526530365226064,-1.336268957239963,-0.9254096487547003,-1.6739988213549541,-3.1382719293577206,1.9343270973849178,-0.45028180099391757,0.6891635436649175,6.887856855933983,5.9364577086448715,11.408376113051533,9.906951449410254,9.935342622718672,6.52310397086227,7.976813026189757,9.033681188758878,2.2492197376861385,-0.433636268471931,-0.5016314736184035,-2.6240256344748483,-1.435770022525962,0.5303840799468948,-3.9827181751373266,-3.2842166246263753,-4.866476918438676,-3.5233827884833895,-4.825175889825933,-7.399334790698369,0.6867961058078018,10.086370171321295,7.644114132682169,-0.0698139823854772,-0.021231747689149025,7.388367904361448]},{"bias_weight":-3.015430582351095,"weights":[0.1712272516705857,0.06848675970387838,-0.2570717111405147,-1.7630997217108095,-2.5785802890278484,-2.804266164595811,-2.6896724345223517,-2.232561973087614,0.797040275522279,1.8275967740343741,4.14921100100071,5.2874978289481165,4.645595425192762,4.438676255800011,3.5812182476941374,2.0890054986906472,0.22147092877772256,0.140293764016739,1.4416548693556843,1.044752992526467,0.6321132469356804,1.1490843916136921,2.3293137849684773,1.1033897112312356,0.9899342608917276,0.35692243369380466,-0.6557893366200925,-1.3737645537672987,-2.164348166860452,-2.2719023036713475,-1.495835999726643,1.2409251114479587,2.3612631681993226,4.875351749445207,5.316251071617042,4.821504562025072,4.279382311604306,4.203291301457784,1.5006582552811363,-0.43032168375691954,-0.5856725675754224,0.03547939133493583,-1.072936664169931,-1.2242502849602244,-0.7201844719521195,0.2740191956481602,1.7470238767885757,0.48253565000354964,2.0098320638291263,2.7505546214115704,6.337868241909747,5.0240910978765125,6.447848930781827,6.327865859030013,5.176126368078342,4.9587509436944135,4.714932410013533,1.7660939755023715,1.8226565020161463,-3.206721156648938,-2.1856992175075947,-0.7010018208425722,1.0960046374643742,-2.7821660726909307,-1.484019251013206,-4.889422085277046,-6.980507127432522,-6.410169870347637,-2.6223893266555236,1.1393879690923636,0.60400600406281,1.6692996901059158,4.3145294609414115,5.730202902010886,4.07868800622894,4.850520093961175,3.4426116647474427,1.9560002126521001,0.48182453570275696,0.9921473846658484,2.1173606906950524,-0.5726048974746193,-0.06176171788842389,1.4405450475025525,2.1257996990902117,1.2963477001841037,-0.38992960690494577,0.9372255828506116,-1.6427211479969361,-2.5517787323795695,-4.168434447709243,-0.3196904951277997,1.9129504849535948,9.002056667154092,0.3433287894252936,-0.0698139823854772,-0.021231747689149025,-1.6823475226273803]},{"bias_weight":30.71016918275883,"weights":[1.2901282636896427,0.8895935022179808,1.7844648613026626,1.5297415516656414,1.087516039038459,-0.16273175553911942,0.1479886424650126,0.11754997484160618,-1.3181271907973393,-1.9825744769116203,-2.8318997086535984,-3.4774459820949084,-6.287749365534531,-6.512734995927796,-4.940149827570887,-2.247666563546696,-0.34089146168454604,0.8863173872563274,1.5906028286273528,1.2724255726497302,1.8665003495791712,1.0413587924206797,1.490370767659295,1.039264506902376,0.7710353885050407,0.45701669001150425,0.1940076236795462,0.5481844936811777,-0.5761376014751641,-0.3502470670765474,-1.0549302137170815,-1.8098090913207892,-1.9755773239125836,-3.3581562695964795,-3.920677528553215,-5.5992773184223585,-6.778810821277407,-3.731605930259637,-1.7757253911854356,-0.015585465137302745,0.1444777780548994,0.6659423012101714,-0.1312427515039577,0.0984322317766799,-1.2379004409240426,-0.2073634158233006,3.855372081248314,2.0234360421655015,2.3676092512113627,4.265642786601458,3.4747811654867324,2.902398269092115,0.7856270666093982,2.5403782339376613,4.892224205787048,6.702851143862595,6.498752572627952,7.701695011820836,7.4068971567599045,3.470990501231262,6.28213189361954,1.6920933083925698,2.0239055938828274,4.5531354264379,3.23498611398821,1.3867581642320255,2.7319177580382368,1.0710707241928779,3.7832809904111335,3.038926504011993,3.084376843665177,3.0547790883600143,4.5513833294009665,4.390464486313288,6.47123759193556,3.7469352764304396,4.600651472885009,9.032327804866545,10.790806271783586,8.164721731104418,6.098014441250536,6.05785051560279,1.7291692601929616,1.9225870585033662,-0.2414661071323654,0.9404229766247262,0.05562592930436203,0.5570375651007359,-2.717680542771779,0.001717546302159033,-0.11390372575144761,-0.636758756229973,-0.7227993988802843,-5.271820085940353,10.945443323191908,-0.0698139823854772,-0.021231747689149025,9.135404240381199]},{"bias_weight":13.197167610670837,"weights":[-3.177625947647955,-2.264407083741005,-2.013741224818662,-1.9228042829912095,-0.5211009512939818,-2.298665219213942,-3.811544461389582,-3.4344218039144288,-2.7816884448678594,-0.21086770145229092,-0.5100101499734376,-1.990194593290943,-1.7333910652116227,0.13553505636369664,1.4143141716123322,1.1100457770137258,-1.3751728251206494,-2.3553939865890228,-2.3995279048060296,-2.518428765552081,-0.8654851462742466,-0.04323602020980454,0.4748071489369066,-0.7514974595640449,-1.7947392488437415,-1.7339946641414667,-2.192817202123094,-0.06764081785880643,-1.2769335040334837,-2.2221963854134272,-2.2654951198492816,-1.1742512385890962,1.1585963753450084,0.18200744337806884,-2.222137877856746,-2.347679608868513,-0.005964086543587104,-0.04338163048909211,-0.12221664230359609,-1.5355208322920277,-2.528630392214774,-2.2233296961538107,-2.0798360319173996,-0.084503085776598,1.7596409221997866,2.563037334269382,3.1037442498334005,-2.4440269114025,4.2955873061070236,5.675752770720277,4.1321481593545855,0.7110876300729948,0.6748934303198992,-2.8086422836888585,-4.388249916503131,-2.013842780788078,1.8030026503845906,-1.8154611037255783,-1.297014685312452,3.364475479397886,-0.33929668782799255,-1.6762092868190561,1.5818923740717954,1.467364621070653,0.6852976946609274,1.3474127806293754,0.8715398166710779,2.366001389743028,2.3531763234497176,4.173599006670957,0.20296845049564627,6.0722828583886965,6.798710686333077,4.033070942294163,3.6710172494765376,1.6526773606351046,-1.3112038600547158,-2.371855904339491,-1.3032653135493764,1.380145458351398,-4.23108718125672,0.1634508419878483,0.8822524181642412,-3.036052938087066,-3.0486427703446592,-0.2253108225316534,-0.8019815743031962,-1.881966499542533,-1.5261632496999733,-1.3040132381750569,1.1435415911738949,-0.8298098910936487,1.3570113042776286,12.02405932135928,4.6903921065576855,-0.0698139823854772,-0.021231747689149025,15.247785996672917]},{"bias_weight":-7.835966345830566,"weights":[-1.33216275408467,0.23190240072644,3.020342951030534,2.1561769495305736,-0.7849324051782863,-4.227286359351419,-6.596083099590242,-6.795543104601085,-7.888130786520432,-6.795899822573615,-4.350914451765746,-4.786285091087634,-3.5622631956964566,-0.44616599020419534,0.6155970788790656,0.8025702736048654,0.46833713354222295,0.5850121516529572,0.1265089785663675,-0.4916398365730444,-0.6651301272325176,-1.3060496700035273,-1.6838492248883579,-0.6739668916101024,0.46449428911046114,3.009877948774659,1.4102466949548562,-0.758806001033705,-5.469398312148665,-6.330693497206455,-7.324529315164599,-8.137056581821737,-6.2557201309284896,-4.40623069635402,-3.6947606089192577,-1.6898179386680123,0.4084403985806305,1.8640539748769573,0.8920984822943713,0.8287789821962965,0.5910972311210321,0.4433481198369226,0.02189886264151482,0.12761885211904014,-1.228611735915592,-0.854914063698375,-0.5379660725607076,-3.3179858285871373,-3.1070173117463407,-1.511768489201363,-3.4832040408418066,-6.246953507590855,-6.898659065339702,-4.681837881182961,0.43170231901520734,0.5992665039367049,5.02014790301134,3.6537148599450187,2.2657263490420316,0.8299310640928722,1.9578060862368107,-0.17783298633990893,0.04667618166833363,1.2100361825156267,2.3912932611023274,0.2081887659918669,4.767559149659482,-0.038981824719152215,0.7813526930807768,-3.9675469103666505,-1.6089096770896707,-2.9871921728857123,-1.7927466198788393,-1.150021782411907,-2.3565271700137274,-1.8388629293526968,-1.403637830672467,2.516851974364702,3.6716519717881653,6.536475932316128,3.485229573682347,2.3315756068844418,-0.6432919670208519,-2.599459114672407,-1.3255264335957113,0.32675619175595955,1.8800359866400456,2.7460724240538785,-0.7709092728923631,3.6015436382237143,0.8203377819655597,-1.1883356546505506,-4.174555914574963,23.38056523936728,27.162875846819816,-0.0698139823854772,-0.021231747689149025,-12.060881574145807]},{"bias_weight":19.894786841432946,"weights":[-0.10459554241726686,0.6857423495038623,1.348925449390954,-0.21946723058412007,0.05338223077686823,-0.16771115612778784,-1.8264082786032898,-4.9345966520037425,-3.0612415923223857,-5.291159800233272,-4.7647658583162125,-3.237088244174314,-0.9421489410323483,-0.20076535470115373,1.293537460067992,3.3101019010982253,1.4480868283852744,-0.2124207877450147,1.1680312330555829,0.5257869420215519,0.9439614600640355,1.5935194536154882,0.9270877491708002,1.1398472999707525,1.8649018296712827,2.0330562298809793,0.4091055082301409,1.4651653343641438,-0.039955490564730856,-1.4086623304731334,-4.259736183047896,-2.4555709265218515,-4.257005690605351,-4.7307011698116455,-3.6428184052265027,-0.8001496004810894,-0.6413306439919965,1.440517121991026,2.301504161190317,0.6027931254346122,-1.6089772004956442,0.18815950897058464,-0.2922005744604851,0.9890611734067302,1.6380744927349475,1.6683812721606675,-3.294320382737145,-4.391466692516106,-0.903656099546699,-1.8415453196956417,-3.823891909616499,-3.034998055799297,1.1569971063168418,3.8954201246821247,6.323041351332452,11.330087673123856,14.660937338021393,12.385084922704925,7.611277753971571,7.6171025136111385,9.247430640805725,1.3240859078265779,1.4913884864164462,0.4145103781011449,-0.49826068996190664,-4.149570816626568,-3.0180171093651507,-5.748104340712003,1.5625966916490401,-7.729078218938446,-1.7837073603404106,0.15991941345588598,-0.2992649453316243,-0.8706852825271156,1.583648199503039,4.566990058745806,7.870602889233101,8.967817410849081,11.941713528332118,14.61320380815331,10.762940857494952,8.33033177927256,5.6645993647097885,5.76923820589447,1.2708174546548887,1.1990604290676317,-2.9500778959734593,-2.7870101728686185,-6.8372370483155676,-6.706816129847786,-7.791014061636733,-4.4046395576595705,-0.5618732347109714,0.20044532849502206,5.189847422797792,-0.0698139823854772,-0.021231747689149025,-6.265998337715909]},{"bias_weight":-8.729365080664296,"weights":[-2.308628523666218,-1.0612450839273626,-0.6947085222626229,0.2095053086518722,0.642048702803475,0.16560378603469533,-1.5361385962514529,-3.8670036371876746,-5.041976996392475,-5.203372512943591,-4.317848529509077,-3.1011984974829256,-2.8403421544095324,-2.369822227449387,-0.529655187587689,-0.4809986457770021,0.5711977938292184,1.3010998841580383,1.8440290266654105,3.430428698065938,3.8075810875194933,3.499812173234211,1.6294044313600153,-0.41614871040981066,0.654931080223572,1.1914168427304104,2.6070431569057355,2.0136145367266933,1.272036852930992,-0.8196651459445952,-2.3103777059922206,-3.4475408238474534,-3.45464802074427,-1.517484387608439,-0.8192715934880295,-0.054630788050169146,0.6129082834384045,1.5013462205486878,0.8547690403942256,2.3822244333344593,1.8649018446695154,1.8867990783973412,3.1343500011903114,3.2821765363738615,3.010430204661679,0.7292551311309523,-4.155353290485583,-1.4755653898369292,2.499337129956802,2.770442056008018,-0.001362736073349882,-2.9870300379927044,2.8106635699214464,7.904483385186095,8.155352452413425,4.405832246708357,-2.035078974106241,-1.4352808814037872,-0.30143031512026436,-1.3205238551700447,-2.0786370594098598,0.34263630809441065,-1.7699913450088054,-3.638366322427382,-0.7358803267935748,-1.6551096189080041,0.15798614600585603,-0.053082636608269076,-1.8188734987970472,-1.5332504444695698,-1.4874731644050128,0.8391723313240174,-0.3096329251267329,-1.9457144960185233,-6.008646175543414,-0.9675587998282374,3.947938461047428,2.500674894293515,-1.4507310954213377,-5.450413582147084,-3.0208570025696835,-5.486307043248567,-2.2823208328431237,-2.5308834235812236,-2.607409696198106,-6.488134126710713,-5.486994626098305,-1.8242237070581946,0.8484544426514181,4.138457217518317,1.438242864420789,0.09156278690902207,0.04614693344147915,-0.005413154816884195,0.6958361634732503,-0.0698139823854772,-0.021231747689149025,-5.116348303827299]},{"bias_weight":23.51131390489266,"weights":[-0.5293761711132349,0.06845013545360337,1.8025291945942097,0.5982126744616794,0.5163751196437467,-2.9050287704125406,-3.304299683719504,-5.859049355947982,-6.5960779611998674,-7.743792379138535,-1.2442901166329559,-1.3753321188627956,-1.861109491273375,-0.5238252869447005,0.49016049969050857,4.096960775509959,2.218501281481657,3.075440916619341,2.8313379984245355,1.1746916999683852,0.4498639546293199,1.5232378502695936,2.184101997802004,1.4408170266365883,1.441249346995687,4.112762485579197,2.3627925628073343,2.7189910354516047,-1.087714147111607,-1.9423755683333301,-4.146414899964876,-4.7003615881139345,-6.645037653269045,-1.5760941726989763,-1.2157353537594218,-1.0141100375741152,-0.7142764403015064,-0.0005657527880568417,2.3853221369913284,0.7418971149027419,0.6249094544432002,1.1495789408819825,0.02358830504951493,-1.229740812240294,0.004104374046004071,1.8206518603866235,2.95056439439008,0.22760033607917796,-0.21747592045703007,-0.02897707478298943,-0.5460419159828608,-0.7974585371218185,1.7238787934679525,3.149741556709016,8.673739947830747,6.257146835837141,10.140525038727885,5.23152995060644,1.427632021672237,5.310335051052298,6.5529279124165996,-2.776682725013936,3.432935019684614,2.798678040733459,1.395546777151244,-3.3342105327052542,0.23666087767759705,-3.4568778866877783,1.8289383555553735,-3.4886013740342854,-0.02569752935529497,-1.5923206159690166,-2.7281185859899355,-2.649628545050269,-0.7355268790478188,1.7310713344896291,1.657818879474366,8.206276378304551,6.835135048630692,9.929116392890787,2.302276891288926,-0.23248687599398057,3.7424086495923548,4.5099474237015515,-2.1620743368514486,3.647186033142151,-0.5771757932170657,1.224729054543706,-6.0638114895823,-2.337196311041888,-6.672519709176337,-3.26508976282671,-1.2791952915047249,-4.524481771058792,0.926005210129358,-0.0698139823854772,-0.021231747689149025,2.553187136109542]},{"bias_weight":-1.379464214143822,"weights":[3.587923110081271,3.1919355155933626,3.2774954519355477,2.8466683038997367,1.6170762942559602,0.9230612424864542,-1.0306868050051836,-1.171441744512412,-0.5294731894740082,0.03539214871112828,0.3319354906533095,2.036033543652984,0.26077094234779163,-0.7272217246856703,-0.30181714427433953,1.5487443518287103,0.17134566202382645,1.9627976829459468,1.224588653866402,3.2695773072383556,1.661716081561457,-1.630787108004992,-1.4071147733754232,2.98863322006428,2.110118764985467,2.5819592794445905,2.3014717647065113,1.9231177237104904,1.228658615970264,-0.008457271715507707,-0.4352638118017798,0.19129989880929743,0.8036786051382817,1.453296379582149,2.140034483781668,1.4490376928640878,0.9046466273817501,1.7744448718020835,2.6743725838359613,0.9577130229391743,1.5342368538444524,1.2959846245490707,2.306333851754034,1.5206364138611967,-2.513297100304351,-3.025459202909045,3.109734828399901,-3.0114552114629487,0.2863106595656216,-0.7605024472280253,-2.8960490336308435,0.6369377737905912,-0.5978012421996739,-0.43668238153326383,2.433079017339487,2.595062577842687,-1.5253723714456338,-1.190058987795704,1.4501935815952074,2.1563730753759334,-2.9067507747148684,-2.107831099676336,-5.764261964017002,-5.276698503078762,-5.35233899566992,-7.947786122666499,-4.212161331371515,-5.1549269682528704,-2.918640437877885,8.506890326655842,1.8295959024963804,4.394517169731308,2.1992146656997322,-0.8298613820929013,2.966029440624239,1.013548772403991,0.7139496102523013,1.5935822461261915,0.21847686041538908,-1.6859841157677684,0.6464777564427509,-0.864787706126163,3.1867475323364434,0.12591216219174964,0.034977696527636916,-4.387496726564153,-2.7776995333649106,-3.2730170878538023,-4.963169898133222,-1.809169771991938,-3.388815811857146,0.12474434889069849,0.9640694725853574,-0.4615765926087386,-0.004150030809773923,-0.0698139823854772,-0.021231747689149025,0.319490555786895]},{"bias_weight":13.338666894996138,"weights":[0.25164895858604935,-2.4287031438164357,-2.2148494952202213,-1.8202004747990426,-1.9970155030858756,-0.5126753506253967,-5.170770715634498,-4.3594194540160585,-3.7754150446712496,-4.394566606032248,0.3936470085939952,2.0443972411706812,-0.7528109655533157,-0.5245573249867305,-1.0508553533024567,-4.45808893138203,-1.180092795654177,-0.37422294289710994,0.2423236867749915,1.1152124716131395,-1.048881447598687,-0.42681739692491777,-0.5238401652359373,0.22111850495159355,-2.609948169876524,-2.307783728478204,-2.0471677642252195,-1.9488663059325964,-1.4393364812556233,-6.027409914996456,-6.447152146088835,-5.323792428804538,-4.969705444843618,-0.5225668902281112,2.658797793040394,0.1660565169763187,-0.2669847939489993,-1.724918544871806,-5.565079019022315,-1.2376997510827208,-1.3109388895120726,0.3354009786462975,1.483655292392078,-0.9360232625895373,-0.9405524940294531,0.2874656428375558,-2.215665360404889,5.131509680504136,6.72884702503146,4.858601970766754,4.319136489377166,-2.1713819700734316,4.096462436971033,6.58177909610055,6.081688928247293,4.901550489386518,0.720086146686939,-2.759222683442276,-1.3333583186120541,11.125845898609313,3.2883648083976094,-0.1155254158790434,-5.548782180983988,1.205065022597519,-6.929835535794614,-8.614288237941814,-3.1752838171462483,0.028804960165315717,-0.9831762674478207,-0.4698102887009698,3.6279890481820174,3.456933291621259,3.322630971333731,1.1746782716723678,0.8186111616065282,4.712585965762023,7.0124628646140446,5.231251341409364,4.468053291488809,-0.2394639605903373,-7.267677210103776,-3.8192095511809696,6.164036957753771,-0.2204096797810643,-3.4544120758238797,-4.811147036569797,2.6180285119867523,-4.7126578996042285,-9.217148335326744,-0.4300387442097195,0.6080198952905569,-1.0371883507051554,0.12380473738472965,8.9295905324739,11.978811911987144,-0.0698139823854772,-0.021231747689149025,15.31778971998814]},{"bias_weight":-8.567225201628197,"weights":[-4.339464150213554,-1.4074125799952109,2.2623877084229735,3.4346260112674467,2.67361530122402,1.0615345855826148,-1.184098531225184,-4.951772028931508,-6.019019681314489,-4.8949562061987395,-4.300955825031623,-2.5286571970273855,-3.2370113694692475,-3.2373484007631133,-1.922728405315207,-1.8611557637102876,0.49483469139794234,3.1379998379465417,0.8196730125882464,0.5745926367581332,2.088443012704683,0.1982570816119358,1.0573369753388777,-3.243510455007762,-0.9920085630739552,3.541003387588787,4.861339082468666,3.1599771089217317,1.7159309129653124,-1.9232182310155597,-4.763911857960495,-7.020779368163727,-6.310479526873378,-4.381242893746523,-2.8825611083553584,-3.9276171260017603,-2.909908979188368,-1.3143202720640599,-0.6349208467202772,1.7003068141230309,2.352531147432951,0.6970437181272582,0.30089920468729653,1.3993195595472518,0.01618560364226768,-0.7067715816221476,-0.7175237419491018,2.2358998604013443,-2.65132715405945,-6.2354214899825715,-4.904757699253015,-6.39899992061751,-5.852129953272152,-2.73168459610869,-3.921123008681143,-4.435423291930836,-6.572831796171645,-3.315778514926978,-2.7825884600159028,-4.218833973952306,0.5228155063395056,3.8111711065943514,1.7179288239471353,2.42274266371758,2.704320839219497,4.208249981329361,4.545991565549694,5.785532480633259,4.537857400109609,1.870079001299692,0.6546835764429874,-3.436929451876367,-5.0325532147046514,-4.91259547481815,-8.792721280583859,-9.807618982030101,-6.368289136926387,-6.399261779881152,-7.578523097011264,-7.0076827817612495,-2.5619385697840906,-1.412937562602538,-1.8321894051285956,5.329294472531072,4.387710631111389,1.9355394666569574,2.797071639413413,2.0704058612894634,3.39693143223811,4.243527146021446,4.098695979097407,6.716966436314463,-2.283146971519585,-3.3381697733228117,-20.20960394365054,-0.0698139823854772,-0.021231747689149025,4.44355803328163]},{"bias_weight":-3.1392744865975666,"weights":[-3.053364906028559,-1.365096553763455,-0.25945543952355465,-0.051393196086480235,-0.9102237309410218,1.1544586409070807,1.639459306670899,2.5638570212338987,1.9779860445697022,1.7808081637590891,-0.3050531780971961,-3.671072014450285,-4.910647727063609,-5.357075993469298,-5.175600971288072,-2.6816044385071183,-2.951306165669571,-1.1105770934226344,0.2315216354891494,2.7083245317005544,1.4339569143629354,0.449599151356493,1.0552925221991922,-0.5307785942743576,0.16549244911038066,1.058736295115315,1.445747425962583,0.0676216572748154,1.9445756269243417,2.720966643078388,2.6050311616680752,2.437319677842055,1.1674410588068937,-0.6667471368625566,-4.581522890667954,-5.9625876497378,-7.401763119533964,-6.7925455683762745,-4.916031048115301,-3.7023890693018413,-2.6326993982569715,-0.8961684700959657,1.2371469464496991,-0.0424325794575955,0.07143140021134377,0.7492092378295646,-4.050002623732036,-4.115995587324866,-4.8350354056782745,-2.447375599113578,-4.529429387242419,-8.527265143195498,-6.367173793884546,-4.461257089872849,-3.9558879885382536,-3.466394205900002,-1.8898257425711718,-3.6862788594821017,3.405273817761794,-0.1696582421882874,-2.5068155263894223,-1.563060509668561,-4.43519985948161,-3.2909526785378342,1.3577288773942342,3.5966371704347995,3.4326056316563105,-1.1274523467892932,-4.509844469783967,-5.519124006946076,-6.309320578030057,-4.720869479613638,-3.099505888059486,-4.089907148545327,-9.12072560120201,-8.342614388079783,-7.416197630505267,-5.244366637271073,-3.27210878719631,-3.4962166765361267,-2.471947352786517,3.3117086946893344,4.466886131179332,1.0008576262162283,-1.2333650614785445,-5.605773380351029,-2.4182116180498863,0.13311831862156662,2.5222096588190426,3.6353498922437675,-3.1624186972361827,-2.750378301135736,-2.5904119800661394,-3.217980569786563,0.981867571574603,-0.0698139823854772,-0.021231747689149025,-3.6421668142050696]},{"bias_weight":9.824146319353217,"weights":[-2.306613347578865,-3.156403687366272,-0.542037176965332,-2.212696062601669,0.677514139511182,0.8958992233026519,0.7722488814921793,-0.25402978353923117,1.1199587308789845,0.765469666555799,0.2596438303908203,-1.2702846464222477,-0.12457722380161945,0.9127740531451655,-0.3812575117890028,-3.98831526037482,-4.477931918881614,-5.789135352288034,-5.091366629447305,-0.6714542059293344,-1.513560450026538,-3.3899116841238683,-0.00622181571342666,-0.8465759536108122,-2.0135474633980253,-0.03326496469329525,-1.08749336361861,2.1508642211272173,1.358615594366816,0.9510517059590111,0.15497204498572256,0.7121382611388891,0.8022214896435643,0.14991440053228652,-0.7679835051761813,-0.982709362000611,0.17291245009690065,-1.8532092934378894,-5.283731579259835,-5.542989514523631,-5.4765116566870065,-5.088729686987489,-0.03148766840940432,-1.1911689627117181,-2.948159184115055,0.769825591043658,-5.4514389878030585,-2.0504947755603022,1.9867435615101607,8.47174717947135,5.363593093980281,-4.831752602968836,1.7476816315235892,0.31453822027598577,-2.6893521319681195,0.07153095488206249,4.088698329022211,5.238732808695283,7.012174308941212,10.329454637934232,3.0646384982621,5.105799552715805,3.6208416457100463,1.9338405285044578,-2.405324487414689,-3.451854871543084,-2.2503524077968495,-0.5016323383292856,2.4704467882777963,-10.263104041602137,-6.938523306364473,-1.8681813201614363,1.3216403482745658,-0.7535502648286712,-8.168582045744893,-1.2844476967985308,-1.7912073293220443,-2.2733910364234284,0.5286653703325865,3.7422498999843126,3.698848968993728,4.939675512359738,4.521405710765524,-3.4115197569044104,1.7438955437382426,1.36931895442257,-0.8123726190802372,-5.278834897382592,-6.291896271509948,-3.637422297163197,-2.7925074508407026,-0.6958974929696827,0.4251557946800981,26.04031600906813,0.3452050438982829,-0.0698139823854772,-0.021231747689149025,-1.1370427529394875]},{"bias_weight":-3.709647130094249,"weights":[-1.2221195450514963,-1.0566118037328696,-1.2253224199792854,0.048719304043178875,0.8954564201254162,0.3335709164606039,1.1934658748417903,1.395548213810875,1.7230361876860973,1.3418224213614052,0.07235058541133811,1.0656113613321416,0.4249098396640506,1.8378397319391384,0.5088725566704136,0.8462328823268896,-0.6743241361927762,-0.5375259419220939,-2.5617109593499783,-1.363350429099334,-2.279447668608001,-0.9739362653999822,1.9146910884085038,-1.0010308713454463,-1.3817493323668932,-1.3053555955893343,0.04476785773876327,0.9084989634696888,0.6950554327536853,1.6288453897802262,2.4019477019413413,2.2871499365319803,2.390921016882908,1.7534236359615487,2.313216488184908,2.455250230023298,3.327647070888759,2.4606556348113764,2.2208671788879024,0.4086806197993587,-0.06740758634245428,-1.2990549625496088,-0.8975388264261265,-1.9024752174706185,-1.2540941074386258,0.509494416828211,2.718264221362779,-0.03151617516942304,-1.3866313280668099,-2.336732872018137,-0.9071842659034506,-0.07471399930525666,0.9673066038269422,4.090069967902599,1.9427211028374247,3.6388151972141647,-0.07194550076370108,-1.0970309947797237,1.617791741362079,-0.12616772558454328,-1.7508249054513476,0.1420757777897115,0.5802323131224004,2.752893249823314,3.510161448192883,3.00159446021862,1.3241547928417938,0.5738856271513177,1.84402035345996,4.989045084398158,1.9659333130739396,-0.1601138788592775,-2.0628206085531104,-2.61608116280152,-1.0611989723911641,-2.271394922847949,0.8423471756943529,-2.471123393578029,-2.2275566846121797,-4.485739617621672,-2.446925906839116,-0.49534744487738946,0.5405348061750612,2.1633591048028253,-0.6016973724934488,-0.08358058794971332,2.4461007114486524,3.3794608408371762,2.0611495694173114,1.6824642104973377,0.697974432169115,2.553266288266954,-0.32186227025221603,-12.920793270967037,-12.3829286496915,-0.0698139823854772,-0.021231747689149025,-4.759289444568485]},{"bias_weight":16.408349562489033,"weights":[-0.454798823582899,-0.2603968066287136,-1.519351940105172,-1.01131575817671,-2.1508664299342786,-3.357277446849942,-3.8524432971426523,-3.191984356654754,-1.6789291847746572,-1.1142128674571516,-2.102799267461681,-0.6419615147615614,-3.1122073516373954,-1.4591447625673128,-0.6672306731610582,-0.8080116680395549,-1.735121322403951,-0.24664368909659373,-1.8879375730937562,-2.5230713577346844,-4.563160526929558,-3.8994109321408876,-4.254181795973633,1.6869621796634822,1.1953740075072445,-0.149874511371673,-0.6575293117269091,-0.5453340337812738,-1.5218372993168074,-1.28615077323581,-1.3867412912610895,0.2357770998671445,0.5761680583209572,-0.732370287054745,0.32505609663209106,-2.0028574640368166,-0.8153312120478197,0.5770438494539492,0.7786172010366114,-0.03379883354388674,0.20174818511242543,-1.4686591337857826,-1.7913527633730861,-3.9930149300322397,-2.825847117078879,-2.3134472078786485,1.859766490888887,4.9235170255720435,4.56702101808915,2.2888205567007787,-0.5683686475608122,2.3251288576820315,1.1840919962144283,-0.7685363474536843,-1.5722844499000121,-0.5897848048145976,0.41681346579212825,-0.43059383637926407,-2.45664796429603,1.5643344457339536,2.9513736054657325,3.0476981350426042,6.5941063555323645,11.474672743716935,5.2509507782039755,3.4215911522928812,0.5158045249537684,-0.8964032474620699,1.8781932618699844,2.723549429458681,4.920655772596321,2.370304143232817,0.6687977547238112,0.06518751036666966,3.7402613840839756,2.806618027503136,0.8736350753736348,1.0898019977309414,0.8060018587415628,1.7756540293059302,-2.8918558201683444,-0.5837356214023818,0.8614284999847005,1.1333168458280096,3.4654415812659582,8.278964541284628,8.521009414208779,4.841794420174109,1.4539870589033437,-1.4543923764669093,-0.47244518934169094,-1.3744641903406096,-0.3720807328742576,-2.410266278517451,3.6111477904178306,-0.0698139823854772,-0.021231747689149025,9.471285800137721]},{"bias_weight":4.950403918087992,"weights":[-2.431387970577924,-1.6988203620551532,-0.689571836978638,-0.7307236588377031,-0.16913014764449888,0.4235579684366293,0.9003722815798326,-0.4231995433070114,-2.3525566888349396,-3.32111004383362,-5.231722963742008,-7.606981373013826,-9.808795207356548,-9.65535954366706,-5.516371554642185,0.9728008493468804,3.20350283277976,5.16742832136133,3.9915652069844096,4.994091831711933,3.3393926040658837,1.34574484101756,0.6876123207694881,-2.1172043723238514,-2.512405565406508,-0.5739831598213563,-0.18719994168858614,0.22233217874780906,0.8526537355253803,0.9474853912092849,0.09780196521602533,-2.12453397144261,-4.059626052844605,-5.328674318889571,-7.9003487258057365,-10.359344592146623,-11.128796149400895,-6.614684643210422,-0.7237121286066505,1.5090640103176616,3.63125271722126,2.9449799196833744,3.5707570664307937,3.146343704749549,1.8767846217086193,0.8132280901610885,-0.2736683467072347,-2.73015246883532,1.0544293833581528,0.17453074415171838,-0.620356927700791,1.0441912376687972,-1.2477381463184296,-0.03443830599348976,1.282762231155601,-2.73826236640405,-4.766436936395044,-5.043037616278903,-3.34412302144551,-8.312250526143416,-11.364702574564024,-8.632384974237098,-5.837669592949382,-3.201564218845764,-3.490176999602742,-4.064489661990518,-5.795641633741889,-1.2043448422442322,-1.4939601136812295,4.303991087563906,1.5337722164330159,4.692816081066794,4.007241065169741,1.6909756657561652,3.122485325544265,0.12740664613815542,-0.17095367514685222,-0.3301161419120817,-5.711998170926176,-6.721401129963574,-4.43118919074404,-5.116793758932585,-5.0554374134123945,-7.615701004655114,-5.467983441772162,-4.51909705942731,-1.4937651758993942,-1.3148967592185192,-1.0327142673893674,-2.458988085915183,-0.9679172496069719,-1.631418917727565,3.405614455278064,-5.219125019132287,-2.769464352606054,-0.0698139823854772,-0.021231747689149025,11.936902426438246]},{"bias_weight":19.650593029036422,"weights":[0.7500158804643118,0.7597723593224606,1.724502703991539,0.22974770580370152,0.8939756689688391,2.090910845188307,0.5709052202167156,-0.3179135485166621,0.1006799803302189,-1.793344545499347,-1.8666747823870402,-1.7653486541888381,-2.3992781347321257,-2.838102205630608,-2.916320411759335,-4.222029058859142,-2.6318996502462593,-1.5969946315307388,-1.7397334372875568,0.6152860882962482,1.7019796256332405,0.5662566313680938,1.817144144127246,1.2093609961907135,1.9404723039055631,3.0309971359911185,1.3716134483913542,1.5179640685965348,0.6404130555753254,0.06249478122220616,-1.617225849497106,-0.6284990549765405,-2.367537929402133,-3.7080616268510522,-3.063795704784105,-3.1357149015021903,-3.5849541235542666,-2.9014178615182322,-4.216875663163775,-2.1468112817871705,-1.8571275630255693,-2.4841479207203894,-0.4553224690810699,-0.5844133992858838,-1.735307440568336,-0.04711844105578907,-0.7363618449264774,1.231248922407487,1.4864316299970284,2.224676063892093,1.6532366311978177,-1.1825577285530813,-5.478469713238719,0.1569383630191064,1.125811843747627,2.1122313359205154,7.458857349670089,9.170218604458979,9.441792622316289,5.890779480306146,7.052606497156034,2.47119500641875,0.3280871364041715,-0.870995250121755,-7.468275063195582,-8.248105840085207,-3.574380323291731,-6.622029169893248,-5.50798169085934,-1.5975798602584255,0.22147865891864074,-1.6858668720484864,-1.2117831559596675,0.005438573269032648,1.3579238955009163,-1.5465072496349146,3.0854630626881647,3.67473121525218,4.961743370815416,9.10269307570621,8.813877441188083,11.019612687657448,3.237287701424409,2.232699435399891,2.516545416510865,1.7430467200634632,-2.638970458403553,-6.679076049633788,-9.961273039959492,-6.057667297953688,-6.2543516734401665,-7.2725533939773275,-0.17704962275855066,20.49461342528187,0.6518847179808214,-0.0698139823854772,-0.021231747689149025,23.982758885219823]},{"bias_weight":33.402203362627326,"weights":[-3.68044328877601,-2.1849861916814235,-3.4295670839683106,-4.023742900165877,-4.216081366982257,-1.9201396685085712,-1.1398216403602979,-1.3072013026135367,1.5030634549349047,2.5896767673641032,3.8404884181438197,3.274842734744069,2.5835657389136903,1.1749289442685442,-0.12440200948744773,-4.491747120901652,-5.4736675643397295,-4.335930185125379,-4.975072440797237,-2.5798639500135723,-0.6074573396226369,-0.21713443409877203,-3.745723554231746,-0.8070091091981845,-0.7313461399687966,-2.4259369923005534,-4.0132144482587355,-4.344641369041669,-1.1949757818005056,0.34356188523454617,-1.1763041792369973,2.038527166982223,2.5902753013203883,3.6310829304211523,1.926523228443808,-1.2350212833794725,-2.2001033978198516,-2.5444763709855756,-6.100367188050688,-7.129632978636604,-5.955738666951981,-5.56696411047925,-3.50278485175284,-0.9828520835833355,1.0664129312365336,-0.336628966343819,-6.507459205862761,1.5348211762038433,8.839607241083783,8.841539434544366,4.384310987822818,3.1693142546869355,2.434053542549407,-0.20476995203159803,3.176775374107877,4.759408662955826,6.725246702734304,0.7389196201070839,4.2365910662824255,3.411117566623848,4.747554191170247,0.9604805223939149,1.864024500104169,3.1411602284764015,5.537303856860621,1.9467041171568367,4.804028506508304,-1.3864617715301168,1.6781489253241246,-10.090501843049445,1.452197481492553,4.848863444472161,5.683375129355027,2.4145454474052306,3.474749120880762,3.2241212059694733,1.2463167478639456,3.9543234681002057,3.8133949600376065,6.24648434429196,-0.08359274369542254,3.188658653376853,3.1300818238585713,2.17722025935193,3.6434796011657635,5.022471895481152,2.7125544143274096,5.892058069840913,0.06363141258504294,2.3475245070332447,0.13520379686153622,-0.6277823015346639,-1.5839832922149775,8.276849332646186,1.5073314757910852,-0.0698139823854772,-0.021231747689149025,2.1972055681048324]},{"bias_weight":16.308276969423126,"weights":[-0.3058802929229144,0.10886740022321927,0.10847963466572765,-2.2858004039292252,-3.5660503274999513,-3.9860385943707786,-5.196507415624344,-2.632159153244158,-1.2912155485374233,-0.14665220717273725,-0.4966406051701431,-0.2969686661345012,0.8162047116544766,0.8988999478479434,1.415809492564097,0.2507367312094531,1.57820677154718,1.373797298555487,0.2265033879912599,1.0175998092546055,1.2257388531782853,0.5098366602887756,-0.646851364629084,0.21270828920502985,0.21784033572425554,0.44826225075332293,-2.278940249030236,-2.524960679477945,-3.72342826367029,-4.002834377579523,-3.056115862901396,-1.8283233379979233,0.07197270500603348,-0.8053429764168485,-0.8889851003597158,-0.025401342301843478,-0.04736208888611984,0.7340528648041431,0.5082174953236043,1.4949147441847803,0.8842295030048314,0.19594332873757522,0.5867054746305516,1.0095939126929379,0.5165547724161059,0.29384709100747886,0.8915339544445241,-0.32791544288302454,3.166889619906797,4.476750279217874,0.7593867291829235,2.8038118408237027,4.075258816347475,5.047409285703685,5.556413817450996,3.9347202616368593,3.7296159941957,3.357246026250199,-0.23909047046629,3.7628922712939996,0.5768445687080571,-2.7997898826546956,0.8826950733485208,3.342215935188558,4.6578022750185,1.2385068164352768,4.164487236975109,1.9751348389418402,2.9757669452000326,4.310244356237113,3.2486467333877442,4.93344270700754,6.623849098777696,2.7686222414544566,6.965009783281259,7.030315891614043,7.298746324376914,8.088444365214258,5.984582365429759,3.9159483164802995,-0.5061026026506944,-3.251900073909771,-0.7501267404796766,-3.3806474261851585,-3.323769911976657,-0.11971498052703423,-1.1475314715475915,1.9542069277841492,-3.066660365864813,-0.7479370375111363,-1.3342079297770306,-2.007549474702673,-1.8572718395793786,12.793735937239978,1.7580217474641608,-0.0698139823854772,-0.021231747689149025,16.59898700340974]},{"bias_weight":32.792369691876026,"weights":[-0.7136259959054038,1.551082464403323,0.0235769185464981,-1.4281818224449607,-0.07056041678822807,0.3053310661419779,-0.32630201795209923,1.3615227545296105,3.3008003675838657,4.371334791807709,4.200254312314932,4.445073985503371,3.864446509587143,4.49904911270733,3.678488846790873,1.5915026915367056,0.4875670442876347,-0.39939071562467,-2.6022149985998198,-2.5614806200730507,-0.748339134893853,-1.3494403613481432,-2.0241517813208247,-0.27082181909416275,0.8888038626925572,-0.4730780420124944,-1.409662619669806,-0.04092175119719557,-1.0591565148625761,-1.4437417268832182,-0.5648613522081392,1.0725594100431952,2.140332947447505,2.003973298433456,2.9704214450056137,1.5769195633512714,1.807243378690842,2.4471685564254164,0.5945822622713627,-0.19941244408750008,-2.248658854076177,-3.7291683255969272,-4.02359710381501,-2.2955406366697373,-1.6428458146449083,-0.8892677501306795,1.6114603104921839,-2.377728437983404,-3.107617309291425,-1.0263476157797637,1.0053246170701409,0.9285952626663858,-0.12501012145013707,3.243625278944368,7.201902643577217,8.327559815448852,9.38963568638067,2.211583561696539,4.727214020502775,3.5357700727418613,3.6418378446603215,-1.1852198953803188,0.6592298164267961,5.128021094700365,5.246793286453029,2.2228317062045457,3.285217697078276,0.6716957895812292,5.3719922488319005,1.864494631126444,1.5491841641520432,-0.6716764162457477,2.3592846414232955,7.872758807179589,8.970553893919153,9.558829739499057,10.457916525515532,12.566003889771185,11.600487078763983,12.49712594746943,3.330226362928445,5.126900042990641,3.5735651825110173,-0.5948629278997987,-2.5245977176167864,0.2525466025052444,3.051184565178724,6.162896199728571,2.389801775488512,2.2062204788774906,0.8097997214512529,0.33112248441862785,-2.7808290636734316,12.943753942887442,-9.368640701364596,-0.0698139823854772,-0.021231747689149025,17.577843441133147]},{"bias_weight":13.98684368203718,"weights":[1.480293790474373,0.9452526845115612,0.28661885290157285,-0.8904468206363123,-2.314943927235312,-2.196836576345005,-2.4389400541048016,-2.404232380469858,-3.8241139239952577,-1.6583426527757572,1.1918247107787372,2.4426675378881644,4.117991139365865,4.149297255489805,5.787053645239545,4.417596851671309,4.009742582684296,2.5743365888488854,1.2797331942292876,2.7221177899208695,0.8239035592043652,1.1372159185131745,1.5151428857731049,3.928245503470557,2.26985089485334,1.5498472672808772,0.30719077420298563,-0.9822345761978455,-1.3648902926846185,-1.1342108114258047,-2.1237888124705266,-3.587345499902161,-1.0710891225184371,1.1250634135469912,1.8949046057835306,3.687903340539533,4.04626630812288,4.9665123621551395,3.681032446648241,2.9083157518373164,1.66363108235219,0.7921154548785803,2.8614424700252683,1.2621306242022925,1.8065077311713797,2.5730548935886084,0.9421662400971631,2.1589038241542267,3.9799212028889497,1.6095122077964295,0.7316104999270802,0.25196069772677726,1.9721174509990305,0.6869013196075879,4.706915392830954,5.838064920208542,6.427168579274029,6.772228895114959,3.7692941872785886,5.801369840331035,4.670595679525859,0.9246598125488893,0.39256634180236377,1.987143309738405,-0.5082261640740626,1.0316817620890264,2.935287978702751,2.297509163420988,2.3130439376644842,-1.9202943188918091,1.2013859483794584,2.7957591132725703,1.1207441636481195,1.6979692508925606,2.52970688614042,3.5346448730560884,3.209538069316277,6.0456260204377825,6.882202165744256,6.1549909152747,4.002953457332339,2.1122623002854315,3.5175109366956687,0.8190974243042751,-0.6220623215858596,0.07271582013839435,-0.37691681957268336,-1.8278257901724742,-0.9493759105277466,-0.04498268374175866,0.27468990226130585,-1.4954898910598824,1.4418197298002295,14.829476633247076,8.666859171839402,-0.0698139823854772,-0.021231747689149025,14.807260176487372]},{"bias_weight":15.912034353992752,"weights":[-4.0128119705454015,-3.4478316825873896,-2.940887868112729,-2.584991073886681,-2.406349924078266,-2.78303624073376,-1.790816909177838,-1.975028474583261,-0.5734858190089003,-0.9054807650188067,-1.1867573572635082,-1.7587315913296886,0.30479108997853593,1.383152109541368,0.8853096771712933,-3.390002045723175,-3.8060358958047154,-3.8392545172335946,-4.163759137103734,-5.033793788091826,-2.5587600760101874,-1.8898475193278017,-1.1117087576057847,-2.211435072224188,-2.64441734330857,-1.6672705464928874,-1.7266355083143858,-1.7982318983025156,-2.2663214818156345,-1.1494809449066092,-1.3043501254672112,0.27778392233079185,-0.21839922032515688,-0.7220107450493164,-1.0220508403479966,0.7832972632811782,1.0881346923247464,0.38048055372279815,-3.2676011800733753,-3.998783572829775,-4.0628125122110275,-4.394824046048307,-5.246687112353461,-2.8471900076432726,-2.635659029401671,-0.9796622880929121,4.419442470932549,3.2510440070102815,0.3494090185185585,3.1563120034805956,3.1550943951961226,1.015487621185092,-0.6908649449201152,1.9716701579139113,6.894516339695502,7.439729316738729,7.015188963768788,7.715473501802004,4.668705973328718,3.7570755505767726,4.2980204304294105,-0.11962214072953324,-3.3148332479626967,-1.879726544851357,-1.6550894720441935,0.6143342932878196,4.286656162226336,3.5213151311097084,2.8510717177196994,1.1412626826923655,2.3434060725477215,-0.4974151215340379,0.33289770425873993,2.6327785719052104,1.7793098768235076,0.8461744160734885,2.8917855766567944,7.924719912981136,8.646157570746935,7.099256756053273,4.163963006792028,3.0132509409365764,-0.5572047118124779,-2.045419952468667,-3.6032284386090807,-4.017069528654096,-3.673736062681199,-2.771521231811496,-2.063327126603928,1.9527172439618379,2.2540818189636402,0.5098172844190655,0.8887835121724,1.8339036433877753,6.860693252251371,-0.0698139823854772,-0.021231747689149025,6.398173882513822]},{"bias_weight":16.299474277453147,"weights":[-2.2272064378151017,-0.9236240441674699,-2.856773056763394,-1.8367977759794756,-0.08653739146147414,-0.8638530520544113,-2.7666783481279404,-2.6108111108383802,-1.9947146416504953,-1.1298526417838877,-2.3243461368187246,-1.8969846468463722,-2.9583404412495153,-2.381020967229188,0.22738008751526967,0.3515290770446343,-0.4787607967715565,0.8117896223762142,0.8108420887903482,-0.4734480228015327,-1.8109828737422813,-3.1869694779567266,-2.43493177051602,-0.5139192076089933,0.02423710513685901,-2.2217734018068227,-0.9204703987003361,0.8683462742903757,-0.2716992927579116,-1.742049234990506,-1.7408914830034996,-0.39456588531713904,0.6241512916164147,-1.6452081187430505,-1.2417425476473953,-2.859031394079384,-2.6436228833013953,0.17651843232921804,0.9517103445624764,0.7293829001923314,0.6031351577985264,0.8559242571891789,-0.03168230052277099,-1.4779856694517393,-2.662452673867925,-0.9324106064164386,1.819698075692544,2.2399721937411035,0.6971901311463999,1.229658995555626,2.6536339722763307,4.313403498390802,0.8149138719141052,-1.128835684341027,1.1367190077360885,1.3939248506361253,2.0824482519856202,0.5618615392271634,-2.0155273967628107,-1.7149025865143532,2.7926513553469112,4.304110108089478,3.7739771566881766,7.934070360021204,1.6841395034896303,2.2729187149419854,1.36513154315171,0.7066052709541982,2.2703186633597516,0.7331649458257795,3.030238118562043,-0.6961347755195035,0.2955400014975569,3.402108359018109,6.262444663322879,3.663743591317754,1.6976954689030406,4.346241595501339,3.937589274509402,4.035077797224264,-0.9532029154077956,0.10552734431255882,-1.773627968258316,-0.0025537149806698907,4.0206125280477965,5.180204094760377,4.284335939123552,1.5001955084465648,-0.4936563763821213,-1.8251716248002967,-0.45084269971035307,-2.203426871214584,0.6111352451438136,4.127312560657046,0.7358306476919242,-0.0698139823854772,-0.021231747689149025,10.396756876672098]},{"bias_weight":-4.835087518000054,"weights":[-1.650242093360567,-1.9609008377779107,-3.060751795246954,-3.63918847783348,-2.6176636547971692,-1.3592327756554674,-0.7688586623384666,-1.2871152284877252,-1.3622470721670215,-5.912787836457438,-7.218949215850207,-6.541421055561234,-5.535661019166411,-4.587329482315078,-2.6948208256217288,-2.324295843102304,-0.138311107316845,2.6603917960002827,1.5708868732207832,0.7118791482875599,1.3639077841900324,1.9535703359586611,1.4805346530546148,-1.3942186669049352,-2.635668985033336,-1.8818249304736734,-0.7608428533733375,-0.7019634993526838,-0.34630492340669317,-0.6409697285555035,0.5823210731890931,-1.7788672714455371,-5.179923600901628,-6.564041054501555,-5.505108109691309,-3.8170842252514454,-3.920519197496442,-1.4634354192689043,-2.635672683877684,-0.954842037105895,0.9056649431702671,0.5240030529474469,-0.951086054039358,0.26756562677843293,1.491102689268552,1.3492713865146024,-5.119533532456288,-2.049044037424772,-3.075619568309988,-6.550486578584481,2.196690887259262,6.2570520750637,6.528528152158335,6.90369025877106,0.7996776859962798,-2.4524833803094013,-4.567959299314828,-1.365516303936034,-2.5310080939079524,-4.036376367215831,-1.225940623207388,-0.18703288079065142,-1.3100807130589411,1.307918921126919,-3.4605420307544517,-6.010257321474357,-6.800481791862726,-0.20235638400463338,-1.3225037091212335,-2.617839990131915,-1.44875970700975,-1.551534353368803,-5.697685633861197,1.1787461312236018,4.412491415148266,2.977429370503689,3.830111839963939,-1.325616067807806,-4.108875478769491,-3.646837511721564,-1.4271725691063768,-4.120144866293319,-1.6341356236319136,0.9283898991979431,1.2483225327801353,-2.422655246496665,2.1402809909903593,-1.2684057056119882,-1.6730693804494823,-4.621288982139962,0.6826322654229616,1.2993021603689487,0.2637207088091599,-13.256035717619843,-9.478828578692912,-0.0698139823854772,-0.021231747689149025,-0.24010153822551852]},{"bias_weight":-16.95026038815734,"weights":[0.014338940459002619,-0.6783331992817594,-0.19059747900434273,2.6570681601439436,1.0042895533390785,0.08989627759783682,-2.422689683084089,-4.4951237363806005,-8.285463177890318,-8.487650592308762,-6.703992916428425,-6.929283355609151,-5.891887058827505,-7.108219978864246,-6.452172793404486,-6.54279146145945,-3.26541184850579,-3.8569007680589853,-4.982666694890732,-4.137801393451232,-2.125639958547596,-1.7420087620012417,-1.817208779937995,3.1833640359830566,1.39462711660902,1.8412760897619944,4.661252089608188,2.632333620035173,1.1239004823598466,-2.0235079822493756,-3.4712017835761695,-7.464704434262838,-6.197254010396994,-4.393519360393754,-4.0255504745210295,-2.983318888142018,-5.434508437473991,-5.333306666103476,-6.711645986951893,-3.062192443656995,-3.6852820423870623,-4.973772447180289,-3.574729383173823,-3.51864537326572,-2.12109419695287,-3.330322609458781,-0.011475167572615692,1.712239934700097,-5.466246426879762,-6.42189717328401,-7.1076319568170545,-1.3211484303296732,-2.8046082626052677,1.5448593853127093,-1.5556394781901537,1.6806502136702326,-1.3296292509368697,4.914905661631558,6.321124767184985,2.6809516031361604,-2.9437709367383738,1.0621133310871864,-5.304536472050158,-4.5520586207261395,-2.576867174588033,0.12524772426108052,1.9541096479369622,-1.3801064769390288,-6.501125401328178,0.040196343667763035,-1.491100544714322,-5.1419316885705735,-5.513502594866423,-8.61043530153041,-3.7639943307537695,-5.0860458688475685,-1.9257705630643303,-4.900228304753602,-1.181483634213765,-5.867225804036827,2.569823296287489,4.322190143849315,2.001344153448372,-2.861675017898003,-1.9030678836365944,-7.97778071127685,-3.4916734208505718,-4.08494261208312,0.6326130274296712,4.11964245864652,-3.5045729727016686,-5.761967568788964,0.9080095678992243,-15.087625365171709,-5.511368227672924,-0.0698139823854772,-0.021231747689149025,2.236018385556981]},{"bias_weight":-8.521576036756562,"weights":[-0.1594594103334051,-2.685858347140943,-1.593055386454166,-1.3643477812796003,-0.45579411758051924,1.8975635367560508,4.175104016576657,1.4891519365183767,-0.5140763782700555,-2.1498815799468955,-3.390071664465531,-5.281456794184529,-3.591574517545065,-4.610477854284061,-2.039637832249889,-0.21645596148242136,1.243027765071177,-0.3989037201962536,-0.11344367939238091,-1.472461598409888,-1.7280650895068923,-0.6402293042983145,0.7995688561589104,0.10395234795331196,-2.1265180238763453,0.5190643959863254,0.12217719445221337,-0.06712612821903587,2.3394879495217693,2.441662608079829,1.7989065267999829,-1.998625704130651,-2.761384086496232,-3.68034738040409,-5.93907671327925,-2.7810564067353223,-2.7301065958595228,-0.8046899601323861,1.6243272170814471,2.360260693071998,0.20005265910198444,0.5884156731082516,-1.0498557978110257,-2.060068847317737,-0.9238919469667259,-0.82082616957463,0.5410803317483971,1.1525526009410558,0.6423086811750461,0.0513684167674009,-1.334060474323784,-6.382898030048257,-1.7897616832451857,1.6426349734183667,3.3456544689247547,-1.4681601542348548,-2.6665615970090797,-2.2156097131534196,-7.714762773942668,-5.58682476456095,-4.344418812902301,-6.31178749305665,-0.6684919707457498,-2.582221443743516,0.1502664085434995,-1.3900254287676586,-0.6489234674310553,3.862831500420722,2.9201600437759203,3.3887437894703845,-0.8721985801546249,-0.8109924696003921,-2.057251095437939,-3.3571331757790377,-10.414375884292717,-7.276869886555901,-3.233013073971217,-0.8459919022566722,-6.027923991001272,-3.4923038566071267,-1.4811237333237885,-5.628438892506225,-4.666285326421019,0.8694515829009988,-4.817334338456118,0.8716609247858491,1.1882062010966843,0.7708639636293363,0.6847394089413833,1.3723834708384837,2.7929781454109897,8.145600093487959,-2.2426029168178077,-5.013431342707748,-13.36724515886668,-0.0698139823854772,-0.021231747689149025,8.303484634025983]},{"bias_weight":-17.30017072853312,"weights":[-3.4919784745343354,-1.7465626850257452,-2.576089033869066,-2.4868280651791936,-2.770853856960522,-2.315647153926255,-2.089698283525845,-0.6926950729689307,-0.16784097182578953,2.0236398394061217,3.5106314122136717,-0.0897570248904701,-2.6088120855036854,-4.80852927089137,-5.552233203235617,-4.384259499894296,-3.119325587609236,-3.050625307171361,-3.199056466212787,-2.460307797883644,-1.04066485451116,-0.8401897544135054,-0.1417871403005784,-3.830569339957116,-2.069690887358405,-2.0285154584546956,-1.6529094252385248,-2.784404923720825,-2.202130044016484,-1.3047802454769903,0.5519972811290924,1.226993790781315,3.1624719515769115,5.300755283397577,0.9928101274684435,-1.2012175173907131,-4.0008474327599295,-5.270048989908707,-4.4372282139557155,-3.0674337903659947,-2.2023649580263562,-2.405422908718882,-1.4756799568401502,-1.0359220839890881,-0.39327570236045317,-0.7078251100278371,-1.5834205246108963,-6.839597135026182,-6.594087077456236,-6.604194634225104,-5.474469903066204,-3.677151841238537,-5.580582148869409,-3.4340542822427276,-6.24782150824541,-5.8634847548966125,-7.227837884559393,-5.835817534878605,-0.5790980495739759,3.657173945624816,3.0474352908045605,6.431410012898855,7.713876265478891,3.6603327200607834,2.773324973255675,-1.9903739019355249,-0.8362865425627177,2.0179299630768646,-0.20487575451206408,1.5182005343008627,-6.182849515459887,-4.955058100172853,-5.107359304537174,-4.534210203072481,-3.47512856389329,-4.366276866753829,-3.6256813953134777,-4.9343325922826775,-5.394137211703069,-8.2864374497421,-2.610964705781548,0.8284974636566096,4.821182336258509,6.958975107881871,8.245828870711192,7.467905946405269,6.700220662613681,3.386113997944449,-0.9726483049626506,-0.16161877098078886,2.7497390203166034,3.7654866319376747,0.7443960471452113,-18.56151799566681,1.490704245922919,-0.0698139823854772,-0.021231747689149025,-1.1754831236094907]},{"bias_weight":17.307896680738413,"weights":[-1.8926057601919921,-1.377926677186314,-1.0595759713790243,-3.1266761857285124,-4.350844005477624,-4.04709222764762,-4.269699401549518,-1.4752507654437197,0.6289433835980694,2.093321213768334,0.9581511394406009,-0.9640341315517613,-0.24794777806740814,0.8400139039086183,0.6964712902995148,0.4082232480400526,0.36868491099618367,0.11204483536184742,-0.3503931363574536,0.6869490687837646,1.1216407217088542,1.4471277463246786,-0.0525968007410091,-0.5024878867841783,-0.5810560573753794,-0.5707339951940406,-3.0615878463580333,-3.116010204616957,-3.185194898811457,-2.436050481067267,-1.825091423605069,0.17818608269503008,1.971730432002887,0.26697345882150153,-2.0633221339065146,-1.7946470306902196,-0.823582454919967,-0.5467413640787542,0.23338349697600674,0.16221834099481117,-0.2644637826252983,-0.6212097585635453,0.4207629884360947,0.9388841853333676,1.8625804648947963,1.241526628365001,2.870860707085817,1.8221769981156888,6.246815302163543,7.149958136420361,-0.490627142153077,1.0190840701148043,3.5051562267979306,6.1813579822794145,4.7801781163760575,5.684253314314087,7.2049508274418805,4.548194368737648,1.109786560068772,7.0541154424841155,2.874225185765557,-2.2099791573062815,0.41317847471898644,2.5158332410713915,3.9892207320381163,1.0968926857007073,3.3210408618053653,-0.8809172645315492,0.2016089269888117,3.580938614220059,4.283824267159029,7.5031280827858735,8.626410156587376,1.576427527485226,