{"learning_rate":0.01,"layers":[{"function":"RELU","size":12,"inputSize":24,"neurons":[{"bias_weight":-0.041339826135647656,"weights":[-0.14881588983060545,0.13676668415599633,0.1914144660150693,-0.11388737504992623,-0.07831547368515651,0.01927772774185965,-0.12721752555646546,0.20121794890954772,0.20267948743639794,0.19093565849314179,0.09219837065138523,0.1964122091935314,-0.15927327326241741,0.12170120639526885,-0.08286238023247586,-0.2021712958952854,-0.15821069881415026,0.057058151604811286,0.15449366404321438,0.001495281911655627,0.12162884781942843,-0.0566264868262798,-0.1176063988253108,0.07403972157654362]},{"bias_weight":-0.041339826135647656,"weights":[-0.14881588983060545,0.13676668415599633,0.1914144660150693,-0.11388737504992623,-0.07831547368515651,0.01927772774185965,-0.12721752555646546,0.20121794890954772,0.20267948743639794,0.19093565849314179,0.09219837065138523,0.1964122091935314,-0.15927327326241741,0.12170120639526885,-0.08286238023247586,-0.2021712958952854,-0.15821069881415026,0.057058151604811286,0.15449366404321438,0.001495281911655627,0.12162884781942843,-0.0566264868262798,-0.1176063988253108,0.07403972157654362]},{"bias_weight":-0.041339826135647656,"weights":[-0.14881588983060545,0.13676668415599633,0.1914144660150693,-0.11388737504992623,-0.07831547368515651,0.01927772774185965,-0.12721752555646546,0.20121794890954772,0.20267948743639794,0.19093565849314179,0.09219837065138523,0.1964122091935314,-0.15927327326241741,0.12170120639526885,-0.08286238023247586,-0.2021712958952854,-0.15821069881415026,0.057058151604811286,0.15449366404321438,0.001495281911655627,0.12162884781942843,-0.0566264868262798,-0.1176063988253108,0.07403972157654362]},{"bias_weight":-0.041339826135647656,"weights":[-0.14881588983060545,0.13676668415599633,0.1914144660150693,-0.11388737504992623,-0.07831547368515651,0.01927772774185965,-0.12721752555646546,0.20121794890954772,0.20267948743639794,0.19093565849314179,0.09219837065138523,0.1964122091935314,-0.15927327326241741,0.12170120639526885,-0.08286238023247586,-0.2021712958952854,-0.15821069881415026,0.057058151604811286,0.15449366404321438,0.001495281911655627,0.12162884781942843,-0.0566264868262798,-0.1176063988253108,0.07403972157654362]},{"bias_weight":-0.041339826135647656,"weights":[-0.14881588983060545,0.13676668415599633,0.1914144660150693,-0.11388737504992623,-0.07831547368515651,0.01927772774185965,-0.12721752555646546,0.20121794890954772,0.20267948743639794,0.19093565849314179,0.09219837065138523,0.1964122091935314,-0.15927327326241741,0.12170120639526885,-0.08286238023247586,-0.2021712958952854,-0.15821069881415026,0.057058151604811286,0.15449366404321438,0.001495281911655627,0.12162884781942843,-0.0566264868262798,-0.1176063988253108,0.07403972157654362]},{"bias_weight":-0.041339826135647656,"weights":[-0.14881588983060545,0.13676668415599633,0.1914144660150693,-0.11388737504992623,-0.07831547368515651,0.01927772774185965,-0.12721752555646546,0.20121794890954772,0.20267948743639794,0.19093565849314179,0.09219837065138523,0.1964122091935314,-0.15927327326241741,0.12170120639526885,-0.08286238023247586,-0.2021712958952854,-0.15821069881415026,0.057058151604811286,0.15449366404321438,0.001495281911655627,0.12162884781942843,-0.0566264868262798,-0.1176063988253108,0.07403972157654362]},{"bias_weight":-0.041339826135647656,"weights":[-0.14881588983060545,0.13676668415599633,0.1914144660150693,-0.11388737504992623,-0.07831547368515651,0.01927772774185965,-0.12721752555646546,0.20121794890954772,0.20267948743639794,0.19093565849314179,0.09219837065138523,0.1964122091935314,-0.15927327326241741,0.12170120639526885,-0.08286238023247586,-0.2021712958952854,-0.15821069881415026,0.057058151604811286,0.15449366404321438,0.001495281911655627,0.12162884781942843,-0.0566264868262798,-0.1176063988253108,0.07403972157654362]},{"bias_weight":-0.041339826135647656,"weights":[-0.14881588983060545,0.13676668415599633,0.1914144660150693,-0.11388737504992623,-0.07831547368515651,0.01927772774185965,-0.12721752555646546,0.20121794890954772,0.20267948743639794,0.19093565849314179,0.09219837065138523,0.1964122091935314,-0.15927327326241741,0.12170120639526885,-0.08286238023247586,-0.2021712958952854,-0.15821069881415026,0.057058151604811286,0.15449366404321438,0.001495281911655627,0.12162884781942843,-0.0566264868262798,-0.1176063988253108,0.07403972157654362]},{"bias_weight":-0.041339826135647656,"weights":[-0.14881588983060545,0.13676668415599633,0.1914144660150693,-0.11388737504992623,-0.07831547368515651,0.01927772774185965,-0.12721752555646546,0.20121794890954772,0.20267948743639794,0.19093565849314179,0.09219837065138523,0.1964122091935314,-0.15927327326241741,0.12170120639526885,-0.08286238023247586,-0.2021712958952854,-0.15821069881415026,0.057058151604811286,0.15449366404321438,0.001495281911655627,0.12162884781942843,-0.0566264868262798,-0.1176063988253108,0.07403972157654362]},{"bias_weight":-0.041339826135647656,"weights":[-0.14881588983060545,0.13676668415599633,0.1914144660150693,-0.11388737504992623,-0.07831547368515651,0.01927772774185965,-0.12721752555646546,0.20121794890954772,0.20267948743639794,0.19093565849314179,0.09219837065138523,0.1964122091935314,-0.15927327326241741,0.12170120639526885,-0.08286238023247586,-0.2021712958952854,-0.15821069881415026,0.057058151604811286,0.15449366404321438,0.001495281911655627,0.12162884781942843,-0.0566264868262798,-0.1176063988253108,0.07403972157654362]},{"bias_weight":-0.041339826135647656,"weights":[-0.14881588983060545,0.13676668415599633,0.1914144660150693,-0.11388737504992623,-0.07831547368515651,0.01927772774185965,-0.12721752555646546,0.20121794890954772,0.20267948743639794,0.19093565849314179,0.09219837065138523,0.1964122091935314,-0.15927327326241741,0.12170120639526885,-0.08286238023247586,-0.2021712958952854,-0.15821069881415026,0.057058151604811286,0.15449366404321438,0.001495281911655627,0.12162884781942843,-0.0566264868262798,-0.1176063988253108,0.07403972157654362]},{"bias_weight":-0.041339826135647656,"weights":[-0.14881588983060545,0.13676668415599633,0.1914144660150693,-0.11388737504992623,-0.07831547368515651,0.01927772774185965,-0.12721752555646546,0.20121794890954772,0.20267948743639794,0.19093565849314179,0.09219837065138523,0.1964122091935314,-0.15927327326241741,0.12170120639526885,-0.08286238023247586,-0.2021712958952854,-0.15821069881415026,0.057058151604811286,0.15449366404321438,0.001495281911655627,0.12162884781942843,-0.0566264868262798,-0.1176063988253108,0.07403972157654362]}]},{"function":"LINEAR","size":4,"inputSize":12,"neurons":[{"bias_weight":-0.22524642317126675,"weights":[-0.21045744969506258,0.19341729961420745,0.2707009338729149,-0.16106107037867692,-0.11075480502922155,0.02726282402427399,-0.17991275001349927,0.2845651523407789,0.2866320799473813,0.2700237977816388,0.13038818620389053,0.27776881005715365]},{"bias_weight":-0.22524642317126675,"weights":[-0.21045744969506258,0.19341729961420745,0.2707009338729149,-0.16106107037867692,-0.11075480502922155,0.02726282402427399,-0.17991275001349927,0.2845651523407789,0.2866320799473813,0.2700237977816388,0.13038818620389053,0.27776881005715365]},{"bias_weight":-0.22524642317126675,"weights":[-0.21045744969506258,0.19341729961420745,0.2707009338729149,-0.16106107037867692,-0.11075480502922155,0.02726282402427399,-0.17991275001349927,0.2845651523407789,0.2866320799473813,0.2700237977816388,0.13038818620389053,0.27776881005715365]},{"bias_weight":-0.22524642317126675,"weights":[-0.21045744969506258,0.19341729961420745,0.2707009338729149,-0.16106107037867692,-0.11075480502922155,0.02726282402427399,-0.17991275001349927,0.2845651523407789,0.2866320799473813,0.2700237977816388,0.13038818620389053,0.27776881005715365]}]}]}