{"learning_rate":0.001,"layers":[{"function":"SELU","size":92,"inputSize":92,"neurons":[{"bias_weight":-5.470305745461027,"weights":[2.5453384100443004,4.661847670660446,0.1084719046831788,-1.0629249438816728,-3.2485327897407688,-5.695956418414866,-4.245018289985871,-2.8210729351523502,-5.371700856616306,-2.079682754375725,-3.031852946262108,-4.540105040692835,-4.704275885802196,-1.823675501500381,-4.7448991479841585,-4.341595525089082,0.6699035778385626,-1.177339946526922,1.3707551829237519,1.6555740771048542,7.579611728937473,0.7523785518536956,1.1005598397883878,2.5748823451276754,3.0516133516400905,-1.0537041234919942,-3.3456788334120566,-1.219172407493324,2.8502752172823973,-1.3062032537667492,-2.01611132408526,-1.6401151319698568,-1.7303877300515322,-4.510955322300676,-5.7479121145427605,-6.29362728780412,-3.5712695148327125,-1.306033774152111,-2.6928608366200946,-2.3606603710561025,-1.222360169394865,4.324277140137164,3.45554432996088,-1.1397123772015108,4.60863307295984,5.297162122862242,9.544971620916144,-2.8756745339779646,5.650472829518694,5.551358991357737,10.616483272291912,1.8273593463976217,5.71451044463561,-10.79886042009001,0.968775068108348,-8.4339932375106,-5.691625871040098,-1.3849119925223063,5.249530791189868,1.0883329953572431,-11.741488633019335,-17.38827896694686,-14.18660699511265,3.394853682390641,4.130699381777658,7.826746335815968,5.594133150941928,11.303506547242298,8.823664224632505,6.3979063301431935,-5.332532838491247,12.541545536858358,2.4767248694243107,3.1027920248371155,-18.479271859243244,-9.141539420875773,-6.904567956063127,-4.571916552235298,-3.9412452456964417,7.851005422919866,5.755116240306005,-11.760063629132695,-12.856043488572727,-13.232566168258588,0.41608207313196466,26.342362349619513,2.0619862157186595,-5.476825265873605,3.622334637869147,-6.2207485238121345,-0.019973904716554983,-0.03070116020190003]},{"bias_weight":-7.839092612888574,"weights":[6.285971789370445,3.6116483870379996,3.4215039317076283,4.1863551018922225,2.8762388885080243,0.6359298878401674,-2.6207984817107834,-1.4714751643419246,-0.4534488774914556,-1.0174444480116387,-5.127161531988786,-3.743692630186869,-4.235790727913792,-3.715438376568295,-1.9696465468555573,1.8113794887828478,-4.90747363561926,-3.606772390029395,-3.6950070520288967,-5.869772934442572,-1.7048826257110221,1.7361321908218217,0.3848507333971737,-1.4598325171751032,0.09640223278167687,1.127632321099008,-0.22243254946883306,-1.535209050718672,0.9184754008656734,-0.38598317253390974,4.285273590272919,0.19454286556533615,-0.5905775561323161,1.170228895678148,-0.7105642493325961,-0.1430853507799827,2.2343892845456845,-1.6542380029949424,-0.33085329199773594,-0.6551679736227551,-2.698328327953922,-2.5554470803623532,23.932018705733377,23.02369054716714,8.456335334458922,-2.893333293051146,-4.316587066729425,2.473977253748005,11.786111257949054,-5.131827450977464,0.22453945263386438,10.551271156553128,5.4698641350851736,2.1698715199690066,-4.578583810022689,-8.087326492907978,6.541757822005692,8.850329938917273,12.062300083708575,7.559266330032753,-3.747008663863135,-3.7346087812857025,-1.7127537650335398,5.739226731843641,6.628122928278547,-2.7349607716425175,-13.083542450449505,-8.276171295081003,-5.806546151667724,-6.595471240100482,-3.8302305986475162,-9.10874156614735,-2.636800143916106,-9.91273201244789,-5.489699832815659,-12.76041729657677,-8.509211535281628,-12.572279049277787,-1.5999439683337164,-3.9000645997025747,-0.5620533672196524,-1.7181532894645293,-5.850848772305578,-3.5729638529613097,-0.23097745759542307,-9.985772013324114,1.5022237363498439,-7.845612069952682,6.135903930713944,-4.369161764397811,-0.019973904716554983,-0.03070116020190003]},{"bias_weight":-14.071588911456532,"weights":[2.8932667705494324,3.5000921634414235,2.5730433683317595,1.132688688319145,0.14662427718335966,-1.1512945354645825,-2.937207309631853,-1.991821585961958,-0.3671984517133518,1.9129723931904463,1.275383108063893,-0.3167845417878638,-1.0271125954809168,1.380011268545449,-0.20810614053570595,0.02777471785514253,1.7381757938855176,1.54064088964036,2.45893222709046,1.0109398070830569,0.2598211654144709,3.3566416125452605,3.1561857035482714,2.413127312185644,1.9400822805988889,-1.2498620838334589,-3.759986110159396,-3.970018547101921,-3.8291239306253413,-2.7584460614886375,1.729242914485198,3.575930248427896,1.1526276910921158,-1.562350768811994,-0.6857896147296574,-2.3409688791644188,-1.567454942472786,-2.345153044698315,-0.2756946811326552,-0.5033297960242427,-0.5903862380118174,0.5393568636794918,-0.2541139765834981,0.9614184214738425,-0.5493538183754476,-3.571506280888499,0.7720899504423735,-16.057326220474728,-20.524543932615106,-20.83501748016335,-14.863693607786308,-18.21573251837848,-15.38132901604416,-6.599499387991546,-1.212758486880348,-1.6773397753996637,-2.492678790750411,-2.6607478318233535,-3.7443583864626135,-2.9202293735501907,-2.4885671415278985,3.9379435701505083,3.9080549043979533,-1.5206112245772923,-1.3632328512916922,-5.316062334286054,-10.279284362554792,-7.242698303195063,-13.952676823478487,-23.898787844047785,-24.043980471149847,-10.407217622256045,-18.440530410896056,-12.358030717138279,-5.86702347944661,-3.0375374640361907,-1.3834509567033237,-2.20068643175081,-2.5942216979225656,-8.498966323406751,-6.406091607210485,-9.24486370991114,1.8378035900268324,-2.3391646241312096,2.111043680642771,-6.579659220207823,-2.9991808286180492,-14.078108376644279,-0.39493251895131953,7.564326909235547,-0.019973904716554983,-0.03070116020190003]},{"bias_weight":-16.7330183616515,"weights":[-0.7481129607015425,-3.4313735139825106,-5.708602759585766,-5.064317527082168,-2.8219260583084624,-2.2600626001255826,-1.8176140369656884,1.8408226273331745,1.3453818228363108,-0.775860276597871,1.551258100612454,0.7868194578520421,1.5583857320160759,2.934866095320599,-2.8709294744317795,-3.0923186032117065,-4.28287046424158,-0.5418736671061372,-0.6213290263547402,0.05918161756468315,0.8541531586833133,-0.7686626565234911,-1.1958552476006004,-4.3227882990020365,-3.9592359207635255,-5.544654706684986,-2.5074305641568273,-1.5626619218870461,0.5677094024364926,-0.7375742521771605,-3.794567468909066,-0.9906630789908842,-1.3785991752917435,-0.5401456777976097,0.008003032478998263,-5.43747850993427,-2.7493988741785755,-5.640204979421699,-7.210335494353298,-3.8730907533393264,-2.137969428045551,-0.11684973668082141,-6.543186051630436,-9.291888843241242,-16.292546233678397,-11.409393615217736,-9.59742679255184,-3.114725117139014,12.044637141694519,17.305065253092305,9.248536338891046,0.23025091298598632,-8.979917447872438,-4.324616514255862,-6.510939842654286,-1.631261795510133,-4.6691147416152115,7.906867560244378,4.751892021574671,1.4375298714911633,-1.0740733159636775,-12.578626693781949,-15.646337595314385,7.742529509716848,4.895676866736886,3.118998581638286,4.597716389644137,13.72258317112161,10.600159787869346,28.170559581010163,11.057225555587996,13.164699283231887,-0.09992717834110647,13.68281505821787,11.589061085212277,-1.0001793704841633,2.9412801923976497,0.8828926325399554,-9.12038826898251,-0.422582847936539,-2.3800982395482624,-5.115120056073035,-18.87662457539268,-21.353070667739093,-0.44579883695244477,6.387071834688385,-10.019999477261498,-16.73953788273496,1.4306848150810956,-8.537280356082032,-0.019973904716554983,-0.03070116020190003]},{"bias_weight":-18.4301556103763,"weights":[1.5973455461163748,0.5379026021264172,2.930041531175406,1.745212369894834,2.355242409678794,5.422270348192715,6.236900477148063,5.232801742280049,-1.397579354249441,-10.196588149651,-11.673794973585048,-0.04795622622402319,6.259438822886974,6.196997135169775,3.0507536878986516,1.4111552973952113,0.9621203067294221,1.6680469092355645,1.8896045353010915,0.8057205073335373,-0.5624702849255095,4.235081069999426,2.121459101783656,1.355429407789742,0.43739628549767207,2.7245807412003997,5.094316863251486,6.350199934813224,3.1381745752838723,-2.2166790679334336,-13.074808518565957,-16.668283696507846,-4.273570764147101,4.721578507460111,7.016464224631261,4.290834194495956,1.2059206371885531,-0.15176668222478112,0.851927377183024,0.9155640807247993,1.0040470965760429,2.5808857537907657,-0.34591121597010643,-2.1628988672644636,-3.940319556784288,2.3490112871183113,4.228025455002327,6.898694039548687,12.99333011219741,10.873010124610387,10.926612994884264,9.827932659260965,11.846797959832893,14.596091263911626,10.042367027518603,9.874088358531822,11.963953959287357,8.449643672139583,6.651430849923296,7.273386807266335,2.3400132137830494,0.20483211667467494,-3.137463036305226,1.4668327086407718,-2.982767624706159,-3.6170819114523733,2.40817700121483,7.394012473402224,9.39602719194319,13.42588307686451,12.36253168614323,13.915043322004696,13.843377696607797,15.565070758082426,17.78092293501127,7.775713078993803,6.5767283678566635,4.468208661940034,6.890888512476429,3.573012941285214,1.351628004170127,1.7688341151373599,4.383737224130003,2.8156851600598363,-0.059727199578274486,-0.7658363787427296,3.4402485385282864,-18.436675137984736,1.5095554023149529,2.6417685211856123,-0.019973904716554983,-0.03070116020190003]},{"bias_weight":-9.471482681970226,"weights":[1.976936966728052,1.6582407435846898,-1.4252698423033276,0.41245397007767204,1.1707454271536675,1.8271165745295228,1.9650650247354025,1.1500405598277958,0.7995031134601176,2.9607803910735724,3.4586133602526874,2.8920539859832908,4.026095679241179,5.511677151982361,4.811192469996226,4.277341631068187,1.9777827082643888,-0.6394722938458196,-1.3722500389583039,-2.3498021839202523,-3.490420916503275,1.7757226215818356,0.33915376785091117,0.64176179284968,0.5838862315410711,1.0535648142069267,0.7823452905143202,-0.6120309523533609,0.47468733362644266,0.20017346492848326,0.5779766361992407,-0.3733109359633635,2.6709673086249897,3.7429781508216124,2.3446863068234896,3.1321944043786147,1.1517393319670297,0.047810277042733634,-1.1196049592323087,-2.2908855096873055,-2.9945296578659018,-1.707209570155694,5.964265654180066,2.0628613835744543,4.652942250341502,-0.7607708107298996,-3.76001610004253,-6.938068437810843,-7.77932427580013,-15.79402418442087,-10.23746540933211,-20.642719860665142,-14.46733851729185,-20.69185233440887,-10.526994536843397,-9.123742776544242,-7.0690042048324075,-5.049753976228858,-5.336383568864163,-4.079477373499141,-2.60527579823756,-0.10805242802496474,2.0562597526328728,3.0049792557344146,3.835943170959522,0.5462018066698602,-1.1768603294062905,2.2495342409327614,9.693878579652878,2.2019721997233885,-2.3882548066936087,3.8998886260917898,-9.23962264278577,-10.355393054069976,-18.27975957243128,-13.269428946823876,-8.09995883119488,-6.390641425945742,0.3129599992123867,2.9337052895976568,-0.5550389820522367,2.9547855447102944,7.500679852040173,6.98226686882721,-0.8344195333616883,-4.590668392102009,0.6780021249354586,-9.478002050918013,-13.295348189081363,16.681053463767675,-0.019973904716554983,-0.03070116020190003]},{"bias_weight":6.657169952538497,"weights":[1.2646950293430776,0.31916153085991206,5.382059907644517,4.2917616078088665,2.358730699703982,0.39786530084549715,-4.223457555754831,-5.96668031674868,-3.7849686270825984,-1.3567285215686327,0.6590481295652256,-3.454452386883215,-6.431513879862951,-6.5742703708870796,-2.2792751645791736,-2.2018469953553614,-3.8067583573616717,-7.639230378118043,-5.481655775486985,-3.443684593300426,-3.3078112214789535,1.8521240440745406,-0.07073046943292638,4.186343402191557,1.9065377584472294,-0.835516916501952,-1.7181265559804795,-2.1493288794895022,-3.793294743412569,-1.7323574010119809,-0.3667467973930841,0.47083849207613343,-2.693030041358577,-4.714569496758886,-3.457034372901,0.0738208690784383,-1.1244844871117423,-2.7327479762238136,-4.36941462139328,-2.6603748509159906,-4.929999658401679,-0.816643683852377,2.867101367028363,12.663418016121321,5.635743627586361,1.9976670565005434,2.4486546585317726,10.90453596308925,5.9746394423407985,9.108960444974485,7.887783896672799,10.064100711046343,5.550735677712935,11.913733905507724,-2.707455109253526,4.570366986570852,-1.0442902299431673,1.074122411362565,-4.79791633259461,-6.760170834244723,-5.05072700543709,-3.2706150312985565,-5.697043578556012,7.230068752032958,10.454516474183755,7.967551700129998,9.482410438313888,2.2183713932135607,4.316972091088234,-4.985982152859228,1.3720363413542214,0.7486008092808606,6.374207979093497,0.5392452037860307,10.718603944915733,5.4477876083177375,8.078709793120003,0.22345739380886723,4.99358048953427,4.170908058611863,3.1894738647111436,0.06363705273717563,-3.630272712095992,-3.5848015579460752,2.0151091014175497,-13.018009356372955,-2.3495148183157597,6.650650427749028,-5.243137012554256,20.09923185695153,-0.019973904716554983,-0.03070116020190003]},{"bias_weight":-15.764361521776147,"weights":[0.3303391575187246,-0.6011270166575096,-0.0834459772960169,2.575632132423286,0.8707410184017614,2.460373033941036,3.5288936057513127,2.6008083296194364,-2.351432011639563,-4.503722398868416,-5.424282073245159,-1.9068085213730843,-6.2864507486325545,-8.034869762771315,-3.3558368075689895,-2.3026864961925324,-3.468470853157205,-4.149159497263907,-3.4264017800714885,-1.7164710081701597,-0.21164302247059835,5.752016163735122,3.900639504376674,0.48301801948254297,-0.808930770234526,-1.5279900340675099,-0.13118393215168805,1.9529033754191196,1.9478554036266977,-2.6941915443417686,-2.5699215579522527,-7.239179260332657,-8.145183888266185,-5.937705210077632,-5.333386584707287,-1.8139157980750809,-0.6803058268948439,3.1520982652665976,1.6864139757735226,2.540605226714402,-0.7831536480308341,-1.5993068727366606,-9.685931618283394,-9.530108663809001,-13.615226665838755,-12.79474520902407,-19.675092629668235,-7.160096182553797,4.234298987084746,9.982586328378366,-4.112752858003733,-2.9598152987572384,-3.606672959064462,3.3066610330841497,-10.601242786293975,-10.375886957688284,0.11797753993959863,-2.7827772970373634,0.11997525377942583,-3.4830181190379617,-3.2328266951491282,-3.429079999796671,4.50997698337056,-7.250485346371214,-11.857897294473682,-8.214712212108875,-12.521788076039673,-17.468082131532324,-6.9216372444340175,-9.131618797578229,0.3452388028273815,-10.11329450209434,0.3130775062167954,6.004567231535702,22.788521034443143,13.575596407843378,7.513341933297929,3.428898730430837,2.795298730929225,5.895051891721022,3.640262585086068,-0.49031617152480594,-5.005794102707618,9.540602199096579,0.49813458500296925,-19.00957938608765,-7.926750240270744,-15.770880990405745,-6.048381358437596,1.179450312428024,-0.019973904716554983,-0.03070116020190003]},{"bias_weight":7.1679232594297915,"weights":[-0.5407528989370531,0.13841281160420407,-0.5784876944827967,-2.478131100357444,-1.9701807637343023,-1.7653020002315292,-0.8261751873469689,-2.1547716856025936,-3.867808012735257,-3.589264315874813,-1.5654385598251446,-0.6948909581136075,2.669247786501603,0.7544824042165668,0.3917002452551819,0.7139813871810301,0.7852030323703827,-0.6529104768176937,-1.7662448838975735,-2.0708014677483795,-3.7742734559038946,-0.7266133972986814,2.083394710140203,0.9826663229848375,-1.1304003606997726,-0.8234187229939257,0.5588022853100633,0.32407501876087974,-1.7550105556151645,-2.7228730963542263,-5.56556600198904,-2.542251090372293,-1.6236551776677253,1.2942156093405728,1.7095254383711944,0.10336442608610422,1.056198050944489,1.2401356967771082,-0.660346922311221,-1.1322568597325413,-2.3835389187785823,-2.6060895580136667,-0.9750202689376624,-3.4543139063259756,-1.9480993798372905,-3.233135952340429,-0.3953146688368516,2.1014194486894686,0.8002097860384816,-2.8354699971782935,0.6548612979513777,-1.2491569992730969,-0.24082278990886477,-5.979288864524316,-4.1996206175558815,-0.7710344029070167,-0.33329415866476597,2.58058396012302,5.776584369184071,8.530252835436475,11.03909137281153,10.125716658654483,2.560500981460694,-2.716664445120873,-2.3098583870107086,-1.0741864720268361,-1.5467839438109565,-2.2365773154190194,-0.4557749293491479,2.187615728487909,-0.9332034649312204,-0.2789423829777554,-0.47718890381732093,1.559924570403526,-1.1506695166168552,2.889747590423729,0.22206277229999613,1.5728302676024473,3.620412021596608,6.986073384316554,9.213557214723512,10.367046416819305,10.106731232943293,3.3021624856163254,0.027458302070595884,-1.124963275641524,0.7941278213461437,7.161403789759704,-1.3665664413492733,-5.295015818906752,-0.019973904716554983,-0.03070116020190003]},{"bias_weight":-14.345735645550821,"weights":[-2.169403212338815,-1.5573679956396624,-1.6964432661878766,-1.8502415102179082,-2.6392734759788365,-2.0032595623295157,-2.4349730362323423,-1.6435123338151656,-1.0300422850293196,3.424482023417362,2.800649093550196,2.0514739702655556,1.090132827989521,3.4663909947886644,4.86709555193769,2.0667329374517,1.7130926682624925,2.130270589224696,1.947655717432863,2.5897748259581945,2.759382482262054,-1.9393246046166255,-1.6396866061337196,-3.068379382830794,-3.197094122342482,-2.949196582228217,-1.88872085562093,-2.7141424653726913,-1.9467930237074913,-2.1116816022730562,6.062339193105674,6.09867050972746,3.263847962187707,1.5638604691314018,3.015729011960456,3.938038986504476,0.023430524763629543,0.16023774294856954,1.1544478692624838,0.8831642200850395,1.8319081105338009,2.1541413777976053,3.4100206227449745,6.000186539575402,-0.1725748835048782,-3.901379770209184,-4.001670385658101,-7.086452221668737,-15.294968059471135,-22.65981285389748,-22.796296520921224,-19.68488358121603,-18.558159712812042,-8.938068550427813,-6.176519009590046,2.8135623206349187,-3.2463835737193905,2.6045355493029074,6.824881441019906,8.85130117217738,6.270129387478923,4.902167185489651,1.0873994628038872,2.000603356041076,1.167016208148802,-1.4826637520236021,-4.457606181189993,-6.102505054978597,-5.2162392230317,-27.051688852491708,-21.75723523585679,-21.38270598902934,-14.017383541900587,-15.124333630936688,-10.604156179747868,-8.26994962948939,-0.14786611022063828,-1.1119549652989038,4.598242865817958,2.7987513885292987,6.198388736999524,2.3710876759717063,1.8830105599912543,0.9383141626788645,1.2398731692297988,17.186505737359052,8.300185721590491,-14.352255110251503,-7.046124981600209,8.433581232357755,-0.019973904716554983,-0.03070116020190003]},{"bias_weight":-33.026618225498,"weights":[2.837908147415581,-1.1712372065925363,1.0748473627977735,-0.3119510288758393,0.8517905194139179,-1.6588559309572386,1.2285086696360836,-1.5684872367724545,3.602098781448834,0.06407929496442857,-5.184884712746315,-5.772797709120683,-2.8153028669529476,-7.602086114770657,-0.36762559907616,-1.5592862427092637,-1.4664741432080308,-1.205972669614827,-3.241036642429399,0.7131130179273847,-0.4642616675158231,-2.9118442562488625,-6.01159679989965,-2.610635949481865,-4.481356665543202,-2.093516901804884,-4.519800794962594,0.8966788280156137,-4.852271003281926,1.0067215689068394,0.4138324746069364,-1.7244182507267871,-1.4486195318705257,0.008873678037754766,-0.7822698245774189,-0.2211900723160816,-0.952224234041935,1.7564195848328639,-0.25412712697685425,1.9159266500404901,2.0125519887303236,0.835090289078738,-0.06321488828020316,12.07798630706059,12.175914906488249,2.6895563584000644,6.0848020547277155,2.027392674851189,8.325711850410755,-0.08112978312554447,-0.412348423799023,5.2766634891687545,8.036437380933235,9.753042416666393,-2.337912856002536,-5.236979906914322,2.938871949678866,4.517553569774494,8.362974370370068,1.4796018615834232,5.6799963032489,0.003965503416207785,2.9275986543453283,5.00895998924435,12.531893883710882,8.877090702339544,-0.8156454533897922,-1.6929962246251131,3.308068199877092,15.000625839338735,9.068144912185659,-3.4061342191916304,-5.800690338639219,-5.89561334438644,4.175958603831812,-2.158834436462215,-2.152532763375743,4.287721840081469,-9.432245706751251,-8.034945560277475,-6.488472100798067,0.13643212344430822,-5.290691809326308,-4.2688698769765,-1.177790662956694,-22.54111811837193,-14.991269906582271,-33.033137664450315,-0.6969784039316751,-6.778019560771614,-0.019973904716554983,-0.03070116020190003]},{"bias_weight":-1.759142059857607,"weights":[0.008581094164501358,-0.18492163996859556,1.4517908318328656,1.6814444733054519,-2.2785409701370862,-2.475146991137022,-6.1456629148342286,-2.470986036186691,0.08990693669742753,1.5938753288033407,2.4280037365377165,1.0849811322874379,0.42534947843442245,-1.4500415970057214,0.9753881585437952,4.475584448425815,0.9993046286175101,-1.3379270558337055,-4.398261304929587,-1.0659439006210216,-2.573339646424998,2.8257640345442985,1.171934183708662,-2.495492875626602,-3.304065402702366,-3.7314369137545613,-5.293992923036787,-6.2406944642364515,-4.560001865916699,-0.5022172818764041,1.699968820315288,1.6930416975927907,-0.6726774344238644,0.8791352075661983,1.0472786885471759,2.320204562101176,1.697555406818288,1.164462723773342,-0.1898433276225528,-2.126952672845869,-1.9392258317718813,-1.2401371933234893,-3.9137580820462325,-5.129673020144823,-5.219628597459052,-4.650452461417679,-8.07916637901527,-0.12786506356625554,6.009225818608508,-1.6633103145768655,4.164634381270942,1.4181685007035525,10.688139192005957,-1.4780106951530005,-3.583960241711914,0.020040581362091695,7.284326090455633,2.9466689269093647,-3.457205324366702,-8.243546160705026,-9.8908567293228,-1.1984795276824254,-2.1766328778969655,-2.668306848670885,-10.260036876565216,-17.66948351923767,-14.360884125726058,-11.680021934830176,-5.984949932737318,-0.031001269333421323,-6.595358117622137,-0.3920814530050426,2.1952927302496628,8.958074330116686,5.444501797707975,-1.1086685487659258,-9.7673529581778,-3.1904281750374035,0.914183704349198,-4.338229894333824,-6.8976268342110885,-12.132805311281047,0.24659421816434599,-4.617359104748395,-0.18331545503285035,2.516696541196345,-1.9676432793993233,-1.7656615285255433,-20.471804917280572,-6.71825253971083,-0.019973904716554983,-0.03070116020190003]},{"bias_weight":6.883292799823165,"weights":[-2.6535698865729196,-5.857880850214244,-4.199017019842852,-0.7311998774680046,-4.406653439037072,-1.3957813546996458,-3.6443956532937847,-2.016981219103291,-1.2557942776652113,-1.2810154587990086,-2.306798990522669,0.6073798746224737,1.5724715288773312,0.08389092452971378,-0.04089168922748649,3.7726039427995173,-1.1961779543479152,-3.239805857695979,-3.5490004872528678,-5.024300176283982,-9.720942753521044,1.8777998223438588,-2.992840894036969,-4.007771495470079,-1.0502700947465249,-2.5522148512473657,-3.117592651244717,-3.0005135422110496,-3.948065686291869,-1.5146845857003508,-0.46302126487570583,-3.041222091252872,1.19798617566805,2.84773467376736,-0.10689351250437375,2.340191806452037,0.8915822043465995,2.0676165346474398,5.352756241274816,3.40762755479945,-0.31333412831976126,-7.545347769976664,6.191386247694042,-3.852866110178119,0.4219015633056118,-2.8868619032597893,1.3196059253774173,-1.4483338544622026,-8.53115336892204,-13.433559616362393,-11.805068654317372,-3.1683988422847715,12.799811939661282,-10.437215272997937,-4.860189915631156,-5.524660261623397,3.2119869790731577,2.966483078263,4.31876488372336,4.436371648637342,-5.633897806252516,-1.5361598915320718,1.4486927190943537,4.603516237127725,-4.134631923943037,-2.7392803495735527,-5.562112476413024,-1.6839375919136261,-9.205296664639292,-3.455438287921723,-1.4193901051031983,1.2249999729368122,-0.535730248392916,4.615421880802746,-11.648073572727009,-9.068068506650166,-14.454090440942856,-10.499998017553443,-6.1328120500483525,-6.571943488531075,-1.7359617283403481,-7.714161035922307,0.8386976684775896,-6.624142911470792,0.14523675548861256,-11.23499865217567,-9.723063215748278,6.876773279822232,10.048349244197999,-2.4626386913201963,-0.019973904716554983,-0.03070116020190003]},{"bias_weight":3.5606410020325736,"weights":[2.688012943121601,2.295544815825788,1.6574864446474271,2.9290450351393167,0.7598065597813881,2.240999969032905,2.4949497389064748,2.5579013886174984,2.3865653603740387,-1.1911312969026018,-3.025984969111212,-1.1547119350218302,-2.637037870976981,-1.693788832470122,-3.3205548876078135,-1.1521216241070076,-0.17633730350998034,1.966429025702247,1.5639662376642822,1.0068343885498852,1.5896544636887633,2.207176174345645,-0.00771707978231312,0.6705749106350728,0.11197473810898013,-0.38231079713112875,0.9371892409200697,1.0021491788176777,1.9968041245089019,3.0440025655368816,-0.678633106634853,-3.0953007773496926,-1.2775797813616658,-2.323992287302791,0.6064606853621183,0.20542820020909855,1.5061518562878102,2.6602156083065895,2.711124042825393,2.394021753403973,0.7006111915830925,1.6289625742297624,-8.30826914811863,0.22961638120474104,0.981571210507819,0.8400865559123851,0.6593077819900763,4.625332124656108,11.346044452064698,10.889230283993903,11.681711862859718,6.627732757672339,6.370853090674356,1.503457123888589,-2.1742269451358878,4.56776159622236,11.284408119036666,3.6275756845618035,9.181145852622588,5.07762026329706,1.8412390996441015,1.767000539653228,6.59551338270741,-0.9466047230272662,-0.8243037554668032,1.2279684803732736,2.0356351527369365,4.275584319922721,4.742471387865613,5.613381345627377,6.495482732996725,-0.19351583386548318,11.548885010519772,10.49224956541589,8.418546606922634,8.118422469286854,-2.1246899709038076,0.46068692470506417,2.445536284500101,13.593299596896081,14.792509941586095,14.313173025408458,9.095946042225693,11.527610610270205,-1.5432493987353686,-2.2815353257267947,2.467595928579663,3.554121548412036,1.5212332697250568,3.368902120881788,-0.019973904716554983,-0.03070116020190003]},{"bias_weight":15.314538810730966,"weights":[1.7871787803141663,1.706642838170754,2.8477896306201567,1.951792314200818,1.3073977758354383,0.32590481215716754,-1.416762488118199,-2.8190395138412407,-2.6388578497124566,-2.858993808789922,-3.739514311156322,-4.801902935780764,-4.645378918204063,-0.837021901842769,2.519031288126779,5.452521944397887,1.178666264484672,-0.5629014875469526,-0.4184974612486131,-1.8663140530888918,-0.8221770370575681,-1.1930007741401343,-2.7328767757279007,-2.505916273898288,-1.1301753540862438,-1.252308080472344,0.7856647263263821,2.195462428490646,0.5328043420809833,0.4427553038508541,-1.2177806920850187,-6.1354992109090585,-9.60969456042938,-5.343858880640084,0.36258217732961656,4.096425732244552,4.88443045579872,2.497369555523124,0.039465689896893155,-1.0879556170577955,-0.6528379197934149,-1.5482238991774666,8.631213669389018,5.689358949996286,2.452918354912039,2.3018052740575334,3.701312356278861,5.716161039681696,6.732858101255392,13.154413420828448,14.641940983333653,10.802785452837929,9.17448867508527,14.185235331779214,19.260207138750737,9.986553033163982,6.404187816435805,4.875136197530862,-0.7081964937808408,-5.837382374675387,-1.4925958093145784,0.1935862648056308,-5.103806819567244,4.237922760172384,3.3502162177021497,2.1232641312564113,1.2301275955504223,-1.1766587215503734,9.224643901324603,8.94124496420432,12.435660712781981,8.199070898742606,9.972806576096882,9.032695778054633,11.051567122645864,10.264339325470205,4.2785493671074155,-3.7296719008076327,-10.154727640804843,-11.07067081224875,-14.745754442346367,-5.5133264274633085,-2.9182745188709864,-3.532952032028835,1.2564878470582435,7.525247863866538,2.523815815767995,15.308019283601135,6.65661805541289,-21.201475573401726,-0.019973904716554983,-0.03070116020190003]},{"bias_weight":16.345915702338875,"weights":[1.0624878341415525,0.7215387761545258,-0.742262971974459,-0.4686319008765578,-2.097313671437431,-2.025648112876596,-2.5989731508766862,-1.484319959429669,-4.080314593095739,-3.8218652935784667,-3.4477034168900125,-1.2772360598044736,-0.40067586789445986,-2.148085790509562,-3.6242241663821337,-2.7677227500055306,-2.9786286281088565,0.3243574771059999,0.014244119942052356,-0.026715068320457128,0.908974548633074,1.3824438370141952,1.7409555581574936,0.3156744084983736,-0.654629595585474,-1.1726138704164004,-0.5445380430564759,-0.4861554975366315,-0.6316691476144294,-2.831623582120536,-3.0375033326504677,-3.436560987717164,-0.2595824663639075,1.398720299009771,1.5101678644781817,-0.2829425333557496,-0.3880256584779497,-1.1593492587846637,0.9489698735831812,0.8093773758581542,-0.5076084632656959,-0.08624441812710722,-1.394599691626204,-0.737277311011068,-1.9615502486944416,-2.6529251403933,0.7020712295462155,1.2456327722572416,6.785195353256033,3.6658681145937035,3.6933847231165307,1.8939744765038593,-3.0221100608382656,-7.331660644388375,-8.315982964908935,-5.87600508981314,-3.0196609100922407,1.3271824210223233,-2.7598340887612816,-1.3953557318407952,-4.91169808941537,-4.551501879096435,-7.845552546634577,-0.01989952044743269,-0.3136658357510509,0.9021191886734976,0.8484445550133256,1.6828439193080935,-1.0467309653298253,4.459630083119225,-0.1672162234086677,-1.777367289143251,0.1949081584518338,-2.222312410020087,-5.892858218209102,-2.0841790382626435,-6.555828885162961,-2.1417151122166427,0.6426827498633497,-2.07376033892388,1.649114550183891,-2.8055759824972943,-2.407446335070912,-5.647240131153255,-0.0840088585678767,-7.642558830371685,0.05157399939811795,16.339396184134984,2.6546528405100505,-9.192896560609437,-0.019973904716554983,-0.03070116020190003]},{"bias_weight":10.368445037793595,"weights":[-5.225908016300587,-0.20071839312080483,-2.3544591806482473,-3.614140475501112,-0.7634161488113866,-1.5567196858450656,-3.559957771862559,-1.8049644242219773,-1.0669001783163221,-2.3194812899293837,-1.4960169484605643,-0.256306368892577,0.35683504871122895,-2.0277281342489917,-4.494743845467713,-4.4355825857846005,-3.025751053174496,-3.1400936217785618,-2.531598036588992,-1.984369112684103,-1.4986408835841296,-1.217433624380473,2.3975947961918824,0.7273887855375479,0.6158439174264322,0.6169544518784763,-1.0726147426334363,-1.9166302789924734,-0.7101621702445863,-1.6348395853945634,-3.025500564573521,0.16471399881083051,1.7641181620359574,0.7604639680473957,-1.5903189426171562,-3.6331614141088906,-5.236130934692535,-4.860584612026295,-6.307941871256645,-4.157773627938404,-2.891492883113195,0.054584389232399805,-5.04141988447902,-8.284193469276511,-9.478720819189613,-5.331710695284107,-8.504284826533862,-5.943997847220047,-6.711614928408536,1.188340447312433,4.671470317190305,6.7867513755714315,-0.4710480293545433,-4.167984964603885,-1.2892403275572422,4.300119039961227,-7.007029883392141,-4.308634734202503,-3.9583327111811224,-1.1324518811262951,-1.936944362804592,-4.028993270485518,-3.398522434934145,-4.062390938221148,-5.274139043435183,-7.924431948923187,-5.913814117441306,-4.958920366189794,-6.844294722562189,-4.054380450123537,2.0043837202590575,9.155230620023906,7.398119265405409,7.386479678954162,6.756972028104498,6.518937636675629,4.291550942175251,-3.609511448427518,-0.3999063587392576,-3.9380663233510043,-2.2147305361135583,-6.394107018740223,-6.066096799833126,-6.238541772306745,-0.6789203743999759,-21.452336166128557,-8.46593077600246,10.361925516460841,-1.413518052036793,3.107062588605818,-0.019973904716554983,-0.03070116020190003]},{"bias_weight":-5.2854338091068485,"weights":[-4.983192995236935,0.09094719190942142,-2.6123747649489064,0.28967917998879766,-2.226569452255818,-2.359063145419625,-3.793649388040858,-2.2370441099028033,-4.968859505477232,-4.298110928765878,-5.513949865965407,-2.710325689649438,0.2838998449716357,-0.2541541619186562,-0.7910702238167707,2.251974233303555,3.7209961919601837,-0.4164978561794186,0.5850623990677805,-0.02364694864982267,0.6788856717694627,-8.322034783248226,-2.702299331283982,-2.528723349374022,-1.6718328055732605,-1.96058197041131,-3.3816510775781627,-4.250007483827882,-0.9027905989122603,-1.6697554602645532,-1.937739866068675,-3.525036784225024,-0.21533726807111878,-0.41311514480859157,-2.1108946724164057,-0.5579619416707575,1.4988248884641422,2.588005072930294,-0.5673806798889292,1.6220534348217568,0.7559325905820155,1.2140990304414132,-22.265454998281417,-20.312718394335864,-9.46466348004387,-4.354982654483612,-1.280422715584088,-7.319237083404341,-12.313279697358452,-13.11233302566096,-2.6387386650128946,-13.067134109576989,-10.745667399227669,-21.502684036655108,-6.496405986883398,-7.3182709338519665,-0.9467642455474126,-5.395166728010551,-10.857537910318785,-11.254921353091198,-10.85889301002611,-7.123757792349039,4.176456826764414,-11.913324130959005,-9.039371114812257,-1.705783328345075,-0.9200063612068322,-5.2574817720932385,-8.456073993883322,-11.256556731286015,-26.53838605521064,-13.153858105588236,-18.672286427780136,-20.352477807559577,-24.103307867876556,-16.38242517203848,-15.786902940436157,-11.399578740887392,-12.367921752940315,-12.73795935762591,-8.458504046083615,-14.123150592321933,-3.6751538768955267,-3.2936360076487143,-0.9708608102716572,5.40596508240882,-0.15514226809014828,-5.291953232080936,-4.947273462794751,18.938022414101216,-0.019973904716554983,-0.03070116020190003]},{"bias_weight":-23.161026513408903,"weights":[1.549166377955515,-0.8422164773415267,-4.265662855002961,-3.7125812740061814,-1.3612307841958275,-0.6672686669045202,1.1835201724442632,3.973490374874889,1.8378291360469523,-0.6759436047626148,-1.4982637258624794,-3.9921705869898605,-0.2623693855548032,-0.2119014280279301,-1.1899036630873039,-4.120914681433635,-1.3453335422988602,0.7180599992573407,0.08530419350357774,-1.9677833462055139,0.9044506889304013,2.0609346402657325,2.2199552933552744,-3.5836316366064125,-2.1179036859471827,-2.3359379633474235,-3.493382698836049,-0.9432859964631597,1.7701490547800633,-0.5401245498711574,-2.470320057567277,-5.648980002246864,-5.775126417720721,-1.4001388206739456,0.5521703081719356,-4.873824361265042,-4.098315912072286,-5.084142335287533,-4.054206054058668,-3.4956735440361424,-5.333452467817867,1.7644017442728746,1.6370491763301949,-3.8918338523914477,4.942621363547633,7.306914516018715,20.096015567151813,-7.161992181686259,-3.861171892399732,1.4940693859437062,-1.6466406459957674,10.199909257099756,9.487255980260183,-5.535002089327288,9.19008118065846,3.073476310579763,7.489822169769268,11.22168355857906,10.11707989873878,9.19319031151759,8.124016199505348,4.918361344565713,14.010516782172834,4.85986050283191,-2.13212136121976,-0.6617518633046765,-2.2169340712194243,15.522340501426282,-1.4107339178262595,5.470381112729207,-12.121638436294928,-7.1729574994775644,-5.883304323371051,1.5112559115205184,-7.539140115701487,-0.02432398491320048,3.93059353254295,13.22694140681332,3.2801427785186803,5.192432676764289,5.594897773341188,8.372617535372827,3.0950697397019895,1.7718640899403277,-0.3684301929068391,-15.198470774095027,-5.445181782510687,-23.16754597132174,-1.557400198237737,17.904163604784166,-0.019973904716554983,-0.03070116020190003]},{"bias_weight":26.60498983588291,"weights":[2.3871684931488697,2.8082429820594164,2.2615379145623193,2.3178741806281415,0.9539385537712416,0.19371522419181503,-1.5272711543332655,-3.0447422806871938,-2.9686570260742586,-2.516484709317638,-1.8275387257296147,-2.252301003149799,-4.124833547573924,-4.5131121279033435,-3.2466365839701514,-2.76229138088763,-2.1019897620004624,-1.208764835739069,-0.9028346145835614,-1.3190540306226537,-0.19336479742863122,1.1725409639877693,1.5563216725800244,0.43448505305940094,-1.0063883120476096,-1.562869520252048,-1.7626564855514562,-1.1671908708142662,-0.6438614183701857,-0.8928411954247955,0.12484289737513707,1.8850667728915917,1.4102626527947288,0.3958718806051347,-0.46158496976355246,-0.5786778710959359,1.0002103538977636,1.4875237091167417,0.019546735828821344,0.6376912403799799,1.4139991555450562,0.8064986590941277,-2.0317236769090874,-1.2077158193539923,-1.3165588261779382,-1.8285866725508557,-0.3362102920709923,4.956950651790752,6.995957748357709,6.417998743191658,2.4923638387828,4.123373754218203,1.93402073226486,-3.682020502093903,-8.82645806038793,-0.1420767580170926,-1.1036571738128476,0.6913093167533684,0.7713887752694566,3.250626392431281,1.878216240549972,1.9169657647214804,4.96944708430212,-0.13893470232108196,0.1624044700461379,1.0830564671905116,3.004688143722982,0.49050697774706,7.713418735927891,15.423486818228087,8.7725944558804,3.861369067300863,10.185620340466146,7.041165042931242,6.052333058531378,6.100616914303172,-1.2299964734078535,-2.7878210885898205,3.444617618599981,1.3923111560258061,2.3075344730359353,-2.771397747548745,-1.5052492135410982,3.715105413267519,-0.07644838496295008,0.85888843740359,0.6870399302662838,26.59847028555693,11.481160851734181,-1.558379181206819,-0.019973904716554983,-0.03070116020190003]},{"bias_weight":-25.455787121917503,"weights":[-1.343415702268914,1.8104323844459003,0.6790385942011643,-0.6012586628772666,-2.8259715387163005,-2.4611950045357363,-3.5435620320726455,0.12485109419016438,-0.4442440980871567,2.7952742392420986,3.5823334258005275,0.22025980168912435,0.4647529167044922,2.887176909031052,0.46334948887759625,1.1575912585070671,-0.49020881220776524,-4.650084067807424,-1.874006628806608,-0.5314438434226961,1.6124978584920515,-1.178608525642179,1.457769630681268,1.1377479911987338,-0.5446937020263056,-2.4348336271494135,-2.8601583566078084,-2.0596213424624965,1.8731329486201453,0.5273918893083431,4.06101390057905,6.428920515661712,0.3216728893871594,-0.28283080484272766,1.6251857246440893,2.7491005760254392,1.241083599701437,-1.1522061040215068,-3.4053532182011073,-0.6204407609512241,-0.5293838195492409,1.9314618091486744,-7.870637317612869,-9.727239568153355,-9.806630111999981,-10.405127882187399,-20.54844139259308,-17.226587062329045,-18.708191606823146,-11.88615170420103,-0.49560046279552683,-6.5921881477439515,-14.61216301625219,-7.6240708088244,-1.3065895354073502,-6.785556567590033,-4.156967754458519,-6.848441924208311,4.223553272507436,2.9570486987152083,-1.1507749368405966,-4.427153023807083,0.3417222962049813,-2.747287568034572,-9.038533334243922,-8.802069126354278,-12.460449578618388,-14.851756236140824,-16.37030924649077,-22.702878758706312,-14.056524992444183,-7.82842880891805,-9.777348325124905,-13.130183177752894,-1.0754614900859731,3.5869223451986345,-6.038667379031553,-12.106797889913256,-3.4018285445461314,7.980269206778687,6.75979512901292,-1.1693879388755974,-4.544602097833065,0.17968041444986832,-0.28045781681483906,9.438283911608472,4.830289060914877,-25.46230657325048,-8.790557738202978,-8.2851441666274,-0.019973904716554983,-0.03070116020190003]},{"bias_weight":-7.341319841053084,"weights":[0.15394505041513276,-0.69282277814244,-1.9473761873991766,-3.533606098412377,-1.2880683225266158,-0.04152871093483194,-2.0264258063253027,-1.4087546446154773,-1.7501901855994444,1.7869736583239109,4.187991555302264,2.243547548368249,0.016756775287998713,-0.13397791051617036,-2.2781953101834542,-1.851584441297075,-1.2174548562057248,-1.3012132352498724,2.2098057904344603,2.2311497074119653,2.0597144681622783,0.6307500412356738,-0.41996294247147686,-2.246094131899135,-2.87349669192406,-4.639014793700629,-1.6378427581224968,-1.0936448782478887,-0.0057234747537042,-1.03589669022888,-0.30099816264312096,2.244555283969181,1.1319889672935657,-0.5145955318636881,-2.1293473924467543,-4.362796435325062,-1.7233705921978653,-2.9199493976743898,-7.171236740858852,-2.3243585436826946,-0.9662475398842886,1.627310671195644,-6.427047061195203,-8.055506972824064,-11.406210653587992,-12.660843853673567,-6.788655818525402,-3.272362532481443,9.021288095381871,12.356480289583462,4.846034304497097,4.092099498247615,-10.172662352799492,0.10669730595396615,-2.67924039110493,-3.3828082223814593,-2.7682806579303465,8.038016475763362,8.614813070709493,0.7784435967603475,1.0985851290360513,-3.275807138334623,-2.630984029919713,2.584796026529226,0.8469959243103934,0.6286795015906739,3.561572161551215,7.78000482245866,0.7287323065064398,15.912728450108185,-1.8411119194152563,5.100551147185044,4.461066970134286,10.966289192891052,16.78127434152487,3.1438538053780016,5.541425331749072,6.593047460233143,-0.35021412722195283,6.5215853477016195,0.37970150372456957,-3.1546419242885833,-16.30086102650229,-14.244172353427066,-0.01969512341611565,1.3064278796250075,-4.986489519496195,-7.347839372128215,-0.1727016765366836,1.7033131394833463,-0.019973904716554983,-0.03070116020190003]},{"bias_weight":-4.658040007982148,"weights":[-1.0860473232150305,-3.462438234088255,-7.293701591906685,-6.654006124612201,-2.9864170378923056,-1.5986407990836276,-2.8735046618027056,-1.9141784846166623,-0.40802738421244333,-4.793544601040841,-6.767809663714917,-6.986832002969273,-2.7779480553693388,-5.567330807146714,-8.843349665752601,-5.032959602779933,-0.9006435065013206,-0.1797737588727222,0.5325442735624042,0.9359149196515495,1.2952347105486453,-2.028050754557559,-5.655324367637676,-8.72987532255925,-8.66098702360723,-2.912319363494184,-2.3110132474923217,-2.5063135994209644,1.037057406947915,0.9610840348926647,-3.2139479922479675,-7.897401617656188,-5.871757725265464,-2.092238431932231,-3.6133489946010555,-6.241583319371627,-4.814349847220518,0.7567973970438044,-1.4427595265335085,-0.5569263921958812,1.1958792695266012,1.8199046566801718,-2.055452810659258,-3.01067406584137,1.8580388058649482,0.569866814731788,6.137020297425285,3.4291482865146534,6.503248247482745,-1.2037734992315825,6.091302708213856,3.044370575474881,0.37966137632311064,-17.42618593109486,0.6203488502700062,-3.599358653258121,4.095197981483858,9.597659717907836,-1.0261781021534584,1.4196912681763403,-0.5565323411218175,-7.248489525849169,-5.713948147947363,1.1612409100229948,-4.862828974731607,0.14209210875549386,-5.694716206335009,1.408057095471423,0.03558712881942212,3.381711614675805,-13.380130854074169,-0.969560708390581,-0.05606224332188363,-2.965477803192258,-12.688183595210615,-0.47076043127872014,-1.8018009998000992,2.41763143893118,2.153834871441587,-9.17612367208918,-3.055702291961136,6.166932435445402,0.10922264892271166,-5.835038825574001,-1.3259323368336924,7.956352149061516,5.080632361996,-4.664559529998816,10.786966616351107,9.6314477557627,-0.019973904716554983,-0.03070116020190003]},{"bias_weight":-20.536198785073626,"weights":[2.865630461098554,-1.468448208671408,-1.0876913462568514,2.759724321564793,2.5164615584889343,-0.396086980338084,-3.9527921017664074,-0.3166672504486882,0.7911229375880419,-0.28613781212733475,-2.7134048903811285,-0.3157296290612042,-5.593347399015503,-0.9755022899323376,-1.6193605158427182,0.28099034562133157,-3.4524093882275686,-4.001274059563067,-5.801363719097002,-3.7948108301845966,-5.705879787961234,2.2878767418413233,-3.4116775463691242,-6.596884896062399,-3.594193110645555,-1.9921934460883102,-5.419675482106311,-5.008793707470296,-0.14234080997360776,4.32842470435806,4.672777047522623,-0.05323564080926869,-1.9392200374321378,-2.1687996157064333,2.6419489914109273,2.820300977358484,4.808059878090547,3.7002922434368384,2.910727794042212,1.5475053853089054,-1.977840509524472,-5.2426849837506015,-10.296968432714683,-5.066209427203318,-9.357101984456218,-10.461749545521375,-22.12456820364926,-1.9808860839903626,6.057857232145907,-5.771679505903392,-0.9727729429936703,0.3267967323696763,-3.1355899908677287,4.567878260035457,-16.46896675366338,10.51232150087475,12.955501783967646,9.179642922348686,9.731263560794327,0.6405147496149516,-16.534210577212118,-13.969982723021722,-8.222465193223126,6.553919309659347,-3.3818650253950095,-4.128083297661484,-10.760972738327824,-17.518691750752584,4.175701030907206,-2.1048206227071944,-5.273289476874318,-6.312146450880866,1.1262758785667812,2.786720010703278,10.898528143916424,-6.155803090129698,2.638145617379564,1.2367935224689566,0.018427829465568726,6.389442913094294,4.103172442604248,-5.888986760698037,-13.133746763707162,3.075526241885332,-0.13566758020435338,10.90243825383798,9.295074895061148,-20.542718218519692,3.3888984897076506,-21.080232623682654,-0.019973904716554983,-0.03070116020190003]},{"bias_weight":-7.136558667344804,"weights":[-2.639997284697577,-0.48546167514450195,0.2108403653564407,0.5474447926941017,-0.15527546975536916,-2.950079568539723,-2.3083623362322307,-2.155800561810325,0.6413265267403209,1.767845657621552,0.6724988930495678,0.8267615279537004,1.4978520662451529,-1.0218524839212508,-1.9576601706191403,-0.5675810582190473,-2.9575713461073443,-4.781789174571001,-5.4137591091858015,-4.03463461148634,-3.7561930537330395,-2.8746176090739257,-0.6576831291496549,-2.5435566249857553,-2.6390545437235327,-0.5277716769933322,-0.7370055054335842,1.8204556182658505,0.3354274988614797,0.9547707064350355,2.4556469542094344,0.8955180865984815,-0.5848984327782081,-0.2197886443005682,-0.37854093104379277,-3.610659952320055,-2.5749709271327488,-4.786988857014385,-4.341951637322437,-3.959440959068965,-3.985721655872205,-3.9853417039416374,-5.2660030117856405,5.598102241073275,-1.68523633409406,-6.22638812929879,-5.2702570817306835,1.4520916298334168,-0.5176733550494572,1.6575382152463405,-5.0385761489065874,1.1326343026530687,2.9746285568209787,10.12492360703431,-3.049946043239113,-1.6452016998602244,5.945405484090969,8.580926960214347,5.52905858365317,5.5080267827352944,7.976407046054195,-1.882486366991682,6.3792513559396085,3.209935818566614,5.656195379418406,3.641573327857804,0.08723791290725469,-1.442738829180008,-5.123666730916106,0.16924691682592616,-2.0952434934594817,-11.372090719504465,-5.970842412445839,0.001624910895984798,6.012312990164464,2.0220141349276846,-1.4264806623207373,4.210205059620288,2.0660770507200255,1.1627357199382347,5.518738325742762,6.811660883129128,-2.7598587627716387,-1.5890073633641926,0.09977417790532211,-3.285660184191422,0.21945682221504406,-7.143078202509936,6.631626352216523,-7.911097869985173,-0.019973904716554983,-0.03070116020190003]},{"bias_weight":-16.371633728639864,"weights":[-0.2470566541669678,1.0651170258590756,2.2229561157853945,4.917927382980426,2.227137999431479,1.0582828945143583,-0.6639972086669199,-0.1057814856030102,0.2615333787788705,1.4796165209307799,-0.28322097299811083,0.5460835575395011,0.08234150635695398,0.358456827482365,-1.9324770981910573,-3.137053478054448,-4.555945356314457,-1.1097764904643548,-4.937079877065499,-3.4646481032082703,-3.8904861666034485,0.2105314147927104,-1.1295280198718665,-3.14073681317929,-2.3766992429849374,-1.2194033010432526,-0.008639094645327711,-2.7646492389788984,-1.9448067765092767,-1.426495367920359,1.0417361052510599,-0.49044317498183243,-1.383525713207972,-0.5075948455295133,3.1386418817307913,2.5591496037729606,0.5659600236583973,0.02051308759053292,0.7176492245071807,-3.4566623182507805,-4.019506627271996,-4.402405595872747,-12.19693848798148,0.6062480820172282,-3.8324173886084836,-5.843780095384757,-11.977897745859536,-0.1107888320319904,18.630357751794072,2.2941729463483425,1.2046247632411788,4.85380798194862,1.6410109324634592,1.775162080097828,3.185647837233484,2.886004889029036,12.439297061559412,9.127792357716773,4.871433086877773,4.959362966757204,-4.31577023382709,-8.629777119515664,-3.9901123328030264,-11.382823341895543,-2.9332393442709335,-0.7839892574674191,-10.31157044940812,-17.81113868398487,-7.5338130362973255,1.1003136952415147,3.315067563731914,-8.046545571536413,0.11634419293510892,-5.04992319949732,-1.8107909614025972,3.8957087576277183,-5.429572440902507,-2.0572360576020587,-2.926643437778202,-12.848746212767553,-7.3264234482658805,-8.136713954957564,-14.9962137793157,-8.179206849642078,1.0761357752937308,-13.37498002087772,-1.6864318101691964,-16.378153173520417,-3.2634891032482685,-11.97770012637209,-0.019973904716554983,-0.03070116020190003]},{"bias_weight":-4.769694012633297,"weights":[-1.3126891653790151,-1.4926540159877624,-2.251947745966255,-2.943439787379529,-3.6379757676352913,-3.1906329931936988,-3.085736188182416,-1.557534321953448,1.065510793357407,0.4703335610985684,-3.276992009183293,-3.577543113021021,-1.1831383988094706,1.765671256593515,3.987625530682996,3.105443624833537,0.026972326216072772,-0.8917282409986317,-0.5361263508794392,-1.7735625302006388,-0.5266271430671959,2.5610032369200817,1.3797320100683832,-1.0809206006319858,-1.5534124959209608,0.011600195750428305,-0.6000509358921746,-0.8456129032292422,-1.1987907976583194,0.5435314728615666,-0.27092647227756517,-1.3629952310000997,-3.519753556403161,-2.0533303618643375,1.9193907231278957,3.5798865875938954,1.1408010462147615,-0.7996091629572196,-1.684244951974558,-2.171132199946411,-2.0152046060862556,-0.77064602635395,-5.704232907041913,-3.132900844365102,-3.4768442020653616,-1.795386033597059,2.9150028143911753,1.0510422086271993,2.8508717155564405,-0.28677984616527114,0.14222976966459763,-2.318224683125756,-5.479111060879551,-9.913812695664053,-10.323211441086174,-5.180364632472546,-2.8542054230028446,2.3460778423946627,2.3009768135596462,1.0793292529923293,0.8549712196285763,0.9361964376395754,0.766551637397153,-4.315021797770216,-1.2318455791513299,-0.2010023397422891,2.802372568132783,3.5959268179563586,-1.5574034458810182,6.36845742017983,3.2998463119502612,1.604931584674249,4.352347939143957,4.149431206702147,1.916697712777617,1.763951240870311,0.49345212237744984,1.5393402684457254,7.272476709384845,4.389144342279638,4.9834925017009954,-1.288198741838074,-1.9018353834592763,-4.344729392563061,-0.6271268177938398,7.318265973817493,-0.09596673276446044,-4.776213563492921,-2.1843954250667,0.9228875435379841,-0.019973904716554983,-0.03070116020190003]},{"bias_weight":2.777434476137811,"weights":[-5.958526277071573,-0.8715340491941224,0.19571795371900194,2.1373497098590257,1.922590394888937,-0.294695923082577,0.19951476334961768,-0.606992411020249,-1.6278507041830674,0.10064483998309201,-1.9014602152679039,0.19021078685498635,-3.23614224321607,-5.470838199588124,-1.0960484583134122,-2.8683956255130654,-1.7023401622071637,1.524025560988818,0.9953805818565971,-0.12568002982827564,-1.97144843041442,-6.51658910079209,-5.364612952636664,-3.2930723871053096,-0.71735630488296,-1.4901989453483888,-0.23495704617484806,0.07565885405536796,-1.706931264428361,-2.1978864868697343,0.00253927339975647,-1.6918745513698406,-0.9137075880929908,-2.103276386316277,-1.3028838638452351,-1.389980664976717,0.6246758170752625,0.7602776812876553,1.8384036524451695,2.5306261456691113,2.438271314241291,1.324924770551563,-19.829526976590575,-10.501091775691282,-16.91864681342291,-12.485731898983987,-9.5052000435353,-4.643268388528514,1.5327397841918082,16.67032805336967,15.529409822454772,24.818584259401433,15.082954341817187,25.4145989610451,20.881517798282704,17.343570329421883,6.381175562753148,9.057876555489333,-0.07672364210139143,0.6416147925607759,-6.056619016522466,-7.655615252509931,0.17271740826915014,-6.890622408003897,-3.6229783529973645,-10.474679062191635,-8.614597462182296,1.0071431326480904,-1.6929815001290334,2.0764977170360828,15.954631518234901,11.76837431968201,9.20201114022416,16.391855665393585,25.303191098092533,8.56354844947197,8.634440834028137,4.793832859774469,0.7299722579041924,-4.078893516293854,-11.325553629261256,-18.963598987701936,-28.587956373955784,-11.196952264019961,-0.2560669719385892,9.228589638181443,-4.133452317952178,2.7709149372328667,-8.381070868635234,15.745147933977702,-0.019973904716554983,-0.03070116020190003]},{"bias_weight":-12.262676556490964,"weights":[-2.345194168592042,-1.9602500287541416,-1.2366325393408957,0.7915431782922541,0.010158917201829805,0.7146973207904882,-0.44238828559540627,-1.7541226378334858,-0.7150122857370191,0.19514268151114103,-1.1114875710370746,-1.9171215836598068,-6.570594714656753,-7.06524409574031,-4.173582263624027,-2.371773575745466,-2.3682760680926336,-0.21252427017600098,2.00944094508223,0.7289308232633578,0.17955696523616746,1.5347388308024121,-0.08925528431795804,-2.900144806203207,0.5859492490886633,0.006833734054412319,0.516695114588096,2.9313139492177553,1.5059786617339022,5.362368713846719,2.9150785910029753,0.046924501610950985,1.2364687602199131,-0.946250017982614,-2.3514405424317752,-2.138723824791893,-0.6870099570894527,1.570950951098983,2.035048281165503,4.381074681596039,0.3201309554765272,-0.3391987879400117,0.11059786405605558,-6.345378112054109,-11.929204992456313,-6.5095404512005555,4.1880620391257475,4.318564492349001,0.7685539015054066,5.378823169779908,10.259689443755047,21.7637689186703,10.793215819648399,8.566432949356933,11.244671378074324,14.933897523550831,14.756484374462579,16.181051688308536,15.798790828935529,7.775183009857723,3.3919398772398246,4.642674388395036,1.4469071585379791,-1.418591275746588,2.4208052721638262,-4.81248546596694,4.518856440302089,7.555326877697558,-0.5483987078196576,-2.456182821459271,-9.523939802252682,-5.799584638925678,8.344642053100012,4.025546563530946,1.5711037102006966,4.0794274088110765,5.147478641256767,2.842944783364668,0.30317988063303974,4.915559294828471,-3.8245463506311954,-2.8716244028358404,-2.3118982029214314,-6.252044453918804,-0.11069989526690764,2.6433359369323917,2.723399566256094,-12.269196076484969,2.4494545568725687,0.013286152519278935,-0.019973904716554983,-0.03070116020190003]},{"bias_weight":2.447953128278882,"weights":[0.9150782394612872,-6.807394427852446,-7.226134797601917,-6.721278222680134,-3.683603426489413,-6.50514758901962,-7.482727841194078,0.11661063707997069,5.1620999684170386,6.707683705663577,0.4252511793475856,-0.871945142863137,2.533864669811277,-3.7369067609052924,0.6583447300130525,2.4701648792773647,0.6030338462830976,3.854263830570062,2.4107965801395035,-0.20583346075479142,1.908617205346881,-2.2038464471935217,-7.310111309304603,-8.656068406799694,-12.860129350177903,-9.724186485220155,-12.77717988448949,-12.37252179478613,-2.8671205311935295,-0.7553586579996858,-0.30344930173135765,-3.609257024332494,-5.9320056314223395,-1.8685122850064888,-5.222887278653627,-5.369789847700793,-5.008770970729219,-3.9387577227263026,-2.5892145231368766,-3.7278362294459444,-1.8822941868407852,1.4944510418124788,-9.299866589438068,-3.8366640174951567,4.085069334393626,15.422072917658506,17.349907206218273,5.17329546896911,10.231166018469887,-14.834769435371102,-6.819985118440426,9.35419718764028,8.939143509767387,-2.181853553105993,-7.179939791352391,-9.7794520025467,2.796799416982748,10.91855462016729,8.608148216348344,14.017177963061808,8.258961213368702,10.504569432647314,15.36513273122663,-11.93821392605968,-6.480339904818211,5.727115124766124,7.474854124889783,8.121798208432836,9.564834210809886,30.429983377963026,-4.671167309436406,3.7057169277995694,0.8351575398733988,-10.682678174448402,-17.037238457529433,-21.271301980758818,-8.624686092654358,7.22038402742957,6.093498957224684,4.147841663724168,6.968635573044646,7.022057577570683,9.300303403396462,6.009995242725275,-1.3801502526045304,-10.956615485594691,-8.444405963244098,2.4414336007611412,3.557095148394181,19.73252771359715,-0.019973904716554983,-0.03070116020190003]},{"bias_weight":-37.03468443252315,"weights":[1.5258400669453505,0.8163832673017883,0.4227061454980154,0.3884707738638674,0.2455385272611321,1.285822728656959,3.4047080977536917,5.5399504731561136,6.375218237626447,3.873764258708062,4.753447362539135,1.9977819725440278,0.6747784833108896,0.27979460657184085,-0.18468908363641373,-0.07674678243564373,-0.11903992642964864,1.5965043481591816,1.1242420757460714,-0.2750710926294669,-0.25422555889456977,1.1686888316717658,-0.17830899699398178,-0.2948245875559398,-0.421932175295946,-1.3326412128773197,-1.1281587681183864,1.40727007487829,4.731747993824554,6.722013324143935,4.708537696410772,3.823051184735617,0.5449584421737145,0.34362816502016996,-1.7773147745786386,-2.1225481974175855,0.27444379559055343,-0.5135939131271299,0.07536295418363358,0.7798001484794947,-0.3759758095516907,0.7788370251830427,-7.849115511025364,-5.471304037187284,-10.108111389998092,-7.663198076613892,-5.874857874571128,-13.085967491507695,-8.199926262070294,-9.919324709862481,-7.836412193808788,-5.270083967243401,-14.65088791908025,0.14644188393013538,0.9748071006641548,3.8866857473212595,2.8902353985284184,7.134399885069084,2.38821152005687,5.696091842084679,5.602919961177795,6.911896532465584,2.0270490879561778,-1.7221378893723482,-3.475472244661154,-4.417356493036011,-10.892790759203637,-2.4056910968432135,-9.059494662420883,-11.04814103639084,-7.267950321996305,-9.305599696859232,-6.968447568488657,-12.849569401080743,-3.416455379088336,-8.296248541964884,1.8445902981098699,-2.1736186161979183,-4.945301665777243,-2.933743813781494,-4.0123237519752,1.4386292357460186,1.7912320874046659,4.207072050073426,-2.5584684157843594,-4.022134003702146,3.071495847882087,-37.041203883270676,-14.291123105484894,6.6692366852588,-0.019973904716554983,-0.03070116020190003]},{"bias_weight":-10.316625548552647,"weights":[0.021641532256431374,-1.8416724361817802,-6.687594987323188,-7.696171383435575,-3.2932463053996996,-2.4126777542253546,-4.257783640292918,-1.5698132637750215,-0.49618484384695033,-2.295905129256692,-0.21318796200753976,-1.6919484118532138,1.8549333836510513,0.4824401253881962,-4.256579093701406,-3.3245583227184805,-2.294565344631841,-1.2927879316901565,0.15995522975202692,1.8328734232251314,5.890317209915242,0.9296108172766236,1.5833001382942402,-3.496509575251082,-3.500213794106807,-2.015570203570255,-1.5755170569722565,-3.702340415878591,-1.3519055853401811,-2.404786513571226,-6.291542580069107,-3.0725305180850944,-1.7171317806517934,1.9701924805111228,-0.5903389181850013,-7.44257877165631,-4.145442613172823,-4.339197285627975,-6.282627919396281,-3.7175425137701357,-0.8733810970931046,4.152515690543819,-4.269938508466243,-11.182019926974737,-15.011316138006796,-8.805744123209605,-1.2945466441330953,-1.0407005367100337,6.450521071689457,18.114757827597522,11.308631774361764,5.469008785912824,-4.314949716334831,-14.269348335046551,-2.887799435240181,-5.6139203152763715,-3.581084090994322,6.002584676098919,6.675907513348452,7.12538268557574,3.9077316433601808,-4.597958354662652,-9.480275853043985,6.2055286603615105,2.421994936213323,-1.2529624842565497,5.490299883768568,14.24343589539581,4.8051460594452156,15.404097406720958,5.8946995286297685,15.041694524873455,1.86944246178258,15.83893125496217,6.559513393666245,0.6939521746549222,4.080525597478558,4.018558659496321,-7.868633244104301,3.2380585448450425,5.43188543333569,5.282635891282339,-2.344108500848729,-14.69798725439784,-0.4854584104019646,13.29609538175714,-1.6973426344889933,-10.32314507574057,-3.7483417823567153,3.094963002109628,-0.019973904716554983,-0.03070116020190003]},{"bias_weight":15.316022814960414,"weights":[3.761216821120957,3.0452061846989094,3.637177348892836,1.573935930814218,1.2304131269273624,-0.048730070460551146,0.4630462398116279,2.5413321082273437,5.7554421441961425,5.141860272678212,3.5659705043798,1.0393201390137945,-2.87878031700624,-6.8888571330782815,-9.64632832465408,-8.856508655908362,-7.055966524061751,-5.734030528051196,-2.987037105350673,-0.8275174020392936,1.5346492022930465,0.869513360463667,-0.8167514887332669,-0.3515413536432631,0.810704845446649,-0.24648118941887093,-3.442591090355972,-3.534756330909519,-2.9797051618068036,0.1413295211435937,2.246228793945449,0.590325017776824,-4.101046074080512,-9.306976491098316,-10.2338188998711,-11.291618377537649,-6.695252408875752,-4.5508383076650585,-0.6674640627910529,-0.40017701968554525,0.3909835561488106,0.5181025802796416,3.3128397013291244,10.708050147305846,5.463037876113804,4.9629318562233005,3.2077215825495977,-0.6734479736733415,-0.27733905326314157,-4.324631892553557,-3.0928150903455633,-1.5169386415206285,2.6601523778387715,8.888355019562605,11.170204700631551,10.423458641338236,4.729789006461199,0.6028882990573793,1.392893991747609,0.305256204094827,4.502436593929509,7.557491385996311,4.4788640287932155,3.237361309921153,2.2379778699635873,-1.0799614151234713,-0.4698675453294632,-0.6136123657481275,-4.83985159418368,-6.593044536253722,-7.615532015713357,-6.884544359103833,2.229338408996327,-0.6387023347857836,7.47338141230761,8.003079040431727,10.62527495264441,1.670512792375074,2.464513879477599,2.2678947906032247,3.0634133670735038,4.5224094271166795,6.243238363673745,6.3462227840402665,1.8996679676831356,-2.8160357520618358,2.81606783614237,15.309503351749584,5.081109862103756,4.514732415502265,-0.019973904716554983,-0.03070116020190003]},{"bias_weight":19.822037496723983,"weights":[0.932611792223247,1.061141819297416,-0.12677454731075688,-0.9937550824924897,0.8612398418049985,1.0970783640524104,3.192998429496864,0.8515813591051952,-1.6491157165339676,-3.7302890093547227,-4.1185112281010205,-4.978577014240363,-10.320717659290953,-10.306658816232238,-8.713848457092631,-4.456637550452785,-0.5927139228394824,0.9831759822967799,3.498064020135903,-1.697372977231313,1.6433046580315747,1.2073729513875122,0.767058608348657,-1.0720137739502154,1.81020874844095,2.434656011334732,4.029823099370388,5.35902512628433,2.7386857223535213,-1.0441011869713095,-4.8962613393799925,-6.815518142573906,-9.21114503006257,-11.200094698099113,-7.359167324595617,-7.641900649230035,0.8266073437940462,4.7087069412365885,5.378188159290113,4.299267839842801,0.21375859015111404,0.1894050293541185,2.9296536298083105,1.1434589096095664,-4.585968598295174,-1.5324356695372114,-5.040470811273887,-2.6413122383640264,-7.269673721540292,1.895937739296569,4.195805319323548,7.639110298977784,9.010776878725885,12.049009647432225,6.389904987650024,6.253046874626548,0.38977594382945546,-8.271187418522981,-4.702526149269621,-8.627930357346925,-5.21246078832166,-7.1946876126611405,-9.24268261318627,-0.9863216834614391,2.51161908429736,0.620637557457984,2.106571781083825,2.182015461998697,0.23119357079057568,-7.314551801619524,1.6546201292111358,5.022180947918399,8.883908007530897,4.833547084645797,4.448160669955246,-0.09697103410175636,2.5588428505266902,-2.2390287647167084,-7.342247727105459,-2.1074413476807625,-4.34983410438021,-3.5767280526407554,-8.232753596684775,-5.45105362506206,2.5537692331821784,12.8835909839432,2.064168877449367,19.81551797290714,10.232708349433837,11.454407486365364,-0.019973904716554983,-0.03070116020190003]},{"bias_weight":-19.559973742561485,"weights":[-1.087043391243339,-1.3038739491610156,-3.5246577557712917,-2.836073848006039,-2.1783284125816285,-2.3141321821784375,-2.4521378911043468,0.8053200820438403,0.7746490384806667,4.021075739805161,3.027941244759322,1.4718312714633115,0.9782607400368805,4.331066457729962,5.012059452593219,6.111410377968067,6.469941163445905,5.914057964796766,5.024476953101257,2.6257414191001986,0.5656153668828212,-0.016900294212508098,-1.3904319663383171,-0.5688788964467518,0.11363397416556587,-1.9423691612190355,-3.043577600417047,-2.149470505228944,-0.8557906500231584,-1.0588996091162117,4.342253474223746,6.777618838264612,4.246985192473267,1.849786400826881,3.4916330966918956,4.743244340518218,4.283949826525239,2.279584409984333,2.0180074995099937,2.1618766693688407,0.6931544199257407,1.0291923016778746,-5.515668798964894,-7.725067478747005,-9.015921753105097,-8.97691251332646,-9.994079766947067,-15.393514578285712,-14.554721391464513,-12.959728022787846,-9.90842051943154,-14.519482979301017,-15.473389701254872,-9.897510331308291,-6.061861941374216,-9.418257734440378,-5.585630612818332,-0.35661950225173233,-0.3274604788922979,0.9869894159168485,-1.4520842587180602,0.48681471470903476,-4.329500019606605,-2.1313134555372946,-7.988811890112436,-13.477600054777836,-13.841258210781735,-10.225540874529528,-11.494635281069543,-19.628116585133313,-12.1582223260089,-3.0304811469573694,-14.688743178367359,-11.416996809790053,-7.403185238665039,-7.688896810701123,-4.745998437150271,-4.161583349895339,-1.9784670224633147,-3.1021119093379417,-2.744452564354425,-5.09485678209639,-4.205106290340967,-5.135050692060508,-0.8896531644910662,-2.505748992789565,-1.4869526067660899,-19.566493208758544,-8.055037217821422,7.8498937120845085,-0.019973904716554983,-0.03070116020190003]},{"bias_weight":-42.68810828250789,"weights":[3.101168629616193,2.7177146145126123,2.4630821268235237,3.705457297350939,3.7011269444468904,3.48021769600373,2.6065105133938604,2.732472155229898,0.528619014848535,-3.9803530236781657,-3.622397715611435,-0.3086399895217563,2.6972891480497734,3.0419076220992416,1.4835879600082962,-0.9946166236754795,-2.7634585616128304,-3.8997238725781207,-3.572338934622027,-3.08894897051398,-3.307771336693942,2.6023609921508433,2.4356681964251137,3.207705842735385,3.7053689994989405,4.27083249769702,3.1966468887996555,3.7594682748812613,3.9071968430735895,1.1281317378850946,-1.6582525901206158,-1.4815016929780065,-0.3036413439620012,2.5352158270430927,3.3527612073246,2.6680796796640704,-0.43300151087630634,-1.9156210467998203,-2.68419818942025,-0.9203498356490465,0.03437714291202799,-1.9391901013413047,-1.096469754898289,2.262203554001245,-1.048118949041572,-0.8550590965834033,-10.54077708595574,-2.5743035311309295,0.08757264928837293,-0.74730968151946,-9.270583381768526,-2.3824240133876082,-6.909664111329932,0.7932276338524288,-11.414584992179346,1.3144552465302881,-0.11588383265526121,-2.377645073911397,-1.0104867346218231,-3.768682504422977,-3.364936839283034,0.7285459133992014,4.778275911733847,-2.7732599300412217,-1.5116111790528606,0.14151376767669846,-3.7436128921241143,-6.356423467429386,-5.96575034730396,-6.935519645181853,-1.4189365293991791,-5.419644792053684,2.8912868978266966,-1.4830595560379474,-0.9630856687669584,-10.178987289945203,0.04920439023140273,-6.315538957681371,-6.404285536978608,-0.8752748194616682,-4.777137019856419,-4.84790292304481,-7.162980393946395,7.4467836262063445,1.4779046984238005,-2.628926385308131,-3.40701508055648,-42.694627735710846,-9.031562378666735,-0.5729892094509078,-0.019973904716554983,-0.03070116020190003]},{"bias_weight":-4.650043557815777,"weights":[0.5750299645596512,2.576205591928492,2.1780903802606986,2.4371208746368866,1.1411076741760207,1.0988588968493331,-4.416972383597356,-5.400040420962047,-6.659228661798515,-2.9152405890851534,-5.04682962076786,-3.410973758615385,0.989536632145329,-1.8245681322746106,-0.20346410565481624,1.8239273125801216,1.2864168382980816,-2.5597389174062606,-2.258529561929558,-4.132048054544905,-4.84142591474057,-1.2035233190412924,-0.11630712403669342,-0.5398159256331736,-0.24386646819848584,1.7137311862272098,0.8073317450021551,-1.7554444715435233,-3.04616531075193,-6.243080592631754,-1.8292432630519113,-3.1513642954223617,-1.1473241449924543,0.0841055388991605,-0.960967814822214,0.7531245377431159,-1.0604395908271742,-0.8595735008771787,-2.8635450438014516,-3.5883650435256276,-5.60903448311628,-6.773528324976742,-9.056014131153555,2.870326995977003,6.48015367207929,0.4686463419896177,-1.5043389481520164,0.32458754805023143,-1.5948937693817555,3.6552241974941806,6.030717858385302,9.291884400248293,0.963998310586354,-3.066221009500636,0.9344135946997244,-12.070191591859276,-0.48690815404725224,1.803668546288651,-3.1663272154814495,-0.6433830488622695,-3.3367086528044703,-12.724460233773549,-3.568040784825109,-0.015446867511572433,4.38925651800502,5.7551449054098995,3.0458586429445322,-0.16667819788356916,-6.044712367091925,-9.215582301226826,-7.604914632108604,-0.9654604937338567,8.067290369502496,-4.13803562113436,0.40243677448327664,8.913416683937605,-9.6596254934548,-5.546432691503623,7.565180781120268,-1.537647373844534,0.8935700313741873,-4.138242995728033,-7.961069682201823,-4.30686118747384,-0.676457190103984,1.2685530143627715,8.962690214205765,-4.656563077145688,2.099257145066804,-2.8276626209751754,-0.019973904716554983,-0.03070116020190003]},{"bias_weight":-21.3332204307057,"weights":[-1.3324331648868435,-2.7773637382136984,-3.848536881365865,0.8079930176571173,-3.169777542328378,-2.063199075545234,-0.4499141370770725,5.57743388846308,2.1517498314846257,0.18234534537510275,-0.8395555006612464,-1.4847723817043426,-5.138284201754083,-2.0193691634558872,-5.136032082040429,-3.1415011548087906,-2.6269569268822255,3.640640757008383,0.1645297490349099,-3.2309861279294414,-3.5783937136614528,-0.02113384801936889,0.30711105067103145,-2.086786542004513,0.8091709715216718,-1.085451921627433,-0.8964494268993076,-0.44572979949189073,5.991220878804947,4.765281893973332,3.072757204441944,0.09196140234798858,-3.366252327945462,-5.289144235648262,-2.8184994655440128,-4.456976996065826,-1.312371239278874,0.08266214737691022,3.3501364671988094,0.1662599883714201,-3.0735160774333594,-1.2910458310504147,-0.08894396575983576,-12.531069813657162,-15.694871145546237,-4.4077272814725585,-16.661902450046963,-1.3587961474653356,8.126221621739983,1.6770155055815326,-12.440490750735194,-7.435587791624949,4.729161918019299,-14.25590223559,-19.839310486661255,-2.2768300586323216,6.189527939576966,5.014014087891381,5.0822771667634,-3.2818455786404725,-7.859581574592741,-6.916335553540517,-12.12282640315665,1.852796725738905,-8.559117904772101,-2.148486810862997,1.588913167027877,1.3978386403734948,4.486463027626704,0.849402418814332,-0.32761240324237795,-10.133086789904246,-6.751837179713336,6.051328185188412,-9.504394512749567,-13.904283034854132,-4.574295280403128,0.25068458342640954,-6.947344728822836,6.894717363963468,3.0987781489578015,2.9675870952825316,-5.697401097929456,-6.557806314762165,0.10540576875128634,15.342197903797755,5.998158038750385,-21.339739879435022,-2.7142492757027257,-16.951138911303904,-0.019973904716554983,-0.03070116020190003]},{"bias_weight":-4.194011573053974,"weights":[1.911069288713525,-0.9739677259694622,-6.133895454082479,-9.578231058689989,-3.7901793361171023,-3.706423031079477,-4.208421580021919,-1.9016261565179875,-3.4072556398038705,-3.6217644426968767,-3.68263810959231,2.521929480709754,4.9618969703215985,0.33636552933229374,-0.1440940722945288,-0.5460995180093645,0.17427420730529128,-0.6821970330383627,0.12089469541318115,-0.915942843511792,-0.58899365452657,1.0373784412090077,-1.3797997531365336,-5.604775598228767,-7.03427198934821,-5.860823334949784,-4.827995424841887,-4.4675087187445826,-3.1902752367976057,-4.454851896237024,-5.670138470910383,-3.1862888768858753,1.5525564128828877,3.1356397910982796,-2.2671807445889582,-3.6358318469375157,-3.4392152770729445,-0.7175563106132657,-4.021852643656627,-1.4861383274810098,-1.2724628829661466,0.23239831354506343,-2.3318615925128836,-9.582266937900059,-13.111268325020657,-13.55185793182295,2.985383307557733,-1.4037404484706433,-5.737911526403849,1.9946790563385735,-2.4708424148813295,5.517672582532189,-0.6473054880693696,-4.332948378555008,0.6595873104383625,1.895483797611705,3.301486686527244,3.156391096201392,-0.5226431234198567,-1.851157608638687,1.5527097729762658,-0.38385820228381623,-1.8886770160252961,2.182635710161377,-0.8625274037019319,-0.2202551095855121,0.9217080263001468,3.8646775139938487,-2.4985573010661226,5.1524936885836645,-5.734255952923109,4.814737649638287,2.5833026518412896,5.209543522081624,11.038839908646128,11.128418170259387,13.292905014449675,21.766932465034344,7.94038476106056,-3.675546459865504,-9.559624332947987,-9.281027119812968,-15.364842285416934,-18.169533804347928,-0.018378664588990175,12.041363049316265,3.930026530068453,-4.200531128119277,-1.2800432569792382,18.260668128871277,-0.019973904716554983,-0.03070116020190003]},{"bias_weight":-20.043921071481783,"weights":[-5.261670325640591,-5.281117513521255,-4.755559013813586,-2.0976881109612053,-2.5175985724798586,-1.2122742946504432,-1.0058024285652336,4.101356344860867,2.802735141764466,4.853826641212659,1.514252680120872,1.090477515183423,0.743300142863776,0.9074001975637279,-2.5187232374449957,-6.334939273351516,-5.070896471209309,-2.178468934337792,-1.4241821431608865,-1.355005346392547,-0.46922367454588465,1.6808793397291109,0.7518255060107739,0.9459842555961542,0.4729273532896467,1.0404773941772623,3.7175800768384732,3.441482718141719,4.8168965749363455,5.752328613973801,6.451884442733351,3.062607858022894,0.7285772267139934,-0.6205547195100285,-1.928333514719154,-4.773204578982014,-7.241126756514108,-5.344873144426306,-2.9282810284435565,-1.148491113499323,1.0213745763434712,2.4848384358498734,3.8520669221314563,6.179426068591772,-0.6445627223713903,-2.1636997718737923,-0.11953284970119443,4.471654006642142,1.2415308319012566,4.633003202812604,-0.5535991125206647,-13.80994835817655,-10.09809062732118,-11.72784752538256,-14.429762418760587,-10.775242715204913,-9.331538846856056,-8.176496008182268,-12.354919842255459,-8.016108004462058,-6.944495069942397,-4.040506101123868,-5.794702412493565,10.661353070989545,9.382464106678285,5.212827999465831,-0.01671694425209999,8.11560538146056,6.836736318249659,-2.0584895406277024,-2.5228910191634437,-1.2103826852590105,-6.019267772112468,-3.607459491194617,-2.833243360170532,-9.158764692079805,-6.91613004347058,-6.064579560285357,-14.584448316452248,-13.474213870031353,-11.299346865038013,-13.149742324947312,-6.889636074435154,-3.359572594123278,1.1661161720426312,5.491041168565384,0.9468300810541878,-20.050440501938763,-4.432932419376839,-4.61139452295971,-0.019973904716554983,-0.03070116020190003]},{"bias_weight":34.492817423924485,"weights":[-0.7019171604476033,0.42945945608782715,-0.4302771647364333,1.0589527991036263,-0.44452729386068385,-0.6924425470548502,-3.1092107753904052,-5.217495528538423,-2.8898141653190947,-4.963788099083138,-6.14680657097025,-2.010725995328715,1.5656595736065166,4.073282387188977,4.996123265739812,1.670057195515906,-1.0762742697327272,-1.97975271506168,-0.4521159235164253,0.4092305308155209,1.0818941384261234,-0.03314486531236588,0.7778925964233747,-0.04379964489856454,-0.9192470200275785,-2.0283926912363026,-1.0727958666601176,-0.7709327114558625,-0.8921956444437061,-0.20689912570660013,-1.1207671707077518,-3.7346809315149634,1.6760866098161684,2.9340942576959343,4.756074223864764,4.783273707370332,3.2739537852000016,1.6116949350534069,0.1191623366309458,-1.2952835642850928,-0.6085834882520225,0.2162142628698429,-0.29955438680352775,-0.7560160765219915,2.119468650448887,1.2827913846417862,7.240977686899067,0.28154841481246645,5.701197301863967,8.88721112944567,8.467671109599417,6.865949328724534,2.6906859578083195,-0.22464735653358578,10.377449650647351,1.4348120794161012,-1.0571479098103855,3.0874055927649704,-1.4176735001011158,-4.232064088139785,0.2649692745906886,1.1014237447286916,1.5541555648569108,0.6685786433155528,1.7751764569041657,1.8470817207829024,3.3993588806154285,7.741189557732531,0.6787278357224499,6.2460938006483575,4.529172592557152,4.21891443228209,-0.7822351733065952,-2.928230637007972,2.17483940481551,10.452851231036705,0.8089616387484512,5.136324486093386,1.689281501223336,-2.619723478543589,-2.4224734004328323,2.1112906702234673,3.683665764027174,1.8359125973910546,0.31547772114455497,-3.929074304422422,-0.38746227639293823,34.486297901430916,2.172338058958455,-1.7811195530667592,-0.019973904716554983,-0.03070116020190003]},{"bias_weight":-12.587188495466998,"weights":[1.7344930622805763,-2.435663515664823,-2.286635637333143,-2.6185591463426476,-1.969069265107186,-2.8810875024978406,-5.7752924668740455,-7.947194880584812,-5.897329101572584,-8.572537523375553,-5.718773125588036,-1.5144032434365746,-6.049504317769691,-6.38295097484677,-3.0195371633627683,-0.2887963924829332,2.220724963609729,0.8304675001291507,-2.9773488857367503,-2.2734933525958745,-6.052862223102529,2.4896547448574666,-0.11159915454711573,-5.538701209180875,-3.523716961909493,-3.7961448592529106,-5.081716343624694,-6.80956708217812,-7.169818751091656,-3.0858818635782965,-7.070226332775247,-10.796642323460425,-3.2574785061527254,-5.016587080119933,-2.3779394214569027,-3.9228699079018594,-2.450728216965455,3.3476687865788497,3.207353813323321,-0.5499822577263179,-0.6927673058830667,-2.7996172475526557,-12.164772606473845,-2.9253647739831607,-2.0933865932186957,2.375776445167448,6.2232822492448046,9.141807313955814,3.318042933176801,3.5156501783811906,-3.3068597548378675,8.659481088759932,16.101786162073303,-2.0189844762044937,-4.893073258249161,-8.284875639710307,-0.7398571458703634,0.15208099105345693,-9.701097152846707,-10.05963443841859,-3.798699675491144,-10.78525826009119,-8.241261355515304,3.533668393115788,-1.0571861362704413,4.614151401741041,5.635772830320895,7.6612885996194,13.941379143789792,6.0973699765900315,-1.7407094109524768,-7.289872274524681,-1.0867742676130179,12.549084684196497,-0.15580856949694602,-3.7431389497886105,-15.893486865302403,-5.989965358419257,-3.865800534375887,-11.525699055328609,-7.809807648081141,2.9412061172866166,-6.495094806927795,-8.23332924773464,-1.0207489120021693,29.68221793917858,12.847410537427944,-12.593708016470714,-0.9208401623421868,-3.9909665074019363,-0.019973904716554983,-0.03070116020190003]},{"bias_weight":4.760849362222135,"weights":[-2.063086319801536,-1.9231910252228783,-5.18354003896713,-2.9210870121331918,-2.5248612342468326,-1.0155703592648657,-3.9049197924124055,-0.46922702827849405,2.412132008004661,3.432427368875201,0.9748774434508051,-2.0646403036833036,0.7836267248970167,0.7087617587612162,-2.2785820761400957,-3.648716270195988,-2.4993535946931296,-2.0345158006822808,-1.5364349997257565,-1.8751807654203536,-1.6429917944135346,-0.2069515170396763,0.08746190795237394,-4.305375870935431,-3.101510713514913,-3.9282099258232934,-2.585202696911593,-3.6881494766775114,-0.49111336152155005,2.7177040902173206,2.7878767159400204,0.3391107148843798,-1.3691729530380572,0.4575719444491496,0.12122936451734151,-1.724212422354066,-3.095656741685598,-2.6010275146216424,-2.3986634365374973,-1.4231796776474879,-3.534414822600464,-1.685867810257065,-3.9300310554692874,-4.893033841493942,-1.6877191271233951,0.952418896658841,1.6226471200083958,-1.7523803706397167,3.7551187552186285,-2.066422668220232,2.227185099784588,0.31287354273694473,0.4679489818041969,-10.7614521281689,-8.490787366985563,-8.632002631976851,-1.8591247342655008,0.3194431449839196,-3.173569620591913,1.724094930999879,2.086886498410025,-0.7484932218047227,-1.3982074226413066,-2.832561359940225,-1.146962041320786,2.0614794596470474,1.2356471230098627,2.59297151984821,-1.4224828094072168,5.599631532577479,-2.6012886047355748,0.7835714296320181,0.2350557600743668,3.7761889822422225,-4.271392201231607,-1.282216007820975,-4.620494590014421,4.615680113867918,-0.7316045055745051,-4.445008681183748,-0.168395211906001,-1.309770638847653,-0.907949981286595,-4.684993828168948,-0.32266085833321045,-4.932571077987704,-9.270606165214815,4.75432984306625,0.6951330464919195,-1.6506128900364196,-0.019973904716554983,-0.03070116020190003]},{"bias_weight":48.926210870563054,"weights":[0.4410189911440117,0.1547000734274613,0.521756220735711,0.40598999336949787,0.17932023821031448,-0.40395486086783494,-1.8408185510858355,-2.3063101551234255,-1.820238984519819,-0.6859327870120345,-0.7323818735324745,-2.543601260259972,-3.9430245962429176,-2.5261169305592013,-1.3660629710008994,-0.5207447439948063,0.32699951708850755,-0.051406747704223495,0.13506413155608,-0.4845338727744844,-0.14780505755997916,1.8992111446507969,1.3950762064295643,1.669031762772897,0.9578987499631917,1.3802931448394171,0.5407262891600727,-0.023096676752847885,0.07891581044269605,0.34409602957731034,0.6189168379455735,1.657657268458669,1.3723410321120175,0.4406055737911918,-0.49687954735516304,0.563504957770973,1.2871473390468546,1.356583343312098,0.7809740465145746,0.3828851064278036,0.08698928346294657,0.1072398855047079,-2.1736004357344716,-2.3282305972394237,-0.4839123968041909,-1.1951244179653835,1.2313434357343112,1.9826102186784191,2.486595968729856,6.222751261072635,6.4304378741740456,5.38086967661763,5.476240726442875,0.6006605031640436,3.859129606847251,0.37067423615295303,-2.7574815248871496,3.938929135807528,2.3694515610567604,2.021501524424924,1.1688638814542447,0.7872243838611126,2.9341471156826198,0.8185172284078784,2.985025575941523,3.2207278963373898,3.434633244977638,0.566384606575337,-0.2501192048967429,2.8606276342533716,3.9653394384280003,3.4800335559203224,1.0808486210980548,1.4170949601368434,1.648591329759832,5.2623873838075665,0.34261098758036984,0.32856312309359736,3.520371513242405,3.493741106473172,3.647460094704916,4.970346216356949,3.2633219646471248,3.065706393741776,1.3069990143122288,-3.083209893059352,-0.6447561074158373,48.91969135077131,2.393635309733524,0.8480162974567047,-0.019973904716554983,-0.03070116020190003]},{"bias_weight":29.45054515416471,"weights":[1.1524869177468737,0.47844595177203336,-0.060258729665685136,-0.5834461561979138,-0.4032769354992286,0.35943918617028736,-0.5717121100033916,-1.7707864109282825,-2.682744037089117,-2.8264436195019558,-1.7678854833438913,-1.4019299805518701,-0.32034969476601344,0.3100383745958425,2.686785217648827,2.4748801953852375,2.046649905054225,3.780005001571669,3.763573383090987,3.3575072290864596,2.365504884500805,-0.33698149674329847,0.6035306814324738,0.3517454859010171,-0.4439238549658377,0.12475087019468284,-0.5899149492785885,-0.806141990501682,-2.409629075982741,-2.2476657622245857,-1.7878987545719107,0.4874962540091425,1.4208677183665224,1.5789452557518155,1.802672929170639,2.2198340580584484,1.238803413774941,1.4103073322426707,0.12335226052009407,1.3024973715377588,0.7583947202622837,0.08190214698289498,-1.8873586357513932,-0.0028699558712922063,2.0655631450606466,4.175016367457936,-0.42766328616149535,4.057215002498074,5.437472164111421,7.814787336023255,4.254439051893126,5.21026838038347,6.1511147424664125,4.71714272090003,-1.2507556176940484,0.33742838770648276,0.281231598724806,0.9987715095409117,-3.332446708744164,-8.209834796968508,-7.206207230501765,-7.51709929509332,-6.722449163697437,0.8150245146030662,3.1183309108834116,6.846432992489271,8.835144077391272,2.7757207829777824,0.8452056466958721,6.051401189512342,6.1184631947160755,3.468793251441132,7.931520933432038,6.504946088512318,5.023297225702913,4.446654070203763,-0.9731418932826575,1.3266775639439419,3.285634765621016,1.546263951727982,1.7982952040394398,-2.749918533956627,-5.155451610444867,-7.551105842027601,-1.9706872721776187,4.5777359476341,0.6668823136964712,29.44402561530806,2.5750175924711356,10.561516971431248,-0.019973904716554983,-0.03070116020190003]},{"bias_weight":4.172079306151484,"weights":[-1.6939893743575465,-5.379420587600819,-4.941824337784053,-3.3772791352258884,-2.2377103854751264,-2.008248120895423,-2.3516553533804294,0.2570150368609625,3.0701741037629033,0.9027115375811475,0.09210419466168016,-0.6513473828619285,-0.10972442651632919,-0.15084975546147625,-2.043644373620513,0.3337285171417231,-0.9248634363333735,0.053775228528112555,-1.5589869447304827,-2.4728299656210075,-4.495865458036806,-0.8987300377518341,-4.226612971256178,-5.958038317280668,-3.3708213448675854,-2.8121859856685125,-1.040482953588707,-1.2185780857174917,-0.3378837964231568,2.1580376605748444,0.2001067831586862,-0.17347478149707657,-0.8750212896802625,0.06728071747039203,0.03574461215527185,-1.8148709741556566,0.2705095898011584,-0.37731167947930316,-1.125573951558848,-2.603257405656553,-4.4196040356984225,-6.135434308585359,-1.2942844143866248,-0.7188840239906855,-0.09432608195966073,1.1056518027709326,4.822682564134579,9.14399476266227,12.118811503763041,13.07971338115549,6.010467404570971,8.759501512843196,1.3594307743743383,-7.887683047521739,-8.946245449704032,-2.810030649371133,-0.6633282408707417,6.569215975093858,2.2307467507178496,2.559201595111766,-5.146394645034646,-7.4031127643253045,-7.39072000378335,5.669153317980432,-0.04159701316373457,2.983309274486436,1.0861599769266077,6.185147160845361,5.648141960247376,11.243629516450785,11.99002406558879,7.3760990542090745,7.251819188298164,4.758834637355274,-5.320047356929166,-4.747961474260048,-3.529116542462843,1.9003988728580545,1.774646944232088,2.0642429693307953,2.2386502193600535,-1.798235256486903,-6.260395468187995,-5.863913132505378,-0.33133256201953937,2.4022412556497925,-1.08057190939553,4.165559758823734,6.054364413947944,-0.5488163490509829,-0.019973904716554983,-0.03070116020190003]},{"bias_weight":18.414887142162545,"weights":[-0.26604674953968643,-0.5755609380557863,-2.09647695772767,0.29405776719105114,-0.582320780188021,1.4133764630249361,-0.7798069939587995,0.15050844470914732,-0.4621704807451891,-2.567566669867787,-3.132647232852087,-2.3429740023749632,-0.6198635238477406,-1.1185957489778897,-0.9857792183666223,0.6980991129005502,0.44868659217072693,0.16963844123168445,-0.8504845306677045,-1.2592049053710048,-2.3330205180387216,-2.8399537184254946,-0.9588418546211547,-4.6398640968525955,-3.6407196836578617,-1.672564713398566,-0.5054211920665098,-0.6159084401178008,0.8868812159152215,0.20422749788558567,-1.8866355456198016,-2.694550415432088,-2.260942785499741,-1.4616716662038913,-2.220485725194365,-1.5643556535844674,-1.1228897949293808,1.2717692600833215,-1.3539005807731235,-0.6011053894618777,-1.066367639198897,-3.1003230225909113,-2.5364783384353027,-2.896254305793157,2.7680881388652105,4.030809694532701,5.144102909262877,8.722072749819223,10.978833270275887,4.279227540280388,7.005727685596704,3.210796088031591,-1.8305014574281642,-2.8788002111676168,-13.533313315516224,-2.9602836980501186,-2.8529158756654533,-0.3769916408821476,4.109299130119842,3.7560760955480443,-0.4158238786488903,-0.8562026515044123,-3.147954037676807,-3.264838060664127,-2.2914795723740053,5.720211181783969,8.536656236394508,6.075349776375504,5.281500749702019,8.141445766617935,1.8812948745111202,-0.884944562587737,3.1289063648303577,-1.8461166566739522,-1.9400312961747965,-5.429630926182883,-2.2447900095930455,3.127811562161968,5.843344714703362,8.32987329968487,10.645728762600989,7.26280754708765,3.55828227092388,2.2072206531812846,0.5513542683695905,8.363344992869171,1.871690477585941,18.40836758693792,1.8841896595895296,-8.341596579687065,-0.019973904716554983,-0.03070116020190003]},{"bias_weight":7.409272721026538,"weights":[-0.19539744329051126,-0.13473469830972312,0.454467720688931,-2.5760630288579893,-5.013685627309755,-4.18103007701616,-0.6630030147059576,3.772131516370952,6.22522984495707,-1.2926346746977257,-6.995101518878847,-6.809775742698866,-3.834091711247373,-1.6415225693153999,-1.6502017677505925,-0.8397067244420953,0.9797373922954057,-1.062749198619699,0.23125218209411832,0.03334992733085877,0.8291605361666087,-4.4074194712223065,-1.2835645258120691,-1.3524068157256954,-2.529771987007575,-6.041163913250532,-4.845404876735025,-1.1884770209519602,2.1517642851534426,8.916695875424336,5.10906926146398,-2.9207682545467613,-5.2294271968203505,-3.8474548064181406,-1.4371945172173055,-1.8735851939957522,0.7288700784065584,1.3292706015106814,-0.9277738967379411,2.13221587935444,0.4868953510780584,0.6018913874780017,2.7468004179204466,4.191363875402523,-0.6523191469099937,0.6520500835732138,-3.024270863732983,-10.369223856329214,-13.99783943473558,-10.947027198097643,-6.5190452769539675,-9.323165845390665,-2.4829226866201135,2.250770863649646,-6.945889086802232,-3.0588833062175365,-4.338760558145332,-7.871287219388614,-1.2067126001390005,-3.1478633214452985,-0.9345833933970531,1.1407439181360535,-1.8907086256994892,-3.1352756110821445,-0.4522617664610974,-8.474815895031561,-7.838815595907213,-4.408462476933062,-4.6797505749025055,-14.585533621732303,-9.64368508134934,-8.328447696336733,-10.524376900542608,-9.350838074948632,-7.909126253630159,-14.643852191834782,-9.454227483766614,-6.309618835177493,-8.787339515045236,-0.28409924079122,-1.356890838814798,0.6169735255107803,0.22106238748461376,1.4641053708555838,0.08573368508922874,2.3063254558234427,2.397916187171354,7.402753267486362,0.4143296397374227,-2.7002091015021583,-0.019973904716554983,-0.03070116020190003]},{"bias_weight":-56.42422801758455,"weights":[0.08713501148743429,-0.000057886105944100004,1.9430730758698855,0.3870910943879013,-0.06687640310538963,-0.6482471291757359,0.2408502569418247,1.6277027423067392,1.717183744256924,-1.2972228136655917,-2.659868405779225,-2.6604764893046164,-0.940704320095443,-0.21724830260996966,2.1196853365881334,1.838285430354114,0.7420388475376297,0.7887791157178701,0.6880555133200369,-1.0920497152975528,-0.23722699122796312,3.5469851076479095,2.843782464633132,2.4159714384739055,1.6130420383466073,1.5110135729441954,2.1845124116586483,2.226200293601206,0.1504023210808196,-1.87623828189931,-4.40490569653985,-7.7850270523312055,-5.575946074710321,-2.9435922195269044,-1.8861990849792614,-0.46230642705035047,0.6168274361872894,-0.4632414992431987,-0.26906040925253444,0.8110479363413422,-0.2794258906957403,-0.5737682058339971,-7.413186900002359,-11.113532211920408,-6.274341134400888,-10.385660891429817,-9.518698360696153,-14.66596516602633,-9.160533900839571,-8.51218866421565,-1.144736706736127,-1.774416949443624,2.496707329285576,4.161747799587441,12.639006160138434,4.875507116143897,5.674231201626224,6.394200947056691,4.1223362143882465,0.6908197889328114,5.358027883217441,4.873511146505447,-3.3051592409112422,-7.248506610092075,-8.237328620918866,-6.022797913392725,-7.359138915998936,-3.3922670481461337,-6.4253746130224725,-6.222661365981171,-7.360292455073048,1.7621353418734904,-1.449774260473106,-0.7192724130706266,-1.7520502386300085,0.8761458230298527,1.700154474708642,0.46954393483352264,1.963307581223508,3.374474161176653,-2.3395425249326727,4.2741189866821045,5.882694357036763,1.940782704814332,-0.5225758248361122,-0.7183855358614879,2.2380147619696227,-56.43074747708356,-22.37825635619709,-0.8229910328642535,-0.019973904716554983,-0.03070116020190003]},{"bias_weight":-30.888261396574098,"weights":[1.9137012052353763,1.603656637325307,2.7722752533363697,0.8874743941772502,1.6596201076775545,1.1145988903093138,1.789497926766977,-0.902415799285489,-2.6756323236284385,-3.535642154667665,2.1290773635106293,4.5912080024714275,7.844560151237122,4.112077353691606,2.642102684951689,-0.5288932847660143,-0.09151405980533554,1.2292210017937077,0.7016401689162642,-0.7591157888946743,-0.8075355244281204,1.0441857163682084,0.43023078427253636,0.9868100102554628,0.13121028730126488,1.7692160924592637,1.9350706684883812,2.3192354670681095,0.5009736098865087,-1.6755822601160717,-3.8977905264430674,2.005714821806828,6.351863763316421,7.453264981152659,3.375888409408687,-0.7501109663285009,-1.4077377169444152,-2.21551012000576,-1.4309047101198338,-1.229182383494325,0.6088872594951298,0.8288580690004468,5.439303047775244,3.0225474314907386,4.976420633536213,3.655989751525074,6.450980351874209,-2.0752689827185096,0.562066277387496,-3.076222541928182,-2.9256483948633094,-8.057463794497579,-14.29102973683155,-16.23942677860417,-15.434095125859226,-15.005694766900138,-14.546466016270617,-11.96523736626104,-16.39292523889152,-20.866354938715762,-14.509243605173976,-15.33680130084403,-17.854781272617092,0.12774726578684412,-1.4336666614253644,0.1858697764692114,-0.10010969531276283,4.031871852308224,-1.8233877533971516,-2.91750370851583,-6.506980347640982,-0.6672802087187044,-7.402900844311223,-14.060800786634486,-16.13488660310572,-17.745383425532193,-12.599652174432654,-14.70335905867477,-19.994228986963265,-19.06489539227767,-21.85004073796778,-14.781700998297568,-16.779249474611102,-18.186011312425805,2.230051190502972,3.681392354211218,2.7191230861906655,-30.89478084938647,-13.054976351320205,1.7086980476333922,-0.019973904716554983,-0.03070116020190003]},{"bias_weight":-27.556804978154922,"weights":[2.728423266161756,-2.3137770408534757,-2.1361582799320256,-2.5929020347033127,-2.518832761574978,-1.8839803661870846,-1.8847866704141896,-0.3698296192241428,-0.011619454994618797,-0.6417725857908457,2.639575467103231,2.781817334272758,1.2260615958252687,-0.3280290268787696,-3.07037228287082,-2.258243376284707,-3.250240893575291,-4.691816712646215,-3.355738028277051,-1.3795029895041198,-0.5493490333800234,5.235153655657788,-0.010438131904322247,-1.1619638007971553,-0.7637142342878627,-1.8179237407199396,-2.5674749607576857,-2.5451274544742284,1.5098655101393805,0.7684310960093461,0.3194590732734191,2.5911752624879743,3.196516984361478,1.6868875706063087,-1.5126674199882457,-3.0480178975307584,1.4375604351606626,-0.09060669519939818,0.6182676199537589,0.530832155102841,-1.1076973722358927,1.545696938641734,8.821152279018559,-0.9596187809774297,3.670447712965489,-1.2891374864242602,-3.907966791083728,-4.221872533044264,-3.063090997021605,-14.441775340517186,-9.094629800908017,-9.726525935418737,-8.72111220373961,-16.991968081298317,-12.68478283638586,-6.5373303550846025,2.854560186306755,13.575403611456975,11.511665445737007,11.495932699257109,2.9697738059754633,0.9662308804940437,-10.308825000765248,8.408610577039362,2.6886151324863894,11.860058932962975,7.557043705213967,-1.186255595586896,-0.8636475792514386,1.7760776650267291,-8.712857679381226,-1.467323142628038,-9.85448840368076,-4.2124129172387494,-15.788754334132006,-8.603686947858963,-2.626844381571008,-2.974236630840572,3.153093584716927,5.790922564207487,7.170389081960251,8.048267298327636,7.318828601584167,-4.80056081435081,0.21554833151474462,11.57310983211631,7.407491547267391,-27.5633244154918,2.923091837475003,-10.955337147298316,-0.019973904716554983,-0.03070116020190003]},{"bias_weight":-4.491005466099245,"weights":[2.0939851721230798,2.24656343628663,1.9341361451535428,1.663192004837517,1.0353593650523365,1.353939748419394,1.2059335924759624,1.0106805764047808,0.18986721932127987,5.145667820765102,6.001618965540703,5.1427693121869,5.258667069287337,3.9584751160692484,-1.4124822118071734,-4.561382178816009,-5.389858563395126,-2.5513702415995994,-1.8300297712766074,-0.7543838655718899,-0.7157051675451104,1.4301903921169896,1.9457253903556142,-0.006151100974679027,0.33885722203473845,0.019309166184763873,-1.1108749988635924,-0.8304706898088319,-0.7160604008310716,-1.0881490237037075,3.1135051004472496,2.252123118844159,1.7957513132499974,1.8750891300187063,0.5794651577510912,-2.8455285571913684,-4.666933349576519,-5.584308343833252,-2.3973932562538973,-1.5561365996680498,0.5055046612239029,-0.7102069382242208,-7.2774562091903325,-6.4400013330130745,-6.0425816492756805,-0.15758943967826933,2.848389771737103,1.4540299328841906,6.471015449593293,4.069603856339932,0.051006352127669206,6.728958848774759,6.600668674745875,6.7181214651829455,-5.494674345333521,-0.7207956331186127,3.0229192982729765,2.838276488291331,6.289969967547743,5.819811492704205,2.3596276595018892,1.491461564166592,4.244617724384164,-6.007837644644305,-3.7274441662678752,-2.8851552861064476,2.0096736090926015,-2.0705361855789977,1.255655040817844,0.5679104733144331,0.49649722144046315,-2.6164726796652724,2.327272809077698,8.074130486052354,12.45997219652534,3.668158394605633,2.85114681236432,7.547736171774889,3.4571705275680773,3.7013502848097053,2.27755503493544,-0.5932637034650113,-4.558851288501487,-4.279800410717152,2.0470051545491272,1.619914358737309,1.0675563971751338,-4.49752498476634,-1.5250364300567243,5.339220318105585,-0.019973904716554983,-0.03070116020190003]},{"bias_weight":-13.463281598517119,"weights":[1.2105542411616024,0.13090710853570706,-0.8843853230506828,-0.9925102593695295,1.81142095108337,-0.49015109204771673,-0.26390439791372033,-0.6477680267198842,1.776560197603519,-0.9565199871636582,-0.8113328372556544,-3.4280623477464935,-1.1276570265041943,-1.9074850052278203,-0.7919225746824613,1.197023396660008,4.747341742510626,7.401406380772549,6.660688227367468,7.851896972872437,5.9916633359697204,1.7521334079631103,0.9880778213146968,-1.0026261857349472,0.570989166246656,1.3020795640119334,-0.9500998023636393,-0.63732163438072,-1.1167717466320992,1.0714457765667524,-1.6604936333098856,-0.9174771489401354,1.1234135714582405,1.125472869499785,-0.38587047269471725,-2.077032611150872,0.56641798477086,1.4744205738913103,2.7570639591231783,2.6505090912374767,4.780830731093974,6.564570828205844,0.9515204159206191,-4.051719565394571,-2.507399925979061,-3.491340697442366,-1.1806113929161417,-11.205045231246235,-12.34448293646599,-11.677642316299783,-4.575776478202743,-10.674495416036734,-7.424506902705563,-19.10107960471966,-4.111049466153488,-5.178613376786839,-5.796005341940529,4.846245696703633,-7.3556653463792605,-4.9480001848608035,-0.1636729155475124,-6.769845669738713,-13.56319845344799,4.64463614949334,2.80641533378498,1.3343775680774295,-6.502402598480885,-2.007888411998184,-2.6879704953851022,-7.431995378334219,-7.726447273294916,0.05458347844856107,-21.299878025610777,-13.01954113323112,-21.73992244998859,-13.468941089351214,-9.599961747735616,-0.1293954297534737,-5.838222652571067,-17.397476635322267,-14.280719927841524,-8.984505959831957,-6.7762425641851,-16.12015601161996,-0.7965327106261293,11.81838074415263,-2.7648802620763777,-13.469801039234797,0.5063483862673386,8.504212451901628,-0.019973904716554983,-0.03070116020190003]},{"bias_weight":-21.392591181677812,"weights":[-0.27005429523336144,2.244622140680109,2.123155802415415,2.794875756333604,1.5476153943244633,2.5375862390713926,2.78003149626061,0.24492631164046205,-0.9004817856648242,-1.0238606203678344,-0.4591828308945862,-0.0940753047720851,0.7104965556426927,-0.006618195540521987,-3.352563927939106,-1.7302922067430677,-0.7039979072490729,-2.760348600875484,-2.1517066681906427,-0.4466348635362627,1.9476877311199179,1.3806996658289663,1.6705816038423007,-1.8282139767424286,0.5419437542884935,0.05049307129678989,0.2615880654254284,0.5234283336826496,-0.8122710993296094,-1.6222621661492713,-1.2552126655790339,-0.28042791271536366,-3.369595481201673,-2.140136913605637,-2.384418211498373,-3.65404937911918,0.6276881177715619,1.8810690399624919,-3.6548477499387473,-0.34135636900692684,0.5613629293753802,1.1070080411214258,-18.301357065023222,-15.018670918742442,-21.373377503257423,-16.63049301666247,-10.643980823273186,-13.805982693559338,5.466877177749774,12.021148018646267,-5.43923514337349,1.2075346848927753,-3.3404785524319083,9.619430770077834,-14.184017664729245,-0.19491378583197205,-2.373020871002781,-1.0692634097131064,10.781762393751125,9.965138938571657,3.315100482441461,4.669008830577471,5.547911892165278,-11.160252407566352,-13.79356898177169,-14.309908361213791,-20.06761648167913,-8.119940503928506,-14.691995216603756,-5.806660968411928,-0.0160009613706823,-8.571978997151126,-3.972045085818723,0.7169486441955105,14.067649218779344,-6.1709607591557365,-0.5535708711299591,-2.7645954004347346,-4.8643496617138675,15.23243974438626,10.341699468464197,1.0035403874292246,-9.646218121158949,-5.465799129141828,-0.14778966742543553,11.368928857145969,7.759445873808448,-21.399110603615643,-8.294265844406747,2.3279599243476574,-0.019973904716554983,-0.03070116020190003]},{"bias_weight":16.28831580370126,"weights":[-2.087865897017653,-3.074578694952385,-5.097199713803654,-5.952887235253912,-5.647618337446336,-3.9920906298746,-4.786473838947541,-4.129319993519785,0.3349885992300777,-1.3687941177085017,-1.5883870687104227,-0.09191684740152244,2.278169238037545,0.28413007517814803,-0.853886345840453,-0.4579684095885787,-0.7305781968876982,-1.8344615817204808,-3.6545958560077105,-5.2343106492432945,-4.852201725546133,-0.8034073081284214,-1.3376499445271823,-5.700784159136209,-6.329435263486646,-5.014415956630427,-3.313875410358381,-4.186027997132242,-1.659432918972314,1.1686933489000297,-0.944429086330041,-1.2349180460704092,0.587540632609481,3.8602953749312086,1.8160207058526336,0.055795871085737886,0.2915511916895145,1.7449571642059258,-0.789915724843698,-3.5143174950002445,-5.030322577263839,-4.2926089093330635,-4.307977880240698,-3.741810969731512,-2.447454120913226,-2.0451658277340243,-2.192513490760051,1.1785482745520357,2.493372745385925,0.19758748994536973,-3.4448564648107234,0.17778410619846086,-3.759930719953437,-8.057581055334374,-7.987646228665356,-4.704707637605654,-4.340102581931636,-5.385232733702318,-3.947019924419797,0.23528526082525247,-3.4156122847240353,-0.01128550921815341,0.7343842333327623,-1.3209126942375338,-0.7554229960601981,2.1472592154624515,0.9642449398671502,-1.441344176541834,0.7387911647952877,5.518434328322108,1.9584816780098335,-1.6664016213109005,2.1596878159682413,1.723421669504472,-1.4611263689163265,0.9612496508342293,-0.9166602938524006,1.7693547383872819,0.7314478896056538,0.8213727588263232,3.8939222727726204,1.5511387139383124,5.107145128951294,3.8472237680390298,-0.056021146222864485,7.518957930223577,-0.6263371079807999,16.281796256442597,4.6672954307296965,0.15209272268906593,-0.019973904716554983,-0.03070116020190003]},{"bias_weight":12.444730064866604,"weights":[-9.82782426074376,-8.40725398228553,-4.744375042819353,-2.7395311470178623,0.7952046795237151,3.359474274650259,